Layer: av/fc_1/kernel,"Shape: (79, 128)",,,,,,,,,,,,,,,,,,,,,,,,,,,,,,,,,,,,,,,,,,,,,,,,,,,,,,,,,,,,,,,,,,,,,,,,,,,,,,,,,,,,,,,,,,,,,,,,,,,,,,,,,,,,,,,,,,,,,,,,,,,,,,
-0.3112393915653229,0.12656578421592712,-0.16761289536952972,0.01039764005690813,0.16374066472053528,0.14886242151260376,0.3430800437927246,-0.13044868409633636,0.041842758655548096,0.041302189230918884,0.0461605004966259,0.10011806339025497,0.1384870409965515,-0.044275227934122086,-0.0279046893119812,0.22212184965610504,0.166439488530159,0.16294726729393005,0.05609045922756195,0.06960451602935791,0.04503786936402321,0.08068545907735825,-0.13258112967014313,0.22262531518936157,-0.052013956010341644,-0.055405087769031525,-0.10475997626781464,-0.4414699673652649,0.12072096019983292,-0.043003931641578674,0.3248835802078247,-0.22430603206157684,-0.07099968194961548,0.07827542722225189,-0.041830237954854965,-0.08350470662117004,-0.004846065305173397,-0.02742931619286537,0.04283776879310608,0.13970693945884705,-0.11159177124500275,0.15719473361968994,0.10830989480018616,0.0783795416355133,0.16457483172416687,0.03128618374466896,0.012911511585116386,-0.011206937953829765,-0.030227558687329292,0.23453518748283386,0.08991577476263046,0.19234712421894073,-0.20546631515026093,0.14309997856616974,-0.41039299964904785,0.07698234915733337,0.18665172159671783,-0.24501772224903107,0.18376342952251434,0.057404011487960815,-0.0862102210521698,0.4779597222805023,-0.062396176159381866,0.04263610392808914,-0.01150959637016058,-0.05264727398753166,-0.03071981854736805,0.04349633678793907,-0.09539081901311874,-0.10485430806875229,-0.236617773771286,0.02232777327299118,0.04280224069952965,0.4184451103210449,-0.05252673104405403,-0.08333936333656311,0.02124035730957985,-0.10526525229215622,-0.09297233074903488,0.05570961907505989,-0.05209420993924141,-0.07778528332710266,-0.023531468585133553,0.0722288265824318,-0.2684289515018463,0.05996186286211014,0.09123261272907257,-0.5172907710075378,-0.040363192558288574,0.06855127215385437,-0.11987200379371643,0.16690915822982788,-0.22188179194927216,-0.10475464910268784,0.07469956576824188,0.25848037004470825,0.10907454788684845,-0.1815929412841797,0.06283849477767944,0.15317846834659576,-0.03899521380662918,0.25539079308509827,0.13587957620620728,0.06909105181694031,0.08127310872077942,-0.1280052214860916,0.00277286721393466,0.005215219222009182,-0.16301323473453522,-0.12234823405742645,-0.0007374557317234576,-0.119172602891922,0.030564814805984497,0.12277333438396454,-0.06578557193279266,-0.1972227394580841,0.22014084458351135,0.02411479875445366,0.11226578056812286,-0.08151464909315109,-0.16298522055149078,0.02778579294681549,-0.10932735353708267,0.03941962122917175,-0.035110294818878174,0.13774168491363525,0.10327333956956863,0.15431739389896393
-0.06535367667675018,-0.5896446108818054,0.2113710641860962,-0.19652824103832245,-0.44302064180374146,-0.03657813370227814,-0.03006698377430439,-0.003508165944367647,-0.013399320654571056,-0.3054654598236084,-0.07461943477392197,0.06320704519748688,-0.09541113674640656,0.30819857120513916,0.09670655429363251,-0.021545348688960075,0.1958705186843872,0.14057248830795288,0.09305441379547119,-0.14743566513061523,-0.1824895590543747,0.13542990386486053,0.09764977544546127,0.19881536066532135,0.005101937800645828,-0.19146619737148285,0.07798897475004196,-0.5126373767852783,-0.12638866901397705,-0.567543089389801,-0.17853976786136627,0.039014965295791626,0.0660809874534607,0.10324987769126892,-0.0005388743011280894,0.08366911858320236,0.15376538038253784,-0.05349118635058403,-0.4096481502056122,-0.1903039664030075,-0.03998686000704765,0.0818060040473938,-0.23697826266288757,-0.18463276326656342,-0.012217634357511997,-0.0251481793820858,-0.3575670123100281,-0.3550660312175751,0.09859037399291992,-0.027660205960273743,0.05713267624378204,0.04495330527424812,0.07804471254348755,0.09489109367132187,-0.06029898300766945,0.09385421872138977,-0.15276233851909637,0.16873754560947418,-0.4955768883228302,0.09464454650878906,0.05734653025865555,-0.044887762516736984,-0.061749763786792755,-0.028232261538505554,0.020428422838449478,0.024945059791207314,-0.1252748668193817,-0.2814190983772278,0.35837751626968384,0.03207656368613243,-0.03052939847111702,-0.12061334401369095,-0.18708977103233337,0.025964761152863503,0.30660688877105713,0.2827281057834625,0.03825511410832405,0.13447679579257965,-0.0009326936560682952,-0.07651937007904053,0.009352223016321659,-0.08314769715070724,-0.5739229917526245,-0.03040890581905842,0.0317833311855793,-0.02060007117688656,0.10634582489728928,0.008055143989622593,-0.1736515760421753,-0.0750899612903595,0.2671176493167877,0.09663858264684677,-0.1374962031841278,-0.06739834696054459,-0.15498214960098267,-0.33761489391326904,-0.17945019900798798,0.08461040258407593,-0.14009883999824524,-0.028845516964793205,0.1257075071334839,0.10450200736522675,-0.10479114204645157,-0.24105148017406464,0.06757345795631409,-0.040085501968860626,0.0589413046836853,0.31859129667282104,-0.10841339081525803,0.13274869322776794,-0.12727825343608856,0.10784801095724106,-0.3143490254878998,-0.11027947068214417,0.24668622016906738,-0.05272504314780235,-0.22269123792648315,0.3551638424396515,0.19831408560276031,0.08983868360519409,-0.3906766176223755,-0.12845733761787415,0.12007583677768707,-0.14420850574970245,-0.049420516937971115,0.11555774509906769,-0.10276922583580017,0.13964906334877014
-0.27551987767219543,-0.3208968937397003,0.06325211375951767,0.07038793712854385,0.16327771544456482,0.02877531386911869,-0.18138332664966583,0.18778929114341736,0.028677791357040405,0.11713191121816635,-0.02348770759999752,-0.3336034119129181,-0.0278985146433115,0.1339557021856308,-0.08670984953641891,0.2618917226791382,-0.4301469326019287,-0.07654422521591187,-0.30584412813186646,0.03149024397134781,0.16969650983810425,-0.17795856297016144,0.18427065014839172,-0.27599331736564636,-0.04513350874185562,0.09598308056592941,0.07601431757211685,0.22911977767944336,-0.06449709832668304,0.20444878935813904,0.22608576714992523,-0.20705054700374603,-0.2716047763824463,0.14359241724014282,0.27880796790122986,-0.08228345215320587,-0.11315453052520752,0.27009081840515137,-0.11527935415506363,-0.06971996277570724,-0.0426519438624382,0.10074209421873093,-0.017805952578783035,0.34531351923942566,-0.2604093551635742,-0.05811253935098648,0.01066041924059391,0.12148409336805344,-0.1614796370267868,0.028913499787449837,0.40089690685272217,0.1163855642080307,-0.24311377108097076,0.04835089296102524,0.07341156899929047,-0.006982987746596336,-0.02426804229617119,0.12319841235876083,-0.16558067500591278,0.10832870006561279,0.277856707572937,0.3737903833389282,-0.17751753330230713,0.2261548787355423,0.20328791439533234,0.13607044517993927,-0.05848648399114609,0.1683395504951477,0.31125345826148987,-0.006659782491624355,-0.188052698969841,-0.2543187141418457,-0.08592201769351959,-0.28988903760910034,-0.1904127299785614,0.3672437369823456,0.3608590364456177,0.08710088580846786,0.031880933791399,-0.2844723165035248,-0.19861169159412384,0.17732541263103485,-0.0036855388898402452,-0.006521190516650677,-0.028235333040356636,0.20264896750450134,-0.052333295345306396,0.21113647520542145,-0.0611821785569191,-0.29790613055229187,0.03390256315469742,0.2047519087791443,0.1348571926355362,-0.07545711100101471,-0.17161966860294342,0.09529589116573334,0.03756803646683693,0.22045835852622986,-0.0910639613866806,-0.23087526857852936,0.11478421837091446,-0.09016630798578262,0.0008280460024252534,0.17699755728244781,0.012714599259197712,0.02150033414363861,-0.1402810961008072,-0.10649149864912033,-0.13316969573497772,0.1494523286819458,-0.09214136749505997,0.1109151616692543,-0.38161712884902954,-0.265898197889328,0.03470428287982941,0.09649418294429779,0.016343550756573677,0.029753252863883972,0.41838204860687256,-0.04670148715376854,-0.18492792546749115,-0.051694128662347794,-0.1842624694108963,0.12662726640701294,-0.07853705435991287,0.007591324858367443,-0.1901530921459198,0.1170068234205246
-0.11595568805932999,-0.29813352227211,0.07972388714551926,0.034982677549123764,-0.4315982758998871,0.216779425740242,-0.13322465121746063,-0.03613238409161568,0.06219058111310005,-0.07240656018257141,-0.1526726633310318,0.03806920722126961,0.08904219418764114,0.10084037482738495,0.0634724423289299,-0.32501891255378723,-0.02417755126953125,0.17982061207294464,-0.11047444492578506,-0.10694603621959686,-0.04762288182973862,0.04502169415354729,0.10983595997095108,-0.3276139199733734,-0.21676813066005707,0.010570707730948925,-0.006906603462994099,-0.07369841635227203,-0.17557434737682343,-0.08415153622627258,-0.05804179236292839,0.08223225176334381,0.037111882120370865,0.13782808184623718,0.08699174225330353,0.11817698180675507,0.4077059030532837,0.023148460313677788,-0.2804047167301178,-0.1473221480846405,0.2452465444803238,-0.024882126599550247,-0.01725585013628006,-0.13750404119491577,0.20024040341377258,0.20785978436470032,-0.056445952504873276,-0.08054550737142563,0.08629009872674942,-0.1631166785955429,0.16638606786727905,-0.29050156474113464,0.08101414144039154,0.11255312711000443,0.15660466253757477,0.29730796813964844,-0.22801369428634644,0.02585662715137005,-0.07929570972919464,0.2080557495355606,-0.1398002952337265,0.021131137385964394,-0.07015504688024521,0.023323828354477882,-0.21444401144981384,0.002728572813794017,-0.06676848977804184,-0.13642479479312897,0.15703006088733673,0.15311674773693085,0.013530037365853786,-0.12354107946157455,-0.20258291065692902,-0.1490204781293869,0.15478314459323883,0.24347150325775146,0.07023625820875168,0.11536438018083572,-0.037218380719423294,0.1946391761302948,0.05996834859251976,-0.029762906953692436,-0.28416845202445984,-0.057220324873924255,0.15363100171089172,-0.1455150693655014,0.06938432157039642,0.07591760903596878,-0.08585546910762787,-0.12028106302022934,0.13106943666934967,0.23482763767242432,-0.10996561497449875,-0.016097787767648697,-0.08369167894124985,-0.07761704921722412,0.00497074332088232,0.33672475814819336,-0.20506641268730164,-0.23347404599189758,-0.07774026691913605,0.14091598987579346,-0.2212628424167633,-0.009709534235298634,-0.09000738710165024,-0.2995298504829407,-0.1772923469543457,-0.020148608833551407,0.3237378001213074,0.5965782403945923,-0.23461253941059113,0.22642822563648224,-0.41415899991989136,-0.3265262842178345,0.023625312373042107,-0.05051376670598984,-0.25874078273773193,0.08792021125555038,0.3545410931110382,0.05533202365040779,-0.44694194197654724,-0.013757097534835339,-0.44681599736213684,0.12052438408136368,0.20235875248908997,0.1457277238368988,0.043877921998500824,-0.13229304552078247
0.10018137842416763,0.12795251607894897,-0.1909087747335434,-0.02574962191283703,-0.08441812545061111,0.013128445483744144,-0.17416661977767944,0.2503277659416199,0.09642568975687027,-0.054375313222408295,-0.13534806668758392,-0.09662914276123047,-0.08079706877470016,0.04188786819577217,0.215596541762352,0.2829546630382538,-0.1519084870815277,0.32659608125686646,-0.0005013475893065333,-0.3254657983779907,-0.15186825394630432,-0.016704242676496506,0.21333569288253784,0.12530210614204407,0.2645137906074524,0.26086971163749695,0.09984300285577774,0.05741753801703453,-0.033714983612298965,0.10708896815776825,-0.11169863492250443,-0.2355870008468628,0.002422398654744029,0.2355835735797882,-0.07303895056247711,-0.07612139731645584,-0.046896789222955704,-0.07575411349534988,0.1296827644109726,0.10125266015529633,-0.22970223426818848,0.05347546935081482,-0.020709730684757233,0.25942036509513855,-0.1896110475063324,0.029011206701397896,-0.24179694056510925,-0.15155397355556488,-0.030262863263487816,0.09081065654754639,-0.10574804991483688,-0.004902683198451996,-0.11822812259197235,0.0631272941827774,0.14568264782428741,-0.19773967564105988,0.1225733682513237,0.05264032632112503,-0.026269761845469475,0.0556400865316391,0.10916677117347717,-0.22567978501319885,-0.10769695788621902,0.14569096267223358,-0.12746229767799377,0.19069083034992218,0.1464630514383316,0.17789766192436218,0.02691560797393322,-0.3888182044029236,0.017342127859592438,0.19618205726146698,-0.2253304272890091,0.08917667716741562,0.2246352583169937,0.05431625619530678,0.20158854126930237,-0.12694814801216125,-0.3155432641506195,0.014587272889912128,-0.05420679599046707,0.0949815884232521,0.1723250299692154,-0.2156924456357956,-0.19467231631278992,-0.1587536334991455,0.12969549000263214,-0.034018341451883316,-0.008214092813432217,0.0116604994982481,0.010595929808914661,0.26682189106941223,0.09210405498743057,-0.31412407755851746,0.10360827296972275,0.07285251468420029,-0.0528707280755043,0.24515323340892792,-0.06372304260730743,0.5537405014038086,0.07967974990606308,0.23110149800777435,0.3183229863643646,0.2200346142053604,0.0010918632615357637,-0.2983695864677429,-0.23046356439590454,0.039477117359638214,0.0926501452922821,-0.03897280991077423,-0.08316681534051895,0.07944467663764954,0.030606579035520554,-0.19336587190628052,0.060268547385931015,-0.09689807146787643,-0.1411840170621872,-0.03649507462978363,-0.1195298507809639,-0.15132765471935272,0.04377018287777901,0.055602263659238815,0.14508220553398132,-0.13405761122703552,0.02784387208521366,0.05953381210565567,0.05362403020262718,-0.06955931335687637
0.3274923861026764,0.3273856043815613,0.021715106442570686,0.4300767481327057,0.1892206221818924,-0.37328967452049255,0.003378123277798295,-0.2679592967033386,0.16480787098407745,0.5946874022483826,-0.0018449510680511594,-0.0387432835996151,-0.2852306663990021,-0.2878535985946655,0.17716962099075317,0.31043484807014465,-0.16893528401851654,-0.346567302942276,-0.06909753382205963,0.18280932307243347,0.5146650075912476,0.12262418121099472,-0.08966347575187683,0.16813327372074127,0.1390063464641571,-0.04820135235786438,-0.2241702526807785,0.185791015625,0.2632291316986084,0.4993664026260376,0.06169174239039421,-0.17064471542835236,0.029091032221913338,0.03255665674805641,0.23156367242336273,-0.09576600044965744,-0.56902676820755,0.4855846166610718,0.350198894739151,0.12802265584468842,-0.23448269069194794,0.04927331209182739,0.1313159167766571,0.06704964488744736,-0.3479923605918884,-0.4001286029815674,0.0395173542201519,0.35067903995513916,-0.5437385439872742,0.15960073471069336,-0.39128127694129944,0.3993380665779114,-0.23026926815509796,-0.4731585681438446,0.1445101797580719,0.5162268280982971,0.286678284406662,-0.14584921300411224,0.2921958267688751,-0.27246642112731934,0.06820835918188095,-0.2135309875011444,-0.25394207239151,0.1863245964050293,0.07459011673927307,-0.14525531232357025,0.2743406593799591,0.3777354061603546,0.164991095662117,-0.18448106944561005,-0.3811594247817993,0.306424081325531,0.23735950887203217,-0.43613722920417786,-0.5024284720420837,-0.2625712454319,0.05647730827331543,-0.2248956710100174,-0.3920307755470276,-0.2512780427932739,0.11422769725322723,0.19715525209903717,0.1958368420600891,0.180291548371315,-0.23885266482830048,0.6575679183006287,-0.005119402892887592,0.11181937158107758,0.20602643489837646,-0.05523126199841499,-0.45392683148384094,-0.4263467490673065,0.3703700304031372,0.18690627813339233,-0.08800916373729706,0.09829282760620117,0.0950864627957344,0.23843562602996826,0.3716532588005066,0.0240260548889637,0.14849424362182617,-0.6125978231430054,-0.4531072676181793,0.04640282690525055,-0.3829740583896637,0.3183406591415405,0.15085484087467194,0.14958663284778595,-0.2708839476108551,-0.48570892214775085,0.42605698108673096,-0.04547068476676941,0.3280864953994751,0.42494168877601624,-0.038562629371881485,0.13369964063167572,0.09085508435964584,-0.3026770055294037,-0.17791642248630524,-0.25277066230773926,0.42591142654418945,0.3375420868396759,0.06949739903211594,0.013052836060523987,-0.2802935540676117,-0.10055914521217346,-0.024501480162143707,0.17481447756290436
0.030813731253147125,-0.009733849205076694,-0.23038217425346375,-0.07080245763063431,0.09611204266548157,-0.2244379222393036,0.024686699733138084,-0.026888279244303703,-0.022822022438049316,0.09164979308843613,0.04560757428407669,0.17832894623279572,0.024317100644111633,0.09577521681785583,-0.2729879319667816,0.013536465354263783,0.21786978840827942,0.12016407400369644,-0.016107989475131035,-0.1298554390668869,-0.23307368159294128,-0.10429427772760391,-0.023947644978761673,0.03678450360894203,0.018516767770051956,0.011383271776139736,0.05549008399248123,-0.27055540680885315,0.08147858083248138,-0.14103591442108154,0.003986487630754709,-0.3387429118156433,0.1044057309627533,0.16554471850395203,0.22525055706501007,-0.3282972574234009,0.03909263014793396,-0.09357935190200806,-0.033356599509716034,-0.14671266078948975,-0.10561980307102203,-0.03809748589992523,-0.3160161077976227,0.23366345465183258,0.1153336614370346,0.22976291179656982,-0.1124926209449768,-0.11383095383644104,0.01988661289215088,-0.0119985556229949,0.0689680278301239,-0.030993163585662842,0.06948049366474152,0.14840449392795563,-0.2962179183959961,0.033184342086315155,-0.08831222355365753,0.037987954914569855,-0.11326771229505539,-0.14513908326625824,-0.045057378709316254,-0.3573850691318512,-0.14471231400966644,-0.004905495792627335,0.0036654372233897448,-0.1771923005580902,0.011125453747808933,-0.20658472180366516,-0.027199283242225647,-0.11655771732330322,-0.035384632647037506,-0.1193002462387085,-0.04448827728629112,0.10535960644483566,-0.026068761944770813,0.12104158103466034,0.01920323818922043,-0.4555171728134155,0.01678388938307762,-0.247685506939888,-0.05423475056886673,-0.06321698427200317,-0.3093820810317993,-0.09668584913015366,-0.19485333561897278,-0.2868655025959015,0.11868683248758316,0.06133235618472099,-0.06639670580625534,0.2854360044002533,0.0670720562338829,0.05199994519352913,0.15748649835586548,0.16308806836605072,0.1510026901960373,0.027180051431059837,0.2468547224998474,0.10329011082649231,-0.05495493486523628,0.37600770592689514,-0.009935607202351093,-0.209964320063591,0.11572229862213135,-0.011091086082160473,0.08521972596645355,0.16685211658477783,0.13727834820747375,-0.012914055958390236,-0.14664863049983978,0.12116070836782455,-0.06461676955223083,-0.23684673011302948,-0.05155637860298157,-0.07141651958227158,-0.009295616298913956,0.09110476076602936,-0.19551488757133484,0.12154734879732132,-0.12315576523542404,-0.1428416669368744,-0.05260719358921051,0.21762317419052124,0.0934506207704544,-0.13607901334762573,0.019867245107889175,0.3042137026786804,0.12999694049358368,-0.06906546652317047
0.2299388200044632,0.45628586411476135,-0.11020137369632721,0.2558625042438507,0.06183480843901634,-0.311333030462265,0.5947986245155334,-0.6120644211769104,0.30713897943496704,0.1859273612499237,-0.19098860025405884,0.3559134602546692,0.08319272845983505,-0.025109263136982918,-0.15261836349964142,-0.03051096200942993,0.09119835495948792,-0.3094167709350586,-0.1709420382976532,0.3660547733306885,-0.05327392742037773,0.012135237455368042,-0.35270819067955017,0.0757722482085228,-0.17727428674697876,-0.02033030427992344,0.10414814949035645,-0.15341004729270935,-0.06918869912624359,-0.14478157460689545,0.0881236270070076,0.10103365033864975,-0.10540234297513962,-0.015934888273477554,0.20780248939990997,-0.16251498460769653,-0.12529437243938446,0.14247120916843414,0.08258244395256042,-0.2057860940694809,0.18507690727710724,-0.16081811487674713,-0.14081963896751404,0.010190971195697784,-0.02864229865372181,-0.03902560845017433,-0.0639604702591896,-0.220845565199852,0.05339261144399643,0.034955549985170364,-0.48737362027168274,0.2743985950946808,0.3447359502315521,-0.07520471513271332,-0.3498484492301941,0.093714639544487,0.21648381650447845,-0.38900452852249146,-0.06852719187736511,-0.060174595564603806,-0.21102310717105865,0.018120327964425087,-0.16717010736465454,0.030518053099513054,-0.10161108523607254,-0.05573965981602669,-0.11218908429145813,0.06707943975925446,-0.028212837874889374,-0.11312619596719742,0.2522144615650177,-0.037769801914691925,0.3705468773841858,-0.2793271243572235,-0.2653781473636627,0.157649964094162,0.007467169780284166,-0.07658010721206665,0.11933330446481705,0.15217508375644684,0.1313810795545578,-0.15709881484508514,-0.1115618497133255,-0.11398933082818985,-0.445793479681015,0.069209523499012,0.1724092811346054,-0.23444774746894836,-0.14503039419651031,0.23251134157180786,-0.1585688292980194,-0.12634287774562836,-0.08398173004388809,0.3733436167240143,0.3281382918357849,-0.16116780042648315,-0.22660470008850098,0.11229142546653748,0.05194091796875,0.05121811106801033,-0.27023133635520935,-0.25046655535697937,-0.18663622438907623,0.12308760732412338,-0.2642173171043396,0.04340868443250656,0.5113435983657837,0.1607080101966858,-0.10750747472047806,-0.15478816628456116,0.07510407269001007,-0.537431538105011,-0.1712227612733841,0.4065600037574768,0.07237847149372101,0.3033469021320343,-0.21501758694648743,-0.05072522163391113,0.11300765722990036,-0.32077547907829285,0.18763726949691772,0.4393756091594696,0.42922088503837585,0.10896921902894974,-0.09241801500320435,0.3348042368888855,-0.036531344056129456,0.14543141424655914
-0.16585472226142883,0.1940748542547226,-0.08155174553394318,-0.07687097787857056,0.06857660412788391,0.012031924910843372,0.36968639492988586,-0.054738860577344894,-0.10715969651937485,0.10942352563142776,0.06096392124891281,0.20852351188659668,0.14402373135089874,0.042263247072696686,-0.0749095007777214,-0.06767313182353973,0.14647062122821808,-0.09286327660083771,0.09662296622991562,-0.20951668918132782,-0.053610045462846756,-0.2460995763540268,0.06372322887182236,0.12233149260282516,0.08588787913322449,0.15890097618103027,0.04200824350118637,0.1459374874830246,0.038808006793260574,-0.18985754251480103,0.0714821070432663,0.07503404468297958,-0.16672539710998535,0.024270636960864067,0.09086684137582779,-0.10718053579330444,-0.1242268905043602,-0.04957367479801178,-0.11420656740665436,0.18531987071037292,0.31357815861701965,0.08180256932973862,-0.046786874532699585,-0.021077735349535942,-0.057269562035799026,0.14030183851718903,-0.05394524708390236,-0.004569935146719217,-0.08087915182113647,0.06795363873243332,0.05614760145545006,-0.07022473961114883,-0.037961941212415695,0.034625642001628876,-0.4162047505378723,0.06090311333537102,0.40415558218955994,-0.27825772762298584,0.027351606637239456,0.15232275426387787,0.14812694489955902,0.3659595549106598,-0.04226778447628021,0.08250568062067032,0.002405487233772874,-0.3504961133003235,0.07777805626392365,-0.163239985704422,-0.13056625425815582,-0.012872695922851562,-0.20476122200489044,-0.16804325580596924,-0.31958308815956116,0.14558754861354828,0.2469964623451233,0.13273923099040985,0.23921646177768707,0.0029286567587405443,-0.12519775331020355,-0.09081302583217621,0.030817613005638123,-0.058893248438835144,0.3531976342201233,0.0066544427536427975,-0.15542800724506378,0.030110711231827736,0.13142798840999603,-0.39798492193222046,-0.12438321113586426,-0.0015446575125679374,-0.03220195695757866,0.0032631277572363615,-0.08516604453325272,0.12237772345542908,0.13582457602024078,0.07285431772470474,0.07672721147537231,-0.1037687435746193,0.29080086946487427,-0.024440119042992592,0.01344712357968092,0.18344871699810028,-0.07653259485960007,0.19174906611442566,-0.24322724342346191,-0.004762294702231884,0.08193487673997879,-0.04042644053697586,-0.0288446843624115,-0.10524527728557587,0.11972067505121231,-0.11047890782356262,0.012041104957461357,-0.08461107313632965,-0.16651833057403564,0.08721818029880524,0.03251582384109497,-0.11763421446084976,0.08848945051431656,0.06663335114717484,-0.1488175243139267,-0.1333036571741104,0.056412599980831146,0.07262792438268661,-0.19690844416618347,-0.1208854615688324,-0.005046370904892683,0.077606201171875
0.10614188015460968,-0.12798410654067993,-0.04183327779173851,0.063658207654953,-0.21178598701953888,-0.02754497528076172,-0.12990468740463257,-0.2513597011566162,-0.17259953916072845,0.009790102019906044,0.3789445459842682,-0.13565057516098022,0.5433546900749207,0.3381085693836212,0.23419064283370972,-0.09784913808107376,-0.29473358392715454,0.07577189058065414,0.24159255623817444,0.10637106746435165,0.15857580304145813,0.2832441031932831,-0.31654930114746094,-0.3289574980735779,-0.2111736238002777,-0.2569309175014496,0.2894693613052368,-0.1243828609585762,-0.6941962838172913,-0.07756959646940231,0.15016616880893707,-0.17223642766475677,0.21889355778694153,-0.012955626472830772,0.4642990231513977,-0.0354686975479126,-0.2937535047531128,-0.006549129728227854,-0.08929041773080826,-0.8020933866500854,-0.4025211036205292,0.14688129723072052,-0.0902942642569542,-0.033423472195863724,0.02625061385333538,0.09606355428695679,0.15314890444278717,-0.5608124136924744,-0.16590608656406403,-0.08272424340248108,-0.23777002096176147,-0.21387027204036713,-0.0031553900334984064,-0.1819593906402588,0.04703124612569809,-0.03718441724777222,-0.18312034010887146,0.23820309340953827,0.1622249186038971,-0.091079942882061,-0.4667420983314514,-0.14980395138263702,-0.27725768089294434,0.025608330965042114,-0.43479666113853455,0.026051145046949387,-0.28856220841407776,-0.12632238864898682,-0.0010562218958511949,-0.24839387834072113,0.19403855502605438,0.2022469937801361,0.046432025730609894,-0.13769440352916718,0.4313569664955139,-0.200373113155365,-0.22692464292049408,0.20192770659923553,0.5805749893188477,-0.12046917527914047,0.0004868031246587634,0.15632186830043793,0.03064870461821556,0.3821837306022644,0.19423861801624298,-0.0009043214959092438,0.1415330171585083,-0.054344542324543,0.23243434727191925,-0.13757237792015076,-0.10527782142162323,0.3940122425556183,-0.12824122607707977,-0.05603697896003723,-0.15206947922706604,-0.1431095004081726,-0.2563733458518982,-0.10756293684244156,-0.0660613551735878,0.049994561821222305,0.5801560878753662,-0.03833208978176117,-0.003728073090314865,-0.04302048310637474,-0.043058719485998154,-0.20401684939861298,-0.019480928778648376,0.2563983201980591,-0.05296953767538071,0.03183147311210632,-0.07378336787223816,-0.09442009776830673,0.08432041853666306,-0.023678231984376907,-0.4516734182834625,0.10208135098218918,0.26305902004241943,-0.5592824816703796,0.08305685222148895,-0.05389757454395294,0.19428648054599762,-0.1455921232700348,-0.23547613620758057,0.08343864977359772,0.3969171345233917,-0.21094006299972534,-0.523483395576477,0.06273098289966583
-0.21192406117916107,-0.19881026446819305,-0.15726837515830994,-0.11645301431417465,-0.16380585730075836,-0.02622704766690731,0.03790493309497833,0.18774519860744476,-0.3549294173717499,-0.036199189722537994,0.03832211717963219,0.06650866568088531,-0.17454420030117035,0.09175530076026917,0.017738666385412216,0.06011674925684929,0.18320749700069427,0.1463746428489685,0.08849245309829712,-0.1885150969028473,0.03965212404727936,0.19620826840400696,-0.06887510418891907,-0.14847739040851593,0.47875896096229553,0.14664830267429352,-0.08977804332971573,0.02879043109714985,0.03874143213033676,-0.0627698227763176,-0.2837216854095459,0.3100990951061249,-0.1460927426815033,-0.07880493998527527,0.0054679131135344505,0.026760177686810493,-0.08137334883213043,-0.14338254928588867,0.09825064986944199,0.10313227772712708,0.07833626121282578,0.03666350990533829,0.0837445855140686,0.12703724205493927,-0.18150067329406738,0.18812647461891174,-0.10634314268827438,0.14202643930912018,0.28342723846435547,-0.05300658941268921,-0.002951210830360651,0.06625747680664062,-0.1837640255689621,0.10294649004936218,-0.12450136244297028,0.08752750605344772,0.11566010862588882,-0.20543509721755981,0.020331313833594322,0.11535490304231644,-0.06559440493583679,0.07353682816028595,0.14501045644283295,-0.2063399851322174,-0.17678888142108917,0.061691757291555405,0.2904402017593384,0.14200937747955322,-0.09812366962432861,-0.24385008215904236,-0.15814168751239777,-0.13100330531597137,0.11081619560718536,0.07921700924634933,-0.22931355237960815,0.21769128739833832,0.05438017472624779,0.16548024117946625,-0.06206265836954117,-0.03633802756667137,0.3634309470653534,-0.29042163491249084,-0.13053740561008453,0.13666749000549316,-0.07607004791498184,-0.16675539314746857,0.14395907521247864,0.0036664139479398727,0.000550630094949156,0.23514537513256073,0.02148989588022232,-0.14930172264575958,0.05516669899225235,0.06988224387168884,0.261328786611557,-0.020437194034457207,0.11557553708553314,0.20559224486351013,-0.23493614792823792,0.09481009840965271,0.17056357860565186,0.010164191015064716,-0.17302152514457703,0.2469988763332367,-0.05652204900979996,-0.12608176469802856,0.18641574680805206,0.3488343060016632,0.04777977988123894,-0.006545301526784897,-0.08895658701658249,-0.2502345144748688,-0.28310900926589966,-0.013881171122193336,0.17685368657112122,-0.07359210401773453,-0.16663946211338043,0.12478390336036682,0.006975261494517326,0.011371242813766003,-0.18455956876277924,-0.06272237747907639,0.02627376839518547,0.03205452114343643,-0.12874852120876312,-0.09024149924516678,0.35876864194869995,-0.01032661460340023
-0.09290900826454163,0.027616439387202263,0.17461122572422028,0.08448777347803116,0.12183129787445068,-0.03856655955314636,-0.01267516054213047,-0.0652422308921814,-0.19089825451374054,-0.03372684866189957,-0.02286742813885212,-0.08471600711345673,-0.08814696967601776,-0.033765923231840134,-0.0531105101108551,0.07491011917591095,-0.05317750945687294,-0.01898380182683468,-0.09691422432661057,-0.14756646752357483,0.028240155428647995,-0.11759711056947708,-0.35346755385398865,-0.06421762704849243,-0.10190869122743607,0.02720770053565502,0.12211453169584274,-0.05695671960711479,-0.2764795422554016,0.30084747076034546,0.06722994148731232,0.0041075400076806545,0.07321436703205109,-0.1295040100812912,-0.35941919684410095,-0.2360604852437973,0.09140472114086151,0.07292231917381287,-0.05483342707157135,-0.05371556058526039,0.06655940413475037,-0.03135662153363228,-0.07462692260742188,0.1663224995136261,-0.029321962967514992,-0.002713417401537299,-0.020807763561606407,-0.06083741784095764,0.1417434960603714,-0.12249670922756195,-0.03164922446012497,-0.12468285858631134,0.08681130409240723,0.0484616719186306,-0.0734599158167839,-0.09760018438100815,0.08272294700145721,-0.12857677042484283,0.0016841839533299208,-0.09862702339887619,-0.17424286901950836,0.02532588690519333,0.008696084842085838,0.2748049199581146,-0.1366749256849289,0.09496147930622101,-0.07431207597255707,-0.09875655919313431,0.08549156039953232,-0.10624243319034576,0.46918031573295593,-0.13289692997932434,0.14840397238731384,0.04637593775987625,0.12597621977329254,0.1616191565990448,-0.23507556319236755,-0.12615367770195007,0.10888683050870895,-0.025859162211418152,0.024196682497859,0.03226646035909653,0.15184977650642395,0.07151452451944351,0.043721266090869904,-0.20128484070301056,-0.03226431831717491,-0.08825795352458954,0.07449044287204742,0.08844531327486038,0.2263837456703186,0.08023416250944138,-0.06673581153154373,0.25546732544898987,0.05842317268252373,-0.025867564603686333,0.06685256958007812,-0.2988732159137726,-0.25764504075050354,-0.10401469469070435,0.1191912516951561,-0.04426458477973938,-0.014173245057463646,0.08830349892377853,0.15647538006305695,-0.11533696204423904,-0.21257226169109344,0.07909329235553741,-0.05111908167600632,-0.12337662279605865,-0.10886760801076889,0.04051180183887482,-0.16034182906150818,-0.11573702096939087,0.14344608783721924,0.17751863598823547,0.19957111775875092,0.10018084943294525,-0.033415649086236954,-0.18495558202266693,-0.06888032704591751,-0.011873392388224602,0.15037009119987488,-0.10168102383613586,0.38181936740875244,0.031709153205156326,0.0683019831776619,0.1318695992231369
-0.13327904045581818,0.0011082789860665798,0.24298140406608582,0.17330698668956757,0.05550675094127655,-0.03543431684374809,0.18472884595394135,-0.29604610800743103,0.13492101430892944,0.0009560590842738748,-0.03823867812752724,-0.04385167360305786,-0.06605508923530579,0.32650408148765564,0.02945868670940399,-0.4183925688266754,0.07361571490764618,0.14221210777759552,0.0835014134645462,-0.0163935087621212,0.20714667439460754,0.024589689448475838,0.05861407145857811,-0.04613519459962845,-0.32147207856178284,0.032204050570726395,-0.015951616689562798,0.14697051048278809,0.2485445737838745,-0.011526443064212799,-0.226479634642601,0.16552849113941193,-0.08528561145067215,-0.2916784882545471,0.06358746439218521,0.09809933602809906,0.11156023293733597,-0.06556818634271622,0.10735823959112167,-0.04380304366350174,-0.13992942869663239,0.12831759452819824,-0.16419179737567902,-0.09397894144058228,-0.11142101138830185,-0.102043516933918,0.12021536380052567,0.24739202857017517,-0.0006671579903922975,-0.0713774561882019,0.08284919708967209,-0.08400137722492218,-0.23589830100536346,0.16901133954524994,-0.07804859429597855,0.06864550709724426,-0.042300667613744736,-0.36053717136383057,0.3139459490776062,0.001130610122345388,-0.04906768351793289,0.03940971940755844,0.26862621307373047,-0.09227816760540009,-0.07583053410053253,-0.006912004202604294,0.15237005054950714,-0.03578478842973709,-0.01785435900092125,-0.21072576940059662,-0.01795373670756817,0.034438248723745346,0.09049731492996216,-0.13362979888916016,0.07909143716096878,0.08138231188058853,0.14773468673229218,0.04976711794734001,-0.27514001727104187,-0.16953474283218384,-0.0702977180480957,-0.029764994978904724,0.1313427984714508,-0.06703357398509979,0.07269842177629471,-0.18811526894569397,0.2527186870574951,-0.11888973414897919,0.2341890186071396,-0.15363596379756927,-0.10346669703722,-0.12682972848415375,0.15416793525218964,0.2756745219230652,-0.014968553557991982,-0.011938491836190224,-0.11627495288848877,0.15506672859191895,-0.1800607293844223,-0.24755726754665375,0.06246865540742874,-0.2280578911304474,-0.07843154668807983,-0.0904361829161644,0.060581572353839874,-0.05902734398841858,0.14106686413288116,0.060945674777030945,-0.048884496092796326,-0.21492257714271545,-0.011640121228992939,0.08034943044185638,0.03653201460838318,0.2589927613735199,-0.11916778981685638,-0.03514406085014343,0.20126762986183167,0.09227531403303146,0.07821859419345856,0.008906885050237179,0.1262429654598236,-0.05335824564099312,-0.06655027717351913,-0.05089401826262474,0.13743937015533447,-0.12250500172376633,0.19044293463230133,-0.0035663326270878315
0.07842257618904114,0.11524862051010132,-0.19606232643127441,-0.13482065498828888,-0.16769452393054962,-0.010783636942505836,0.41029539704322815,0.1392543911933899,0.2597788870334625,0.0577937588095665,-0.1277942657470703,0.02825254015624523,-0.14706744253635406,-0.37931007146835327,0.2652881443500519,0.12144757062196732,-0.1795375794172287,0.11023446172475815,0.1574288308620453,0.39681679010391235,0.18515533208847046,-0.013978409580886364,0.0879296064376831,0.09637398272752762,0.29613208770751953,-0.19150421023368835,-0.13709402084350586,0.22452057898044586,0.36522191762924194,0.204013392329216,-0.1269833892583847,0.17005622386932373,-0.19358089566230774,0.18566277623176575,0.01139009464532137,0.23732049763202667,0.05969082564115524,0.09586623311042786,0.0943082645535469,0.28226596117019653,0.018987512215971947,0.34484684467315674,0.29215481877326965,-0.26051443815231323,0.07697278261184692,-0.1142624095082283,0.3421400785446167,0.3647683262825012,-0.2812619209289551,-0.0564265102148056,0.12826533615589142,0.07514018565416336,-0.04367309436202049,-0.04705897718667984,-0.02086096815764904,0.2413092702627182,0.14397594332695007,0.1850287765264511,-0.03637449070811272,-0.18911263346672058,0.19098800420761108,-0.032781656831502914,0.07693616300821304,-0.049115024507045746,0.10763132572174072,-0.44494107365608215,0.2758777141571045,0.43054503202438354,0.18987298011779785,0.23211947083473206,-0.24102182686328888,0.34739652276039124,-0.6213353276252747,-0.2227247953414917,-0.22694474458694458,0.15419670939445496,0.04294056072831154,-0.2948979437351227,-0.21575455367565155,0.10228582471609116,0.10668410360813141,-0.021415632218122482,-0.1951671540737152,-0.17416664958000183,0.08284436911344528,-0.018673818558454514,-0.13565701246261597,0.18511080741882324,0.09257467836141586,-0.354799747467041,-0.4538196623325348,-0.20569245517253876,-0.06127740442752838,-0.05400931090116501,0.10575125366449356,-0.21458031237125397,-0.12539665400981903,0.37615707516670227,0.14816108345985413,0.045252084732055664,0.08301126211881638,0.08734049648046494,0.14179882407188416,-0.29783895611763,-0.42492613196372986,0.42774829268455505,0.14971156418323517,0.12479057163000107,-0.0038859406486153603,0.10153912752866745,0.2830928564071655,-0.135853573679924,0.2868153154850006,0.28149595856666565,0.038250457495450974,-0.2412589192390442,0.27773383259773254,-0.3788963556289673,-0.2662132978439331,0.46566399931907654,-0.06626613438129425,-0.22772501409053802,-0.078563392162323,0.05465690791606903,-0.2310587465763092,-0.010125922039151192,-0.2000393271446228,-0.03888576105237007
-0.10751805454492569,-0.1396905928850174,-0.026511160656809807,-0.005701377056539059,0.01398214977234602,0.003183153457939625,0.013026340864598751,-0.2377106100320816,-0.15938061475753784,-0.065318264067173,-0.06344772130250931,0.14804965257644653,-0.07393336296081543,0.02886894904077053,0.25715723633766174,-0.02861475944519043,-0.18959960341453552,0.1196899563074112,0.1570948362350464,-0.13086888194084167,0.1774200201034546,0.18795938789844513,0.05912185460329056,-0.12127167731523514,0.0039801280945539474,0.029436200857162476,-0.0317021869122982,0.005440752487629652,-0.15661942958831787,0.10522548854351044,-0.3101648688316345,0.1636989265680313,0.16437454521656036,-0.3312736749649048,0.04047538712620735,0.23961174488067627,0.033092718571424484,-0.038929831236600876,0.01424666028469801,-0.06068577617406845,-0.04932507127523422,0.23429782688617706,0.10273999720811844,0.0151479197666049,-0.06842825561761856,-0.16796457767486572,0.2308475375175476,0.22344650328159332,0.12281499058008194,-0.2935127317905426,0.2195035070180893,-0.20546270906925201,-0.04756014794111252,-0.05078549683094025,-0.06253448128700256,0.06242331117391586,0.04379052668809891,-0.16892436146736145,-0.015465439297258854,0.22256870567798615,-0.05232703313231468,-0.14717841148376465,0.23845285177230835,-0.0012096381979063153,0.12270666658878326,-0.1814979761838913,0.06848856806755066,-0.16011591255664825,-0.04469911381602287,-0.4723198115825653,-0.10489269345998764,-0.020241601392626762,0.14662276208400726,-0.031186508014798164,0.20074106752872467,0.0981784239411354,0.06942402571439743,-0.08345314860343933,0.28046002984046936,-0.2173999547958374,-0.0076907058246433735,0.05861310660839081,-0.02548801898956299,0.15290386974811554,0.19659601151943207,-0.15410761535167694,0.21222202479839325,0.24755261838436127,0.011498110368847847,0.16831067204475403,0.12300731241703033,0.07322772592306137,0.08484209328889847,0.26771512627601624,-0.07032210379838943,0.07708531618118286,0.18850281834602356,0.26485082507133484,0.00995024386793375,-0.06589601933956146,0.0048017618246376514,-0.02516351453959942,-0.0762721374630928,0.0812191590666771,0.07150546461343765,-0.0707547515630722,0.2528403401374817,0.4498235881328583,-0.27994751930236816,-0.018584594130516052,0.16733884811401367,-0.1252238154411316,-0.28733158111572266,0.059839777648448944,0.022914748638868332,-0.21846257150173187,0.02329920418560505,-0.17157724499702454,-0.0002989124332088977,0.3217000365257263,0.2808574140071869,-0.11598411202430725,-0.11387071013450623,0.13752631843090057,-0.2839086353778839,-0.1477893739938736,0.017450014129281044,0.08622001111507416
0.23319818079471588,-0.24262364208698273,-0.01856231316924095,0.16833433508872986,-0.22825996577739716,0.08963359147310257,-0.06727033853530884,-0.026722094044089317,0.04378185421228409,0.18169765174388885,0.11817769706249237,-0.1193777471780777,-0.045986611396074295,-0.1744316816329956,0.31553179025650024,-0.08121168613433838,-0.30704551935195923,0.23819483816623688,0.14677643775939941,0.48054152727127075,-0.1103830486536026,0.19132328033447266,0.029340237379074097,-0.14727042615413666,0.010856792330741882,-0.1618659496307373,-0.014734792523086071,0.27744612097740173,0.08551683276891708,-0.05726287141442299,-0.32051998376846313,-0.03838500753045082,-0.07517526298761368,0.18140068650245667,-0.1184045821428299,0.09056338667869568,-0.03710642457008362,-0.0013973605819046497,-0.002232193248346448,-0.15893645584583282,-0.06074873358011246,0.15399284660816193,0.3332948088645935,-0.21636620163917542,0.18749478459358215,-0.10019036382436752,0.048571351915597916,-0.1755649745464325,-0.08416183292865753,-0.22145864367485046,-0.14787699282169342,0.0033733139280229807,-0.42130017280578613,-0.1437365859746933,0.1416265368461609,0.35205966234207153,0.14515848457813263,0.19324016571044922,0.13668161630630493,-0.28967493772506714,0.24977199733257294,-0.17673969268798828,-0.43075570464134216,-0.04252756014466286,-0.008069529198110104,-0.2652595043182373,0.11407079547643661,0.39115211367607117,0.23234844207763672,0.3466664254665375,-0.16202203929424286,0.34071084856987,-0.42167067527770996,-0.13164590299129486,0.12246186286211014,0.234536275267601,0.09446129202842712,0.11124493926763535,0.1472892165184021,0.32677826285362244,0.1907508373260498,0.3912225365638733,-0.12725529074668884,-0.2509807348251343,0.2981157600879669,0.5149396657943726,0.028134364634752274,0.2652709484100342,0.4307401478290558,-0.33091458678245544,-0.1838793009519577,-0.1911444365978241,-0.2700134813785553,0.07137329876422882,-0.14108429849147797,-0.051715005189180374,-0.42645663022994995,0.20377442240715027,0.1446225941181183,-0.16929279267787933,0.1479869782924652,0.3177052140235901,0.08436431735754013,-0.21256522834300995,-0.22224177420139313,0.25936514139175415,-0.03377174958586693,-0.13695399463176727,0.05864708870649338,0.10363955795764923,0.15679848194122314,0.15702036023139954,0.21777260303497314,0.20285095274448395,-0.3305685818195343,-0.3860304057598114,0.2970903217792511,-0.08104762434959412,-0.4836573898792267,0.37825432419776917,0.34993454813957214,-0.17142751812934875,-0.26813265681266785,0.470213383436203,-0.23862217366695404,-0.07300134748220444,-0.21579547226428986,-0.0010079136118292809
-0.14753076434135437,-0.08097054809331894,-0.01501654926687479,0.016725337132811546,-0.02463396079838276,-0.020506657660007477,0.17397193610668182,0.011395459994673729,-0.23759932816028595,0.052843090146780014,-0.016484318301081657,0.10127831250429153,0.15771979093551636,-0.08557459712028503,-0.2571195065975189,-0.002513444982469082,0.10248272120952606,-0.18958115577697754,0.20312131941318512,-0.031977638602256775,0.006199641618877649,-0.025117581710219383,0.03775465488433838,0.07751767337322235,-0.17997242510318756,0.01823054999113083,0.09725939482450485,-0.04626790061593056,0.14675123989582062,-0.10460584610700607,-0.017448365688323975,0.12602970004081726,-0.012681147083640099,0.1245228499174118,0.0065987491980195045,-0.17842106521129608,-0.08997052907943726,-0.06290216743946075,-0.09172287583351135,0.16675317287445068,0.01729263924062252,0.1464638113975525,0.0716644823551178,-0.055189117789268494,0.09772899001836777,-0.05868149921298027,-0.011181947775185108,-0.1549929678440094,-0.03973141312599182,0.10418461263179779,0.01551777496933937,0.01559351198375225,-0.06541097909212112,0.08390121906995773,-0.3035290241241455,0.20194588601589203,-0.09291534125804901,-0.4668467342853546,-0.0259113609790802,0.09014786779880524,0.06713297963142395,0.4020635783672333,-0.17877502739429474,-0.0003734543570317328,-0.20295342803001404,-0.1703086644411087,0.06963346898555756,-0.04716530442237854,-0.0718604251742363,0.055677399039268494,-0.1593041718006134,-0.07493629306554794,-0.10012958943843842,0.06081809103488922,-0.2327503263950348,-0.031130682677030563,0.002994186943396926,0.17185305058956146,0.1780196577310562,-0.20889900624752045,-0.02175123430788517,-0.017621666193008423,-0.01306852139532566,0.05570748448371887,0.2001267969608307,-0.07164423912763596,-0.053764209151268005,-0.4525550305843353,0.09475932270288467,-0.05455876141786575,0.11526961624622345,0.1055290475487709,-0.23012712597846985,-0.0497463159263134,-0.012017006054520607,0.2640341818332672,0.15429165959358215,0.03991027921438217,0.27492961287498474,0.11512427031993866,0.33305174112319946,0.10381905734539032,-0.034486252814531326,-0.01942649856209755,-0.13987375795841217,-0.01849568821489811,-0.0037240786477923393,0.10183996707201004,-0.018568476662039757,-0.0005895142094232142,0.04207700863480568,-0.07969623059034348,0.1276073455810547,-0.20499858260154724,0.05363302305340767,-0.13460302352905273,-0.021633466705679893,0.16128189861774445,-0.05324646458029747,-0.10383712500333786,0.1256684511899948,0.04345189407467842,-0.1383407711982727,-0.061850856989622116,-0.07716464251279831,-0.08685525506734848,-0.06345587968826294,-0.041494209319353104
0.11288324743509293,-0.6365004777908325,0.5691802501678467,0.4112900197505951,-0.11421970278024673,0.317775160074234,-0.1889011412858963,0.05740107595920563,-0.45344385504722595,-0.3324083089828491,0.5614292621612549,-0.20500503480434418,-0.032700587064027786,0.14297229051589966,0.4841510057449341,-0.02818080596625805,-0.13062091171741486,-0.2887688875198364,-0.03920434042811394,-0.2718879282474518,0.2980864942073822,-0.20280048251152039,0.2524803876876831,-0.04767237976193428,0.23212331533432007,0.29227158427238464,-0.12300631403923035,0.5013841390609741,-0.2881443202495575,0.18509039282798767,-0.06345203518867493,-0.34646075963974,-0.07593507319688797,-0.3579923212528229,-0.14382649958133698,0.2102586179971695,-0.3809494972229004,0.15626348555088043,0.053866636008024216,0.2921474874019623,-0.3430509567260742,-0.08142770081758499,0.039174437522888184,0.14286915957927704,-0.13730965554714203,-0.1618223488330841,0.24224744737148285,0.28794458508491516,-0.0031577181071043015,0.24324963986873627,0.02520500123500824,0.1439477503299713,-0.07592813670635223,0.12575067579746246,0.006273819599300623,0.2444978505373001,0.14393095672130585,0.20148399472236633,0.1517200917005539,-0.07227976620197296,0.1664494127035141,0.13349515199661255,0.19796712696552277,0.2879251539707184,0.034644655883312225,0.19378574192523956,-0.24401552975177765,0.4483048915863037,0.7478759288787842,-0.26455050706863403,0.17954616248607635,-0.07144754379987717,0.025892803445458412,-0.5690817832946777,-0.32801806926727295,0.21075916290283203,0.4759789705276489,-0.035391949117183685,-0.14813557267189026,-0.04148220643401146,-0.08400805294513702,0.728999674320221,-0.05208553373813629,0.32023391127586365,0.12002940475940704,0.02514054998755455,-0.2710410952568054,-0.3177645802497864,-0.1759418398141861,-0.3704366981983185,0.41360506415367126,0.05079641938209534,-0.15127456188201904,-0.2055567353963852,-0.06226908788084984,0.08885275572538376,0.04062918201088905,-0.12303508073091507,-0.08801142871379852,0.10500060021877289,0.10878406465053558,-0.42258572578430176,-0.26986780762672424,-0.07201573252677917,-0.10126255452632904,-0.044365294277668,-0.06039655953645706,-0.11012917757034302,-0.21103231608867645,-0.05274714529514313,0.06321696192026138,0.2746829092502594,-0.5108479261398315,-0.24794483184814453,0.04189562052488327,-0.15425778925418854,-0.11228545755147934,-0.16118745505809784,-0.0005316046299412847,-0.15443573892116547,0.15282340347766876,-0.3030042052268982,-0.06934835761785507,-0.1617007702589035,0.1389983594417572,-0.06427493691444397,-0.08410540223121643,-0.19527223706245422
0.1218779981136322,0.1173449382185936,-0.08264297246932983,0.4000716507434845,-0.12377410382032394,0.0352325439453125,-0.1990414559841156,-0.13504230976104736,-0.02034982107579708,-0.23933415114879608,0.03950852155685425,0.11504945904016495,0.26835107803344727,0.07837045937776566,-0.09659017622470856,0.1939271092414856,0.0644557923078537,-0.43232592940330505,0.01630536839365959,-0.1162203997373581,0.0017187170451506972,-0.11204659193754196,0.04665204510092735,0.07720623910427094,-0.07462941110134125,-0.1559761017560959,-0.04779353737831116,-0.12104252725839615,-0.10688985139131546,0.3036626875400543,0.15338392555713654,0.12275230139493942,0.15712666511535645,-0.021122606471180916,0.07832697778940201,-0.18179361522197723,0.002659197896718979,-0.3100970387458801,0.2054753303527832,-0.028857003897428513,0.06007084995508194,0.27855184674263,0.094162218272686,0.04698982089757919,-0.03268983215093613,-0.4073714315891266,-0.03231915831565857,0.1904759705066681,-0.12259846180677414,0.1858881115913391,-0.5366973280906677,0.015476933680474758,0.016641153022646904,0.0410093329846859,-0.13123762607574463,0.20672592520713806,0.259978324174881,-0.08651375025510788,-0.041624609380960464,-0.03976183757185936,0.15907393395900726,0.0771726444363594,0.02028128318488598,0.13203279674053192,-0.2644393742084503,-0.23285643756389618,0.0891856774687767,0.013881275430321693,0.19760051369667053,-0.14662429690361023,0.6110916137695312,0.12477286159992218,0.06778133660554886,-0.7345830798149109,0.03974311798810959,-0.13958285748958588,-0.24764570593833923,-0.007973358035087585,0.14152520895004272,-0.0787898600101471,0.1528138816356659,-0.016957653686404228,0.0905420109629631,0.12630437314510345,-0.0516887828707695,-0.316470742225647,-0.11012817919254303,-0.152354434132576,0.07024315744638443,0.021186059340834618,0.0863691195845604,0.04998514801263809,0.30432674288749695,0.028627220541238785,0.39108729362487793,0.19292953610420227,0.09870243072509766,0.020071469247341156,-0.196629598736763,0.3102211058139801,-0.06625934690237045,-0.1346312165260315,0.08521856367588043,-0.1453455686569214,-0.26374995708465576,-0.28393685817718506,0.2814449369907379,0.0011887509608641267,-0.009508783929049969,0.10337711870670319,0.03707468882203102,-0.1700533926486969,-0.05270436033606529,0.05786361172795296,0.1321931630373001,0.06447947770357132,-0.0533384345471859,-0.08307588845491409,-0.19398680329322815,-0.04097893461585045,0.05042595788836479,0.09326519072055817,0.24531298875808716,-0.2440243363380432,-0.0010749832727015018,-0.041598036885261536,-0.11846784502267838,0.04291023686528206
-0.014319848269224167,-0.18786035478115082,0.35780274868011475,-0.0592009499669075,0.039628930389881134,0.08134868741035461,-0.15455248951911926,0.4177339971065521,-0.10515746474266052,-0.21082326769828796,0.16570889949798584,-0.2755991220474243,-0.05756254121661186,0.06284914165735245,0.20365668833255768,-0.0785326361656189,0.06798820942640305,-0.30971023440361023,0.02721570059657097,-0.3421097695827484,0.04054105654358864,0.07602450251579285,-0.025722874328494072,0.014953522942960262,-0.2520102858543396,-0.0031329093035310507,0.11534307897090912,0.2432975172996521,-0.10510095953941345,0.2328714281320572,0.03466329351067543,-0.11228778958320618,-0.016836225986480713,-0.15349502861499786,-0.06914152950048447,-0.038338180631399155,-0.006217360496520996,0.14278948307037354,0.15013539791107178,0.1057804599404335,-0.2742137312889099,0.14852605760097504,-0.26899588108062744,0.23831117153167725,-0.10733842104673386,-0.16839765012264252,0.2419322431087494,0.07742235064506531,-0.2569863796234131,0.0461687296628952,-0.21587011218070984,0.011119576171040535,0.009603842161595821,0.06386222690343857,-0.08173932880163193,0.026865782216191292,0.1224784106016159,0.0517718605697155,-0.02233935333788395,-0.014448625966906548,-0.013574195094406605,0.44494765996932983,-0.004568200558423996,0.07282961159944534,-0.04601181671023369,-0.0023813052102923393,-0.046951815485954285,0.32939523458480835,0.3722563683986664,-0.11771433055400848,0.2705371677875519,-0.047822367399930954,0.11092730611562729,-0.2943674325942993,-0.0958588570356369,-0.025687607005238533,0.13594239950180054,0.3317887485027313,0.2637879252433777,-0.13496391475200653,0.13821886479854584,0.4095989465713501,0.2206665277481079,0.22677063941955566,0.11476565152406693,-0.1602943241596222,-0.40812644362449646,-0.2303915023803711,0.059575825929641724,-0.37201380729675293,0.20810265839099884,0.36838793754577637,-0.0012744023697450757,-0.0844331905245781,0.08585940301418304,0.10171183198690414,0.05192467197775841,-0.32218125462532043,-0.25543493032455444,0.03772109001874924,0.11256026476621628,-0.19376541674137115,-0.14085952937602997,0.09387169778347015,-0.057342104613780975,0.17131474614143372,-0.1627037078142166,0.06675056368112564,0.04531979188323021,-0.1521490514278412,-0.032099321484565735,-0.06371104717254639,-0.1319260597229004,-0.19699260592460632,0.18439142405986786,-0.05986369773745537,0.046413738280534744,-0.2673117518424988,-0.21124333143234253,-0.15303069353103638,0.00486462889239192,-0.24312297999858856,-0.2648298740386963,-0.20996300876140594,-0.02760504186153412,-0.007615807466208935,-0.19606336951255798,-0.040542710572481155
-0.03761015832424164,0.12692375481128693,0.06024163216352463,0.2596839368343353,0.04454383626580238,-0.0010037035681307316,-0.26847410202026367,0.15404632687568665,-0.16759122908115387,0.07433152198791504,0.0799480602145195,-0.20701713860034943,-0.06317064166069031,-0.049294363707304,0.0033314155880361795,-0.011904982849955559,-0.1272851526737213,-0.16100232303142548,-0.37044817209243774,-0.3213368356227875,0.2618282735347748,-0.1838272362947464,-0.19689849019050598,-0.12702791392803192,-0.19098833203315735,-0.03620854392647743,0.2571914494037628,-0.0894450843334198,0.13663992285728455,-0.10043712705373764,0.49133890867233276,-0.1028352677822113,-0.1645202785730362,-0.15955466032028198,0.1764560043811798,-0.09348345547914505,-0.0060374559834599495,-0.09894032031297684,0.13147757947444916,0.2146407961845398,-0.24801479279994965,-0.06957397609949112,0.12011133879423141,-0.028756646439433098,-0.07169191539287567,-0.31036996841430664,-0.08918985724449158,0.08512849360704422,-0.17077778279781342,0.19206061959266663,-0.3130214512348175,0.23182234168052673,0.01270560547709465,0.1687021404504776,0.011986808851361275,-0.2769649028778076,0.20797547698020935,0.261728435754776,0.07945849746465683,0.1302768588066101,0.13357840478420258,-0.024501588195562363,0.03257470205426216,0.052198268473148346,0.24646924436092377,-0.12539975345134735,0.01686738431453705,0.0018300996161997318,0.24088837206363678,-0.03545992821455002,0.3829037845134735,-0.1807573288679123,-0.042691100388765335,0.16151787340641022,-0.24272553622722626,-0.12611916661262512,0.25771695375442505,-0.03738892450928688,-0.07753603160381317,-0.08761879056692123,0.05655791237950325,-0.11935067921876907,0.08618486672639847,0.30759677290916443,0.13675767183303833,0.2962423861026764,-0.08475837856531143,0.2822681963443756,0.07429154217243195,-0.1744834929704666,0.11680804938077927,-0.07010197639465332,0.41845011711120605,-0.058021631091833115,0.07283486425876617,-0.11936958879232407,0.5475856065750122,-0.04331531003117561,0.1888916790485382,-0.07085093855857849,0.10692078620195389,-0.03370827063918114,-0.10451523959636688,-0.03281542658805847,-0.2405811995267868,0.14027497172355652,0.07632606476545334,0.17817705869674683,0.05699016898870468,-0.07974281907081604,0.14232422411441803,0.10690893977880478,-0.003770899260416627,-0.05762510746717453,0.11883480101823807,0.0733315572142601,0.0657157152891159,0.059800297021865845,0.18123652040958405,-0.011850534938275814,-0.25415897369384766,-0.09181070327758789,0.11548985540866852,-0.1470354199409485,0.2525295913219452,-0.1810595989227295,-0.02401273511350155,-0.16689839959144592
-0.24022914469242096,0.1712859719991684,-0.31716176867485046,0.07832556962966919,-0.27642250061035156,-0.6615782380104065,0.39506059885025024,-0.183832585811615,0.0843481719493866,0.39958804845809937,-0.341269314289093,0.5995692610740662,0.015441758558154106,-0.043740615248680115,-0.4419909715652466,0.39954042434692383,0.36569100618362427,-0.15560245513916016,0.22447483241558075,0.169611856341362,0.011472602374851704,0.19211894273757935,-0.044717900454998016,0.09980500489473343,0.11431360989809036,-0.2842424511909485,-0.24105262756347656,-0.505085289478302,0.2891136109828949,0.06822782009840012,0.16320139169692993,-0.2183266282081604,0.3743200898170471,0.13452206552028656,0.15143200755119324,-0.4750347137451172,0.053439006209373474,-0.19897574186325073,0.2992590665817261,0.02726970799267292,0.25110673904418945,0.07689321786165237,0.06557977944612503,0.23856092989444733,0.12015081942081451,0.08388940989971161,-0.25620490312576294,-0.038471754640340805,-0.21685005724430084,-0.08078613132238388,-0.08660555630922318,-0.06508700549602509,0.2751416862010956,-0.28884774446487427,-0.4255196750164032,0.3041808605194092,-0.08387532830238342,-0.044698696583509445,-0.07327023148536682,-0.329910546541214,0.0745621845126152,-0.34467795491218567,0.4273509979248047,-0.2938462197780609,-0.033854734152555466,-0.05209562927484512,0.16425812244415283,-0.1849268078804016,-0.4758427143096924,-0.44774436950683594,-0.10948552191257477,-0.0436101108789444,0.015975872054696083,0.0027580386959016323,-0.10035603493452072,-0.15504741668701172,-0.3394981026649475,-0.36656615138053894,-0.19838346540927887,-0.5255296230316162,0.1337197870016098,-0.49439170956611633,-0.317697674036026,0.27411597967147827,-0.41577398777008057,0.03217155486345291,0.8953467011451721,0.23958279192447662,-0.122983917593956,0.3330911099910736,-0.03843804821372032,-0.5756203532218933,0.20313642919063568,0.10444677621126175,0.3169759213924408,-0.020810363814234734,-0.11118848621845245,0.1535474807024002,0.21009372174739838,0.2529628574848175,-0.12457668036222458,-0.11985465884208679,-0.4309377372264862,0.1257970929145813,-0.154331237077713,0.01327432133257389,0.6721484661102295,0.20577789843082428,-0.6676591038703918,-0.4114421308040619,0.07444914430379868,-0.1539253443479538,0.07280910015106201,0.3906773030757904,-0.1378379911184311,0.1972840130329132,-0.27201592922210693,0.049061696976423264,0.20420199632644653,0.17359212040901184,0.0824287161231041,0.07942019402980804,0.349371999502182,-0.10239390283823013,-0.3765230178833008,0.0776253193616867,0.20266222953796387,0.4608416259288788
-0.04317847639322281,-0.16440272331237793,-0.15174652636051178,0.04436677321791649,0.1843310445547104,0.14249277114868164,-0.16339074075222015,0.10247967392206192,-0.11376706510782242,0.12792566418647766,0.30766186118125916,-0.15499670803546906,0.12236378341913223,0.20904378592967987,0.07894925773143768,0.020407313480973244,-0.12427275627851486,-0.08030129969120026,-0.6392791867256165,-0.14766710996627808,0.04573618248105049,-0.3531281054019928,0.0629945620894432,-0.3489285707473755,-0.12304189056158066,0.12932197749614716,0.29252421855926514,0.17348940670490265,-0.2757667303085327,-0.21320372819900513,0.09197681397199631,0.2735501229763031,-0.365670382976532,-0.045132748782634735,0.004573621321469545,-0.07801450043916702,0.16900937259197235,0.21063020825386047,-0.10914751887321472,-0.13598677515983582,0.08931107819080353,-0.06362047791481018,0.1304921954870224,-0.07081189006567001,0.09304652363061905,-0.007411828264594078,0.06241888552904129,-0.09731564670801163,0.2870102822780609,-0.11041686683893204,-0.5359784364700317,0.11408331990242004,-0.03538072481751442,0.18234188854694366,-0.09668529033660889,-0.32051700353622437,-0.02566412463784218,-0.05143517255783081,-0.024564003571867943,0.23578199744224548,0.045944225043058395,0.054868169128894806,0.1765873283147812,0.158746138215065,0.14700394868850708,-0.00380015023984015,0.13471724092960358,0.06553754210472107,0.11776471138000488,-0.11018265783786774,0.4645902216434479,-0.07556849718093872,-0.1698453724384308,-0.1057935506105423,-0.19424492120742798,0.10646308213472366,0.20007282495498657,0.2020241916179657,-0.1134575828909874,0.23164930939674377,-0.1630813479423523,0.07882574200630188,0.058985721319913864,0.02487996220588684,0.15306507050991058,0.058839600533246994,-0.4396956264972687,-0.13401058316230774,-0.13715635240077972,-0.26691287755966187,0.11983302235603333,0.24842044711112976,-0.20153436064720154,-0.03001321479678154,-0.06445687264204025,-0.06428250670433044,-0.11440534144639969,0.13843348622322083,0.18967081606388092,-0.37736645340919495,-0.09606087952852249,-0.16718794405460358,0.07547801733016968,0.04579165577888489,-0.11055140942335129,0.07106062769889832,-0.148412823677063,-0.24775467813014984,0.16845788061618805,-0.10674251616001129,0.21237510442733765,-0.15319201350212097,-0.291026771068573,-0.2239317148923874,-0.023740215227007866,-0.13681770861148834,0.07185031473636627,0.02085849456489086,-0.021782899275422096,-0.2155541479587555,0.04821160063147545,0.10268246382474899,-0.08182130008935928,-0.2429632842540741,0.15177403390407562,-0.17831291258335114,0.02475745417177677,0.15009444952011108
-0.2802329659461975,-0.06346110999584198,-0.26568034291267395,-0.06208239123225212,-0.23619721829891205,0.058965977281332016,0.5370004773139954,-0.25794973969459534,0.23006559908390045,0.25782614946365356,-0.3786317706108093,0.07890709489583969,-0.24958866834640503,0.0528697744011879,-0.3721744120121002,-0.15304525196552277,0.28519490361213684,-0.04992497339844704,0.14386539161205292,0.09916103631258011,-0.35842499136924744,0.27155494689941406,0.034365326166152954,0.27298906445503235,0.41716206073760986,0.05512788146734238,-0.25016942620277405,-0.006302966736257076,0.19746966660022736,0.23069420456886292,0.08190233260393143,0.4276634752750397,0.13604997098445892,-0.006875764578580856,-0.23342886567115784,-0.04849053546786308,0.3664940893650055,0.39089563488960266,-0.04721309244632721,0.19547972083091736,0.4631687104701996,-0.1375601887702942,0.07250343263149261,0.03831784054636955,0.3890267312526703,0.004482786171138287,-0.3852619528770447,-0.05326095223426819,0.16916105151176453,0.166770800948143,0.10814125835895538,-0.23458081483840942,0.3845531642436981,0.056660596281290054,-0.17872336506843567,0.17262904345989227,-0.23627802729606628,-0.1783348172903061,-0.15020011365413666,0.02409852109849453,0.15426301956176758,-0.018359750509262085,0.2907635569572449,0.16087613999843597,-0.024122877046465874,-0.13914033770561218,0.07793349027633667,0.26673832535743713,-0.15722469985485077,0.17694586515426636,-0.32749640941619873,0.09370605647563934,0.10951549559831619,0.12560972571372986,-0.14082036912441254,0.20813433825969696,0.13139517605304718,-0.2539318799972534,-0.12394467741250992,0.08715756237506866,-0.08321218192577362,-0.1199750080704689,-0.6379219889640808,-0.032785430550575256,-0.464517742395401,0.051921017467975616,0.37735095620155334,0.10801666975021362,-0.11101776361465454,0.21271014213562012,0.19086235761642456,-0.48794472217559814,-0.03488282486796379,0.15535320341587067,0.17072834074497223,-0.01345109473913908,-0.22322247922420502,0.3007562756538391,-0.024800490587949753,-0.08934499323368073,-0.1906806230545044,0.11056598275899887,0.05430573970079422,0.26769036054611206,-0.042130496352910995,-0.150119811296463,0.30244606733322144,0.03347539156675339,0.0016931704012677073,0.2134428769350052,0.016192249953746796,-0.22094979882240295,-0.08356638997793198,0.1377427726984024,0.38616108894348145,0.1906498819589615,-0.24173270165920258,0.22357049584388733,0.1122385635972023,0.09446492791175842,0.07359131425619125,0.25090155005455017,0.27095115184783936,0.3004084825515747,-0.14233072102069855,0.048602208495140076,-0.024398019537329674,0.04208450764417648
-0.17311351001262665,0.010214700363576412,-0.09787744283676147,-0.07998005300760269,-0.048105739057064056,-0.1504221260547638,0.09258361160755157,0.04289925843477249,-0.15273553133010864,0.14849302172660828,-0.06025038659572601,0.09646423161029816,0.01800612173974514,-0.10676833242177963,-0.07126887887716293,-0.07152258604764938,-0.1898118108510971,-0.06482411175966263,0.10571590065956116,-0.16177697479724884,0.12451493740081787,-0.08345449715852737,0.12859143316745758,-0.0296630822122097,-0.015476174652576447,0.07173825800418854,0.1310461163520813,0.00901212077587843,-0.0427764430642128,-0.26715198159217834,0.14163601398468018,-0.12573327124118805,0.04177497699856758,0.3022785782814026,-0.02561536617577076,0.10971743613481522,-0.14462165534496307,0.1558242291212082,0.05374889820814133,-0.09943338483572006,-0.06600851565599442,-0.004371087998151779,-0.0018627443350851536,0.040076300501823425,-0.01866314746439457,-0.01583102159202099,0.08940260857343674,-0.18324048817157745,0.01489544752985239,0.20754499733448029,0.13382494449615479,0.006558251101523638,-0.23279042541980743,-0.0028143899980932474,-0.23044148087501526,-0.11464479565620422,-0.013574867509305477,-0.365659236907959,0.1373623162508011,-0.05485161021351814,-0.06211336702108383,0.21466974914073944,-0.06363361328840256,0.02108282968401909,-0.07882661372423172,-0.06746646761894226,-0.049877554178237915,-0.1905451864004135,-0.07059332728385925,-0.15499097108840942,-0.11290597915649414,0.19135554134845734,0.053898438811302185,0.1679970920085907,0.044300779700279236,-0.1864951103925705,-0.12814481556415558,0.05623875558376312,0.11857088655233383,-0.12228701263666153,-0.06968549638986588,-0.1350112408399582,0.01127923559397459,-0.08009888976812363,-0.14640063047409058,0.25093674659729004,-0.007596674840897322,-0.5802944898605347,0.1116950660943985,-0.04360349103808403,-0.015975210815668106,0.032789748162031174,-0.026426052674651146,-0.05748094618320465,0.04300367087125778,0.1340179294347763,0.008559408597648144,-0.021967783570289612,0.09098919481039047,0.14008890092372894,0.13676436245441437,0.17292580008506775,0.17281273007392883,0.12720492482185364,0.031124163419008255,-0.050602320581674576,-0.025473885238170624,0.0223765280097723,-0.06676716357469559,0.06109713762998581,0.14251521229743958,-0.0535254068672657,0.034117113798856735,-0.059144604951143265,-0.16369080543518066,-0.2624865472316742,0.052257731556892395,0.04011363536119461,-0.058778636157512665,-0.08783825486898422,-0.012152289040386677,-0.111458420753479,0.09725142270326614,-0.030232936143875122,-0.24108362197875977,0.02645757421851158,0.2073861062526703,-0.10928451269865036
0.17680855095386505,-0.08149226754903793,0.015287898480892181,0.10113527625799179,-0.24181011319160461,0.2159871608018875,-0.45136573910713196,-0.13977114856243134,0.3399280905723572,0.3878626525402069,0.26821771264076233,0.14713481068611145,-0.539634644985199,0.046030573546886444,0.09063003957271576,0.2973840832710266,0.16516250371932983,-0.4793581962585449,-0.06894399970769882,-0.28864431381225586,-0.2193353921175003,0.0655723288655281,0.2292213886976242,0.17750009894371033,0.1130610853433609,-0.10341925919055939,-0.25538673996925354,-0.19117961823940277,-0.1332826018333435,-0.05731774866580963,-0.021874528378248215,0.21469727158546448,-0.22707350552082062,0.3099806308746338,-0.10728715360164642,0.05232837051153183,-0.12522968649864197,0.8601044416427612,-0.4026590883731842,-0.16562938690185547,-0.2311926633119583,-0.2477119117975235,0.2569538950920105,0.49633553624153137,0.43085232377052307,-0.10417522490024567,-0.2812301814556122,-0.0883830264210701,-0.46516066789627075,0.1745121330022812,0.07465066760778427,0.0983227789402008,0.3844900131225586,-0.368592768907547,0.14280422031879425,0.14597448706626892,-0.13760563731193542,0.02375452220439911,-0.3116700053215027,0.01931518130004406,-0.05885167792439461,0.1505761593580246,0.34571975469589233,0.4786001741886139,-0.21574197709560394,-0.18453457951545715,-0.24495093524456024,-0.19254451990127563,-0.20379453897476196,0.19074226915836334,-0.05181151628494263,0.18604302406311035,0.1345127522945404,-0.03873446583747864,-0.5856097340583801,-0.016262272372841835,0.3049519658088684,-0.18710125982761383,-0.05773380026221275,0.1730097532272339,-0.26581135392189026,-0.1398840695619583,-0.1822429895401001,0.07060287147760391,-0.29845014214515686,0.5404742360115051,0.18863089382648468,-0.12238054722547531,0.13989196717739105,0.33808204531669617,-0.21554726362228394,0.1563066989183426,-0.10265959799289703,0.232371985912323,0.07429708540439606,-0.06369365751743317,-0.2340349704027176,0.4840565323829651,0.24023187160491943,-0.2123270332813263,0.20568843185901642,-0.3390200734138489,-0.3939233422279358,0.33112433552742004,-0.19622379541397095,0.09465731680393219,0.18866688013076782,-0.12562647461891174,0.27018311619758606,-0.060959480702877045,0.1948615312576294,-0.20713019371032715,-0.34290847182273865,-0.10393287241458893,-0.19492752850055695,-0.21751274168491364,-0.16389283537864685,-0.293302059173584,0.01656263694167137,0.23669441044330597,0.10771957039833069,0.11348029226064682,0.22574658691883087,-0.06095633655786514,0.08832423388957977,-0.1946685016155243,0.02813582867383957,0.4507581293582916
-0.24338921904563904,-0.09304290264844894,0.2081318497657776,-0.04574607312679291,-0.20226873457431793,0.42516058683395386,-0.09482651203870773,0.03444385901093483,0.18893975019454956,-0.11892765760421753,-0.03149905800819397,-0.29256364703178406,-0.07272234559059143,-0.2891637980937958,0.015951206907629967,-0.22495687007904053,0.08276055008172989,0.15450480580329895,-0.1282796412706375,-0.17268165946006775,-0.025481896474957466,-0.2759897708892822,0.17109568417072296,-0.3767375946044922,0.20799508690834045,0.07710493355989456,0.3292098343372345,0.04723084345459938,-0.05748659744858742,-0.10082855820655823,0.03885791078209877,0.005233933683484793,-0.10495150089263916,-0.20276707410812378,0.1596035659313202,0.021832803264260292,0.018944405019283295,-0.21931371092796326,-0.17141097784042358,0.23072686791419983,-0.04312560707330704,-0.08319000154733658,0.09844668954610825,-0.217370867729187,0.11056230217218399,-0.20325906574726105,0.08642809838056564,0.12440451234579086,0.023886162787675858,0.27559444308280945,-0.06912488490343094,0.14472442865371704,0.0389879047870636,-0.019522003829479218,0.04575379937887192,0.19181349873542786,0.27722984552383423,-0.08797765523195267,-0.1966915875673294,0.11514616012573242,-0.041189249604940414,0.08017215132713318,-0.10829190909862518,-0.13732458651065826,-0.3774946928024292,-0.13445201516151428,0.10170699656009674,0.22742582857608795,0.132673978805542,0.12736783921718597,0.10952803492546082,-0.09549205750226974,-0.10408291965723038,0.03975467383861542,0.07541172206401825,-0.1367676854133606,0.05374322831630707,0.011203242465853691,0.07924959063529968,0.06970207393169403,0.3299197256565094,-0.12302632629871368,0.18168993294239044,-0.06595437228679657,-0.09104489535093307,0.2643623948097229,-0.08659586310386658,0.2247452586889267,-0.28997310996055603,-0.06689174473285675,-0.08718176931142807,0.09546558558940887,-0.045134421437978745,-0.06348511576652527,0.11899247020483017,-0.021831735968589783,-0.07077166438102722,0.28783366084098816,0.1032886877655983,0.09906946867704391,0.01723545230925083,0.12489445507526398,0.15238690376281738,-0.03980757296085358,0.04023968428373337,-0.06550376117229462,0.15273965895175934,0.06315580755472183,-0.1358857899904251,0.12667150795459747,-0.2052733302116394,-0.09493895620107651,-0.14181086421012878,0.1289743185043335,-0.20469705760478973,-0.10569492727518082,-0.020088696852326393,-0.06980355083942413,0.14359050989151,0.2255961000919342,-0.1564546525478363,-0.23931440711021423,0.0442320853471756,-0.29173544049263,-0.24560843408107758,-0.12720288336277008,0.13800178468227386,-0.13185656070709229
-0.03925842046737671,-0.25720125436782837,-0.21931397914886475,0.2458341270685196,-0.1072215735912323,0.02520330436527729,-0.006220527924597263,-0.12932530045509338,0.1034044623374939,0.40115976333618164,0.13412702083587646,0.1564641296863556,-0.2685495913028717,-0.23673994839191437,0.075060173869133,0.20000503957271576,0.07396554201841354,-0.4016123116016388,-0.04512767866253853,-0.20863626897335052,0.1659938097000122,0.07949604839086533,0.07979066669940948,0.00342801446095109,0.02669111080467701,-0.14066281914710999,-0.19069895148277283,0.034424468874931335,0.05471540614962578,0.17715497314929962,-0.004472119268029928,0.1136469766497612,-0.00909922830760479,0.18148869276046753,0.0354144461452961,-0.08111680299043655,-0.006379482802003622,-0.021568387746810913,0.18479350209236145,0.06389506161212921,-0.17040576040744781,-0.1028732880949974,0.3908868432044983,0.06348226964473724,0.06961174309253693,-0.24392561614513397,-0.054594747722148895,0.19790546596050262,-0.12399811297655106,0.15806367993354797,0.06949291378259659,0.15240076184272766,0.2621167004108429,-0.18305030465126038,0.0794348418712616,0.09499339014291763,0.05879923701286316,0.18188852071762085,0.03754322603344917,-0.23459917306900024,0.10646439343690872,0.02757415547966957,0.17443929612636566,-0.0033190574031323195,-0.3198140859603882,-0.124051034450531,0.008104952052235603,-0.10620386153459549,-0.05558119714260101,-0.046193670481443405,0.10427874326705933,0.09390977770090103,-0.11322128772735596,-0.013142707757651806,-0.05336008220911026,0.12165255844593048,0.04009099304676056,-0.10028228908777237,-0.3002619743347168,-0.21497857570648193,0.02391994372010231,-0.10936764627695084,-0.2306389957666397,0.06613371521234512,0.004798475187271833,0.13503368198871613,0.004135732538998127,0.12153361737728119,0.09161727875471115,0.03513050079345703,-0.24505269527435303,-0.0858510360121727,0.03363990783691406,0.12014313787221909,0.07749874889850616,0.020554091781377792,-0.0538676455616951,0.2361818104982376,0.2191990315914154,0.08103740960359573,0.10862515866756439,-0.09260773658752441,-0.1984746903181076,-0.01626650057733059,0.15626147389411926,-0.09348511695861816,0.2742812931537628,-0.2617931067943573,0.007744254544377327,-0.1721203327178955,0.07000765204429626,-0.24128921329975128,-0.29950812458992004,-0.058862969279289246,-0.009471817873418331,0.02439476177096367,-0.2944510579109192,0.11360146850347519,0.0026387847028672695,0.21334616839885712,-0.08866006135940552,-0.027346916496753693,0.2832110822200775,-0.07670409977436066,-0.23481090366840363,0.09252440929412842,0.07073396444320679,0.3224124312400818
0.050483062863349915,0.08676829934120178,0.08394548296928406,-0.23393504321575165,-0.2181123048067093,0.2637632489204407,-0.0713074579834938,-0.34177204966545105,0.33535557985305786,-0.13583141565322876,-0.25188007950782776,-0.009281936101615429,0.17547918856143951,-0.08175652474164963,-0.009537838399410248,-0.20176546275615692,-0.22487537562847137,-0.22485388815402985,0.09061416983604431,0.12258854508399963,-0.17291030287742615,-0.07159537822008133,-0.1304965317249298,0.1394217163324356,-0.3926549553871155,-0.205902561545372,0.46959593892097473,-0.004484846722334623,-0.05498708412051201,-0.153217613697052,0.08243520557880402,0.2766408622264862,-0.13917936384677887,-0.2252821922302246,-0.01743176020681858,-0.09983039647340775,0.17897112667560577,-0.3153303861618042,-0.11727231740951538,0.004193794447928667,0.3183695375919342,-0.16878646612167358,-0.2618100643157959,-0.2788841128349304,-0.018704799935221672,-0.07835660874843597,0.029143134132027626,-0.22360394895076752,0.13946564495563507,0.4269183874130249,0.01987660862505436,-0.010361846536397934,0.11435578763484955,-0.1250067502260208,-0.47216320037841797,0.32571130990982056,0.07264992594718933,0.04645339399576187,-0.3139204680919647,0.10660610347986221,-0.13308005034923553,-0.21937206387519836,-0.13191349804401398,-0.2580482065677643,0.046294864267110825,-0.29438287019729614,-0.2741394639015198,-0.006723546423017979,0.005555794108659029,0.5105636715888977,-0.018471673130989075,-0.006501746829599142,-0.14754696190357208,-0.13524827361106873,0.02123052440583706,-0.11828190088272095,0.29534488916397095,0.07055193930864334,0.1545168161392212,0.4108579754829407,0.3443317711353302,0.02239956706762314,-0.09904607385396957,0.17154870927333832,0.051811281591653824,-0.16994081437587738,-0.21422919631004333,0.08728402107954025,-0.11817443370819092,-0.14453962445259094,0.017453884705901146,-0.07195486128330231,0.05584387481212616,0.29593750834465027,0.21745459735393524,0.12943577766418457,-0.11611252278089523,0.23951922357082367,-0.26161688566207886,-0.08008535206317902,-0.3472389876842499,0.2099611461162567,0.19962608814239502,-0.03744308650493622,-0.009759102016687393,0.2063523679971695,-0.20774544775485992,-0.04847802221775055,0.3807106018066406,0.333395779132843,-0.020860858261585236,-0.15883484482765198,-0.16857144236564636,0.24817945063114166,0.18681997060775757,-0.15088623762130737,0.13533873856067657,0.004027093760669231,0.04163987934589386,0.15279467403888702,-0.06654462218284607,0.1669488102197647,-0.19019800424575806,0.35645416378974915,-0.013130336068570614,0.18075521290302277,-0.025222547352313995,0.05960189551115036
0.07516670227050781,0.07881641387939453,-0.07169745117425919,-0.3567329943180084,0.12039846926927567,-0.062266796827316284,0.5517499446868896,0.18515144288539886,-0.3175959587097168,-0.40123841166496277,0.13484686613082886,-0.09059157967567444,0.24790218472480774,0.37987253069877625,-0.22881342470645905,0.09135676920413971,-0.11155538260936737,0.33469751477241516,0.02791493572294712,-0.0970347449183464,-0.14444532990455627,-0.3868432343006134,-0.37432965636253357,-0.024585556238889694,0.12295304238796234,-0.014926292933523655,0.03412206843495369,-0.12140688300132751,0.41060957312583923,-0.31515488028526306,0.19476106762886047,-0.28698164224624634,0.29357925057411194,-0.11002280563116074,-0.20909832417964935,-0.3044745922088623,0.10519338399171829,-0.1257132738828659,0.16395117342472076,0.08946196734905243,0.0259255338460207,0.19694098830223083,-0.08916124701499939,-0.31186166405677795,0.027199620380997658,0.5754905343055725,0.021435469388961792,0.13738122582435608,0.24473874270915985,-0.24416151642799377,0.06943469494581223,0.1321883499622345,-0.23734597861766815,0.4610627293586731,-0.09377074986696243,-0.40750187635421753,-0.3434481918811798,-0.3278224468231201,0.016062727198004723,-0.1232912465929985,0.4189988672733307,0.07345675677061081,-0.0672517642378807,-0.4688645303249359,0.2802891731262207,0.2194526642560959,0.1411285251379013,0.2092844545841217,-0.22799617052078247,-0.38552170991897583,-0.4876355528831482,-0.00034241011599078774,0.22690968215465546,0.1765805333852768,0.01660091243684292,0.2707042992115021,-0.29033392667770386,0.048665061593055725,0.17705625295639038,0.056912437081336975,-0.08835458010435104,0.09256713837385178,0.20979034900665283,0.10465651750564575,0.017663998529314995,-0.13746319711208344,-0.02736232802271843,0.018638964742422104,-0.20080244541168213,-0.16014407575130463,0.383669376373291,0.08775463700294495,0.009362303651869297,-0.46946296095848083,0.01614612713456154,0.17140012979507446,0.048254143446683884,-0.38832297921180725,-0.10798953473567963,0.29657062888145447,-0.3194083571434021,0.15216472744941711,0.4730563759803772,-0.031941697001457214,0.17093779146671295,0.07513654977083206,-0.015244921669363976,-0.005017026327550411,-0.14153878390789032,0.03140196576714516,-0.09823328256607056,0.1403234452009201,0.163308247923851,-0.033869095146656036,0.3523068130016327,0.135898157954216,0.09587404876947403,0.371227890253067,0.21500049531459808,-0.01577886752784252,-0.15527084469795227,-0.0647382140159607,0.018250826746225357,-0.1549592912197113,-0.11584935337305069,0.10043157637119293,-0.02470257692039013,-0.22884109616279602
-0.20096050202846527,-0.19252191483974457,-0.05908571556210518,-0.08493171632289886,-0.2616659104824066,0.4024350941181183,-0.029462780803442,-0.07357722520828247,0.27166372537612915,-0.10447578877210617,0.03091036155819893,-0.21517804265022278,0.13941429555416107,-0.08334637433290482,-0.08749563246965408,-0.022241758182644844,-0.06336771696805954,-0.03724696487188339,-0.03167284280061722,-0.19178183376789093,0.025624126195907593,-0.15007652342319489,-0.046651821583509445,-0.2476935237646103,0.020397040992975235,0.06605581939220428,0.04440396651625633,0.24600259959697723,0.14281292259693146,0.13812768459320068,-0.28040143847465515,0.414089173078537,0.04336893931031227,-0.16401049494743347,-0.08539336919784546,0.258063942193985,-0.0636666938662529,-0.15017437934875488,-0.2901047468185425,-0.013395569287240505,0.13563473522663116,-0.011378902941942215,0.26113298535346985,-0.1487351953983307,0.13545750081539154,-0.2026289701461792,-0.23123860359191895,-0.07700706273317337,-0.22638000547885895,0.23942194879055023,0.0784454271197319,0.01978589966893196,0.026311883702874184,-0.39527684450149536,0.03430469334125519,0.09175284951925278,0.14592048525810242,-0.005665614269673824,-0.15780198574066162,0.15900374948978424,-0.23758217692375183,-0.05144965276122093,0.06923431158065796,-0.20599494874477386,-0.2976282835006714,-0.1667371392250061,0.15823090076446533,0.16367904841899872,-0.024539707228541374,0.3601163327693939,-0.05898766592144966,-0.14084117114543915,-0.015940381214022636,0.06654469668865204,-0.0360332727432251,-0.16857650876045227,0.17214804887771606,0.14123976230621338,-0.06197874993085861,0.5493921041488647,0.421555757522583,0.17830482125282288,-0.006518366280943155,0.07669077068567276,-0.06306087970733643,-0.07136987149715424,-0.06637163460254669,0.026850474998354912,-0.4949435889720917,-0.41986286640167236,-0.23290777206420898,-0.2104308158159256,-0.2526777386665344,0.21356728672981262,0.002498260233551264,-0.14942796528339386,-0.08182644098997116,0.19859302043914795,-0.039513908326625824,0.226820170879364,-0.33926692605018616,0.03482099249958992,0.09458082914352417,-0.04242582619190216,0.06784551590681076,0.11157986521720886,-0.25379428267478943,0.17256471514701843,0.3120618760585785,-0.024631550535559654,-0.2240367829799652,0.18476316332817078,-0.00879557617008686,0.03883744776248932,0.1258581131696701,-0.2192886918783188,-0.011638129130005836,-0.18245500326156616,-0.21473850309848785,0.15573015809059143,-0.3210395276546478,0.06699376553297043,-0.037491172552108765,0.17982563376426697,-0.13104715943336487,0.0370638333261013,0.21628481149673462,-0.10650074481964111
0.007203675806522369,0.025435909628868103,-0.1252506822347641,-0.07482089102268219,-0.10822221636772156,-0.1830645501613617,0.42125198245048523,0.0627661719918251,-0.2971278429031372,0.10923927277326584,0.242029070854187,-0.22698579728603363,-0.003774122102186084,0.12710388004779816,0.05459456145763397,0.1804337352514267,-0.0793772041797638,0.0848054438829422,-0.22145473957061768,-0.05014292523264885,0.25714144110679626,0.032461006194353104,0.1818709820508957,-0.22213633358478546,-0.07271233946084976,-0.21564361453056335,-0.002311302348971367,0.031052781268954277,-0.022330613806843758,-0.01296103186905384,0.03643681854009628,-0.3604002296924591,-0.21387705206871033,-0.18478062748908997,0.3122595548629761,-0.014815248548984528,0.06893042474985123,0.08218476921319962,0.2234213799238205,0.09622019529342651,0.037456490099430084,0.2425154745578766,0.14811474084854126,0.11264540255069733,-0.19579780101776123,0.033048827201128006,-0.06647740304470062,0.13649611175060272,-0.14571698009967804,-0.16001127660274506,-0.0174772497266531,-0.04703480377793312,-0.3007699251174927,0.03121933341026306,-0.058846164494752884,-0.1964799463748932,0.05834371596574783,-0.003724840935319662,0.20120058953762054,-0.12484806030988693,-0.13194704055786133,-0.21902890503406525,0.024550460278987885,0.0983596071600914,-0.125581294298172,-0.11444371193647385,0.350454181432724,0.11935626715421677,0.36148983240127563,-0.11304999887943268,-0.2590148448944092,0.1972697526216507,0.1241239607334137,0.006347093265503645,-0.05314614996314049,-0.0813751295208931,0.006387772504240274,-0.04656897485256195,-0.0885096862912178,-0.10178311169147491,-0.13431107997894287,-0.025177426636219025,0.10044068098068237,0.30516317486763,-0.1345689594745636,-0.1178966760635376,-0.14899921417236328,-0.032541096210479736,0.09469521790742874,-0.29443636536598206,0.031211964786052704,-0.10171673446893692,0.20202037692070007,-0.12032473087310791,-0.18150173127651215,-0.2588137686252594,-0.14967650175094604,-0.418479323387146,0.03632567450404167,-0.10765749961137772,-0.04506983235478401,-0.05611664056777954,-0.017650295048952103,-0.016418607905507088,-0.02652834914624691,-0.16188779473304749,0.14194658398628235,-0.052844155579805374,-0.23019631206989288,-0.027256948873400688,0.11152175813913345,0.04714088514447212,0.1425522118806839,0.22321070730686188,0.037226032465696335,-0.0345071516931057,0.14228838682174683,-0.025081420317292213,-0.011892881244421005,0.11024276167154312,0.3736054301261902,-0.15829133987426758,-0.07656421512365341,-0.12686601281166077,0.05628890544176102,-0.21936176717281342,-0.06759455800056458,0.12770256400108337
-0.01553592924028635,0.07558657974004745,-0.020062310621142387,0.0207195021212101,-0.04352061077952385,0.061146192252635956,0.14119334518909454,0.0019209474558010697,-0.10737291723489761,-0.09397374093532562,-0.1472005546092987,-0.023558249697089195,0.08302505314350128,0.06049368157982826,0.11091563105583191,0.012828249484300613,0.07801078259944916,-0.17561198770999908,0.2335585504770279,0.04653286188840866,-0.032291263341903687,-0.24794770777225494,0.008042516186833382,0.3206026554107666,0.16190946102142334,0.013888463377952576,-0.17140065133571625,0.021898722276091576,-0.04546106606721878,0.0557742677628994,0.11810065060853958,0.0033990591764450073,0.004264514427632093,-0.12106568366289139,0.18385593593120575,-0.12885157763957977,-0.19526398181915283,0.10140714794397354,0.009157346561551094,0.14503325521945953,0.042928677052259445,0.07858562469482422,-0.04753715544939041,0.07998130470514297,-0.08709514141082764,0.14661122858524323,0.05122826620936394,-0.0735776498913765,0.0964277908205986,0.1700279861688614,0.20131412148475647,0.025002239271998405,-0.04744673892855644,0.12186037003993988,-0.3638738691806793,-0.05069578066468239,-0.09194282442331314,-0.42620107531547546,-0.12883034348487854,0.09275907278060913,-0.037712033838033676,0.18735724687576294,-0.04937296733260155,0.18144303560256958,0.03407556191086769,0.05563376471400261,0.044595833867788315,-0.018563522025942802,-0.05672595649957657,-0.10671131312847137,-0.10807116329669952,0.09112437069416046,-0.17971168458461761,-0.0493270643055439,0.19426195323467255,-0.15794087946414948,0.04719402641057968,-0.11302576959133148,-0.02911507524549961,-0.30635055899620056,0.09536564350128174,-0.05214724317193031,0.118509441614151,0.13645623624324799,-0.18544647097587585,0.09720662981271744,0.09923441708087921,-0.22725947201251984,0.043821338564157486,-0.052123915404081345,0.1964089721441269,0.20643718540668488,-0.284253865480423,-0.006913570687174797,-0.02868104912340641,-0.012879873625934124,-0.07962031662464142,0.0022405392955988646,0.10487177222967148,-0.06464257836341858,0.008776589296758175,0.08437956124544144,-0.03630467876791954,-0.006253942381590605,0.15873463451862335,-0.06253213435411453,-0.13869641721248627,0.05285247787833214,-0.13298392295837402,0.08229440450668335,0.07921529561281204,-0.136443093419075,-0.060781702399253845,-0.026267504319548607,-0.13537132740020752,-0.07801598310470581,-0.019113685935735703,0.14118169248104095,-0.010694094002246857,0.04435497894883156,-0.2550375461578369,-0.11987712979316711,0.10353036969900131,0.11146625131368637,-0.24539634585380554,-0.06546353548765182,0.12059971690177917,0.01818224787712097
-0.2166547328233719,0.0864996537566185,0.6425979733467102,0.05959717929363251,0.1342838704586029,-0.1584550440311432,-0.05410575494170189,-0.07000888884067535,-0.08778306841850281,0.24470262229442596,-0.00510026142001152,-0.2501770555973053,-0.08993533253669739,-0.06425855308771133,-0.12787874042987823,0.14044785499572754,0.2217073142528534,-0.1916288435459137,0.2807195782661438,-0.022105783224105835,-0.24256497621536255,-0.1413346230983734,0.17460715770721436,-0.6483542323112488,0.16284187138080597,-0.13358506560325623,-0.039047565311193466,0.03713909536600113,0.24146100878715515,-0.027389662340283394,0.09548772126436234,0.14971517026424408,0.18839605152606964,-0.03919215872883797,-0.3664984107017517,-0.04954761639237404,-0.08026820421218872,-0.00800471194088459,-0.7349798083305359,0.194197878241539,0.1951688826084137,-0.060868363827466965,-0.06851910054683685,0.4269091486930847,-0.009044375270605087,0.05133133381605148,-0.388325572013855,0.1088607981801033,0.07226207107305527,-0.2709386348724365,0.0551135316491127,-0.4892284572124481,0.4106086790561676,0.23628373444080353,-0.12224505096673965,-0.06256142258644104,-0.21508651971817017,-0.07424556463956833,-0.04591716453433037,0.2087133526802063,0.0111476369202137,-0.0789998471736908,0.09690646827220917,0.2341339886188507,-0.11810783296823502,0.21188651025295258,0.15679872035980225,0.19344112277030945,-0.1928427517414093,-0.2852444350719452,-0.14710360765457153,-0.0881107747554779,-0.0934516191482544,-0.09005126357078552,0.15952928364276886,-0.14422525465488434,-0.1077156513929367,-0.41859373450279236,0.02043013647198677,-0.29701295495033264,0.0063448697328567505,-0.10490909963846207,-0.13476620614528656,0.1913013756275177,-0.3779035210609436,-0.38041454553604126,0.13903740048408508,-0.1792505979537964,-0.41980254650115967,-0.17128995060920715,0.254039466381073,0.13297541439533234,0.15750668942928314,-0.37287822365760803,0.5313563346862793,-0.1558912694454193,0.3710280954837799,-0.0008446744177490473,0.19650799036026,0.054525382816791534,-0.3263747990131378,0.032712794840335846,-0.12614215910434723,0.15823982656002045,0.019594106823205948,-0.1811639368534088,0.12380878627300262,-0.15511175990104675,-0.7865598797798157,-0.008391371928155422,-0.4173352122306824,-0.007448977325111628,-0.28729018568992615,-0.12655280530452728,0.4264202415943146,0.21356405317783356,-0.2010955512523651,0.16020844876766205,0.21089757978916168,-0.06359527260065079,-0.19642117619514465,-0.0959087610244751,0.1242155134677887,-0.275127112865448,-0.18877968192100525,-0.09397201985120773,0.1492081880569458,0.03137793391942978
0.17249542474746704,-0.4055250585079193,0.5245783925056458,0.10868901759386063,0.1782131940126419,-0.16962775588035583,0.027741046622395515,0.13973839581012726,-0.2614413797855377,0.41621601581573486,0.13394340872764587,0.035512130707502365,-0.1814073920249939,0.32629716396331787,0.4243446886539459,-0.05961062014102936,-0.0073056998662650585,0.3089752495288849,-0.26382535696029663,-0.07916746288537979,0.13863278925418854,0.2860071659088135,0.049933649599552155,-0.2561079263687134,-0.12301724404096603,0.22932760417461395,-0.11571574956178665,0.20245851576328278,-0.3550542891025543,0.06467053294181824,0.13949386775493622,-0.12635232508182526,-0.19290418922901154,-0.07560305297374725,0.07519900798797607,0.2857109010219574,-0.32572120428085327,0.21607859432697296,-0.8059702515602112,-0.016041386872529984,-0.2725210189819336,-0.18252073228359222,-0.06411268562078476,-0.08872876316308975,0.1540331095457077,-0.17836591601371765,0.2663513123989105,0.08117911964654922,-0.2794141471385956,-0.06085822731256485,0.16132709383964539,0.1946384757757187,-0.2578338384628296,-0.14152325689792633,0.4438229203224182,0.05989844352006912,-0.23592032492160797,-0.051534488797187805,-0.015772957354784012,0.20943143963813782,0.05239066109061241,-0.1907140016555786,-0.22126752138137817,0.1465895026922226,0.07931312918663025,0.28049710392951965,-0.0560421496629715,0.20618116855621338,0.1086946651339531,-0.12190525978803635,0.16780170798301697,0.09564208984375,-0.3229908049106598,-0.27267369627952576,-0.04886343702673912,-0.021121272817254066,0.2974816858768463,0.3612669110298157,0.03508339822292328,0.11913345009088516,-0.0627882182598114,0.3331535756587982,0.12459668517112732,0.13272471725940704,0.15784026682376862,-0.1904425173997879,-0.273510605096817,0.13467714190483093,0.19290943443775177,-0.3291347026824951,0.12097108364105225,0.33490604162216187,-0.21923531591892242,0.0492803230881691,-0.5648621916770935,-0.14070697128772736,0.03325549513101578,0.2916795015335083,0.16710585355758667,-0.35334891080856323,0.20518623292446136,-0.0413503535091877,0.0742480456829071,0.041815876960754395,0.046396709978580475,0.15923263132572174,-0.2000918984413147,0.26688873767852783,0.16983407735824585,-0.009817596524953842,0.04098737984895706,0.09356649219989777,-0.2508608102798462,-0.3454244136810303,-0.025937790051102638,-0.15241238474845886,-0.039236173033714294,-0.42815372347831726,-0.15529145300388336,-0.15649887919425964,0.03537760302424431,0.12220454961061478,-0.13191375136375427,0.27444738149642944,0.045578110963106155,-0.33538854122161865,-0.2730683982372284,0.11560650169849396
-0.1880209743976593,-0.12158063054084778,0.4074777662754059,0.08603505790233612,-0.02569429762661457,-0.2070406824350357,-0.04798923060297966,0.2721538543701172,-0.09200941026210785,0.010340450331568718,0.08066612482070923,-0.3039346933364868,0.11877106130123138,0.057420939207077026,0.07959703356027603,0.2627391219139099,0.22645872831344604,0.0859832689166069,0.03434541076421738,0.045364171266555786,-0.028177473694086075,-0.08535828441381454,-0.10042794793844223,-0.2392147034406662,0.24819935858249664,0.02376614697277546,-0.14299872517585754,-0.20980732142925262,0.06416285783052444,-0.0011965653393417597,0.12456750124692917,-0.0669281855225563,0.20559126138687134,-0.030447591096162796,-0.1457342654466629,-0.1773049533367157,0.09256044775247574,0.23686155676841736,-0.4059150516986847,0.03868433088064194,0.24827392399311066,0.07838207483291626,0.050507694482803345,-0.06418827176094055,-0.10334363579750061,-0.06192249432206154,-0.12190816551446915,0.2057165652513504,0.10954181849956512,-0.10737153887748718,-0.27868586778640747,-0.26830440759658813,0.31843170523643494,0.1334991604089737,0.19429823756217957,0.1661771535873413,-0.0652228370308876,0.15152986347675323,-0.027877619490027428,0.042791929095983505,-0.03650517389178276,0.10357718914747238,0.1703304499387741,0.06543511897325516,0.05291009321808815,0.07127667218446732,0.09238670766353607,-0.15312910079956055,-0.005359400995075703,-0.026227032765746117,0.11029589176177979,-0.3052860200405121,-0.0314607173204422,-0.06395794451236725,0.04849826171994209,-0.09598565846681595,-0.038546714931726456,-0.16396069526672363,-0.18775376677513123,-0.2174476683139801,0.030485091730952263,-0.25763019919395447,-0.16944842040538788,0.1648511290550232,-0.09345997124910355,-0.2285950630903244,0.015861406922340393,0.014326292090117931,-0.3787800967693329,0.010472913272678852,0.3358571529388428,0.17084187269210815,0.026026466861367226,-0.20731043815612793,0.36805564165115356,-0.005462587345391512,0.07999183237552643,-0.10823731869459152,0.16130360960960388,0.5988979935646057,-0.1813044250011444,-0.023999638855457306,0.010984576307237148,0.11132697016000748,0.04789770394563675,-0.04942234233021736,0.3325090706348419,0.23576340079307556,-0.33559030294418335,0.042684800922870636,-0.4521101415157318,0.17164751887321472,-0.02723488211631775,-0.21392928063869476,0.24510809779167175,0.403073787689209,-0.29042086005210876,0.22417883574962616,0.00378456711769104,0.27502989768981934,-0.22329211235046387,-0.12642820179462433,0.3028278648853302,-0.013367848470807076,0.06489387899637222,0.06969407945871353,-0.13567258417606354,-0.4008195400238037
0.018010873347520828,-0.22689375281333923,0.3015029728412628,0.02390715666115284,0.11016353964805603,0.15010617673397064,0.18211394548416138,0.052202045917510986,-0.037632282823324203,0.11282896250486374,0.16218416392803192,0.2869882583618164,-0.24090273678302765,-0.07343047112226486,0.14775782823562622,0.04350430518388748,0.08018214255571365,0.2086402326822281,0.08896297961473465,-0.1239948645234108,0.05341625586152077,0.0965779647231102,0.038427527993917465,0.021639272570610046,-0.008681011386215687,-0.004821849055588245,0.23025470972061157,-0.075998455286026,-0.03509974107146263,-0.11754929274320602,-0.08356807380914688,-0.25585323572158813,0.05079668387770653,-0.1446695625782013,0.08327562361955643,0.017299097031354904,0.07430316507816315,0.18295277655124664,0.04630270227789879,0.03250807523727417,-0.020894823595881462,0.2035638839006424,-0.08785326778888702,-0.03339162468910217,0.009752805344760418,-0.37234699726104736,0.20644158124923706,-0.13048629462718964,0.017859742045402527,0.04187198355793953,0.20148423314094543,0.18371377885341644,0.049950480461120605,-0.1311970353126526,0.0633741095662117,0.22740627825260162,-0.1114308089017868,-0.023664377629756927,-0.18181906640529633,-0.04084613919258118,0.04479660838842392,0.04041839763522148,0.07154153287410736,0.0594453364610672,0.10550635308027267,-0.10237469524145126,-0.0932251587510109,0.22485816478729248,-0.01618325524032116,0.0074995229952037334,-0.06280972063541412,-0.07022522389888763,0.036459825932979584,0.015324315056204796,0.21835964918136597,-0.003668751334771514,0.1272815316915512,0.44139862060546875,-0.27905184030532837,-0.13595354557037354,0.11258808523416519,0.2521710991859436,0.12001855671405792,0.019882971420884132,0.06906074285507202,-0.13575047254562378,0.16841910779476166,-0.047382891178131104,-0.17907364666461945,0.22222667932510376,0.06974676251411438,0.0517013743519783,-0.25871339440345764,0.14073964953422546,-0.04174206778407097,-0.24994942545890808,-0.04421057552099228,0.05784593150019646,-0.18539270758628845,-0.13122518360614777,-0.07058150321245193,-0.056512195616960526,-0.2920605540275574,-0.04130402207374573,-0.13662511110305786,0.4036807715892792,-0.17629367113113403,-0.01909421943128109,-0.011513249017298222,-0.1807301789522171,0.14841561019420624,0.18000110983848572,-0.10810139775276184,0.1361541897058487,-0.23054063320159912,0.0745314508676529,-0.18525932729244232,-0.13251559436321259,0.11760758608579636,0.05230702832341194,-0.2106105387210846,-0.039843276143074036,0.18897420167922974,0.25452518463134766,-0.16204972565174103,0.18975920975208282,0.026331745088100433,-0.12562629580497742
0.2847253084182739,-0.17567068338394165,-0.03373076394200325,-0.04244949668645859,-4.691117283073254e-05,-0.00643710233271122,-0.24312081933021545,-0.3569865822792053,0.29047584533691406,0.2792787253856659,-0.0758850947022438,0.04520699381828308,0.019879154860973358,-0.12835344672203064,0.4647511839866638,-0.20537908375263214,-0.359688937664032,-0.19605199992656708,-0.1179068312048912,0.3018767833709717,0.11348023265600204,0.0542323999106884,0.29640135169029236,-0.2326744645833969,-0.27606362104415894,0.4107874929904938,0.03657924756407738,0.31957852840423584,-0.5106417536735535,0.21957233548164368,-0.2802899181842804,0.33598530292510986,-0.37165024876594543,0.18143725395202637,0.33052581548690796,0.05305446684360504,-0.049465540796518326,0.07982218265533447,-0.050477590411901474,-0.5401070713996887,0.04325440898537636,-0.1456858217716217,0.23833508789539337,-0.011107204481959343,0.16917181015014648,-0.14285430312156677,0.27480340003967285,-0.27497565746307373,-0.3319942057132721,0.20116345584392548,-0.033066775649785995,0.21592837572097778,-0.054840415716171265,-0.4377191662788391,0.021186837926506996,0.34418076276779175,-0.15041513741016388,0.13120268285274506,-0.16277019679546356,0.19987863302230835,-0.013218129985034466,-0.188760444521904,-0.041587430983781815,0.25236716866493225,-0.09908676892518997,-0.30436596274375916,-0.09706216305494308,0.1794443428516388,0.35649266839027405,0.06665990501642227,-0.4330582916736603,0.5228310227394104,0.007868928834795952,-0.23731479048728943,-0.281059592962265,0.03454809635877609,0.3236269950866699,-0.03443834185600281,0.3817521929740906,0.33171743154525757,-0.0984797552227974,0.3928297758102417,-0.16078446805477142,-0.018421486020088196,-0.0879196897149086,0.5158218145370483,0.11458412557840347,0.035038188099861145,0.5422680377960205,-0.28704994916915894,-0.6550502777099609,-0.05471823737025261,-0.09467688947916031,0.4865376353263855,-0.3677683174610138,-0.37744832038879395,-0.8849735856056213,0.46063995361328125,0.11271966248750687,-0.40130218863487244,0.17164801061153412,-0.054271794855594635,-0.2485826164484024,-0.20181599259376526,-0.3042784035205841,0.22452592849731445,-0.03306150808930397,0.08561331778764725,0.5217561721801758,-0.2080841064453125,0.47949084639549255,-0.21145446598529816,-0.1655580997467041,-0.1258614957332611,-0.15823031961917877,-0.3358677923679352,0.18719559907913208,-0.47026777267456055,-0.32022494077682495,0.03085356391966343,0.4314931631088257,0.40366509556770325,0.0696197971701622,0.2725442051887512,-0.0451793298125267,-0.1887468695640564,-0.28529882431030273,0.3960859775543213
