Layer: av/fc_1/kernel,"Shape: (79, 128)",,,,,,,,,,,,,,,,,,,,,,,,,,,,,,,,,,,,,,,,,,,,,,,,,,,,,,,,,,,,,,,,,,,,,,,,,,,,,,,,,,,,,,,,,,,,,,,,,,,,,,,,,,,,,,,,,,,,,,,,,,,,,,
-0.30344414710998535,0.026807837188243866,-0.2675764262676239,-0.01264908816665411,0.2407078742980957,0.14605914056301117,0.34934061765670776,-0.19408175349235535,0.02257688343524933,0.06777142733335495,-0.0350072979927063,0.13382059335708618,-0.02653709053993225,0.0658959373831749,0.08796665072441101,0.1720559298992157,0.11494576930999756,0.0854925811290741,0.09678633511066437,0.09021767228841782,0.011016305536031723,0.02894480526447296,-0.16481733322143555,0.18210221827030182,-0.073626309633255,-0.039545219391584396,-0.1213010922074318,-0.3892650604248047,0.14516247808933258,-0.005336584988981485,0.25139036774635315,-0.21129736304283142,-0.12903523445129395,0.32245171070098877,-0.0549880713224411,-0.09907223284244537,-0.06291715800762177,0.003133490215986967,0.03646327927708626,0.15348167717456818,-0.04441266134381294,0.1544390171766281,0.1439606100320816,0.07906105369329453,0.045988354831933975,0.06603262573480606,-0.02440849505364895,-0.14351043105125427,-0.11124829202890396,0.17070363461971283,0.15450504422187805,0.19856084883213043,-0.10557756572961807,0.05964197590947151,-0.5896395444869995,0.06782519072294235,0.18393155932426453,-0.23980310559272766,0.19374024868011475,0.052159201353788376,-0.23482732474803925,0.3756710886955261,-0.07100128382444382,0.08763151615858078,-0.15519195795059204,-0.3450326919555664,-0.15795128047466278,-0.014243940822780132,-0.05069346725940704,-0.054248057305812836,-0.2292124629020691,0.008200017735362053,0.24042156338691711,0.5178626179695129,-0.034959010779857635,-0.009017678909003735,0.020468784496188164,-0.13255466520786285,0.035724006593227386,0.04868276044726372,-0.08951903134584427,-0.15275488793849945,-0.0118822967633605,0.05193301662802696,-0.36843937635421753,0.020759612321853638,0.1823209822177887,-0.4763549268245697,-0.02368190325796604,0.34611421823501587,-0.061512235552072525,0.17544768750667572,-0.1596219837665558,0.00950040016323328,0.2047308385372162,0.08594624698162079,0.16037103533744812,-0.23601360619068146,-0.012332933023571968,0.2552816569805145,-0.003398071276023984,0.2815636694431305,0.14514124393463135,0.0255667082965374,0.08499637246131897,-0.10192935913801193,-0.008931908756494522,-0.15715228021144867,-0.16641561686992645,-0.11926136165857315,0.045801933854818344,-0.028874658048152924,0.12183018028736115,0.1472070813179016,-0.017370689660310745,-0.1921054571866989,0.24355991184711456,0.108539879322052,0.08200714737176895,-0.15414729714393616,-0.1775873303413391,0.09785277396440506,-0.04718446359038353,-0.10275538265705109,0.08275026082992554,0.1902794986963272,0.20523753762245178,0.1606006622314453
0.1853410303592682,-0.28111031651496887,0.3037494421005249,-0.49343863129615784,-0.7104736566543579,0.12647880613803864,0.17935071885585785,0.008650487288832664,0.07532835006713867,-0.8205217123031616,-0.36137983202934265,0.0024242443032562733,-0.30144166946411133,0.4327826499938965,0.09695692360401154,-0.030589748173952103,0.21218611299991608,0.24291494488716125,0.11082204431295395,0.16083049774169922,-0.04964226856827736,0.3416276276111603,0.021481437608599663,0.16447797417640686,-0.3746627867221832,0.14544282853603363,0.12722067534923553,-0.8597469329833984,-0.24147264659404755,-0.7654113173484802,-0.5450780391693115,-0.25723734498023987,0.09905042499303818,0.37785962224006653,-0.09239784628152847,0.05724421143531799,0.21419233083724976,-0.29753145575523376,-0.030168982222676277,-0.4021971523761749,-0.033497873693704605,0.13120225071907043,-0.45483019948005676,-0.6990082263946533,0.050261352211236954,0.1569634974002838,-0.4863245189189911,-0.6095901727676392,0.056058190762996674,-0.631607174873352,-0.062459561973810196,-0.3560825288295746,0.33476775884628296,0.30613115429878235,-0.2700796127319336,-0.23500534892082214,-0.2955161929130554,-0.2685050666332245,-0.6881293058395386,0.1975456327199936,-0.1306171715259552,-0.20218321681022644,-0.2705732583999634,0.3701108396053314,0.09635372459888458,-0.018225036561489105,-0.4987544119358063,-0.4652790129184723,0.4789569675922394,0.01542266272008419,-0.03447258472442627,-0.0962555855512619,-0.3074873387813568,-0.3006093502044678,0.2203858196735382,0.19907715916633606,-0.027956688776612282,0.33528465032577515,0.22440090775489807,0.3045356273651123,-0.14802676439285278,-0.27368831634521484,-1.2053701877593994,-0.04401027411222458,0.05914226174354553,-0.3172742426395416,0.18671353161334991,0.27926671504974365,0.000992109184153378,-0.16447725892066956,0.2336609810590744,0.2344651222229004,0.14121896028518677,0.02519998885691166,-0.3507132828235626,-0.3101487457752228,0.1440638154745102,-0.21443283557891846,-0.20184029638767242,-0.07385510206222534,0.32175391912460327,-0.04600253701210022,-0.0907873809337616,-0.3730067014694214,0.24486862123012543,-0.03570921719074249,-0.04277162626385689,0.03249981626868248,0.28810369968414307,0.1694912165403366,-0.25027328729629517,0.2381363809108734,-0.6881899237632751,-0.21402469277381897,0.12555912137031555,0.12109431624412537,-0.13050387799739838,0.5912627577781677,0.3221697509288788,0.09828407317399979,-0.32836124300956726,0.16367127001285553,0.09437518566846848,-0.2187604159116745,0.12535208463668823,0.49282708764076233,-0.19226005673408508,0.19474641978740692
-0.35716187953948975,-0.1842668205499649,0.02513248100876808,-0.038656555116176605,0.15731877088546753,0.1010904386639595,0.08601278811693192,0.019513888284564018,0.16592828929424286,-0.08352503180503845,0.10582038015127182,-0.5525366067886353,-0.18770907819271088,0.49125924706459045,-0.24773314595222473,0.21776802837848663,-0.30334556102752686,-0.1173524260520935,-0.0743604376912117,0.18565930426120758,0.16873247921466827,0.07660318166017532,0.19999749958515167,-0.19802473485469818,-0.21021488308906555,0.05100858584046364,0.16849131882190704,0.3237939178943634,0.10704852640628815,0.09967729449272156,-0.1082199290394783,-0.47293949127197266,-0.1000739336013794,0.1853671669960022,0.3969743847846985,-0.029294166713953018,-0.02244032546877861,0.23585821688175201,-0.14302857220172882,-0.05522599071264267,0.1290670484304428,-0.15275461971759796,0.029954716563224792,0.11953970789909363,-0.2033335268497467,0.06280574947595596,-0.028912672773003578,0.17137721180915833,-0.3080529570579529,0.018791548907756805,0.2858433127403259,0.1334788203239441,-0.3246743679046631,-0.012097994796931744,-0.2542758285999298,0.05675721913576126,-0.1719408929347992,0.27801862359046936,0.03404340520501137,0.17839765548706055,0.5790327191352844,0.14956842362880707,-0.12043890357017517,0.8733211159706116,0.4651898443698883,-0.12976884841918945,-0.15698115527629852,0.0487169548869133,0.3062305748462677,0.02609488181769848,-0.19650718569755554,-0.22183552384376526,-0.6323944330215454,-0.36484795808792114,-0.39025652408599854,0.07609163224697113,0.5314860343933105,-0.16635088622570038,0.11111295968294144,-0.4750494956970215,-0.06920052319765091,0.1369810551404953,0.4205271601676941,-0.013722206465899944,0.05252611264586449,0.2188197821378708,0.21909476816654205,0.523585319519043,-0.30644041299819946,-0.5239925980567932,-0.2224479764699936,0.020178422331809998,0.1507280468940735,-0.17894962430000305,-0.120311439037323,-0.03987038508057594,-0.20577143132686615,0.3725937306880951,-0.21049046516418457,-0.4733511805534363,-0.18597088754177094,-0.2441551685333252,-0.2835817337036133,-0.022201145067811012,-0.04230164736509323,0.24697497487068176,-0.05951981619000435,-0.3000929355621338,-0.061479389667510986,-0.026443693786859512,0.02598397806286812,0.01644100993871689,-0.9284834265708923,-0.25085967779159546,0.139459028840065,-0.020594388246536255,0.1498214155435562,0.14260779321193695,0.27185648679733276,-0.02880297787487507,-0.2675051987171173,-0.1706663817167282,0.0011850310256704688,0.22864891588687897,-0.622474193572998,0.03627330809831619,-0.1048910990357399,0.1853075474500656
-0.20587940514087677,-0.10182461142539978,0.10968047380447388,0.010693607851862907,-0.7839938402175903,0.1581580489873886,-0.13764739036560059,-0.048804741352796555,0.21248947083950043,-0.2837076783180237,-0.2676539123058319,0.006033733952790499,-0.0349811315536499,0.20283585786819458,-0.0829196646809578,-0.29296448826789856,0.08087757229804993,0.22921903431415558,-0.09907478839159012,-0.1794101893901825,-0.0459584966301918,0.17067930102348328,0.23948965966701508,-0.16292884945869446,-0.5114178657531738,0.0912196934223175,0.033924400806427,-0.34360232949256897,-0.17995837330818176,-0.16421674191951752,-0.27852898836135864,0.1038856953382492,0.11333815008401871,0.09404918551445007,-0.04738315939903259,0.1521393209695816,0.4389020800590515,-0.004326336085796356,-0.24254031479358673,-0.08146234601736069,0.41872966289520264,0.008074108511209488,-0.2445724457502365,-0.46858322620391846,0.17761191725730896,0.32200759649276733,-0.2114447057247162,-0.0535479411482811,0.12479416280984879,-0.23728258907794952,0.08816975355148315,-0.6043117642402649,0.24475762248039246,0.2757001221179962,0.22661124169826508,0.4088294208049774,-0.34648746252059937,-0.07093645632266998,-0.2585008144378662,0.3015805184841156,-0.06298457831144333,-0.0896158292889595,-0.27546411752700806,0.1831548660993576,-0.32950371503829956,-0.030673107132315636,-0.30497828125953674,-0.2807081341743469,0.3223836123943329,0.05387895181775093,-0.003902373369783163,-0.11131768673658371,-0.33527106046676636,-0.23786237835884094,0.15838468074798584,-0.09286433458328247,-0.09883448481559753,0.183470219373703,0.1929389387369156,0.2610539197921753,-0.22379262745380402,0.07237430661916733,-0.6642248630523682,-0.11184214800596237,0.14675381779670715,-0.24776385724544525,0.0008707199012860656,0.39556601643562317,-0.0859425961971283,0.039199553430080414,0.2756671607494354,0.36395642161369324,0.0857674703001976,-0.037261079996824265,-0.033799562603235245,0.042365893721580505,0.2000828981399536,0.29149025678634644,-0.21932119131088257,-0.009356724098324776,-0.0873260498046875,0.08108915388584137,-0.41303345561027527,-0.07807722687721252,0.1742573231458664,-0.3765859603881836,-0.28484681248664856,-0.2737729549407959,0.5845084190368652,0.8762168884277344,-0.208331897854805,0.37353697419166565,-0.5776622891426086,-0.2892664074897766,0.22173815965652466,0.12072791159152985,-0.420624315738678,0.2425597906112671,0.4124026596546173,0.08819077908992767,-0.7273765206336975,0.02262820303440094,-0.394076943397522,0.24294930696487427,0.17496095597743988,0.42434337735176086,0.1659458875656128,-0.1883295476436615
0.38857632875442505,-0.10077092796564102,-0.20061978697776794,-0.08497869968414307,-0.19656620919704437,0.15869837999343872,-0.09982878714799881,0.349017471075058,-0.08308880776166916,0.11263582855463028,0.06768325716257095,-0.13566352427005768,0.10875468701124191,-0.26819154620170593,0.45376330614089966,0.41698169708251953,-0.1268056482076645,0.35711029171943665,0.16334585845470428,-0.002507563214749098,-0.2332592010498047,0.0924057811498642,0.23971392214298248,-0.15216591954231262,0.2105386108160019,0.5310694575309753,0.05990082025527954,0.08266523480415344,-0.35386747121810913,0.2773536741733551,-0.06819648295640945,-0.08113066852092743,-0.12016008049249649,0.12528130412101746,0.019878152757883072,0.4904833436012268,-0.09715958684682846,-0.08393558114767075,-0.006446009036153555,0.02829539030790329,-0.4839444160461426,0.18172456324100494,-0.26731255650520325,0.0024355638306587934,-0.17790327966213226,-0.03431906923651695,-0.3127289116382599,-0.21836115419864655,-0.2211160808801651,0.3176860511302948,-0.3037319779396057,-0.08146148175001144,-0.18671195209026337,-0.0830845758318901,0.2310086339712143,-0.23657427728176117,0.054624974727630615,0.03670160099864006,-0.19264917075634003,-0.1563238501548767,0.1813126802444458,-0.34480005502700806,0.22966210544109344,0.33551350235939026,-0.05663982033729553,0.6017366051673889,0.045472294092178345,0.21903571486473083,0.09608928114175797,-0.38717129826545715,0.2307138442993164,0.17130877077579498,-0.4672619104385376,-0.14499501883983612,0.5092918276786804,-0.10024429112672806,0.3022410571575165,-0.3371501863002777,-0.5451887845993042,0.14516067504882812,0.12537625432014465,0.11128432303667068,-0.017853988334536552,-0.2633819282054901,-0.444892019033432,-0.12471907585859299,-0.038490504026412964,-0.05170927941799164,-0.027690578252077103,0.3340741693973541,0.07482244074344635,0.1561000794172287,0.07174897938966751,-0.33567312359809875,-0.06598334014415741,-0.2356281280517578,-0.22716708481311798,0.32492727041244507,0.0972449779510498,0.1453724056482315,-0.007428149227052927,0.010630392469465733,0.2511157989501953,-0.10571938008069992,0.001110065495595336,-0.5057794451713562,-0.43137937784194946,-0.10752752423286438,-0.22187909483909607,-0.029415199533104897,-0.2736026644706726,0.2637481689453125,-0.05081040784716606,-0.14765259623527527,0.08157777041196823,-0.03602715581655502,-0.21734574437141418,-0.3373264968395233,-0.3138697147369385,-0.17894545197486877,-0.15887485444545746,0.10473380982875824,0.36822187900543213,-0.2684202194213867,-0.25606971979141235,-0.0033953916281461716,-0.15501821041107178,-0.1981089562177658
0.7390766739845276,0.16868135333061218,0.20126605033874512,0.9037719964981079,0.8898074626922607,-0.14109507203102112,-0.13644777238368988,-0.12442555278539658,-0.033117495477199554,0.9195927977561951,-0.14519762992858887,0.1399681121110916,-0.3083178699016571,-0.5764535665512085,0.5932250022888184,0.1406293362379074,-0.8760061264038086,-0.3959387540817261,-0.00856869574636221,0.727679431438446,0.9452980160713196,-0.1595185101032257,-0.03905238211154938,0.24054735898971558,0.6571803092956543,0.10970930755138397,-0.4926874339580536,0.8125872611999512,0.5933099389076233,0.8526337742805481,0.2791511118412018,-0.052907753735780716,-0.3464306592941284,0.064582958817482,0.3045900762081146,0.08289986103773117,-0.9826135039329529,0.6165186166763306,0.28405189514160156,0.26008519530296326,-0.17773370444774628,0.11223296076059341,0.720234751701355,0.47794273495674133,-0.624112606048584,-1.1104334592819214,0.5580742359161377,0.4637552797794342,-0.580780029296875,0.010876049287617207,-0.2390466034412384,0.9774960875511169,-0.7596112489700317,-0.8794059753417969,0.2192150056362152,0.8728241324424744,1.0045671463012695,0.21229058504104614,0.9943686127662659,-0.006795055698603392,0.03652093932032585,0.3181464374065399,-0.4724143147468567,0.05082614719867706,0.32380813360214233,0.2712690532207489,0.5744513273239136,0.7635357975959778,0.49030035734176636,-0.05722467228770256,-0.766862690448761,0.23563708364963531,0.04439575597643852,-0.866362452507019,-0.749223530292511,0.16560861468315125,0.4383337199687958,-0.12219268828630447,-0.24188217520713806,-0.18351414799690247,0.5667070746421814,0.6587565541267395,0.8811871409416199,-0.11455615609884262,-0.29174908995628357,1.3169740438461304,-0.198890820145607,-0.016848469153046608,0.5923621654510498,-0.5674955248832703,-0.9287698268890381,-0.3934132158756256,0.01584174856543541,0.28015029430389404,-0.1918141394853592,0.10198342055082321,-0.4338952600955963,0.12610165774822235,0.3674343526363373,-0.41419699788093567,0.23898866772651672,-0.22524581849575043,-0.026614539325237274,0.06645365059375763,-0.6859614253044128,0.8906294107437134,0.2737792730331421,0.5032734274864197,-0.2993893623352051,-1.0591671466827393,0.9219598770141602,-0.06569889932870865,0.4697999060153961,0.13931332528591156,-0.14601443707942963,0.10001304745674133,0.5969057083129883,-0.6075504422187805,-0.722610354423523,-0.6219772100448608,0.9401293992996216,0.21509915590286255,-0.14243479073047638,0.07213897258043289,-0.5808020234107971,-0.21770206093788147,-0.25086840987205505,0.5597882866859436
0.006022103130817413,-0.07857183367013931,-0.479070782661438,-0.3738332986831665,-0.08380816876888275,-0.07940853387117386,0.14393918216228485,-0.15101805329322815,-0.0029896744526922703,-0.020408913493156433,0.2905568480491638,0.08280619978904724,0.14293736219406128,0.25025731325149536,-0.4141790270805359,-0.05411022529006004,0.2335440218448639,0.12298250198364258,0.1297914832830429,0.006002666428685188,-0.45946937799453735,0.14276286959648132,-0.11663546413183212,-0.08824637532234192,-0.17370499670505524,-0.09393280744552612,0.17585118114948273,-0.2574935555458069,0.07126953452825546,-0.3677220642566681,-0.23707473278045654,-0.4063604474067688,0.2921815812587738,0.0374973826110363,0.32349470257759094,-0.023424696177244186,0.14306466281414032,-0.24029381573200226,-0.05459477752447128,-0.21709848940372467,-0.0777728408575058,-0.19542311131954193,-0.301582932472229,-0.03863615542650223,0.3527103066444397,0.3988834321498871,-0.09068542718887329,-0.2427019476890564,0.047806430608034134,0.17773593962192535,-0.0875931829214096,-0.18901023268699646,0.05312850698828697,0.03744514286518097,-0.5066406726837158,-0.07346975803375244,-0.2598719298839569,0.13069795072078705,-0.09374241530895233,-0.24636662006378174,0.0885094627737999,-0.6032549738883972,0.08825928717851639,0.2724706530570984,0.1395043134689331,-0.2096126675605774,-0.06266538798809052,-0.5929020643234253,-0.24390439689159393,0.04787856712937355,0.13137303292751312,-0.18424177169799805,-0.08373560011386871,0.36228296160697937,0.06073398515582085,0.05894969403743744,0.09850678592920303,-0.648482084274292,0.02824573591351509,-0.2866905629634857,0.10926210880279541,-0.17745888233184814,-0.1917504519224167,-0.06917644292116165,-0.11299126595258713,-0.33084869384765625,0.21433980762958527,0.12420441955327988,-0.29087018966674805,0.3510378301143646,-0.020324911922216415,-0.03506573289632797,-0.04883376881480217,-0.04628782719373703,0.1974896937608719,-0.19774210453033447,-0.016103658825159073,0.34947437047958374,-0.08808214217424393,0.13190783560276031,-0.12107759714126587,-0.2889474630355835,-0.12322401255369186,-0.25345098972320557,0.01347291935235262,0.2805512547492981,0.040656764060258865,-0.17479202151298523,-0.1584533005952835,0.22234126925468445,-0.07317744195461273,-0.23796524107456207,-0.17294248938560486,0.08258894830942154,-0.06323352456092834,-0.027624741196632385,-0.012219848111271858,0.10131887346506119,-0.2279883176088333,0.07444147765636444,-0.08484705537557602,0.07806669175624847,0.16748063266277313,-0.13845132291316986,-0.3452586233615875,0.29168784618377686,0.16507840156555176,-0.14713312685489655
0.5932610630989075,0.4743346869945526,-0.036821719259023666,0.7244867086410522,0.12484324723482132,-0.5785441398620605,0.505262553691864,-0.4705853760242462,0.2506873905658722,0.11734452843666077,-0.5109363198280334,0.5011172890663147,0.4220108985900879,0.043879639357328415,0.049734342843294144,-0.3444611430168152,-0.1209072470664978,0.010936416685581207,-0.05648088455200195,0.6991403698921204,-0.3654119074344635,-0.11266497522592545,-0.2800505757331848,0.26394209265708923,-0.0801181048154831,-0.06422333419322968,-0.14593254029750824,-0.4995175898075104,-0.1225358247756958,-0.17996911704540253,0.30224698781967163,0.36745554208755493,0.07518051564693451,-0.18937881290912628,0.1891852766275406,-0.34714019298553467,-0.03581215813755989,-0.04656529799103737,0.11023753881454468,-0.4035012722015381,0.36374688148498535,-0.14969947934150696,-0.49564680457115173,0.026444070041179657,-0.1645672768354416,-0.18372461199760437,0.362368643283844,-0.10641732066869736,0.4613167941570282,-0.37896478176116943,-0.6643940210342407,-0.11541950702667236,0.5620533227920532,0.19436222314834595,-0.4923308491706848,0.27570468187332153,0.605057954788208,-0.4520002007484436,0.04175245389342308,-0.09560709446668625,-0.6139010190963745,0.27484291791915894,-0.2079218626022339,0.0034988713450729847,-0.0242791585624218,0.11853384971618652,-0.23358935117721558,-0.1559261828660965,0.3067716658115387,-0.1098819226026535,0.3612079322338104,0.13839507102966309,0.38313838839530945,-0.33626309037208557,0.09158269315958023,0.29077523946762085,-0.15229560434818268,0.05567016452550888,0.47832295298576355,0.1139930859208107,0.7213380336761475,-0.1715034693479538,-0.45776572823524475,-0.371217280626297,-0.5970877408981323,-0.6757743954658508,0.30495485663414,-0.39173048734664917,-0.1075812429189682,0.3939374089241028,0.2272767871618271,0.06140224635601044,-0.372249573469162,-0.0003782053536269814,0.36336132884025574,-0.14988714456558228,-0.375143438577652,-0.2422817200422287,-0.41878992319107056,-0.03740467503666878,-0.17551860213279724,0.27042073011398315,0.3057294189929962,0.4008176624774933,-0.2601220905780792,-0.07094185799360275,0.738316535949707,0.5789205431938171,-0.15697909891605377,0.18471574783325195,-0.21825145184993744,-0.5066002607345581,-0.2128496766090393,-0.246008038520813,0.2881658673286438,0.8021126389503479,-0.5203080773353577,0.34521248936653137,0.49754828214645386,-0.9170412421226501,0.15096069872379303,0.6175098419189453,0.2136630266904831,0.041017256677150726,0.05840294435620308,0.4656745493412018,0.003441216889768839,0.025611093267798424
-0.15626968443393707,0.09828676283359528,-0.17941683530807495,-0.09804287552833557,0.1427021026611328,0.010980566032230854,0.37698960304260254,-0.11677782237529755,-0.12465392798185349,0.1337537318468094,-0.017307087779045105,0.24149031937122345,-0.018674541264772415,0.15082678198814392,0.03668682277202606,-0.11802622675895691,0.09668198227882385,-0.17104561626911163,0.1365557163953781,-0.18736189603805542,-0.0869937613606453,-0.2929123342037201,0.03141670301556587,0.08565191179513931,0.0626402422785759,0.17462892830371857,0.02324513904750347,0.19622105360031128,0.0624796561896801,-0.15269437432289124,-0.002921960549429059,0.08600729703903198,-0.22337982058525085,0.2604950964450836,0.07765676081180573,-0.12232601642608643,-0.18353314697742462,-0.020756004378199577,-0.11573821306228638,0.19842609763145447,0.3783321678638458,0.08172047138214111,-0.01165307592600584,-0.024025270715355873,-0.17202378809452057,0.1706509292125702,-0.08913648873567581,-0.13687871396541595,-0.16255077719688416,0.00578201562166214,0.12122561782598495,-0.06238502636551857,0.057879481464624405,-0.05048027262091637,-0.5836135745048523,0.051774315536022186,0.399923175573349,-0.26915571093559265,0.036999814212322235,0.14595927298069,0.003549291519448161,0.2625073790550232,-0.052298109978437424,0.12379858642816544,-0.1363159418106079,-0.6150109767913818,-0.05008481815457344,-0.221028134226799,-0.08790814876556396,0.03690436854958534,-0.1996634602546692,-0.1829017847776413,-0.12278551608324051,0.24313132464885712,0.2661797106266022,0.2026362121105194,0.23814651370048523,-0.021491345018148422,0.002455370733514428,-0.09768828004598618,-0.005579009652137756,-0.13172094523906708,0.36536258459091187,-0.014097587205469608,-0.2518508732318878,-0.007755608763545752,0.2205626219511032,-0.3508709967136383,-0.10751960426568985,0.2740849256515503,0.024057472124695778,0.008366987109184265,-0.02168818935751915,0.23394344747066498,0.26159465312957764,-0.09307686239480972,0.12741895020008087,-0.1578632891178131,0.21830832958221436,0.07379819452762604,0.05120072141289711,0.20511576533317566,-0.06905992329120636,0.14901643991470337,-0.24136091768741608,0.022058306261897087,0.06932979822158813,-0.20200631022453308,-0.03082314319908619,-0.10302514582872391,0.16700173914432526,-0.02068835124373436,0.10472922027111053,-0.058584559708833694,-0.12001986056566238,0.09060996025800705,0.05732414871454239,-0.03453981503844261,0.05710174888372421,-0.0034140762872993946,-0.16212476789951324,-0.06466134637594223,0.11822791397571564,-0.064781054854393,-0.08208121359348297,-0.06752528250217438,0.09303367882966995,0.08528292179107666
0.197226420044899,-0.08160781115293503,-0.15179960429668427,0.12726247310638428,0.10935426503419876,0.09003519266843796,-0.17138487100601196,-0.2709992527961731,-0.11274703592061996,0.05123719945549965,0.30975431203842163,-0.12179680168628693,0.651729166507721,0.22034597396850586,0.06426429748535156,-0.05993809551000595,-0.42620590329170227,7.496227044612169e-05,0.2809029221534729,0.4188636243343353,0.2014797478914261,0.4907119572162628,-0.3639959394931793,-0.14957140386104584,-0.06281370669603348,-0.2295696884393692,0.1618875414133072,-0.09292937070131302,-0.8974730372428894,0.08389972150325775,0.06442473828792572,-0.3270592987537384,0.21954429149627686,0.09160880744457245,0.286083847284317,-0.14045195281505585,-0.3116189241409302,-0.1779133379459381,-0.19858047366142273,-0.9031010866165161,-0.44378072023391724,0.3242354989051819,-0.10214255005121231,0.12901461124420166,0.03879343718290329,0.20114263892173767,0.23515769839286804,-0.6488461494445801,-0.20617426931858063,-0.09609141945838928,-0.03836602345108986,-0.33063265681266785,-0.04292266443371773,-0.23096983134746552,-0.3192039430141449,-0.12994466722011566,-0.40474453568458557,0.2068876177072525,0.16349327564239502,-0.16909094154834747,-0.47708961367607117,0.004165051504969597,-0.3412263095378876,0.1020902618765831,-0.32489174604415894,0.20346498489379883,-0.30347612500190735,-0.10239748656749725,-0.1622847318649292,-0.2687213718891144,0.23614367842674255,0.11041097342967987,-0.007791804615408182,0.021591095253825188,0.4202768802642822,-0.055815257132053375,-0.3626140356063843,0.1536249965429306,0.7604705095291138,0.031245611608028412,-0.11062176525592804,0.10237498581409454,0.17871087789535522,0.32173430919647217,0.15243136882781982,0.13449205458164215,0.1658129096031189,-0.09923812747001648,0.2706712484359741,-0.20799940824508667,-0.2481411099433899,0.5109012722969055,-0.20404918491840363,-0.07470301538705826,0.06698210537433624,0.09344912320375443,-0.39872387051582336,-0.16461117565631866,0.12183118611574173,0.2357444316148758,0.572869598865509,0.036577869206666946,0.09960982203483582,0.09886389225721359,0.19662997126579285,-0.17236356437206268,-0.13477157056331635,0.10388344526290894,-0.0627099871635437,0.15696759521961212,-0.029981592670083046,0.10400612652301788,0.09415844827890396,-0.0014253415865823627,-0.6352144479751587,-0.06453822553157806,0.31941401958465576,-0.5781569480895996,0.006222748663276434,0.046898163855075836,0.31375443935394287,-0.1857524961233139,-0.28237003087997437,0.29455530643463135,0.41652584075927734,-0.4497920870780945,-0.5408087372779846,-0.12895432114601135
-0.5954967737197876,-0.06612183898687363,-0.21571722626686096,-0.07737462222576141,-0.07598074525594711,-0.12148911505937576,-0.19437658786773682,0.2674991488456726,-0.4288622736930847,0.09453362226486206,-0.07475840300321579,0.4177582859992981,-0.2174926996231079,0.15868283808231354,-0.03531470149755478,-0.34123528003692627,0.3451596200466156,0.1076006293296814,-0.06820730119943619,-0.5391125082969666,0.11380135267972946,0.6178178191184998,-0.18444982171058655,-0.13484956324100494,0.4998857080936432,-0.15714941918849945,0.19790181517601013,-0.07994785159826279,-0.01465630903840065,0.2548460066318512,-0.18239927291870117,0.13099715113639832,-0.08010642975568771,-0.3857869505882263,-0.055015549063682556,-0.08140191435813904,-0.1931687444448471,-0.23399657011032104,0.09198454767465591,-0.059980105608701706,0.0022097306791692972,-0.13546642661094666,0.11031613498926163,0.1567184329032898,-0.2245652973651886,0.305657297372818,-0.05589859560132027,0.03965664282441139,0.45948201417922974,-0.3257061243057251,0.07724715024232864,0.024423908442258835,-0.35784339904785156,0.159710094332695,0.21165013313293457,0.014989853836596012,0.24638588726520538,-0.15979310870170593,0.1335880607366562,0.481304407119751,-0.029585106298327446,-0.19953811168670654,0.012757520191371441,0.08761219680309296,-0.20767267048358917,-0.04484565928578377,0.09418179094791412,0.202212855219841,0.008260084316134453,-0.3694031834602356,-0.4329804480075836,-0.09170304238796234,0.07096605747938156,0.028927411884069443,-0.293375164270401,-0.0295258816331625,0.3564531207084656,0.18408150970935822,0.019186023622751236,-0.04777058959007263,0.012626535259187222,0.041075073182582855,0.06366287916898727,0.04413343966007233,0.20076479017734528,-0.04881046712398529,0.08712738752365112,-0.010161333717405796,0.03674560412764549,0.4254975914955139,-0.0014433666365221143,-0.033844243735075,0.15567411482334137,0.06377196311950684,0.06811176240444183,0.038309331983327866,-0.03794052079319954,0.2723155617713928,-0.008508356288075447,0.08377952873706818,0.11322936415672302,0.3297540247440338,0.0843091532588005,0.5417393445968628,0.3214710056781769,-0.20754601061344147,0.10989153385162354,0.40604305267333984,-0.06576095521450043,-0.2298574298620224,0.03634435310959816,-0.6133829951286316,-0.23929007351398468,-0.164134219288826,0.30981722474098206,-0.148692786693573,-0.28187844157218933,0.32528966665267944,0.20304754376411438,-0.08320830017328262,0.050924647599458694,-0.21886755526065826,-0.18130506575107574,0.02287144586443901,-0.2789105176925659,0.10039082914590836,0.6241704821586609,0.309694766998291
-0.23932895064353943,0.24852317571640015,0.2694230377674103,0.10777435451745987,0.13567867875099182,0.2626558542251587,0.02974149025976658,-0.09061503410339355,-0.14991161227226257,-0.19395969808101654,0.06566521525382996,-0.08220948278903961,-0.004878311417996883,-0.1181989535689354,0.00863638985902071,0.04083508625626564,-0.21036362648010254,-0.046896230429410934,0.03681148588657379,-0.12332890927791595,0.09484636038541794,0.1114751547574997,-0.5656775236129761,0.1422492265701294,-0.1589212417602539,0.0008110670605674386,0.0842805802822113,-0.02895711176097393,-0.45253047347068787,0.5689566135406494,0.14058442413806915,-0.12779542803764343,0.25122693181037903,-0.3739393651485443,-0.4974101483821869,-0.38213634490966797,0.13967567682266235,-0.25536397099494934,0.03792763128876686,-0.3011254668235779,0.040919847786426544,0.017995597794651985,-0.03093937411904335,-0.09315997362136841,0.003630267456173897,-0.03140353411436081,0.2716304063796997,-0.27534741163253784,0.07078450918197632,-0.13707244396209717,-0.030552446842193604,-0.20319372415542603,0.009341739118099213,-0.11441148817539215,-0.036268964409828186,-0.328321635723114,0.002905340865254402,-0.041371770203113556,-0.13733960688114166,-0.18871113657951355,-0.26969727873802185,-0.15731889009475708,-0.039529409259557724,0.23365363478660583,-0.2766336500644684,0.1287807673215866,-0.23651808500289917,-0.09423432499170303,0.03593015298247337,-0.3490371108055115,0.6493202447891235,-0.20469287037849426,0.23832100629806519,0.0992211326956749,0.3006751537322998,0.08499402552843094,-0.3347250521183014,-0.07345319539308548,0.14901627600193024,-0.014731653966009617,-0.01511494629085064,0.0060903532430529594,0.23214201629161835,0.10846063494682312,0.11990561336278915,-0.016752326861023903,-0.0023027253337204456,0.012116119265556335,0.10324452072381973,0.1264132261276245,-0.03502371162176132,0.10379158705472946,0.057005785405635834,0.3618878126144409,-0.03484474495053291,-0.11302457004785538,-0.224771648645401,-0.3252915143966675,-0.14560362696647644,0.08953138440847397,0.29403841495513916,0.03427082672715187,0.09795065224170685,0.029997725039720535,0.2807444632053375,-0.11518187820911407,-0.2780824899673462,-0.04238907992839813,-0.203727588057518,-0.10075575858354568,-0.11598705500364304,0.1330852061510086,-0.05552387610077858,-0.08894489705562592,-0.051640674471855164,0.04637930542230606,0.3178630471229553,0.0008634601254016161,-0.1370811015367508,-0.07063720375299454,0.03409913182258606,0.002650356385856867,0.08303774148225784,-0.2152380645275116,0.4123574495315552,-0.0721501037478447,-0.08766830712556839,0.16606806218624115
-0.15885412693023682,0.055596232414245605,0.18895255029201508,-0.02199132926762104,-0.1350981742143631,-0.236683189868927,0.1890733391046524,-0.5552103519439697,-0.1487385630607605,0.13976192474365234,0.2290121167898178,0.05132162943482399,0.003948078956454992,0.5299220085144043,0.23298636078834534,-0.2618648111820221,0.1276213526725769,0.18773241341114044,0.051046498119831085,-0.487607479095459,0.22039376199245453,0.12684418261051178,-0.15861055254936218,-0.30470824241638184,-0.495753675699234,-0.23506119847297668,0.16393226385116577,0.043310727924108505,0.07192784547805786,0.10112160444259644,-0.21861734986305237,0.3382546305656433,0.06141868233680725,-0.5892382264137268,0.4351080656051636,0.15125085413455963,0.4626491665840149,-0.07381835579872131,-0.21203339099884033,-0.28051674365997314,-0.30409273505210876,0.2224484235048294,-0.09231022000312805,-0.09898625314235687,0.06291039288043976,-0.2747807800769806,0.18364064395427704,0.24464356899261475,0.08587783575057983,-0.38770899176597595,-0.23609143495559692,-0.41505470871925354,-0.1414293646812439,0.08493421226739883,-0.010608557611703873,0.044583775103092194,-0.010524190962314606,-0.42033061385154724,0.23305590450763702,-0.1832732856273651,-0.21911141276359558,0.15734629333019257,0.14006981253623962,0.34270066022872925,-0.1359850913286209,0.3089422583580017,0.5271252393722534,0.03887277469038963,-0.15407989919185638,0.021541768684983253,-0.09625021368265152,0.2165597677230835,-0.500444769859314,-0.14814069867134094,0.07657244801521301,0.010912788100540638,0.09505665302276611,0.22127975523471832,-0.21733428537845612,-0.18658433854579926,0.1223481297492981,0.017072338610887527,0.10189428180456161,0.03603814169764519,0.2026502937078476,-0.40992623567581177,0.23325516283512115,-0.38128340244293213,0.09365204721689224,0.13526651263237,0.08722694218158722,-0.32571348547935486,0.004891885444521904,0.32436367869377136,0.21210961043834686,-0.05387021601200104,-0.0645482987165451,0.3371952772140503,-0.558760404586792,-0.24909108877182007,0.22815370559692383,-0.3303442597389221,0.03688761219382286,-0.3372298777103424,-0.08644988387823105,-0.0754249319434166,0.3321177363395691,0.41001656651496887,-0.37790927290916443,-0.4118025004863739,0.09162960946559906,-0.36103376746177673,-0.14672066271305084,0.29911041259765625,-0.08727484196424484,0.08048940449953079,0.5029615163803101,-0.0022622256074100733,0.037589576095342636,-0.03573499247431755,0.15645606815814972,-0.2657143771648407,-0.05854729562997818,-0.06613030284643173,-0.15509478747844696,-0.23687973618507385,0.06688373535871506,-0.051921356469392776
0.15378747880458832,-0.09509054571390152,-0.43612003326416016,-0.3650129437446594,-0.4071331024169922,-0.2882542014122009,0.7407876253128052,0.1343080997467041,0.31446006894111633,-0.07737863063812256,-0.3624672591686249,0.3091985583305359,-0.3078570067882538,-0.3893301784992218,0.08254606276750565,-0.034894607961177826,-0.11551173776388168,0.4737698435783386,-0.04816639795899391,0.2489553540945053,0.023559629917144775,-0.36816534399986267,0.39566394686698914,-0.14711922407150269,0.22825028002262115,-0.24306726455688477,-0.006781470030546188,0.27886223793029785,1.032453179359436,-0.3384341597557068,-0.39909011125564575,0.3331494629383087,-0.4768527150154114,0.4360736906528473,0.24695828557014465,0.3295918405056,0.3808083236217499,0.19414010643959045,0.21964536607265472,0.5472444891929626,0.006526145618408918,0.11462460458278656,0.2069929987192154,-0.3383932113647461,0.14378146827220917,-0.15472809970378876,0.09512640535831451,0.703290581703186,-0.03086700662970543,-0.21518850326538086,0.3162946403026581,0.2598998248577118,-0.035288255661726,0.19837503135204315,0.2078150361776352,0.46007615327835083,0.3367000222206116,0.09903685748577118,-0.10530006140470505,-0.07898842543363571,0.4480546712875366,0.0446387380361557,0.13666313886642456,-0.3436354398727417,0.4868150055408478,-0.22524334490299225,0.3680713474750519,0.4175214171409607,0.17974373698234558,0.6585211753845215,-0.5297023057937622,0.37047651410102844,-0.48256397247314453,-0.1516330987215042,-0.46779704093933105,0.2733883559703827,0.29907703399658203,-0.26252251863479614,-0.473349004983902,0.13647112250328064,0.28528478741645813,-0.12582501769065857,-0.36852407455444336,-0.23575317859649658,0.11342542618513107,-0.3945631980895996,-0.03583505004644394,0.12473907321691513,0.08820930868387222,-0.2291262000799179,-0.27826279401779175,-0.2621438503265381,-0.17330272495746613,0.013357600197196007,0.004940198268741369,-0.07515132427215576,0.0003167630056850612,0.6253730058670044,-0.16479042172431946,-0.32717546820640564,-0.0810416117310524,0.11090762913227081,0.11120667308568954,-0.32854723930358887,-0.6992374062538147,0.5396928787231445,0.16822543740272522,0.3264378011226654,0.2115776240825653,0.2365734577178955,0.2570112645626068,-0.3444487750530243,0.16636191308498383,0.2699319124221802,0.23841732740402222,-0.11748513579368591,0.1339198648929596,-0.135478213429451,-0.09837423264980316,0.42765772342681885,-0.054923053830862045,-0.12392592430114746,-0.10189075022935867,0.14791657030582428,-0.19703491032123566,0.2285071164369583,0.12142691761255264,-0.2828747034072876
-0.44077637791633606,-0.04701527580618858,-0.05929781123995781,-0.23465198278427124,0.09861604124307632,-0.12964075803756714,-0.0037374934181571007,-0.2947058081626892,-0.25080209970474243,0.07471772283315659,-0.056401900947093964,0.40211349725723267,-0.017535977065563202,0.08805658668279648,0.2597167491912842,-0.4249194860458374,-0.08789542317390442,0.10420138388872147,0.14131201803684235,-0.4730342626571655,0.26441043615341187,0.5358699560165405,-0.22086791694164276,-0.1881803572177887,-0.011892165057361126,-0.2864387631416321,0.12484773248434067,-0.08136692643165588,-0.24413837492465973,0.3472033441066742,-0.35188862681388855,0.10689942538738251,0.3635682761669159,-0.6514644026756287,0.06738675385713577,0.22330932319164276,0.05448650196194649,-0.09432046860456467,-0.08951690793037415,-0.3483406901359558,-0.26771116256713867,0.19179782271385193,0.05375722050666809,0.02806369960308075,-0.021115027368068695,-0.12328344583511353,0.2524036765098572,0.02119591273367405,0.25482437014579773,-0.7690096497535706,0.21043168008327484,-0.4500965178012848,-0.1496148705482483,-0.10303858667612076,0.26304447650909424,-0.04945814982056618,0.1163986325263977,-0.2348819226026535,-0.038819536566734314,0.27720630168914795,-0.11680984497070312,-0.3678536117076874,0.17457810044288635,0.11189406365156174,0.15865454077720642,-0.24536870419979095,-0.05722728744149208,-0.2154243439435959,-0.0741618275642395,-0.411077618598938,-0.3197067379951477,0.010572917759418488,-0.047929372638463974,-0.12703265249729156,0.27891093492507935,-0.03268912062048912,0.20500941574573517,-0.08347969502210617,0.34747669100761414,-0.24123859405517578,-0.1978245973587036,0.30720055103302,0.20638708770275116,-0.0016589377773925662,0.37411579489707947,-0.227494016289711,0.21393150091171265,0.08136448264122009,0.07282412797212601,0.3417164385318756,0.06552726030349731,0.04662765562534332,-0.03690704330801964,0.3352639377117157,-0.12988640367984772,0.02309521660208702,0.031169725582003593,0.30389726161956787,-0.0067738937214016914,-0.11312466114759445,0.1285318285226822,0.2153509110212326,0.21545718610286713,0.12017528712749481,0.3308309316635132,-0.08117186278104782,0.3028373122215271,0.5337232947349548,-0.4498329758644104,-0.20334932208061218,0.1426830142736435,-0.5635938048362732,-0.2181142419576645,0.01862846314907074,0.016226716339588165,-0.22818399965763092,0.040431905537843704,-0.09269032627344131,0.06710894405841827,0.2640500068664551,0.5383360385894775,-0.3099716007709503,-0.2546047270298004,0.2615518867969513,-0.5158766508102417,-0.0643729493021965,0.15394479036331177,0.3036441504955292
0.20761612057685852,-0.43073633313179016,-0.017198892310261726,0.18116655945777893,-0.8203316926956177,-0.0534653477370739,0.020321406424045563,0.08613244444131851,-0.04797980189323425,0.13966605067253113,0.1421130746603012,-0.10443183034658432,0.05536387115716934,0.0010781825985759497,0.2590469717979431,-0.22900794446468353,-0.43750423192977905,0.5653919577598572,0.19015003740787506,0.2506464123725891,-0.22117547690868378,-0.2282971441745758,0.23312833905220032,-0.4621305465698242,-0.12737323343753815,-0.1353614628314972,-0.023431025445461273,0.08983082324266434,0.3965302109718323,-0.8466558456420898,-0.3688606917858124,-0.04976428300142288,-0.20116595923900604,0.742943286895752,-0.0914694145321846,0.33640533685684204,0.003739873645827174,-0.1415807008743286,0.09326957911252975,0.11694367229938507,-0.0047945925034582615,0.28350746631622314,-0.04529324546456337,-0.7266320586204529,0.45548683404922485,-0.2877293825149536,-0.06881264597177505,-0.12864814698696136,0.13275715708732605,-0.4578366279602051,-0.0005976565880700946,0.24186505377292633,-0.5158018469810486,-0.10831458121538162,0.2265639752149582,0.5325160622596741,0.3767487704753876,0.4748619794845581,0.26337480545043945,-0.030770007520914078,0.6111069321632385,-0.3377947509288788,-0.4923074245452881,-0.404938668012619,0.25432485342025757,-0.30052313208580017,0.3288900554180145,0.26019924879074097,0.5379292368888855,0.6140913963317871,-0.33362987637519836,0.5104554891586304,-0.4589212238788605,0.05746398866176605,0.604179322719574,0.3404832184314728,0.1696607917547226,0.5539753437042236,0.1796962022781372,0.18157270550727844,0.6512652635574341,0.26235127449035645,-0.6157328486442566,-0.000296290178084746,0.20195452868938446,0.45882734656333923,0.15068592131137848,0.47075599431991577,0.5517408847808838,-0.542849063873291,0.07948418706655502,0.010582535527646542,-0.45286157727241516,-0.18193958699703217,-0.3249315023422241,0.259931743144989,-0.22819040715694427,0.09240508824586868,0.1913079172372818,-0.43494027853012085,-0.03913697600364685,0.5613505244255066,-0.01882197894155979,0.21770872175693512,-0.7603322267532349,0.008567546494305134,-0.08025476336479187,-0.015099866315722466,0.15783149003982544,0.33285078406333923,0.05469682440161705,0.17738857865333557,0.2074461579322815,0.06885012984275818,-0.1675005853176117,-0.5964341759681702,0.20507478713989258,0.11599456518888474,-0.31898337602615356,0.06544163078069687,0.1123083159327507,-0.0160965695977211,-0.5222087502479553,0.5409576892852783,0.018155254423618317,0.3438417613506317,-0.33830907940864563,-0.13760791718959808
-0.13625606894493103,-0.1729835718870163,-0.1108795702457428,-0.002619153819978237,0.04679091274738312,-0.01989123225212097,0.18227773904800415,-0.049118898808956146,-0.2534096837043762,0.07516494393348694,-0.09196198731660843,0.1335459202528,-0.002717330353334546,0.0214607622474432,-0.14960190653800964,-0.05316281318664551,0.05431247875094414,-0.2684640884399414,0.2423483431339264,-0.00834315549582243,-0.02657327428460121,-0.0671868547797203,0.005402146372944117,0.04453836381435394,-0.20481063425540924,0.03381524235010147,0.0763717070221901,0.002146804006770253,0.16969293355941772,-0.06791441142559052,-0.09266412258148193,0.13504235446453094,-0.06803499907255173,0.3531775176525116,-0.0066451216116547585,-0.19314336776733398,-0.15041206777095795,-0.0357670933008194,-0.08863864839076996,0.17918279767036438,0.07971344888210297,0.14896634221076965,0.1063060611486435,-0.061601825058460236,-0.013363747857511044,-0.032534725964069366,-0.04433487728238106,-0.28730031847953796,-0.12199930101633072,0.04360155016183853,0.08105479180812836,0.025005044415593147,0.02653244137763977,-0.0027821704279631376,-0.46004512906074524,0.19285079836845398,-0.09859292954206467,-0.45410025119781494,-0.016560357064008713,0.08277837187051773,-0.07358089834451675,0.2976260483264923,-0.19013892114162445,0.03739921748638153,-0.3369027376174927,-0.40969544649124146,-0.05880322307348251,-0.10503031313419342,-0.031182648614048958,0.10464300960302353,-0.15639348328113556,-0.09045922756195068,0.09586209803819656,0.1565932333469391,-0.21202193200588226,0.0345442108809948,0.0016643744893372059,0.15015079081058502,0.30475354194641113,-0.21569588780403137,-0.057233184576034546,-0.08838775753974915,-0.0004167587321717292,0.03453711047768593,0.10713059455156326,-0.10823609679937363,0.033499713987112045,-0.3997832238674164,0.11179524660110474,0.21913863718509674,0.16948524117469788,0.10735496878623962,-0.16550084948539734,0.05922214686870575,0.10969627648591995,0.10442090779542923,0.2043866217136383,-0.013845134526491165,0.20500360429286957,0.20965249836444855,0.3729041814804077,0.12201053649187088,-0.02872437611222267,-0.06140987575054169,-0.139781653881073,0.009007992222905159,-0.017160633578896523,-0.05899621546268463,-0.019223442301154137,0.0007756090490147471,0.09005147963762283,0.009613113477826118,0.2216622531414032,-0.1774834841489792,0.09827956557273865,-0.13286080956459045,0.004507336299866438,0.24306431412696838,-0.08571074157953262,-0.17142599821090698,0.1136283203959465,0.11073236912488937,-0.07684049755334854,-0.19468489289283752,0.034735940396785736,-0.032744746655225754,0.03089836798608303,-0.03248872607946396
0.017599640414118767,-1.2904608249664307,0.5874921679496765,0.29551956057548523,-0.25346145033836365,0.15860755741596222,-0.13522951304912567,0.40946200489997864,-0.6077677011489868,-0.43667471408843994,1.0299733877182007,-0.352902889251709,-0.06568863242864609,0.14138472080230713,0.5269420742988586,0.06748933345079422,-0.27142778038978577,-0.3775593936443329,-0.3748209774494171,-0.4826110899448395,0.16504257917404175,-0.061056673526763916,0.008205718360841274,0.45379921793937683,0.327686607837677,0.31674429774284363,-0.16322405636310577,0.3639813959598541,-0.4840571880340576,0.10918054729700089,-0.12818148732185364,-0.3213850259780884,-0.2639588713645935,-0.4094623327255249,-0.2439655065536499,0.12568220496177673,-0.29788675904273987,0.18072174489498138,0.07455472648143768,0.6035499572753906,-0.5318599939346313,-0.07224764674901962,0.03686991706490517,0.34968453645706177,0.17165078222751617,-0.343809574842453,0.030641192570328712,0.26117703318595886,0.02198542281985283,0.35312727093696594,-0.17869551479816437,0.14110416173934937,-0.17927178740501404,0.3867883086204529,0.2268739938735962,0.15761137008666992,0.023878900334239006,0.2656160295009613,-0.12241245806217194,-0.38218531012535095,0.5712367296218872,0.31859830021858215,0.2582924962043762,0.19674311578273773,0.39271485805511475,0.49177780747413635,-0.3432992398738861,0.44397348165512085,1.0289961099624634,-0.3378899395465851,0.33688098192214966,0.0011612557573243976,0.3276849389076233,-0.46274492144584656,-0.44706544280052185,0.035015419125556946,0.5567908883094788,-0.0037694459315389395,-0.3221028745174408,-0.3727465271949768,-0.18166324496269226,0.9992802739143372,-0.14048287272453308,0.4513515532016754,0.016776083037257195,0.1463647186756134,-0.48888111114501953,-0.4633244276046753,-0.2121189832687378,-0.4795689284801483,0.6808757781982422,-0.24145497381687164,-0.42543473839759827,-0.42397287487983704,-0.09976944327354431,0.16472434997558594,0.0763736292719841,0.05139848589897156,-0.35557904839515686,0.2860798239707947,0.07910322397947311,-0.15272736549377441,-0.417612224817276,-0.3315548598766327,-0.07224974781274796,0.0013483762741088867,-0.08428379148244858,-0.2552034258842468,-0.1863541305065155,-0.009705804288387299,0.007687970995903015,0.4850887060165405,-0.4602193832397461,-0.15100504457950592,0.023879515007138252,-0.18257975578308105,-0.0049590147100389,0.1000177189707756,0.0635424330830574,-0.10791819542646408,0.21219298243522644,-0.6435303092002869,0.059466153383255005,-0.584246039390564,0.27899861335754395,-0.13334529101848602,-0.25565075874328613,-0.26331865787506104
0.00895765982568264,0.12402690947055817,-0.06824560463428497,0.6389888525009155,-0.3579638600349426,0.02796185202896595,-0.4590264558792114,-0.19658537209033966,-0.19108985364437103,-0.1342538297176361,-0.029330506920814514,0.22038337588310242,0.4811001718044281,0.06877461075782776,-0.4456278383731842,0.2393958419561386,0.05762491375207901,-0.420797735452652,-0.16619360446929932,-0.0993829071521759,0.12456230074167252,-0.0890960693359375,-0.3899669945240021,-0.024349616840481758,-0.09397376328706741,-0.18632523715496063,-0.22649753093719482,-0.3152703642845154,0.03063298761844635,0.2577818036079407,0.55122971534729,0.37468162178993225,0.12989945709705353,-0.08668539673089981,0.5706396698951721,-0.19283761084079742,-0.2009531706571579,-0.47982215881347656,0.1802256554365158,0.05910360440611839,0.05170132964849472,0.5413395762443542,0.1462019830942154,0.05398821085691452,-0.04280684143304825,-0.37725088000297546,0.0076355161145329475,0.36046966910362244,-0.11477108299732208,-0.0806441381573677,-2.505488872528076,-0.006891062017530203,0.08389606326818466,0.277887761592865,-0.020692333579063416,0.15443779528141022,0.20552915334701538,-0.15452682971954346,-0.08378836512565613,0.07732557505369186,0.12440036237239838,0.11220436543226242,0.3154771029949188,-0.24762985110282898,-0.17060916125774384,-0.3259631395339966,0.4604317545890808,-0.14596234261989594,0.1385672241449356,-0.6665366888046265,0.8684310913085938,0.13299033045768738,-0.025052770972251892,-0.6860324740409851,0.13505814969539642,0.01932572014629841,-0.40070706605911255,0.08018924295902252,0.30359792709350586,-0.574237048625946,0.26318079233169556,-0.11535633355379105,-0.12572509050369263,0.22646725177764893,-0.08114124834537506,-0.24819126725196838,-0.30629298090934753,-0.18422630429267883,0.062417738139629364,0.04830879718065262,0.05389877036213875,0.14268726110458374,0.3250090479850769,-0.25913727283477783,0.32464727759361267,0.08363572508096695,0.15440893173217773,0.2749510705471039,-0.061332494020462036,0.3459371030330658,-0.10204140096902847,0.30108803510665894,0.11039984226226807,0.02879069559276104,-0.4960232675075531,-0.5374999046325684,0.4538176953792572,0.05947230011224747,-0.32658761739730835,-0.12960107624530792,0.03898897022008896,0.04865448176860809,-0.0529930479824543,0.22769273817539215,-0.0027104041073471308,0.12437983602285385,-0.1197001114487648,-0.044663410633802414,-0.043105535209178925,-0.11503907293081284,0.0716719999909401,0.1598837971687317,0.2103969007730484,-0.5235724449157715,-0.02476293221116066,-0.29741761088371277,-0.147659033536911,-0.05055614933371544
0.008142342790961266,-0.4829554855823517,0.40001100301742554,-0.0018631789134815335,-0.08092600852251053,0.12614192068576813,-0.19005802273750305,0.6745650172233582,-0.205961674451828,-0.22337503731250763,0.36433520913124084,-0.3861517906188965,-0.11130756884813309,-0.04141394421458244,0.16134753823280334,-0.04724689573049545,-0.09516391158103943,-0.2927139103412628,0.1220380887389183,-0.3295026421546936,0.034243497997522354,0.06970944255590439,-0.13908247649669647,0.0978407934308052,-0.2023433893918991,-0.006148768123239279,0.0023293355479836464,0.10086684674024582,-0.17641110718250275,0.10079696774482727,0.12958019971847534,-0.1388590931892395,-0.11972680687904358,0.18132314085960388,0.0013986927224323153,-0.08661148697137833,-0.20060059428215027,0.27600836753845215,0.07668355107307434,0.20914879441261292,-0.4378209114074707,0.2881023585796356,-0.23832190036773682,0.29686927795410156,-0.04993654042482376,-0.3387247323989868,0.2013482302427292,-0.1324712187051773,-0.1875951886177063,-0.20447373390197754,-0.2618395984172821,0.023746740072965622,0.11802935600280762,0.12550583481788635,-0.17964760959148407,-0.00826080422848463,0.12390080839395523,0.19285523891448975,-0.10855641216039658,-0.19188281893730164,0.19869180023670197,0.5826676487922668,-0.03818489983677864,-0.30756238102912903,0.07542060315608978,0.33680737018585205,-0.0967714861035347,0.26932159066200256,0.5873116254806519,-0.06954707205295563,0.2505161762237549,-0.02989405207335949,0.11592832952737808,-0.4277845025062561,-0.29823461174964905,-0.14320838451385498,0.034156378358602524,0.5899255871772766,0.3449806869029999,-0.35119909048080444,0.21847876906394958,0.5120193958282471,0.18328946828842163,0.14139823615550995,-0.041567932814359665,-0.1305818110704422,-0.5089718103408813,-0.35656750202178955,0.08350463956594467,-0.48863619565963745,0.19170382618904114,0.36553671956062317,-0.15760710835456848,-0.31534343957901,0.18003307282924652,0.21070705354213715,0.20060497522354126,-0.4692433476448059,-0.3915182948112488,0.31122323870658875,0.15971986949443817,-0.0244078878313303,-0.22409865260124207,-0.03712615370750427,-0.12191744148731232,0.2303888499736786,-0.033290229737758636,-0.12700068950653076,-0.04496769607067108,-0.1942853182554245,-0.022600270807743073,0.131451815366745,0.1712123602628708,-0.27039697766304016,0.12604166567325592,0.16579821705818176,0.09314805269241333,-0.2623450756072998,-0.1036558598279953,-0.30363205075263977,0.1829521209001541,-0.2945031225681305,-0.2669452726840973,-0.35092049837112427,-0.06875711679458618,0.10832767188549042,-0.5264819860458374,-0.026553967967629433
0.1348775178194046,0.0858193188905716,-0.05183974280953407,0.05111591890454292,0.0707281231880188,0.14702659845352173,-0.45241087675094604,0.09656889736652374,-0.322965532541275,-0.004927703645080328,0.03132175654172897,-0.23927541077136993,0.28160303831100464,-0.20532627403736115,-0.046384915709495544,-0.05382009223103523,0.013081937097012997,-0.24557960033416748,-0.5285850167274475,-0.14749033749103546,0.3637790083885193,-0.5132066607475281,-0.4041875898838043,-0.2206718772649765,-0.26460036635398865,0.1232495829463005,0.29925736784935,-0.23408323526382446,0.10320710390806198,-0.3576517105102539,0.7823541164398193,0.12009185552597046,-0.25145092606544495,-0.22644184529781342,0.4284692108631134,-0.12939681112766266,0.012037212960422039,-0.28847619891166687,-0.07713890820741653,0.23597396910190582,-0.10147461295127869,0.2302602380514145,0.0027641342021524906,0.026112480089068413,0.052859365940093994,-0.13966123759746552,-0.08606968075037003,0.16563273966312408,-0.15486538410186768,0.07101300358772278,-0.7583019137382507,0.13501431047916412,-0.14643406867980957,0.2179671674966812,0.022653013467788696,-0.19388921558856964,0.39975324273109436,0.13313516974449158,0.04715782776474953,0.3911278545856476,0.1770871877670288,0.0023897665087133646,0.4274984300136566,0.04919320344924927,0.24537181854248047,-0.48884961009025574,0.08327396214008331,-0.16015130281448364,-0.21825182437896729,0.00108207983430475,0.684016227722168,-0.2420753687620163,-0.1840635985136032,0.4285523295402527,-0.30268600583076477,-0.020903872326016426,0.07238920032978058,-0.09123930335044861,-0.17335861921310425,-0.030255626887083054,0.4051235020160675,-0.2812233865261078,-0.11496934294700623,0.40483972430229187,0.13678166270256042,0.3455372154712677,-0.20581616461277008,0.3001827597618103,0.18184880912303925,-0.1420198380947113,0.26667022705078125,0.027888942509889603,0.4887790381908417,-0.28814610838890076,-0.0789603441953659,-0.3263949155807495,0.6823582053184509,-0.009021095931529999,0.25984710454940796,-0.028287973254919052,0.09037672728300095,-0.04502641037106514,-0.029466912150382996,0.11594930291175842,-0.21345199644565582,0.2821756899356842,0.12731902301311493,0.03461020067334175,0.062473006546497345,-0.1785358190536499,-0.04163490980863571,-0.05520619824528694,-0.13448113203048706,-0.15339285135269165,0.043210793286561966,0.13522446155548096,0.1949818730354309,0.08942960202693939,0.39544376730918884,0.1322443187236786,-0.41504809260368347,-0.15080824494361877,-0.10717684775590897,-0.41439008712768555,0.3590053915977478,-0.3358808755874634,0.10521263629198074,-0.26462849974632263
0.015154005028307438,0.6266274452209473,-0.625354528427124,0.053006306290626526,-0.07403131574392319,-1.039778709411621,0.6179322600364685,-0.7050134539604187,0.2074217051267624,0.39819544553756714,-0.5641687512397766,0.8276872634887695,-0.025358349084854126,0.10460200905799866,-0.5643270015716553,0.46756112575531006,0.691631019115448,-0.04447181522846222,0.5172353982925415,0.3745530843734741,-0.06162039563059807,0.4173266291618347,-0.23511168360710144,0.07182874530553818,0.07030037045478821,-0.28667283058166504,-0.34582626819610596,-0.7103078961372375,0.42090243101119995,0.3533427119255066,0.18913495540618896,-0.21535809338092804,0.6306564807891846,0.11177835613489151,0.18366217613220215,-0.6371191740036011,0.3848039507865906,-0.2916649281978607,0.6896666288375854,-0.3862461447715759,0.2773650586605072,0.05696498975157738,-0.10414585471153259,0.037966981530189514,-0.0546719953417778,0.13989712297916412,-0.19755703210830688,-0.20168592035770416,-0.5471087694168091,-0.10465891659259796,-0.3910841643810272,-0.28936460614204407,0.6876603960990906,-0.5628176331520081,-0.13199816644191742,0.005122227128595114,-0.06224944069981575,-0.07688836753368378,0.03710799291729927,-0.3880174458026886,-0.2574310600757599,-0.6910093426704407,0.49703189730644226,-0.37442144751548767,-0.23591654002666473,-0.32818636298179626,0.15675890445709229,-0.3586704730987549,-0.7100139856338501,-0.6428034901618958,-0.029351694509387016,-0.0012792459456250072,0.32994192838668823,0.09629855304956436,0.3815712332725525,-0.38331443071365356,-0.5861753225326538,-0.8984612822532654,-0.16417983174324036,-0.695776104927063,0.13389429450035095,-0.948099672794342,-0.6723290681838989,0.16499847173690796,-0.5918437838554382,-0.08626555651426315,1.2342222929000854,0.5596344470977783,-0.020396603271365166,0.7316634654998779,-0.010903231799602509,-0.890293538570404,0.5977418422698975,0.48712241649627686,0.678641676902771,-0.030387552455067635,-0.3195953667163849,0.0633210763335228,0.5373640060424805,0.3223397433757782,0.05156874284148216,-0.39889267086982727,-0.3597329258918762,0.3064718544483185,-0.3475438952445984,-0.08228426426649094,1.0507864952087402,0.3253389000892639,-0.813159167766571,-0.23288138210773468,-0.14849938452243805,-0.449792742729187,-0.004503314383327961,0.6568315029144287,-0.11120769381523132,0.2834262549877167,-0.5064583420753479,0.11622389405965805,0.027389874681830406,-0.034567661583423615,0.12403367459774017,0.5325595736503601,0.5066956281661987,0.07967940717935562,-0.41738244891166687,0.1976691633462906,0.29904845356941223,0.30635741353034973
-0.0158879142254591,-0.32472172379493713,-0.1619439423084259,0.20067007839679718,0.07914260029792786,0.23928238451480865,-0.40774789452552795,0.03159046173095703,-0.17308159172534943,0.12596170604228973,0.26869484782218933,-0.11069201678037643,0.10436010360717773,0.11275875568389893,0.0560951828956604,-0.031032109633088112,-0.00136717245914042,-0.1784031093120575,-0.8082261085510254,-0.020519360899925232,0.13499364256858826,-0.3659207820892334,-0.08393312245607376,-0.4667210876941681,-0.28007134795188904,0.1574755609035492,0.24342839419841766,0.18100273609161377,-0.2635776698589325,-0.1615513116121292,0.243869811296463,0.46428894996643066,-0.4042932093143463,-0.11714819073677063,0.13158030807971954,-0.056084781885147095,0.015343786217272282,0.11457803845405579,-0.1845225989818573,-0.12428068369626999,0.20223313570022583,0.13049638271331787,0.15321463346481323,-0.08850045502185822,0.10367447137832642,0.04331612586975098,0.05124783143401146,-0.03965812176465988,0.27408990263938904,-0.11673958599567413,-0.8037427663803101,0.15789590775966644,-0.15292708575725555,0.2953876852989197,0.046631619334220886,-0.24648375809192657,-0.20064197480678558,-0.06520330160856247,-0.07571154832839966,0.38896307349205017,-0.003548941109329462,-0.08844562619924545,0.4065382480621338,0.17736251652240753,0.28708356618881226,-0.08065689355134964,0.25883427262306213,-0.09091617912054062,-0.048469770699739456,-0.38649871945381165,0.3972315788269043,-0.06582091748714447,-0.24754412472248077,0.09788054972887039,-0.15455403923988342,0.09155425429344177,0.1872684210538864,0.3095802664756775,-0.10509781539440155,0.11666914075613022,-0.06503912806510925,0.08854161947965622,-0.057897891849279404,0.03977745398879051,0.20544826984405518,0.06836451590061188,-0.6560292840003967,0.012620415538549423,-0.1905442178249359,-0.1393139809370041,0.19228990375995636,0.285148948431015,-0.08318638801574707,-0.20793581008911133,-0.23395594954490662,-0.11311013996601105,-0.004814385902136564,0.313262939453125,0.3563505709171295,-0.4562947452068329,-0.16826394200325012,0.07645739614963531,0.07227765023708344,0.16569095849990845,-0.17574048042297363,-0.0349658727645874,-0.16261622309684753,-0.26887384057044983,0.17459237575531006,-0.31477782130241394,0.22339339554309845,-0.04826543480157852,-0.4109937846660614,-0.08413965255022049,-0.20553073287010193,-0.22836685180664062,0.04243186116218567,0.07291224598884583,-0.01921922340989113,-0.1642233282327652,-0.030513985082507133,0.07861173897981644,-0.16474869847297668,-0.3616657555103302,0.18227437138557434,-0.31109002232551575,0.12157388776540756,0.0477481484413147
0.12775348126888275,0.03615667298436165,-0.5282936692237854,-0.2688981592655182,-0.11640890687704086,-0.06705991178750992,0.5062345862388611,-0.20940691232681274,0.458021342754364,0.5706917643547058,-0.379955917596817,0.16668999195098877,-0.48880118131637573,0.21535687148571014,-0.548224151134491,-0.06284302473068237,0.4069339334964752,-0.1506192982196808,0.054156139492988586,0.2991287112236023,-0.7063557505607605,0.7089841365814209,-0.15839801728725433,0.2489052265882492,0.3909246027469635,0.046125415712594986,-0.30031317472457886,-0.08633651584386826,-0.00918912049382925,0.3207743167877197,-0.2573051452636719,0.3932892382144928,0.4318115711212158,0.25776001811027527,-0.801819384098053,0.06626727432012558,0.39355212450027466,0.6084635853767395,0.05995228514075279,-0.08777134120464325,0.47415217757225037,-0.11832213401794434,0.24099968373775482,-0.0038970080204308033,0.5315977931022644,0.24239245057106018,-0.5941601991653442,-0.5711454749107361,-0.011107911355793476,0.28887614607810974,0.09350546449422836,-0.6918354630470276,0.7567681074142456,-0.08184521645307541,-0.14827579259872437,0.050925809890031815,-0.5991191864013672,-0.2223787158727646,-0.2828773856163025,-0.05648144707083702,-0.11353161185979843,-0.09963266551494598,0.22292117774486542,0.10591239482164383,-0.3380219042301178,-0.2564498484134674,-0.2674406170845032,0.17791184782981873,-0.26427531242370605,0.39669138193130493,-0.36220821738243103,0.15840935707092285,0.3387961983680725,0.21778659522533417,0.35606303811073303,0.06434857845306396,0.08246542513370514,-0.47729891538619995,0.2266078144311905,0.31021183729171753,-0.545545220375061,-0.25947362184524536,-0.6937596797943115,-0.002998573472723365,-0.8192768096923828,0.14421045780181885,0.6525803208351135,-0.03324802219867706,0.12803158164024353,0.3853739798069,0.12925639748573303,-0.9641926884651184,0.07727614790201187,0.2843919098377228,0.19851474463939667,0.4201430082321167,-0.48116806149482727,0.018648270517587662,0.25868865847587585,-0.12460243701934814,0.012675775215029716,-0.01702072098851204,0.10561240464448929,0.26832115650177,0.3073451817035675,0.06047309935092926,0.15519601106643677,0.17465843260288239,0.21559260785579681,0.5849902033805847,-0.23324276506900787,0.11419454216957092,-0.23182520270347595,-0.1473378688097,0.301975816488266,0.2597338557243347,-0.24683398008346558,0.341500848531723,0.21948829293251038,0.034480951726436615,0.19973675906658173,0.22111040353775024,0.09027270972728729,0.16091832518577576,-0.36382055282592773,0.5848429799079895,0.058480940759181976,-0.022311190143227577
-0.16029196977615356,-0.07814072072505951,-0.1918230503797531,-0.0975581705570221,0.020730186253786087,-0.14821051061153412,0.10185211151838303,-0.01614159718155861,-0.16692601144313812,0.16890832781791687,-0.13303975760936737,0.12806744873523712,-0.14022396504878998,-0.00123285548761487,0.0323873870074749,-0.12244508415460587,-0.23643100261688232,-0.14435608685016632,0.14428851008415222,-0.13679423928260803,0.09234418720006943,-0.12102795392274857,0.09622261673212051,-0.059098027646541595,-0.041786354035139084,0.08717001229524612,0.10820674896240234,0.055642109364271164,-0.0205205250531435,-0.2309304177761078,0.06572755426168442,-0.11856396496295929,-0.01230689138174057,0.5236085057258606,-0.038892712444067,0.09540771692991257,-0.20618334412574768,0.18135233223438263,0.06119756028056145,-0.08761575073003769,-0.005829091649502516,0.000577534839976579,0.03230772539973259,0.030366068705916405,-0.12625771760940552,0.006267685443162918,0.05820281803607941,-0.3155660331249237,-0.06794475764036179,0.1484745442867279,0.19978326559066772,0.017488796263933182,-0.1445915400981903,-0.09099825471639633,-0.37696364521980286,-0.12370797246694565,-0.02059578336775303,-0.3494582176208496,0.14643043279647827,-0.0631842166185379,-0.19913102686405182,0.10931911319494247,-0.07630632072687149,0.055501241236925125,-0.2082051783800125,-0.2843790352344513,-0.17883142828941345,-0.2484329789876938,-0.031835585832595825,-0.10683824867010117,-0.11200634390115738,0.17516474425792694,0.2490081489086151,0.2620968818664551,0.06647311896085739,-0.1248689517378807,-0.12974891066551208,0.037178900092840195,0.24434678256511688,-0.1291486620903015,-0.10426506400108337,-0.20379576086997986,0.024399038404226303,-0.10164494067430496,-0.23618978261947632,0.2155599147081375,0.07788454741239548,-0.5222200751304626,0.12888631224632263,0.22819417715072632,0.03630666807293892,0.03150142356753349,0.03932860866189003,0.04899519309401512,0.16079987585544586,-0.019495518878102303,0.058082327246665955,-0.07539141178131104,0.023504555225372314,0.23108422756195068,0.17857952415943146,0.1885097324848175,0.1769096851348877,0.08594831079244614,0.029514947906136513,-0.022465554997324944,-0.03969740495085716,-0.13770295679569244,-0.0661623477935791,0.061653222888708115,0.19113582372665405,0.03533124923706055,0.12947756052017212,-0.030208630487322807,-0.12083645164966583,-0.2623586058616638,0.07965413480997086,0.12068650871515274,-0.09226355701684952,-0.15305544435977936,-0.023000575602054596,-0.04549367353320122,0.1584630310535431,-0.15866278111934662,-0.13197903335094452,0.08127782493829727,0.29815682768821716,-0.09901776909828186
0.0002957017859444022,0.07400476932525635,-0.04212527349591255,-0.027918897569179535,-0.4717828631401062,0.3312511444091797,-0.5157341361045837,-0.13529261946678162,0.5707276463508606,0.476480633020401,0.31586700677871704,0.07547100633382797,-0.4213634729385376,0.07207266241312027,0.027127958834171295,0.2765544354915619,0.13929197192192078,-0.37970587611198425,-0.030604131519794464,-0.355767160654068,-0.19706423580646515,0.0414775013923645,0.147939532995224,0.3053874671459198,-0.01571766287088394,-0.17607393860816956,-0.39603686332702637,-0.12048503011465073,0.010933874174952507,-0.3369279205799103,-0.016051199287176132,0.13543930649757385,-0.37717336416244507,0.200642928481102,0.02213912270963192,0.14091211557388306,-0.2739424407482147,0.7039167881011963,-0.41874605417251587,0.01932881586253643,-0.1735948771238327,-0.21920908987522125,0.27828872203826904,0.4209621250629425,0.5910660028457642,-0.29033833742141724,-0.07561536133289337,0.1910519301891327,-0.4598565399646759,0.04524665325880051,-0.0930141732096672,-0.05001315101981163,0.7594058513641357,-0.31719306111335754,-0.06280413269996643,0.13878695666790009,-0.027784986421465874,0.0068760402500629425,-0.22211161255836487,0.08493722230195999,-0.025234969332814217,0.04807668551802635,0.5627027153968811,0.7352489233016968,-0.24263370037078857,-0.3522022068500519,-0.21651718020439148,-0.11519978195428848,-0.3285677134990692,0.018888618797063828,0.2073623090982437,-0.16399554908275604,-0.09083087742328644,-0.006714145187288523,-0.841849148273468,-0.038516782224178314,0.2746437191963196,-0.12336574494838715,-0.07415924966335297,0.16466128826141357,-0.06897856295108795,-0.26602187752723694,-0.15047083795070648,0.1170346811413765,-0.40859028697013855,0.4436095952987671,0.13358108699321747,0.006796106230467558,-0.18328197300434113,0.5384553670883179,-0.2161385416984558,0.33574166893959045,-0.16322846710681915,0.10980941355228424,0.11799168586730957,-0.0019621755927801132,-0.3441932797431946,0.5711818933486938,0.28889548778533936,0.1131233349442482,0.2258625477552414,-0.20766597986221313,-0.5958392024040222,0.37877029180526733,-0.2102704495191574,0.25541365146636963,0.07029382884502411,-0.0020237364806234837,0.23558646440505981,0.1395028978586197,0.2569948732852936,-0.32156437635421753,-0.5023067593574524,-0.29250532388687134,-0.22599223256111145,-0.22081390023231506,-0.05814500153064728,-0.3080940246582031,0.12461353838443756,0.41303038597106934,0.08522621542215347,0.19115613400936127,0.31685203313827515,-0.08539291471242905,0.020945554599165916,-0.11040358990430832,0.13569730520248413,0.4134514033794403
-0.45580893754959106,0.1985558420419693,0.13653145730495453,0.0264864731580019,-0.42210108041763306,0.5842037796974182,-0.1291763037443161,-0.0521693117916584,0.3218030333518982,-0.1301252245903015,-0.12817198038101196,-0.2727124094963074,0.0612848624587059,-0.29360121488571167,0.04884403571486473,-0.030456481501460075,0.052650123834609985,0.24213428795337677,-0.07465028762817383,-0.22477830946445465,0.14716234803199768,-0.5109819173812866,0.13378947973251343,-0.504788875579834,0.08874578028917313,0.34089621901512146,0.4898265302181244,-0.2856157422065735,0.1179630234837532,-0.24208255112171173,0.4255954325199127,-0.02725578099489212,-0.03426766023039818,-0.20032039284706116,0.4175783693790436,0.002687631407752633,-0.06372987478971481,-0.7152256369590759,0.019990859553217888,0.4003565013408661,0.1759258210659027,0.16461163759231567,-0.09378404170274734,-0.32105305790901184,-0.11426097899675369,-0.4608171880245209,0.2017211616039276,-0.03132655471563339,-0.005047916900366545,0.323805570602417,-0.32393190264701843,0.2072216272354126,0.5488683581352234,0.09777801483869553,-0.3441801965236664,0.06441621482372284,0.27150988578796387,-0.0053623090498149395,-0.37381070852279663,0.0037534995935857296,-0.03293124586343765,-0.09546228498220444,-0.25864213705062866,-0.2853776514530182,-0.4218376576900482,0.029798192903399467,-0.05333736166357994,0.10654353350400925,-0.19564782083034515,-0.07238201051950455,0.21768267452716827,-0.3124173581600189,-0.26310181617736816,0.18469354510307312,0.17007440328598022,-0.048860106617212296,-0.2185492217540741,0.20582866668701172,-0.000661518715787679,-0.46936705708503723,0.5449448823928833,-0.4150521457195282,0.02726191282272339,-0.017687737941741943,-0.20884256064891815,-0.10299728810787201,-0.09105946868658066,0.4613729417324066,-0.4806063175201416,0.023329436779022217,-0.028234856203198433,0.26865679025650024,-0.02186778374016285,-0.059472668915987015,0.26188889145851135,0.1729109287261963,-0.17439548671245575,0.19736284017562866,-0.2743527591228485,0.6427506804466248,0.11412330716848373,0.004611913580447435,0.03856133297085762,-0.10545569658279419,0.23795174062252045,-0.2729940414428711,0.37436050176620483,0.33939388394355774,-0.6462070345878601,0.12310586869716644,-0.18238429725170135,0.09210406243801117,-0.007361515890806913,0.029283776879310608,-0.2710166275501251,-0.01129100564867258,-0.24862445890903473,0.23644915223121643,0.3743167221546173,0.324275940656662,-0.7153565287590027,-0.023387301713228226,0.25656893849372864,-0.44379541277885437,-0.5750136971473694,-0.07445565611124039,0.14977812767028809,-0.3801146149635315
0.17877277731895447,-0.30377691984176636,-0.18847796320915222,0.277400940656662,-0.08286577463150024,0.18016311526298523,-0.08503105491399765,-0.12959110736846924,0.19033735990524292,0.4551115036010742,0.16735246777534485,0.10666803270578384,-0.3614006042480469,-0.3357768952846527,0.23142695426940918,0.19600506126880646,-0.006684356369078159,-0.5389599204063416,-0.27990248799324036,-0.120037741959095,0.32649704813957214,0.24320688843727112,0.16904622316360474,0.07727300375699997,-0.19769622385501862,-0.27587324380874634,-0.3700386583805084,0.23069040477275848,-0.09409075975418091,0.21777571737766266,-0.12553711235523224,0.2087276130914688,-0.09395212680101395,-0.04550629109144211,0.16075818240642548,0.05358852818608284,-0.054702457040548325,0.059915632009506226,0.07041467726230621,0.0894957035779953,-0.13231702148914337,-0.08403538912534714,0.3259613811969757,0.052461035549640656,0.014799016527831554,-0.5029237866401672,-0.019711647182703018,0.3013244867324829,-0.12678074836730957,0.34179046750068665,0.05019025132060051,0.21404650807380676,0.5100089907646179,-0.2508821487426758,0.1444837898015976,-0.021674804389476776,-0.15916095674037933,0.2957470118999481,0.20600365102291107,-0.16673526167869568,-0.04038611054420471,0.004831067286431789,0.34976252913475037,0.5137686133384705,-0.5282928347587585,-0.027442406862974167,-0.26860812306404114,-0.05307535454630852,-0.18844495713710785,0.01564803160727024,0.24578416347503662,-0.07341219484806061,-0.28679153323173523,-0.05192965269088745,-0.3113378584384918,0.12014120072126389,0.0802910104393959,-0.109522745013237,-0.3233712315559387,-0.1310536116361618,-0.08584574609994888,-0.1210319995880127,-0.15121303498744965,-0.035802558064460754,0.12892381846904755,0.06461728364229202,-0.06796833872795105,0.10582847148180008,-0.11300254613161087,0.341617614030838,-0.29106324911117554,-0.03007950820028782,0.04931049793958664,0.23948881030082703,0.1997992992401123,0.013507488183677197,-0.0400584451854229,0.278802752494812,0.36655673384666443,0.22098329663276672,0.3112211227416992,-0.12082920223474503,-0.5692715048789978,-0.054076794534921646,0.22330617904663086,-0.16875708103179932,0.21479184925556183,-0.3361298441886902,0.3343992829322815,-0.2481166571378708,0.21678316593170166,-0.2156800478696823,-0.45988190174102783,-0.03452504798769951,0.013848286122083664,0.14754478633403778,-0.2778046131134033,0.022438649088144302,0.013368671759963036,0.31359991431236267,0.09747212380170822,0.14400698244571686,0.42304545640945435,0.2049252986907959,-0.067569799721241,-0.05342941731214523,0.05811939015984535,0.4575660228729248
0.09029623121023178,0.08975221961736679,0.13240239024162292,-0.16310882568359375,-0.20444251596927643,0.2830425500869751,-0.5597755312919617,-0.19014665484428406,0.13655078411102295,0.2290220856666565,-0.31119710206985474,0.1346338987350464,-0.12537387013435364,-0.23746956884860992,0.017804551869630814,0.15787170827388763,-0.16576699912548065,-0.3869001865386963,-0.0031984918750822544,0.1119595393538475,0.13614417612552643,-0.1190478578209877,-0.3010624349117279,0.059074074029922485,0.23043188452720642,-0.08177006989717484,0.39300283789634705,-0.043915044516325,-0.08393067866563797,-0.21875041723251343,0.15826629102230072,0.22486887872219086,-0.10932672768831253,-0.193985253572464,0.17406423389911652,-0.49239346385002136,-0.17908240854740143,-0.3613230884075165,-0.23340904712677002,0.10312376171350479,0.20358781516551971,-0.11852116882801056,-0.23938968777656555,-0.03224416449666023,-0.10800512135028839,-0.2240748405456543,0.1228441670536995,-0.5209695100784302,0.04760408774018288,0.5679900646209717,-0.025910912081599236,-0.010110532864928246,0.029418136924505234,-0.5213370323181152,-0.30692800879478455,0.24978384375572205,0.10774997621774673,0.13732190430164337,-0.7459074854850769,-0.03992631658911705,0.0008475108188576996,-0.4588237702846527,-0.27610674500465393,-0.5185953378677368,0.08145898580551147,-0.6152805685997009,-0.0072608571499586105,0.09950907528400421,-0.3339201509952545,0.5110358595848083,0.4405839145183563,-0.07353854179382324,-0.09422707557678223,-0.3909715712070465,0.05749021843075752,0.03692256659269333,0.3830385208129883,0.2539198696613312,0.2551332414150238,0.31708887219429016,0.7082837820053101,0.28099530935287476,-0.15555918216705322,0.1586553305387497,-0.0890447273850441,0.2629571557044983,0.000211952647077851,0.3826627731323242,-0.1536502093076706,-0.27162450551986694,0.06271392107009888,-0.003624570555984974,0.18540531396865845,0.049627047032117844,0.24712781608104706,0.22461576759815216,0.013199318200349808,0.20843303203582764,-0.3290097117424011,0.17106246948242188,-0.6699628829956055,0.3339826464653015,0.1443595439195633,0.2739105224609375,0.24503882229328156,0.341044545173645,-0.049044352024793625,-0.10339771956205368,0.14206670224666595,0.015919465571641922,-0.06475501507520676,-0.20477351546287537,-0.18807418644428253,0.4513038694858551,-0.03922903165221214,-0.5262698531150818,-0.037641704082489014,0.04339175298810005,0.05896148830652237,0.3233645260334015,0.20425929129123688,0.14492405951023102,-0.01297356653958559,0.46260228753089905,-0.2709624767303467,0.33875638246536255,-0.21114593744277954,-0.04610544815659523
0.2648856043815613,0.13956275582313538,-0.32137566804885864,-0.5756835341453552,0.24955782294273376,-0.13816103339195251,1.0758886337280273,0.09630411118268967,-0.5631951689720154,-0.5412034392356873,0.014559589326381683,0.08995717018842697,0.6361680030822754,0.402598112821579,-0.6434186697006226,0.006492982152849436,-0.1965208351612091,0.8341449499130249,0.48093414306640625,0.024839412420988083,-0.17468874156475067,-0.8214133381843567,-0.5005274415016174,-0.31857362389564514,0.5925147533416748,0.15606261789798737,0.376991868019104,-0.4343043863773346,0.7392973303794861,-0.09183201938867569,0.18136051297187805,-0.39153850078582764,0.5511026382446289,0.4002583622932434,-0.5119469165802002,-0.07432006299495697,0.25751417875289917,-0.2903937101364136,0.4770423173904419,-0.22260518372058868,-0.031463924795389175,0.6126222014427185,-0.051922813057899475,-0.44198280572891235,-0.08667151629924774,0.755958616733551,-0.22069798409938812,0.08110218495130539,0.3315664827823639,-0.6308211088180542,0.06588929891586304,0.07456453144550323,-0.19350147247314453,0.553922712802887,-0.049980759620666504,-0.7234644889831543,-0.20948971807956696,-0.4542996287345886,-0.34470224380493164,-0.3431941270828247,0.4531080722808838,0.36667025089263916,-0.192079558968544,-1.332493543624878,0.4534679055213928,0.39633774757385254,0.49124184250831604,-0.10284962505102158,-0.30941304564476013,-0.4115264117717743,-0.7173202037811279,0.08888913691043854,0.38345396518707275,0.43069255352020264,0.6805641651153564,0.3556447923183441,-0.6544662117958069,-0.10380997508764267,0.2410898357629776,-0.17212124168872833,0.022714762017130852,-0.1875491738319397,0.08822203427553177,-0.040096864104270935,-0.21468590199947357,0.09728991240262985,0.05346154794096947,-0.339226633310318,0.11044805496931076,-0.40125519037246704,0.5204377770423889,-0.1460018903017044,0.02215423807501793,-0.4988712966442108,0.1850920170545578,0.1655454784631729,0.005304538644850254,-0.5846166610717773,-0.1891775131225586,0.06262596696615219,-0.26690760254859924,0.18805523216724396,1.0361154079437256,0.05567115917801857,0.3466033339500427,-0.0913134515285492,0.27964869141578674,-0.3437722325325012,-0.5985220670700073,0.43973472714424133,-0.4791111946105957,0.26838377118110657,0.6202967762947083,0.49933701753616333,0.32016313076019287,0.07335615903139114,-0.11685686558485031,0.6221916079521179,0.05248955637216568,-0.21603934466838837,-0.13044027984142303,-0.09819404780864716,-0.32998454570770264,-0.5290032029151917,-0.23756317794322968,0.34586942195892334,-0.11418810486793518,-0.6844091415405273
-0.2825012505054474,-0.42507174611091614,-0.036391858011484146,0.02646694891154766,-0.38722437620162964,0.48798543214797974,-0.1777341067790985,-0.1382015198469162,0.30568087100982666,0.03198510780930519,0.20459133386611938,-0.3168334662914276,0.055317748337984085,-0.07623101025819778,0.3890279233455658,0.272113174200058,-0.12489980459213257,-0.3143852949142456,-0.17133794724941254,-0.2733685076236725,0.4121420383453369,-0.21936571598052979,0.041731663048267365,-0.543338418006897,-0.020953182131052017,0.35346800088882446,0.16310584545135498,0.05991296470165253,-0.0011690419632941484,0.13429515063762665,-0.023686286062002182,0.39347878098487854,-0.11655624210834503,-0.11206009984016418,0.03469131141901016,0.23217210173606873,-0.3901991844177246,-0.18053361773490906,-0.5130234360694885,0.07503856718540192,0.24165752530097961,0.13968724012374878,0.30303433537483215,-0.053774092346429825,0.13647055625915527,-0.3950518071651459,-0.234014093875885,-0.48358824849128723,-0.4836510121822357,0.3963439166545868,0.09526009112596512,0.19527210295200348,-0.16601283848285675,-0.6695411801338196,-0.28629499673843384,0.022875582799315453,-0.020352870225906372,0.0465870201587677,-0.5402259826660156,0.016573898494243622,-0.23193436861038208,-0.2301570624113083,-0.013388890773057938,-0.16457776725292206,-0.42252951860427856,-0.08860408514738083,-0.10609180480241776,0.04402494803071022,-0.356889545917511,0.3187115788459778,-0.01987684704363346,-0.16827261447906494,-0.184128075838089,0.20751307904720306,-0.06489763408899307,-0.0762711763381958,0.30060964822769165,0.4136417806148529,0.020040331408381462,0.5350965261459351,0.3829619288444519,0.30259406566619873,-0.095709428191185,0.12437204271554947,-0.3134705424308777,-0.0522078312933445,-0.22336062788963318,0.1095544695854187,-0.4517655670642853,-0.49545443058013916,-0.40516960620880127,-0.0607956238090992,-0.382926881313324,0.15937580168247223,-0.2375359684228897,-0.10793028771877289,-0.196613609790802,0.38652023673057556,-0.27584853768348694,0.04512932151556015,-0.227068230509758,-0.14873848855495453,-0.08088723570108414,-0.12165487557649612,0.14938737452030182,0.25762704014778137,-0.3218151032924652,0.31822913885116577,0.062177423387765884,-0.47322210669517517,-0.029252272099256516,0.3637169897556305,0.01021791622042656,-0.18030181527137756,-0.13958077132701874,-0.3188619017601013,-0.15216295421123505,-0.09086164832115173,-0.1686527132987976,0.339415967464447,-0.6317741274833679,0.12622897326946259,0.2397816926240921,0.03120705857872963,-0.29398882389068604,0.11376328766345978,0.12557388842105865,-0.016789481043815613
0.1236863061785698,-0.25966107845306396,-0.4699971079826355,-0.35460731387138367,0.049135707318782806,-0.3610994815826416,0.9354309439659119,-0.015199021436274052,0.0022521289065480232,0.13780879974365234,0.4472133219242096,-0.5003433227539062,-0.21326275169849396,0.10218513011932373,-0.25520211458206177,0.3094356060028076,0.2182994782924652,-0.10145967453718185,-0.33288881182670593,-0.10204246640205383,0.07715027034282684,0.11014526337385178,0.4246445894241333,-0.646834671497345,-0.06706670671701431,-0.4257158637046814,0.4727455675601959,-0.082013800740242,0.0848926305770874,0.19423167407512665,-0.10812180489301682,-0.4282241761684418,-0.191686749458313,0.050602756440639496,-0.3317795395851135,0.2326078861951828,0.5444731116294861,0.1947023868560791,0.3814127743244171,-0.31989604234695435,0.1277777999639511,0.47821706533432007,0.3911949098110199,-0.18401801586151123,0.1752237230539322,0.2551954984664917,-0.6190245151519775,0.1908458024263382,-0.23877650499343872,-0.145471453666687,0.22182045876979828,-0.1523009091615677,-0.2666589021682739,-0.1651591807603836,-0.03156900033354759,-0.5573965907096863,-0.2317095845937729,-0.022701481357216835,-0.34206172823905945,-0.1366090625524521,0.07147412747144699,-0.07085920870304108,0.05862036719918251,-0.2039773315191269,0.10486984997987747,-0.01583673804998398,0.2454473078250885,-0.289884090423584,0.11275166273117065,0.10669446736574173,-0.5076718330383301,0.39649292826652527,0.2989446520805359,0.3715590238571167,0.20953762531280518,-0.5492399334907532,0.3463899791240692,-0.09611978381872177,-0.4297463595867157,0.46747004985809326,-0.27294957637786865,0.025946209207177162,-0.14324848353862762,0.5311715006828308,-0.4052213728427887,0.19334304332733154,-0.28151124715805054,-0.2217259407043457,0.6487517952919006,-0.7342252731323242,0.0697542279958725,-0.2552776336669922,0.14378578960895538,-0.29840877652168274,-0.13695083558559418,-0.5936435461044312,-0.3529289960861206,-0.05895368382334709,0.2606160640716553,-0.4336935877799988,0.04153216630220413,-0.32709649205207825,0.1693846583366394,-0.07825605571269989,0.30836012959480286,0.04470839351415634,0.05595048516988754,-0.4618470370769501,-0.025338182225823402,0.23586805164813995,-0.04528838023543358,0.014038997702300549,0.23462536931037903,0.7313053607940674,-0.007983945310115814,-2.1520170776057057e-05,0.026897286996245384,-0.037542808800935745,-0.3171004354953766,0.19608063995838165,0.179743230342865,-0.260489821434021,-0.3479214310646057,-0.3595850169658661,-0.11889445781707764,-0.04351788014173508,-0.027265110984444618,0.1254657804965973
-0.0012625004164874554,-0.009291835129261017,-0.11218944936990738,0.004838545341044664,0.022829577326774597,0.06491643935441971,0.1513666957616806,-0.05569558963179588,-0.12001396715641022,-0.07533396035432816,-0.21741686761379242,0.007387265563011169,-0.07303979992866516,0.16459067165851593,0.2108919471502304,-0.0383346751332283,0.0328967310488224,-0.2557983994483948,0.27149060368537903,0.0727679654955864,-0.0639139786362648,-0.2812178432941437,-0.02431534044444561,0.2945777475833893,0.1341688185930252,0.029174664989113808,-0.19604921340942383,0.06681618839502335,-0.02387022227048874,0.09157441556453705,0.04161772131919861,0.008791022934019566,-0.0485774427652359,0.09330208599567413,0.17058053612709045,-0.14273658394813538,-0.25788554549217224,0.12537989020347595,0.02076655998826027,0.1562192142009735,0.10094974935054779,0.08588491380214691,-0.013818027451634407,0.06712314486503601,-0.1913265734910965,0.1647942066192627,0.021909134462475777,-0.20590975880622864,0.013045617379248142,0.11244459450244904,0.26766279339790344,0.03738773241639137,0.037117309868335724,0.03224154934287071,-0.5012599229812622,-0.059732794761657715,-0.10022414475679398,-0.4068000614643097,-0.1200445145368576,0.08353365957736969,-0.17116862535476685,0.08115004003047943,-0.06326708942651749,0.21265752613544464,-0.09093025326728821,-0.1412312388420105,-0.08485162258148193,-0.0765288919210434,-0.019826963543891907,-0.05932159349322319,-0.10918343812227249,0.07430575788021088,0.014498131349682808,0.04310991242527962,0.21778254210948944,-0.10023678839206696,0.04534781724214554,-0.12956063449382782,0.09571016579866409,-0.3132830858230591,0.06165361404418945,-0.11901995539665222,0.13206902146339417,0.1145605593919754,-0.2722136080265045,0.06301812082529068,0.183005228638649,-0.16452021896839142,0.06113705784082413,0.21782788634300232,0.24678830802440643,0.2022148072719574,-0.21744462847709656,0.09717272967100143,0.08536939322948456,-0.16052724421024323,-0.030643589794635773,-0.05085841566324234,0.03972654044628143,0.023039547726511955,0.05253497511148453,0.09801295399665833,-0.033784013241529465,-0.046813756227493286,0.15551601350307465,-0.03379805386066437,-0.15363146364688873,-0.10650672018527985,-0.13119280338287354,0.0820925310254097,0.1284479945898056,-0.04803958162665367,0.03582493215799332,0.004002597648650408,-0.09425806999206543,-0.07940180599689484,0.009458722546696663,0.22056372463703156,-0.04514450579881668,-0.018622033298015594,-0.26476624608039856,-0.0551784373819828,0.1644618809223175,-0.012742930091917515,-0.13904298841953278,-0.009953695349395275,0.20794254541397095,0.02966281585395336
-0.17837642133235931,-0.01725345104932785,0.9730646014213562,0.3921877145767212,0.6250575184822083,-0.13604994118213654,0.0966186374425888,-0.11023220419883728,0.045201659202575684,0.5101684927940369,-0.0010933574521914124,-0.4011915326118469,-0.20950481295585632,-0.030330641195178032,-0.09560994803905487,0.10169094800949097,0.46108102798461914,-0.17987316846847534,0.358724981546402,-0.11857456713914871,-0.3826097249984741,-0.3093055784702301,0.13964390754699707,-1.3943607807159424,0.4930726885795593,-0.22914554178714752,0.3865887224674225,-0.030437318608164787,0.5152655243873596,0.17942391335964203,0.6425653100013733,-0.061127372086048126,0.20343957841396332,-0.051204241812229156,-0.22477030754089355,-0.5352608561515808,0.21510745584964752,0.016734914854168892,-2.5466270446777344,0.46148937940597534,0.39838117361068726,-0.014138099737465382,-0.1975908875465393,0.6351718902587891,-0.1589071899652481,-0.035901423543691635,-0.5033156871795654,0.4967358708381653,-0.031536765396595,-0.46683549880981445,-0.04509367048740387,-0.6106451153755188,0.6022462248802185,0.4151514768600464,-0.27812665700912476,-0.22044309973716736,-0.23789562284946442,-0.12841717898845673,-0.17929936945438385,0.606096088886261,0.2829250693321228,-0.20406852662563324,-0.054302018135786057,0.5408727526664734,0.10699755698442459,-0.18044380843639374,0.2770586609840393,0.2893097698688507,-0.22928951680660248,-0.14347901940345764,-0.2572196424007416,-0.2308351844549179,-0.5186418890953064,-0.2909366488456726,0.016651559621095657,-0.10097484290599823,0.15646520256996155,-0.4303686320781708,-0.06865431368350983,-0.7844025492668152,-0.15158358216285706,-0.16679242253303528,0.009433561936020851,0.22734476625919342,-0.4775182008743286,-0.8220525979995728,0.395422101020813,-0.23303933441638947,-0.6918180584907532,-0.5271201133728027,0.28089576959609985,0.2689419984817505,0.33477771282196045,-0.6056398153305054,1.1704175472259521,0.09087204188108444,0.7720322012901306,-0.2618390917778015,0.5050768852233887,0.3429265022277832,-0.6375911831855774,0.42780718207359314,-0.13640162348747253,0.0505879707634449,0.480922132730484,-0.048935238271951675,0.1990864872932434,-0.5933018922805786,-0.9735998511314392,0.06666003167629242,-0.5978854894638062,0.0334649458527565,-0.6222841739654541,-0.8692755699157715,0.6116098761558533,0.2857736051082611,-0.3361935317516327,0.29739055037498474,0.13094869256019592,-0.18394331634044647,-0.5189525485038757,-0.10713819414377213,0.304868221282959,0.09099585562944412,-0.16344641149044037,-0.12016097456216812,0.25388550758361816,-0.174798384308815
0.08965475112199783,-0.27349403500556946,0.9305437207221985,0.26858213543891907,0.3646225035190582,-0.5091298222541809,0.15489685535430908,0.13258811831474304,-0.12204915285110474,0.7605237364768982,-0.0932665690779686,0.5710652470588684,-0.3515584468841553,0.4623717665672302,0.9982175230979919,0.3744492828845978,0.08437076956033707,0.2903720438480377,-0.3510213792324066,0.0596945583820343,0.38438281416893005,0.29684537649154663,0.22182443737983704,-0.5029658675193787,-0.15098701417446136,0.19384491443634033,-0.3697589933872223,0.16672128438949585,-0.12373422831296921,-0.019593272358179092,0.07002203911542892,-0.1912074089050293,-0.19467243552207947,-0.20368655025959015,0.25713783502578735,0.2108268290758133,-0.5149884223937988,0.14277854561805725,-2.0824408531188965,-0.025437043979763985,-0.3425648808479309,-0.25446662306785583,0.01108940877020359,-0.04145282506942749,0.4571886956691742,0.2408037930727005,0.3909142017364502,0.08068612962961197,-0.2259594351053238,-0.36422041058540344,-0.0428326353430748,0.08879294991493225,-0.16504772007465363,-0.04666926711797714,0.6880930662155151,-0.14624172449111938,-0.21138300001621246,-0.12441380321979523,-0.12830206751823425,0.6007457971572876,0.20500485599040985,-0.2871633768081665,-0.19665966928005219,0.5848643183708191,0.3915911912918091,0.3846873342990875,-0.2234504669904709,0.0847073644399643,0.0908021628856659,-0.41045722365379333,0.13678579032421112,-0.006931936368346214,-0.4016653597354889,-0.18926870822906494,0.018924269825220108,-0.055609673261642456,0.21975111961364746,0.584309458732605,-0.20180106163024902,0.28070637583732605,-0.12614166736602783,0.42535263299942017,-0.0510176382958889,0.24770477414131165,0.4660758376121521,-0.22644218802452087,-0.025609154254198074,0.24679578840732574,0.25499916076660156,-0.31602972745895386,0.011669156141579151,0.5199123620986938,-0.15687766671180725,0.18703506886959076,-0.6321032643318176,-0.39242222905158997,0.04929807037115097,0.4102761447429657,0.3953409790992737,-0.5321772694587708,0.20809704065322876,-0.06815895438194275,0.16675187647342682,0.08984816074371338,0.2712123692035675,0.07664838433265686,-0.2900739312171936,0.2988424003124237,0.2285168617963791,-0.19991979002952576,0.01915699988603592,-0.058496542274951935,-0.20864807069301605,-0.4102371335029602,0.03819350153207779,0.049690332263708115,-0.11170955747365952,-0.34670454263687134,-0.12415490299463272,0.05806182697415352,0.15599849820137024,0.15521295368671417,-0.1864212453365326,0.027749182656407356,0.4273513853549957,-0.5728233456611633,-0.21561673283576965,-0.006563060916960239
-0.04193630442023277,-0.12907373905181885,0.46313831210136414,0.3322393596172333,0.21616512537002563,-0.19611524045467377,-0.09050717204809189,0.41184043884277344,-0.13733913004398346,0.033829133957624435,0.21929523348808289,-0.5152546763420105,-0.16526930034160614,-0.06648138165473938,0.1480346918106079,0.34385251998901367,0.3620882034301758,-0.09013468772172928,-0.014710052870213985,0.06730084866285324,-0.04316255822777748,-0.05830220505595207,-0.11824768781661987,-0.32937315106391907,0.317128449678421,0.0647713840007782,-0.11183485388755798,-0.19684191048145294,0.22459657490253448,0.02940945141017437,0.36159080266952515,-0.07605145871639252,0.21045581996440887,-0.009048772044479847,-0.0763232633471489,-0.22184808552265167,-0.019011348485946655,0.543590247631073,-0.5878586769104004,0.2699553966522217,0.253784716129303,0.22736111283302307,-0.07706661522388458,-0.08704493939876556,-0.15026547014713287,-0.08097119629383087,-0.06170375645160675,0.24460147321224213,-0.014379206113517284,-0.08791646361351013,-0.277990460395813,-0.3901621401309967,0.3873301148414612,0.1957990974187851,0.23751401901245117,-0.07699041068553925,-0.12921446561813354,0.08686044812202454,-0.06234825775027275,0.1044284850358963,-0.047321952879428864,-0.022271668538451195,0.3682524561882019,0.19966046512126923,0.08761528134346008,-0.05711735412478447,0.08525189012289047,-0.28393006324768066,-0.3159407377243042,0.04289970546960831,0.3020542860031128,-0.6511490345001221,0.040468111634254456,-0.3852211534976959,-0.18738624453544617,-0.05351003259420395,-0.07853501290082932,-0.199618399143219,-0.47723397612571716,-0.4167393445968628,-0.02029814012348652,-0.298782080411911,0.04729544371366501,0.12411362677812576,-0.09987788647413254,-0.32069656252861023,0.07748797535896301,0.186721533536911,-0.5489047765731812,0.07562751322984695,0.493788480758667,0.20663802325725555,0.26417821645736694,-0.31869783997535706,0.7026713490486145,0.051938753575086594,0.30796346068382263,-0.1772623062133789,0.3188822865486145,1.1239899396896362,-0.2080964744091034,0.11616945266723633,-0.28484541177749634,0.04601204767823219,0.2481219470500946,-0.042253535240888596,0.42529135942459106,0.04481355473399162,-0.3023410141468048,-0.0039151739329099655,-0.4975780248641968,0.28131648898124695,-0.0033479388803243637,-0.1591556966304779,0.23141978681087494,0.5171918869018555,-0.34081172943115234,0.15170273184776306,-0.33312204480171204,0.27364441752433777,-0.3114648461341858,-0.329453706741333,0.6073170304298401,-0.07412636280059814,0.17390434443950653,0.025510216131806374,-0.12079090625047684,-0.3956814110279083
0.00048458215314894915,-0.0922941043972969,0.4879128038883209,-0.09375666826963425,0.11358623206615448,0.3558430075645447,0.06978399306535721,0.11967343091964722,-0.09759073704481125,0.18610869348049164,-0.03992222622036934,0.39948099851608276,-0.504741370677948,-0.38524115085601807,0.15316839516162872,0.3335307538509369,0.26227957010269165,0.29840224981307983,0.241165429353714,0.044324230402708054,-0.26721009612083435,0.43142950534820557,0.08925529569387436,0.09488540887832642,0.20482099056243896,0.2217712104320526,0.027449551969766617,-0.06330731511116028,0.23149150609970093,0.3599996864795685,-0.5567116737365723,-0.04229864105582237,0.28940945863723755,-0.485073983669281,0.2139522135257721,0.11551988124847412,-0.09675657004117966,0.20100735127925873,-0.4714246094226837,-0.14994585514068604,-0.16244879364967346,0.3654884994029999,-0.1813732236623764,0.02954954467713833,-0.020350750535726547,-0.536536455154419,0.05880977585911751,-0.0625038892030716,0.20635193586349487,0.1657835841178894,0.30819573998451233,0.1515546292066574,0.05136522650718689,-0.059266433119773865,0.11021994799375534,0.44121167063713074,-0.02664562501013279,0.0794849619269371,-0.2598011791706085,0.015422278083860874,-0.22794708609580994,0.16024991869926453,0.14575093984603882,0.1685875654220581,-0.22254374623298645,0.17900770902633667,0.07041441649198532,0.2621418535709381,-0.05305846780538559,0.004535201005637646,-0.3086787760257721,0.049058765172958374,-0.014585759490728378,0.13767042756080627,-0.08482437580823898,-0.24207206070423126,0.00615635747089982,0.22338315844535828,-0.28733333945274353,-0.07350944727659225,0.27055034041404724,0.46985170245170593,-0.045004524290561676,-0.2504752278327942,0.054958097636699677,-0.27011051774024963,0.12078570574522018,-0.036485858261585236,-0.4644770920276642,0.4339602589607239,0.15780916810035706,-0.04709327593445778,-0.2751314640045166,0.17461028695106506,-0.019725028425455093,-0.2645295262336731,-0.1933952271938324,0.3320416212081909,-0.24193152785301208,-0.12574045360088348,-0.26210373640060425,-0.07007275521755219,-0.3022838830947876,0.16613377630710602,0.1165628656744957,0.28812628984451294,0.14211435616016388,0.38963571190834045,-0.03143639862537384,-0.11271163076162338,-0.09805791079998016,0.2701919972896576,-0.2714904248714447,0.4686524569988251,-0.10281896591186523,0.420411616563797,-0.37052038311958313,-0.4283495545387268,-0.022703154012560844,0.2463577836751938,0.07608702033758163,-0.055284563452005386,0.4368337094783783,0.09718590974807739,-0.10617490112781525,-0.2342415302991867,0.3761534094810486,-0.35031774640083313
0.3752838969230652,-0.2583247721195221,0.41591280698776245,-0.19792206585407257,-0.12670806050300598,0.254982590675354,-0.2351885586977005,-0.45694994926452637,0.16679446399211884,0.4560615122318268,-0.09747305512428284,0.13223402202129364,0.18055982887744904,0.016587313264608383,1.1003960371017456,-0.2669180631637573,-1.311079740524292,-0.01855291798710823,-0.15194623172283173,0.6942874789237976,0.5193542242050171,0.23582406342029572,0.5309576392173767,-0.12740981578826904,-0.5351526737213135,0.22701600193977356,-0.10052301734685898,0.6434217095375061,-1.110263705253601,0.37023937702178955,-0.5092803835868835,0.33354270458221436,-0.5972687005996704,0.23485113680362701,0.16929194331169128,0.4963657259941101,-0.4715949594974518,-0.006637542508542538,-0.3080484867095947,-0.9746940732002258,-0.08092787861824036,-0.15645641088485718,0.47031089663505554,-0.1823844015598297,0.44358623027801514,-0.3323400020599365,0.7054656744003296,-0.7623530030250549,-0.2480245977640152,-0.07834293693304062,0.004341157153248787,0.5663803219795227,-0.5968083739280701,-0.8696374297142029,0.431600958108902,0.36945533752441406,-0.15465350449085236,0.46980586647987366,0.1813284456729889,0.27334120869636536,-0.1928691864013672,-0.014377503655850887,-0.5429468154907227,0.04338730871677399,-0.13280346989631653,0.12369079142808914,-0.3068310618400574,0.48958927392959595,0.9205700755119324,0.04625309631228447,-0.7771589159965515,1.05258309841156,-0.6055483222007751,-0.07572223991155624,0.23581258952617645,0.18946801126003265,0.5034801363945007,0.4750744104385376,1.1295738220214844,0.8543342351913452,-0.18416759371757507,0.8120242357254028,-0.10349839925765991,0.046748626977205276,0.101584792137146,1.3808587789535522,-0.14974629878997803,-0.06827940791845322,1.3897570371627808,-0.3133527934551239,-1.2150338888168335,0.0135476253926754,-0.5462165474891663,0.7531639933586121,-1.1158616542816162,-0.40274739265441895,-1.444104552268982,0.6115152835845947,0.22694064676761627,-0.981005847454071,0.6034020185470581,0.12727954983711243,0.11238187551498413,-0.1620096117258072,-0.8214349746704102,0.3488278388977051,-0.5794234275817871,0.16438908874988556,0.8179722428321838,-0.6422972679138184,1.1868815422058105,-0.049262501299381256,-0.006894767750054598,-0.262429416179657,-0.6461517810821533,-0.7557252049446106,0.8058310151100159,-0.7682945728302002,-0.2735610008239746,-0.12669822573661804,1.039927363395691,0.5773426294326782,-0.5378836393356323,0.2671527862548828,-0.1106717586517334,-0.3017437756061554,-0.8611882328987122,0.9273862838745117
