Layer: av/fc_1/kernel,"Shape: (79, 128)",,,,,,,,,,,,,,,,,,,,,,,,,,,,,,,,,,,,,,,,,,,,,,,,,,,,,,,,,,,,,,,,,,,,,,,,,,,,,,,,,,,,,,,,,,,,,,,,,,,,,,,,,,,,,,,,,,,,,,,,,,,,,,
-0.34101107716560364,0.06956074386835098,-0.20951224863529205,0.020044198259711266,0.19912326335906982,0.07219622284173965,0.3609198331832886,-0.16435766220092773,0.09407639503479004,0.013658987358212471,-0.028160495683550835,0.08880592882633209,0.06418672204017639,0.004219584632664919,0.03630296513438225,0.14861154556274414,0.10328947752714157,0.16658230125904083,0.1197483241558075,0.07946477085351944,0.12100047618150711,0.04973407834768295,-0.22208167612552643,0.19773249328136444,-0.09356675297021866,0.01316500548273325,-0.10151664167642593,-0.45014098286628723,0.14815165102481842,0.021598776802420616,0.33361324667930603,-0.2013591080904007,-0.08293407410383224,0.19066676497459412,-0.07751395553350449,-0.01757083088159561,-0.08470412343740463,-0.01667398400604725,0.0333033949136734,0.16223181784152985,-0.08050587028265,0.16994832456111908,0.10460145771503448,0.1266978234052658,0.13183726370334625,0.09481373429298401,-0.04164779931306839,-0.04597816243767738,-0.07251156121492386,0.21713787317276,0.09457381069660187,0.19704942405223846,-0.19609728455543518,0.14480559527873993,-0.47569704055786133,0.11231818795204163,0.17185327410697937,-0.23651768267154694,0.11832984536886215,0.07247836887836456,-0.15871813893318176,0.3767205476760864,-0.08069360256195068,0.08485127240419388,-0.05568545684218407,-0.34948858618736267,-0.07623206824064255,0.004456495866179466,-0.008194680325686932,-0.08393365889787674,-0.20414821803569794,-0.029058733955025673,0.19131851196289062,0.5387595295906067,0.009498431347310543,-0.07485134899616241,0.03506401181221008,-0.1093008741736412,0.037263333797454834,-0.018493447452783585,-0.12130605429410934,-0.1367742419242859,-0.025719644501805305,0.01988590508699417,-0.398080050945282,-0.013993079774081707,0.07495967298746109,-0.47019070386886597,-0.06025258079171181,0.22201450169086456,-0.022009266540408134,0.18074260652065277,-0.1359987109899521,-0.02402508445084095,0.10833460092544556,0.15772704780101776,0.08683514595031738,-0.24928639829158783,0.006899611093103886,0.20952455699443817,-0.0332915224134922,0.33907002210617065,0.1224815621972084,0.0037662822287529707,0.08910243958234787,-0.12476217746734619,0.014881405048072338,-0.10393106937408447,-0.1874522566795349,-0.1326199769973755,0.023345548659563065,-0.07458950579166412,0.08512743562459946,0.21816490590572357,-0.030920634046196938,-0.1965010166168213,0.14489591121673584,0.029787098988890648,0.1224057674407959,-0.11315895617008209,-0.1778196096420288,0.06576088815927505,-0.06425606459379196,-0.03996491804718971,0.05589727312326431,0.15299974381923676,0.15141057968139648,0.18233329057693481
0.10220542550086975,-0.441921204328537,0.21303284168243408,-0.2874530851840973,-0.5767799615859985,0.09521403163671494,0.0687442198395729,-0.00737855164334178,0.057788003236055374,-0.6189985871315002,-0.18311968445777893,0.024196932092308998,-0.28276753425598145,0.3277147710323334,0.23758885264396667,-0.05203870311379433,0.20711156725883484,0.14769361913204193,0.07393701374530792,0.11819148808717728,-0.030982380732893944,0.16903387010097504,0.12262819707393646,0.07267151027917862,-0.2513703405857086,0.12630945444107056,0.020590612664818764,-0.6897074580192566,-0.2250448614358902,-0.6749522089958191,-0.2682022452354431,-0.16600030660629272,0.048976439982652664,0.13559028506278992,-0.024365542456507683,0.15540070831775665,0.20726116001605988,-0.31127944588661194,-0.17714066803455353,-0.14074943959712982,0.004357094410806894,-0.03688817471265793,-0.4533795416355133,-0.47524702548980713,0.05777067318558693,0.02217421866953373,-0.38962364196777344,-0.5140510201454163,0.09136839210987091,-0.5264365673065186,0.03818422183394432,-0.1990790069103241,0.3328278064727783,0.2354915738105774,-0.08934300392866135,-0.029465746134519577,-0.17961637675762177,0.008694306015968323,-0.39988166093826294,0.18944483995437622,-0.15770471096038818,-0.14177577197551727,-0.07962490618228912,0.26447612047195435,0.10186459124088287,0.11721961945295334,-0.3397800922393799,-0.37829479575157166,0.5764294266700745,0.001618658658117056,-0.10248439013957977,-0.14353813230991364,-0.22110380232334137,-0.3270889222621918,0.19189736247062683,0.3734268546104431,-0.039276544004678726,0.46492859721183777,0.17178285121917725,0.19174949824810028,-0.21434025466442108,-0.11111507564783096,-0.9931256771087646,-0.03688468411564827,-0.006895949598401785,-0.14704737067222595,0.14348523318767548,0.09569975733757019,0.013639118522405624,-0.14519256353378296,0.05066518485546112,0.03698849305510521,-0.06370805948972702,-0.11925262212753296,-0.1875068098306656,-0.22896620631217957,-0.03210434317588806,-0.029597412794828415,-0.2982218861579895,-0.1369776725769043,0.11833296716213226,-0.07212147861719131,-0.17719219624996185,-0.35523441433906555,0.12325934320688248,0.017841992899775505,0.11095165461301804,0.09244478493928909,0.014702923595905304,0.03330482915043831,-0.06525866687297821,0.20201744139194489,-0.5838024616241455,-0.2481367588043213,0.15253716707229614,0.03823111578822136,-0.12439358234405518,0.5043323040008545,0.35071632266044617,0.029667893424630165,-0.2523253560066223,0.09245610982179642,0.1525885909795761,-0.27972719073295593,-0.06709016114473343,0.4295971095561981,-0.2909386456012726,0.18718469142913818
-0.2868231236934662,-0.2992662191390991,0.021626267582178116,0.04174380749464035,0.2395366132259369,0.030342034995555878,-0.10138765722513199,0.054850365966558456,0.18773557245731354,0.12864501774311066,0.1232190728187561,-0.5538063645362854,-0.15827003121376038,0.1810220628976822,-0.12437262386083603,0.15597650408744812,-0.3600378632545471,-0.1519509255886078,-0.20679527521133423,0.08424906432628632,0.21728524565696716,0.06476939469575882,0.17222219705581665,-0.29753169417381287,-0.0928630381822586,0.04102999344468117,0.04685453698039055,0.37309134006500244,-0.09673809260129929,-0.008134818635880947,0.027535676956176758,-0.2153463214635849,-0.2846902012825012,0.16832265257835388,0.21265675127506256,-0.10794945061206818,-0.043669745326042175,0.31738829612731934,-0.3758183717727661,-0.07291638106107712,-0.06909029930830002,-0.0635295882821083,-0.06450846791267395,0.2350577712059021,-0.11163575202226639,-0.05804916471242905,-0.07161153107881546,0.20816729962825775,-0.2682729959487915,0.0411415621638298,0.3582564890384674,0.27563580870628357,-0.27325549721717834,-0.07470137625932693,-0.014088958501815796,0.06999240070581436,-0.07276012003421783,0.1819341480731964,-0.028713155537843704,0.24744868278503418,0.4888645112514496,0.15652039647102356,-0.16580800712108612,0.8710961937904358,0.2600255310535431,-0.057866405695676804,-0.016798188909888268,0.2755407989025116,0.5142597556114197,0.05384467914700508,-0.26088619232177734,-0.16482150554656982,-0.26691070199012756,-0.3641425669193268,-0.2683521807193756,0.25623223185539246,0.5234599113464355,0.005323049146682024,0.10544833540916443,-0.5641604065895081,-0.07877480983734131,0.18900449573993683,0.29357218742370605,-0.013190877623856068,0.04347989708185196,0.2636273205280304,0.16850285232067108,0.37558871507644653,-0.040213752537965775,-0.5210118293762207,-0.24450106918811798,0.20616166293621063,0.053463153541088104,-0.12738919258117676,-0.15002760291099548,-0.09219267964363098,-0.175032377243042,0.2225240170955658,-0.004740000702440739,-0.35580718517303467,0.056982118636369705,-0.28111106157302856,-0.19212250411510468,0.024880841374397278,0.08605695515871048,0.24993053078651428,0.0006691956659778953,-0.408634752035141,-0.12283828854560852,0.0355064831674099,-0.026470018550753593,-0.053836431354284286,-0.757347583770752,-0.3178742825984955,0.09204969555139542,0.059516292065382004,-0.04341200739145279,0.2096881866455078,0.3379209339618683,-0.09145080298185349,-0.18766340613365173,-0.09411515295505524,-0.012050491757690907,0.23375408351421356,-0.22343121469020844,0.0037229126319289207,-0.20704056322574615,0.1448657363653183
-0.20137494802474976,-0.09324207901954651,0.030250776559114456,-0.019787145778536797,-0.5554021000862122,0.14112339913845062,-0.1799231618642807,-0.10448706895112991,0.24965976178646088,-0.22652782499790192,-0.26764336228370667,0.0821942538022995,0.04929403215646744,0.19195322692394257,-0.02899796888232231,-0.37970608472824097,0.11698122322559357,0.1626778393983841,-0.05334202200174332,-0.18786819279193878,-0.08080518990755081,0.13916808366775513,0.1898968517780304,-0.21026447415351868,-0.41710230708122253,0.12745870649814606,-0.023969119414687157,-0.3062724173069,-0.14864122867584229,-0.15709877014160156,-0.20739611983299255,0.12166842818260193,0.10108092427253723,0.03414873778820038,0.03601275384426117,0.15782225131988525,0.4219447076320648,-0.04458184167742729,-0.28598612546920776,-0.12570525705814362,0.45060232281684875,-0.1038987785577774,-0.14533768594264984,-0.35283613204956055,0.21989619731903076,0.24550503492355347,-0.17302528023719788,-0.11425206810235977,0.06531175225973129,-0.267706960439682,0.12389185279607773,-0.48052212595939636,0.21620923280715942,0.2892649173736572,0.21110768616199493,0.3484424948692322,-0.29640305042266846,0.08376725018024445,-0.0881115049123764,0.3715135157108307,-0.12017189711332321,-0.06612377613782883,-0.1373862773180008,0.17492254078388214,-0.2599430978298187,-0.006249124184250832,-0.30551132559776306,-0.2720067501068115,0.3550218939781189,0.0635950118303299,-0.06970997154712677,-0.10415593534708023,-0.14926648139953613,-0.17469853162765503,0.19500869512557983,-0.02408919669687748,-0.13347110152244568,0.1905808448791504,0.11317657679319382,0.15094542503356934,-0.13580322265625,-0.00715287309139967,-0.5642601251602173,-0.04512723535299301,0.0868646577000618,-0.2110721468925476,0.045646782964468,0.17626021802425385,-0.026122504845261574,0.01766885258257389,0.19236117601394653,0.27672362327575684,-0.035144250839948654,-0.15501049160957336,-0.011346868239343166,-0.02180376462638378,0.13320866227149963,0.34244269132614136,-0.26737889647483826,-0.19545674324035645,-0.05374697223305702,0.10501808673143387,-0.35638728737831116,-0.010815628804266453,0.03493928536772728,-0.37506115436553955,-0.12514938414096832,-0.25955766439437866,0.4287116825580597,0.7946228981018066,-0.1861288845539093,0.2668083608150482,-0.6276590824127197,-0.30733031034469604,0.23348240554332733,0.02958379127085209,-0.4293731153011322,0.30404940247535706,0.5390176177024841,0.10564552247524261,-0.6784576177597046,0.07570124417543411,-0.3906039595603943,0.18389742076396942,0.10948935896158218,0.3666034936904907,0.1653057187795639,-0.23279601335525513
0.1931723654270172,0.10848619043827057,-0.01309523731470108,-0.0708552747964859,-0.25987592339515686,0.050016533583402634,-0.15932050347328186,0.26664072275161743,0.06709408015012741,0.10355336219072342,0.009586617350578308,-0.17672111093997955,0.08884384483098984,-0.12073392421007156,0.2828119695186615,0.37045449018478394,-0.062118206173181534,0.2577749490737915,0.06871167570352554,-0.15307189524173737,-0.19196029007434845,0.12238674610853195,0.17170022428035736,-0.11704646050930023,0.2941798269748688,0.3513419032096863,0.07733160257339478,0.05995293706655502,-0.26429611444473267,0.24386416375637054,-0.1542142927646637,-0.0305253304541111,-0.19832903146743774,0.19835293292999268,0.0017780220368877053,0.24306045472621918,-0.1894536167383194,-0.13581660389900208,-0.07472482323646545,0.029337624087929726,-0.21942217648029327,0.20707930624485016,-0.07048042118549347,0.06277675181627274,-0.3028196096420288,0.022451749071478844,-0.1926107108592987,-0.14534133672714233,-0.25004056096076965,0.4140417277812958,-0.27221179008483887,0.03290172666311264,-0.25966551899909973,0.004694424569606781,0.22739221155643463,-0.2393590658903122,0.04837743565440178,-0.08176635205745697,-0.1339741200208664,-0.14629364013671875,0.05918547511100769,-0.35343778133392334,0.014526698738336563,0.20373642444610596,-0.2688705027103424,0.39940574765205383,0.049188729375600815,0.17985832691192627,0.2364118993282318,-0.3919415771961212,0.15659387409687042,0.2036934494972229,-0.5128248929977417,-0.11148388683795929,0.43837422132492065,-0.16518060863018036,0.27841222286224365,-0.37873759865760803,-0.3522563874721527,-0.0451924204826355,0.038819536566734314,0.08151507377624512,0.04014166444540024,-0.2026475965976715,-0.2441505342721939,-0.06874194741249084,0.016692817211151123,0.10443906486034393,-0.001068560522980988,0.07190494984388351,-0.045901019126176834,0.1042068749666214,0.2078586369752884,-0.32931628823280334,-0.16938455402851105,-0.23659975826740265,-0.20845197141170502,0.27131226658821106,0.12529981136322021,0.3064768612384796,0.09220673888921738,0.0738140270113945,0.22999992966651917,0.14563408493995667,0.14238619804382324,-0.3880746364593506,-0.4247317612171173,-0.03332318738102913,-0.006352883297950029,-0.0034111051354557276,-0.10541519522666931,0.2939608097076416,-0.15941880643367767,-0.22490033507347107,0.12036502361297607,-0.052922409027814865,-0.1199588030576706,-0.08015906065702438,-0.17012493312358856,-0.01557373907417059,-0.19691690802574158,0.06127293407917023,0.23438741266727448,-0.2250044345855713,-0.13322433829307556,0.12021540105342865,0.14963257312774658,0.027740929275751114
0.650862991809845,0.17889581620693207,0.259778767824173,0.7105525135993958,0.6187726259231567,-0.2274695485830307,-0.061027903109788895,-0.11993605643510818,-0.0478878989815712,0.7206064462661743,-0.1474398374557495,-0.036495938897132874,-0.3749447166919708,-0.6076288223266602,0.4679848253726959,0.22565846145153046,-0.73978191614151,-0.3358815610408783,-0.05637139454483986,0.6336691975593567,0.980958878993988,-0.07069333642721176,-0.13467204570770264,0.2208273559808731,0.6084201335906982,0.16041073203086853,-0.4158000349998474,0.631625771522522,0.38375774025917053,0.8292065262794495,0.2569539248943329,0.002848694333806634,-0.19241806864738464,0.08545658737421036,0.2189510613679886,0.11623740196228027,-0.8713062405586243,0.6007394790649414,0.30002495646476746,0.1409289389848709,-0.2399688959121704,0.042956408113241196,0.5095603466033936,0.34135347604751587,-0.5696738362312317,-0.86424320936203,0.3376666307449341,0.5611279606819153,-0.5991857051849365,0.17271985113620758,-0.31442826986312866,0.7507376074790955,-0.5601273775100708,-0.8105382919311523,0.3505627512931824,0.7939173579216003,0.6893259286880493,-0.0032199525739997625,0.6701371073722839,-0.11053305864334106,0.09187667816877365,0.12833185493946075,-0.43176960945129395,0.15008679032325745,0.20298540592193604,0.13763174414634705,0.48777490854263306,0.7717620730400085,0.4528256356716156,-0.0954621285200119,-0.46270352602005005,0.15145723521709442,-0.036870986223220825,-0.7302557826042175,-0.5525339841842651,-0.004288301337510347,0.3487204909324646,-0.22589045763015747,-0.2659528851509094,-0.13211654126644135,0.48238494992256165,0.4326635003089905,0.5490721464157104,-0.0703313872218132,-0.19109556078910828,1.0490881204605103,-0.16602715849876404,0.16445034742355347,0.3824358582496643,-0.5767365097999573,-0.7161140441894531,-0.22547180950641632,0.22457343339920044,0.39829227328300476,-0.26306861639022827,-0.08902016282081604,-0.22090032696723938,0.036744412034749985,0.39542046189308167,-0.04965769127011299,0.25705963373184204,-0.3356892764568329,0.007713536266237497,0.12720876932144165,-0.4787290096282959,0.6524879932403564,0.11731817573308945,0.4472067952156067,-0.25449833273887634,-0.8274675607681274,0.7075221538543701,-0.051135554909706116,0.4551919400691986,0.2229553610086441,-0.059958554804325104,0.11118637025356293,0.3805138170719147,-0.5857904553413391,-0.6665322780609131,-0.43453946709632874,0.7415986657142639,0.2527181804180145,-0.010269276797771454,0.08793825656175613,-0.2719600200653076,-0.20956946909427643,-0.107490673661232,0.4990076720714569
0.008062130771577358,0.0428256131708622,-0.3383566439151764,-0.2572095990180969,-0.04205811396241188,-0.15017300844192505,0.1022186130285263,-0.12894436717033386,0.05019596964120865,0.00023276166757568717,0.18949776887893677,0.14631889760494232,0.18199537694454193,0.16450530290603638,-0.40990516543388367,-0.10631216317415237,0.2131306231021881,0.1483958512544632,0.09571043401956558,-0.054865479469299316,-0.3575286865234375,0.1311541497707367,-0.1485396772623062,-0.0693010464310646,-0.01894618198275566,-0.14038001000881195,0.10765084624290466,-0.24405735731124878,0.01400604099035263,-0.4347047805786133,-0.18382956087589264,-0.2861977517604828,0.18040455877780914,0.06807417422533035,0.23508471250534058,-0.1919625699520111,0.13804489374160767,-0.22984842956066132,-0.18862029910087585,-0.19599200785160065,-0.1182609349489212,-0.1585644781589508,-0.3731600344181061,-0.04730931296944618,0.2347629964351654,0.35405316948890686,-0.03670612722635269,-0.1561250239610672,0.04004841297864914,0.09967468678951263,-0.07370498031377792,-0.04953848943114281,0.04982127994298935,0.10406233370304108,-0.3191707730293274,-0.007959496229887009,-0.19046220183372498,0.025297988206148148,-0.07534702867269516,-0.2074190080165863,-0.008662213571369648,-0.5459465384483337,-0.12742339074611664,0.21580809354782104,-0.05467996373772621,-0.19403715431690216,-0.04236820340156555,-0.35687491297721863,-0.09697610139846802,0.004727070219814777,0.04936080053448677,-0.1436954289674759,-0.13015615940093994,0.22928979992866516,0.12924693524837494,0.12401023507118225,0.08918455988168716,-0.6533185243606567,0.16821430623531342,-0.34259283542633057,0.03338344395160675,-0.18512994050979614,-0.18697293102741241,-0.10029422491788864,-0.027567656710743904,-0.34124645590782166,0.21678194403648376,0.1012890636920929,-0.10112952440977097,0.27465033531188965,-0.057049136608839035,0.07156341522932053,-0.02181193418800831,0.016251595690846443,0.09186360239982605,-0.12286659330129623,-0.003259707009419799,0.16757147014141083,-0.04220699518918991,0.26563677191734314,0.023168006911873817,-0.2074892818927765,0.003518112935125828,-0.16434477269649506,0.24942652881145477,0.26039737462997437,0.10430990904569626,-0.25587427616119385,-0.16148366034030914,0.22561706602573395,-0.06476481258869171,-0.2326253205537796,-0.10720562934875488,-0.0015336349606513977,-0.03409546986222267,0.059330567717552185,-0.11554189771413803,0.2388542741537094,-0.12860646843910217,-0.05985647067427635,-0.05339213088154793,0.17165406048297882,0.15993693470954895,-0.09914345294237137,-0.008187598548829556,0.24478989839553833,0.1458735167980194,-0.09701775759458542
0.3843154311180115,0.3283677101135254,0.0010349119547754526,0.5660263299942017,0.08616069704294205,-0.3159601390361786,0.7489346861839294,-0.4912927448749542,0.2291838675737381,0.08714646846055984,-0.47029104828834534,0.3523999750614166,0.05301739275455475,-0.1232292503118515,0.08663007616996765,-0.09494692087173462,-0.19822795689105988,-0.032153017818927765,-0.06027686968445778,0.6014718413352966,-0.19175945222377777,-0.17018954455852509,-0.39525434374809265,0.22998294234275818,0.04337235540151596,0.07965115457773209,-0.041519250720739365,-0.16605599224567413,0.07750227302312851,-0.16622932255268097,0.30369848012924194,0.3547592759132385,-0.08770366758108139,-0.09107185155153275,0.17715294659137726,-0.32121574878692627,-0.0077696871012449265,0.04656444489955902,0.1434687077999115,-0.26876962184906006,0.34667906165122986,-0.20265361666679382,-0.18716542422771454,0.08032090216875076,0.0625755786895752,-0.30267882347106934,0.17847174406051636,0.010319159366190434,0.34212517738342285,-0.10291453450918198,-0.5784042477607727,0.09165085852146149,0.5342198610305786,-0.009448828175663948,-0.3794891834259033,0.264225035905838,0.5682762265205383,-0.5343511700630188,-0.06159193813800812,0.037474311888217926,-0.25111687183380127,0.13209697604179382,-0.11466194689273834,0.041535984724760056,0.01696181111037731,-0.14793069660663605,-0.06812046468257904,0.10291258245706558,0.31774330139160156,-0.13357484340667725,0.365680068731308,-0.2764526307582855,0.2093231976032257,-0.36852023005485535,-0.1663104146718979,0.36419638991355896,0.07668644189834595,0.0003449607756920159,0.0968257337808609,0.2373497188091278,0.4812617003917694,-0.30641093850135803,-0.3080597519874573,-0.34190842509269714,-0.4185897409915924,-0.18761825561523438,0.18290606141090393,-0.18807938694953918,-0.3573165237903595,0.1466238647699356,0.02203010767698288,0.14043797552585602,-0.18380935490131378,0.44949105381965637,0.4593762755393982,-0.374900221824646,-0.47023874521255493,0.02717362530529499,-0.237249955534935,0.12327323853969574,-0.25135675072669983,0.10841746628284454,0.12706954777240753,0.23688587546348572,-0.37694016098976135,-0.010237710550427437,0.6706497073173523,0.6196411848068237,-0.0006195608293637633,-0.09473146498203278,-0.146768257021904,-0.6841003894805908,-0.3645477294921875,0.03900819644331932,0.24957339465618134,0.5992748141288757,-0.49861791729927063,0.022618135437369347,0.22105342149734497,-0.5664879083633423,0.019815851002931595,0.6077191829681396,0.3875195384025574,0.1529882550239563,0.011470439843833447,0.3666507601737976,-0.07657243311405182,0.12264809012413025
-0.19327661395072937,0.1388547122478485,-0.12280882894992828,-0.06700879335403442,0.10284055024385452,-0.062447406351566315,0.38722097873687744,-0.08793099224567413,-0.05492734909057617,0.07950019836425781,-0.010823293589055538,0.1970556080341339,0.0714312493801117,0.08991973102092743,-0.013958331197500229,-0.14015644788742065,0.08513081073760986,-0.09121519327163696,0.15884478390216827,-0.19783487915992737,0.02174145169556141,-0.2744462192058563,-0.025903044268488884,0.09895720332860947,0.04491619020700455,0.2263929545879364,0.04307191073894501,0.1362191140651703,0.0654509887099266,-0.1268726885318756,0.07904630899429321,0.09664608538150787,-0.17845839262008667,0.1347198635339737,0.05624612420797348,-0.042272359132766724,-0.20334388315677643,-0.03988024219870567,-0.12135985493659973,0.2075597494840622,0.34412679076194763,0.09635347872972488,-0.04981376975774765,0.0237021092325449,-0.08796514570713043,0.20094503462314606,-0.10612085461616516,-0.039475854486227036,-0.12458748370409012,0.05127742141485214,0.06314192712306976,-0.06444764882326126,-0.030051065608859062,0.034890979528427124,-0.47652551531791687,0.09541137516498566,0.3888075053691864,-0.2660146951675415,-0.0365460030734539,0.1662634313106537,0.07854422926902771,0.2663745880126953,-0.06061558797955513,0.12264295667409897,-0.03966359421610832,-0.6224693059921265,0.031072387471795082,-0.2016374170780182,-0.045395929366350174,0.007961785420775414,-0.17469239234924316,-0.21947474777698517,-0.17224189639091492,0.26444458961486816,0.30908721685409546,0.13970370590686798,0.25237375497817993,0.0008284373907372355,0.004344695247709751,-0.16318222880363464,-0.037618834525346756,-0.11684694141149521,0.3521152138710022,-0.0445094034075737,-0.2822486162185669,-0.04234359413385391,0.11503977328538895,-0.34974536299705505,-0.14319229125976562,0.15002329647541046,0.06255900859832764,0.0139104463160038,0.00042679678881540895,0.2006857544183731,0.1680261194705963,-0.025056958198547363,0.05466561019420624,-0.17082493007183075,0.23559531569480896,0.030469365417957306,0.02102699689567089,0.2650197446346283,-0.09082213044166565,0.12850965559482574,-0.2356450855731964,0.00022306836035568267,0.0927727222442627,-0.1492738574743271,-0.05350050702691078,-0.11660729348659515,0.14413422346115112,-0.06621351093053818,0.06792866438627243,0.010479919612407684,-0.133014976978302,0.08709613233804703,-0.03899926319718361,-0.11235617101192474,0.0983874723315239,0.036773379892110825,-0.16183704137802124,-0.0964224562048912,0.10161048918962479,-0.004361701663583517,-0.10760319232940674,-0.10421694070100784,0.04068927839398384,0.10563062131404877
0.27953529357910156,-0.18551510572433472,-0.2001381665468216,0.15125882625579834,-0.12035544216632843,0.08620821684598923,-0.19306117296218872,-0.23389661312103271,-0.26089122891426086,-0.06764025241136551,0.2679010331630707,-0.02336675114929676,0.6782662272453308,0.29239028692245483,0.1482374221086502,-0.07214768975973129,-0.3821539282798767,0.03529758378863335,0.2728082239627838,0.31251946091651917,0.3004065752029419,0.3615451753139496,-0.31370726227760315,-0.10163045674562454,-0.15986378490924835,-0.19766096770763397,0.2488131821155548,-0.1457722783088684,-0.8547728657722473,-0.136295884847641,0.11340726166963577,-0.2946343421936035,0.17881260812282562,0.034611668437719345,0.4029376804828644,-0.14463330805301666,-0.32778415083885193,-0.1033346876502037,-0.0256503913551569,-0.9005941152572632,-0.418325811624527,0.14353422820568085,-0.09905216097831726,-0.028110038489103317,0.032283902168273926,0.08964642137289047,0.3003837466239929,-0.6291990876197815,-0.17108118534088135,-0.21769979596138,-0.009863502345979214,-0.33868536353111267,-0.0597321055829525,-0.15377025306224823,-0.10670953243970871,-0.15163438022136688,-0.2697525918483734,0.29863739013671875,0.15845738351345062,-0.11238044500350952,-0.5101396441459656,-0.001200952217914164,-0.23774836957454681,0.14364509284496307,-0.3362858295440674,0.13987351953983307,-0.37701302766799927,-0.1276419758796692,-0.09441588819026947,-0.22800295054912567,0.1926904171705246,0.1581515371799469,0.14699697494506836,0.06667890399694443,0.47324639558792114,-0.08600081503391266,-0.2845824658870697,0.1451616734266281,0.6547257900238037,0.04287121072411537,0.006668774411082268,0.11717229336500168,0.02342229150235653,0.33264535665512085,0.26768454909324646,0.1251097321510315,0.24323700368404388,-0.18181198835372925,0.2734276354312897,-0.21201111376285553,-0.25785523653030396,0.4953078627586365,-0.18849769234657288,-0.10481271892786026,-0.01732892543077469,0.07956541329622269,-0.3437025845050812,-0.14263933897018433,-0.058697815984487534,0.1926007717847824,0.5073288083076477,0.11095065623521805,0.14968371391296387,0.1378728300333023,0.07561315596103668,-0.09589937329292297,-0.0554901547729969,0.1607697457075119,-0.07499418407678604,0.29501208662986755,-0.03849039599299431,0.009357844479382038,0.11040189862251282,0.0539889819920063,-0.5608121752738953,-0.007350862491875887,0.35211580991744995,-0.5168637633323669,0.023262495175004005,-0.02568463608622551,0.42775577306747437,-0.17906510829925537,-0.28663498163223267,0.17651264369487762,0.4533483386039734,-0.24757523834705353,-0.4869128167629242,-0.024979788810014725
-0.5759554505348206,-0.07616688311100006,-0.21270596981048584,-0.16863180696964264,-0.0999053567647934,-0.1926879584789276,-0.07841311395168304,0.2646341919898987,-0.3223590552806854,0.1402944177389145,0.012468282133340836,0.22673295438289642,-0.18726713955402374,0.24169719219207764,0.07110944390296936,-0.2755306661128998,0.25093546509742737,0.1126125231385231,0.060198258608579636,-0.44018423557281494,-0.010179809294641018,0.4035000503063202,-0.2064448446035385,-0.12249871343374252,0.4054401218891144,0.015489605255424976,0.055635079741477966,0.11854568123817444,-0.04668702930212021,0.120671845972538,-0.15234459936618805,0.19099289178848267,-0.1652640998363495,-0.32033780217170715,0.06494882702827454,-0.1944260597229004,-0.04715829715132713,-0.32259565591812134,-0.04596777260303497,-0.0010142135433852673,0.07716697454452515,-0.15033841133117676,0.08104459941387177,0.14129897952079773,-0.1930093914270401,0.29162681102752686,-0.11150947958230972,0.10873305052518845,0.3801174461841583,-0.21014361083507538,0.05262737348675728,0.05123985558748245,-0.24250896275043488,0.046433527022600174,-0.15471389889717102,-0.08041733503341675,0.2199631929397583,-0.23047204315662384,0.135003924369812,0.27268579602241516,0.020898601040244102,0.054941605776548386,0.05428672209382057,0.1340831220149994,-0.15599891543388367,0.01878976635634899,0.1381976157426834,0.1981867402791977,-0.018758296966552734,-0.2792176902294159,-0.422793447971344,-0.0785503014922142,0.15740402042865753,0.1245904415845871,-0.21176700294017792,0.06985937803983688,0.14848875999450684,0.09524937719106674,0.05516734719276428,0.10041912645101547,0.19929096102714539,-0.13890837132930756,-0.0056843082420527935,0.026102731004357338,-0.015281054191291332,-0.13424354791641235,-0.07748348265886307,0.05325964838266373,-0.0904509499669075,0.5013360381126404,0.10729268938302994,0.015611153095960617,0.17371533811092377,-0.04825950413942337,0.32012757658958435,0.006580054759979248,-0.17354775965213776,0.10502268373966217,-0.075407974421978,0.21751977503299713,0.18538133800029755,0.28764504194259644,0.023971082642674446,0.6589186787605286,0.14603184163570404,-0.2554682195186615,-0.03901958093047142,0.42593565583229065,-0.04151509329676628,-0.09811581671237946,-0.042915575206279755,-0.5193886160850525,-0.3679676353931427,-0.0555076040327549,0.3425736129283905,-0.06357147544622421,-0.20689675211906433,0.20587442815303802,0.19177228212356567,-0.03113211877644062,-0.09920329600572586,-0.12477237731218338,0.037360694259405136,0.2401924431324005,-0.20199216902256012,0.058706287294626236,0.6038594245910645,0.13744531571865082
-0.12976118922233582,0.16999535262584686,0.19927793741226196,0.1255967915058136,0.1411990374326706,0.16843919456005096,-0.03669431433081627,-0.06484031677246094,-0.20393313467502594,-0.14705361425876617,-0.043621908873319626,-0.1467299908399582,0.0031206030398607254,-0.08880722522735596,-0.04741392284631729,0.08857423067092896,-0.15057630836963654,-0.05168314650654793,0.06004009023308754,-0.09075053781270981,0.14456182718276978,0.001926482655107975,-0.49726971983909607,0.08933570981025696,-0.1785607933998108,0.05922188609838486,0.026763128116726875,-0.05439151078462601,-0.39672213792800903,0.42801934480667114,0.10698731988668442,-0.06891241669654846,0.1605016589164734,-0.3459703028202057,-0.4026404321193695,-0.3001803755760193,0.13116492331027985,-0.13747335970401764,0.02977103739976883,-0.20699891448020935,0.13158340752124786,-0.08378186076879501,-0.08105666190385818,-0.029300576075911522,0.010436475276947021,-0.04460690915584564,0.17383618652820587,-0.18464235961437225,0.10626469552516937,-0.22059273719787598,0.07476580142974854,-0.1929931938648224,-0.03809628635644913,-0.03982028737664223,-0.049775075167417526,-0.2559664845466614,0.05372830107808113,-0.06883741170167923,-0.07635972648859024,-0.11763619631528854,-0.1898108869791031,0.004533987492322922,-0.08762270957231522,0.32022443413734436,-0.17469006776809692,0.06167084351181984,-0.1666717529296875,-0.08429936319589615,0.15835601091384888,-0.2456592172384262,0.5090067982673645,-0.18490083515644073,0.23913970589637756,0.11598113924264908,0.29444369673728943,0.12551246583461761,-0.31942835450172424,-0.06482787430286407,0.1985163539648056,0.015595582313835621,0.072678342461586,0.03735530003905296,0.26609134674072266,0.04692520946264267,0.08224540948867798,-0.10361512750387192,-0.02516082674264908,-0.03179798647761345,0.09411603957414627,0.06548114120960236,0.05521101877093315,0.12723615765571594,0.030627040192484856,0.277949720621109,0.08489318937063217,-0.09262832254171371,-0.12413056194782257,-0.35137972235679626,-0.24044668674468994,0.010027479380369186,0.11956490576267242,0.14241109788417816,0.10680821537971497,0.12131091207265854,0.21539221704006195,-0.0672885850071907,-0.23902980983257294,-0.0364835150539875,-0.19723665714263916,-0.09573601931333542,-0.047439318150281906,0.14083585143089294,-0.03950579836964607,-0.04707211256027222,0.05166685953736305,0.11439962685108185,0.2723828852176666,0.03911656513810158,-0.07729184627532959,-0.16418461501598358,0.0886039137840271,0.046994637697935104,0.1376032829284668,-0.16075684130191803,0.40858569741249084,0.051064569503068924,-0.03730103373527527,0.15588346123695374
-0.14856946468353271,0.024642009288072586,0.25214990973472595,-0.019626138731837273,0.26177406311035156,-0.2745002806186676,0.21160629391670227,-0.36595967411994934,-0.00432683015242219,0.2140050232410431,0.25837117433547974,-0.0708426758646965,-0.13661925494670868,0.4890539348125458,0.19319891929626465,-0.24670231342315674,0.20237311720848083,0.21264183521270752,0.060179442167282104,-0.22754302620887756,0.016256043687462807,0.18745212256908417,-0.15992718935012817,-0.11998451501131058,-0.3531672954559326,-0.1801702380180359,0.12138691544532776,-0.0877937600016594,0.1778385043144226,0.06271333992481232,-0.15387512743473053,0.18157513439655304,-0.03461725637316704,-0.21947437524795532,0.047329384833574295,0.1367134153842926,0.4131287932395935,-0.05627383291721344,0.00931643694639206,-0.15306511521339417,-0.3405502438545227,0.42807477712631226,-0.15020744502544403,0.041089460253715515,0.06919584423303604,0.056341104209423065,0.16619883477687836,0.17589104175567627,0.07687198370695114,-0.3192867338657379,-0.01577732525765896,-0.2821081280708313,-0.18405672907829285,0.2712779939174652,-0.15942734479904175,-0.052315473556518555,-0.13108138740062714,-0.5648171305656433,0.22289499640464783,-0.1363706886768341,-0.19339653849601746,0.2178713083267212,0.21500910818576813,0.2556172311306,-0.19919922947883606,0.3532419502735138,0.30456528067588806,-0.12239347398281097,-0.08938871324062347,-0.10329931229352951,-0.08793497830629349,0.2422574907541275,-0.24258477985858917,-0.0654972493648529,0.2739570438861847,0.05114550516009331,0.10113222897052765,0.22430379688739777,-0.022198118269443512,-0.32407325506210327,-0.047534290701150894,-0.03657966107130051,0.09753260761499405,0.16203702986240387,-0.07839088886976242,-0.4400618076324463,0.23781539499759674,-0.30315056443214417,0.19278396666049957,-0.04062385857105255,0.2496214359998703,-0.20138607919216156,0.0830458402633667,0.25006037950515747,0.03178153559565544,0.04616384580731392,-0.15963934361934662,0.08822790533304214,-0.2660156190395355,-0.23938128352165222,0.18995323777198792,-0.2348761409521103,0.028281766921281815,-0.13947071135044098,0.17181093990802765,-0.09525572508573532,0.2077404409646988,0.33105653524398804,-0.3272583782672882,-0.34054502844810486,0.03169100731611252,-0.08620304614305496,0.04430163651704788,0.2251245230436325,-0.13387955725193024,0.08479736000299454,0.35865727066993713,0.15417754650115967,0.05622570961713791,0.14124064147472382,0.14368471503257751,-0.28767943382263184,-0.1315629631280899,-0.21403765678405762,0.024394894018769264,-0.3452162742614746,0.006875863764435053,-0.14937724173069
0.04235346242785454,-0.012898805551230907,-0.2228889912366867,-0.42552146315574646,-0.3062484860420227,-0.2139795571565628,0.7094908356666565,0.11940063536167145,0.35761308670043945,-0.16580449044704437,-0.2064068466424942,0.09392167627811432,-0.32112836837768555,-0.43717560172080994,0.031231289729475975,-0.09540718048810959,-0.2173355221748352,0.39978569746017456,-0.05980132520198822,0.2799132466316223,0.04352221637964249,-0.24844229221343994,0.16497433185577393,-0.03705752640962601,0.49708208441734314,-0.182738795876503,0.034105319529771805,0.31214484572410583,0.9066227674484253,0.015633756294846535,-0.23108437657356262,0.4143466651439667,-0.2701400816440582,0.32176533341407776,0.08130867779254913,0.3408077359199524,0.3271978497505188,0.09366026520729065,0.07941499352455139,0.6175424456596375,-0.06332775205373764,0.42078521847724915,0.25964871048927307,-0.19709637761116028,0.08273182809352875,0.009173927828669548,0.03301452472805977,0.7062326669692993,-0.17174777388572693,0.035557229071855545,0.34230899810791016,0.26316696405410767,-0.0759919136762619,0.14071057736873627,0.0689573585987091,0.3168560266494751,0.2719971537590027,0.14081692695617676,-0.1284436732530594,-0.07479693740606308,0.4059506356716156,-0.05938640981912613,0.21890774369239807,-0.3828056752681732,0.30583351850509644,-0.2407684624195099,0.3862130641937256,0.4948725402355194,0.07349707931280136,0.5051113367080688,-0.4073123037815094,0.2044963538646698,-0.692033052444458,-0.1639033854007721,-0.3794156312942505,0.3787749707698822,0.15126574039459229,-0.2472812980413437,-0.4238801896572113,0.06024770811200142,0.16055190563201904,-0.21197165548801422,-0.2219933420419693,-0.1896275132894516,0.03467443212866783,-0.3642449378967285,-0.2821931540966034,0.19113758206367493,-0.12997959554195404,-0.2473999410867691,-0.27944082021713257,-0.2373020499944687,-0.08450140058994293,-0.052979886531829834,-0.04841001704335213,-0.2500768303871155,-0.11062518507242203,0.5105005502700806,-0.15884101390838623,-0.15425056219100952,0.17159821093082428,0.08635253459215164,0.09729430079460144,-0.2970946729183197,-0.547817587852478,0.3637407124042511,0.0872652679681778,0.26612699031829834,0.025837844237685204,0.07788289338350296,0.0790141373872757,-0.28443852066993713,0.12678541243076324,0.2886296212673187,0.24093811213970184,-0.16268442571163177,0.09415803849697113,-0.23466388881206512,-0.00582909258082509,0.5578150749206543,-0.29624876379966736,-0.23766742646694183,-0.044873710721731186,0.1773242950439453,-0.2197694331407547,0.025071045383810997,0.08259086310863495,-0.3483358919620514
-0.4824725389480591,-0.04985831305384636,-0.013883886858820915,-0.2851523160934448,0.12601502239704132,-0.18435551226139069,0.047828495502471924,-0.309129923582077,-0.1420307755470276,0.10040202736854553,0.052115753293037415,0.25470200181007385,-0.04586363583803177,0.17461977899074554,0.35103079676628113,-0.3509916663169861,-0.18301163613796234,0.14636853337287903,0.23416361212730408,-0.39369699358940125,0.10356535762548447,0.43753132224082947,-0.22001081705093384,-0.09185686707496643,-0.06235647201538086,-0.16914400458335876,0.03222066909074783,0.006468374747782946,-0.28696486353874207,0.23166489601135254,-0.24097412824630737,0.1312820017337799,0.230704203248024,-0.5135807394981384,0.14758408069610596,0.13914558291435242,0.12560619413852692,-0.22917553782463074,-0.188637837767601,-0.24903467297554016,-0.23236678540706635,0.23876291513442993,0.04248597100377083,0.055688489228487015,0.031281325966119766,-0.06846782565116882,0.3155312240123749,0.07776288688182831,0.16165649890899658,-0.5412525534629822,0.21357987821102142,-0.28260111808776855,-0.19209109246730804,-0.14150989055633545,-0.048763688653707504,-0.11166288703680038,0.09297355264425278,-0.28144291043281555,0.02387082390487194,0.22284938395023346,-0.06125052645802498,-0.17880575358867645,0.22685624659061432,0.1360015571117401,0.16385036706924438,-0.1599358767271042,-0.15455402433872223,-0.21200871467590332,-0.057336706668138504,-0.4189743101596832,-0.3072790205478668,0.07115252315998077,0.08929443359375,0.02891099452972412,0.2859455347061157,0.02413930557668209,0.0842786580324173,-0.13298062980175018,0.4938008487224579,-0.07889536768198013,-0.16266825795173645,0.24686592817306519,0.16010674834251404,0.06375102698802948,0.22521337866783142,-0.26581108570098877,0.04736451059579849,0.1384294182062149,0.04246127977967262,0.3670361340045929,0.18591676652431488,0.11147606372833252,0.0026226076297461987,0.21142888069152832,-0.10549541562795639,0.03348328173160553,-0.14842844009399414,0.1382531374692917,0.03640575706958771,-0.08226028084754944,0.21505704522132874,0.24847544729709625,0.11932455003261566,0.2499024122953415,0.27778929471969604,-0.08824575692415237,0.07627229392528534,0.5697057247161865,-0.4000944197177887,-0.1458824723958969,0.14965367317199707,-0.3705282211303711,-0.29595044255256653,0.059036970138549805,0.09572827816009521,-0.22657470405101776,0.15714003145694733,-0.2545415759086609,0.1076195165514946,0.3259751498699188,0.4103478193283081,-0.24069906771183014,-0.17200791835784912,0.3520320951938629,-0.4410932660102844,-0.16230884194374084,0.11981070041656494,0.2007153332233429
0.06090230122208595,-0.30747565627098083,0.051303815096616745,0.19689275324344635,-0.6983835697174072,0.08853790909051895,0.040871791541576385,0.11613903939723969,0.03930005058646202,-0.05846010893583298,0.22619585692882538,-0.2861062288284302,-0.06032876297831535,-0.07269535958766937,-0.03729629889130592,-0.19448891282081604,-0.2330881506204605,0.42526349425315857,-0.0021244126837700605,0.24234960973262787,-0.19218827784061432,-0.05078158527612686,0.0679369792342186,-0.41189712285995483,0.20198415219783783,-0.243523508310318,0.07832184433937073,0.07960663735866547,0.43369314074516296,-0.45852017402648926,-0.26727643609046936,-0.10969991236925125,-0.09769148379564285,0.5271084308624268,-0.11503216624259949,0.2688146233558655,0.01618657261133194,-0.07561963051557541,0.06494701653718948,0.32618871331214905,-0.14828476309776306,0.3520941436290741,0.3032047152519226,-0.5164801478385925,0.36093422770500183,-0.111315056681633,-0.20669016242027283,0.1111428514122963,0.026170795783400536,-0.0899752676486969,0.026125429198145866,0.2221251279115677,-0.4885108470916748,-0.0031023204792290926,0.3356810212135315,0.42981812357902527,0.255784273147583,0.5072415471076965,0.17591261863708496,-0.14144065976142883,0.6818211078643799,-0.5424057841300964,-0.261501669883728,-0.4102933406829834,0.2087007611989975,-0.12985248863697052,0.33494120836257935,0.3599691689014435,0.1598518341779709,0.4550444185733795,-0.24717889726161957,0.24331948161125183,-0.6269703507423401,-0.06473423540592194,0.16141697764396667,0.33148348331451416,0.20316201448440552,0.3911668658256531,0.04643987491726875,0.1153588742017746,0.26988714933395386,0.16491594910621643,-0.32851991057395935,0.051623374223709106,0.25201448798179626,0.4823993146419525,0.027777398005127907,0.59473717212677,0.2430254966020584,-0.5046371221542358,-0.04832589626312256,-0.2961110472679138,-0.182090163230896,-0.08492866158485413,-0.3260107636451721,0.16367240250110626,-0.28167030215263367,0.2198575884103775,0.16398777067661285,-0.2152276337146759,0.01970600336790085,0.3690514862537384,-0.13862022757530212,-0.03827889263629913,-0.5013331174850464,0.0596621111035347,-0.04943038150668144,-0.1781422346830368,0.07934248447418213,0.08881588280200958,-0.009075190871953964,0.046448852866888046,0.23302409052848816,-0.06426834315061569,-0.18109486997127533,-0.5613333582878113,0.2040693461894989,0.10159231722354889,-0.26258018612861633,0.3171485662460327,0.07678602635860443,-0.22765417397022247,-0.33466672897338867,0.4750058650970459,-0.27044880390167236,0.19068916141986847,-0.2864041328430176,-0.1543729603290558
-0.1727442890405655,-0.13450396060943604,-0.05567251890897751,0.02680809423327446,0.008577436208724976,-0.09288644045591354,0.19122682511806488,-0.021124035120010376,-0.18538853526115417,0.020774465054273605,-0.08582565188407898,0.08967983722686768,0.08677449822425842,-0.038732077926397324,-0.19927437603473663,-0.07400751858949661,0.0428803376853466,-0.18985606729984283,0.26400575041770935,-0.018553057685494423,0.08095039427280426,-0.05095222592353821,-0.05194865167140961,0.05561954900622368,-0.22039110958576202,0.08464521914720535,0.09624791145324707,-0.05698665603995323,0.17264427244663239,-0.04317745566368103,-0.010947762988507748,0.14635075628757477,-0.02423836849629879,0.23310531675815582,-0.026993487030267715,-0.11449997872114182,-0.16836172342300415,-0.05423055216670036,-0.09656088054180145,0.18870261311531067,0.0473119392991066,0.16275005042552948,0.06929463148117065,-0.013803364709019661,0.06898324936628342,-0.0008025781717151403,-0.06107323616743088,-0.19002331793308258,-0.08478804677724838,0.08818849176168442,0.024755241349339485,0.02241426706314087,-0.05891065672039986,0.08278391510248184,-0.3592627942562103,0.23565730452537537,-0.10880638659000397,-0.4511471688747406,-0.088316410779953,0.10303747653961182,0.0003379660192877054,0.3041921555995941,-0.19715070724487305,0.037808869034051895,-0.24300764501094818,-0.4198746979236603,0.02179277315735817,-0.08498334884643555,0.011348163709044456,0.0764179676771164,-0.13152997195720673,-0.12638427317142487,0.04607652500271797,0.1782439947128296,-0.17062975466251373,-0.02561160735785961,0.01553034596145153,0.1715995818376541,0.3069821894168854,-0.27955079078674316,-0.0894981175661087,-0.07458725571632385,-0.013085883110761642,0.005696379113942385,0.07603079080581665,-0.14265647530555725,-0.07026247680187225,-0.4032646417617798,0.0769735723733902,0.09515628963708878,0.20703232288360596,0.11314209550619125,-0.14483846724033356,0.026234455406665802,0.01884295791387558,0.16881613433361053,0.1324036568403244,-0.026514284312725067,0.22047646343708038,0.16866420209407806,0.34246307611465454,0.1837015450000763,-0.04960772022604942,-0.08065135031938553,-0.1325111985206604,-0.01185974758118391,0.005915431771427393,-0.006720379926264286,-0.04344292730093002,-0.013012362644076347,0.06680240482091904,-0.03571243956685066,0.1847745180130005,-0.110244520008564,0.0858173593878746,-0.13552814722061157,-0.08956487476825714,0.16618701815605164,-0.043583765625953674,-0.13200214505195618,0.11439146846532822,0.07928378134965897,-0.09302622824907303,-0.1365305483341217,0.010499986819922924,-0.06885936111211777,-0.020018160343170166,-0.01347390003502369
-0.14222818613052368,-1.0150952339172363,0.5504106879234314,0.2152685821056366,-0.2825356721878052,0.16663523018360138,-0.044508468359708786,0.22838523983955383,-0.47529444098472595,-0.4559812843799591,0.8843254446983337,-0.3534025549888611,-0.12760603427886963,0.16220884025096893,0.6671566963195801,0.17543549835681915,-0.2226923555135727,-0.2500256299972534,-0.17887736856937408,-0.41982144117355347,0.2707630395889282,-0.14786788821220398,0.16200056672096252,0.26047176122665405,0.3778294622898102,0.2742660343647003,-0.12572729587554932,0.33588436245918274,-0.3728429079055786,0.11876872181892395,-0.08681817352771759,-0.27681562304496765,-0.2513343393802643,-0.3620041608810425,-0.4018029272556305,0.0954531729221344,-0.24490627646446228,0.21159173548221588,-0.018288901075720787,0.440548300743103,-0.4681597352027893,-0.0645013228058815,-0.012959016487002373,0.22620750963687897,0.15636642277240753,-0.23194608092308044,0.1393648087978363,0.24373456835746765,0.11021576076745987,0.2722046971321106,-0.003926664125174284,-0.06391672044992447,-0.05573277547955513,0.33166399598121643,0.07875736057758331,0.2304101288318634,0.015088869258761406,0.2156112939119339,-0.1944112777709961,-0.3440839648246765,0.5566948652267456,0.32287684082984924,0.28389739990234375,0.2140589952468872,0.2587060034275055,0.2974758744239807,-0.4335549771785736,0.512336254119873,0.9690449237823486,-0.20121333003044128,0.31602242588996887,-0.12397164106369019,0.20132668316364288,-0.47665074467658997,-0.4890233278274536,0.05693045258522034,0.5245057344436646,-0.020244792103767395,-0.3730177879333496,-0.22893573343753815,-0.15645331144332886,0.9114999771118164,-0.19688895344734192,0.3139328956604004,-0.008964700624346733,0.07401111721992493,-0.344527006149292,-0.4649134576320648,-0.23222149908542633,-0.4185798764228821,0.7394472360610962,-0.2265787422657013,-0.43082037568092346,-0.3920641243457794,-0.0051824492402374744,0.006849979516118765,0.04836088418960571,0.08091330528259277,-0.24826160073280334,0.1958370804786682,0.08933843672275543,-0.16243144869804382,-0.30169421434402466,-0.2544308602809906,-0.021044204011559486,-0.038366034626960754,-0.04773604869842529,-0.1181834265589714,-0.3695248067378998,0.09036431461572647,-0.012364952825009823,0.3512820601463318,-0.5999836325645447,-0.09595220535993576,0.02246016263961792,-0.11776824295520782,-0.09147311747074127,-0.08236511051654816,0.09760673344135284,-0.09833856672048569,0.12149360030889511,-0.4680522084236145,-0.12529180943965912,-0.5096068382263184,0.27212458848953247,-0.07343538850545883,-0.25020232796669006,-0.317221462726593
-0.020467301830649376,0.17768512666225433,0.028406428173184395,0.3631551265716553,-0.23055052757263184,-0.0037479540333151817,-0.4105839729309082,-0.1563626378774643,-0.15275999903678894,-0.31777769327163696,-0.17373497784137726,0.24562227725982666,0.37251201272010803,0.09682319313287735,-0.43942156434059143,0.13803355395793915,0.11695239692926407,-0.41591066122055054,0.01298186182975769,0.024953119456768036,-0.06520082801580429,-0.08477410674095154,-0.3346153795719147,0.062322765588760376,-0.01040656492114067,-0.07312635332345963,-0.33567702770233154,-0.2914550006389618,0.08804983645677567,0.2600402235984802,0.24775752425193787,0.2063235193490982,0.15702198445796967,0.0270942822098732,0.2632412314414978,-0.1933448314666748,-0.09474003314971924,-0.48976320028305054,0.2225732058286667,0.20021264255046844,0.18901139497756958,0.3984752297401428,0.09652895480394363,0.007029468659311533,-0.12556993961334229,-0.3643723726272583,0.1310419738292694,0.3075646460056305,-0.18307669460773468,-0.060111407190561295,-1.6062209606170654,0.0759696215391159,0.19753915071487427,0.250097393989563,-0.09145428240299225,0.11945733428001404,0.20524047315120697,-0.1036185473203659,-0.10363072901964188,-0.020462313666939735,0.2456236332654953,0.2384539097547531,0.11117681115865707,-0.18121440708637238,-0.22032812237739563,-0.21431906521320343,0.30264824628829956,-0.011009111069142818,0.32029059529304504,-0.5053425431251526,0.9917899966239929,0.06178431212902069,-0.017575953155755997,-0.739358127117157,0.09104848653078079,-0.06892914324998856,-0.32642272114753723,0.003986723255366087,0.21488766372203827,-0.569723904132843,0.1927388459444046,-0.07903150469064713,-0.12415602803230286,0.060892101377248764,-0.1090327724814415,-0.3030749559402466,-0.2541171908378601,-0.1503114104270935,0.006906074471771717,0.08419357985258102,0.07324885576963425,-0.016292251646518707,0.3423983156681061,-0.23036271333694458,0.3537639379501343,0.09775625914335251,0.15953253209590912,0.09641561657190323,-0.23814226686954498,0.2885218858718872,-0.11777246743440628,0.12983380258083344,0.09036744385957718,-0.06557871401309967,-0.4555000960826874,-0.5748953819274902,0.40348485112190247,0.05807103216648102,-0.22287385165691376,-0.0011280836770310998,0.15576960146427155,-0.03505659103393555,-0.080495186150074,0.1819668561220169,0.09864553064107895,0.10353915393352509,-0.11300554126501083,-0.011750188656151295,-0.0009771945187821984,-0.12610352039337158,0.008807030506432056,0.21109090745449066,0.19635452330112457,-0.3456200957298279,-0.018809020519256592,-0.15648582577705383,-0.15395304560661316,0.05175156518816948
0.04937036707997322,-0.3691830635070801,0.411233127117157,-0.1458287388086319,0.09264174103736877,0.015623439103364944,-0.21414554119110107,0.5332551002502441,-0.25317105650901794,-0.25501805543899536,0.33605462312698364,-0.5368874073028564,-0.11282964795827866,0.015552336350083351,0.19517628848552704,-0.03611709922552109,-0.13697022199630737,-0.33579525351524353,0.10711918771266937,-0.272988498210907,0.0035275002010166645,0.0643647089600563,-0.06864046305418015,0.07697723060846329,-0.23059172928333282,-0.029349274933338165,0.03331035375595093,0.15322032570838928,-0.1786767989397049,0.15479086339473724,0.05242564156651497,-0.11660625040531158,-0.11051779985427856,0.06648048013448715,-0.16380850970745087,-0.048412878066301346,-0.12337585538625717,0.1800020933151245,0.06031306833028793,0.17210516333580017,-0.3879062831401825,0.23818393051624298,-0.3396408259868622,0.2648163139820099,-0.04867279529571533,-0.11735302954912186,0.20613804459571838,-0.03623735159635544,-0.18811361491680145,-0.13547076284885406,-0.19656987488269806,-0.06838857382535934,-0.004091478884220123,0.0724259540438652,-0.12706686556339264,0.029534662142395973,-0.003968216013163328,0.20534102618694305,-0.07080517709255219,-0.19616422057151794,0.20465579628944397,0.5747876763343811,-0.05385671555995941,-0.2184896320104599,0.03648316115140915,0.21825751662254333,-0.1637154519557953,0.3661898970603943,0.573917031288147,-0.05537131801247597,0.29203829169273376,-0.1310654878616333,0.06528673321008682,-0.36694589257240295,-0.24259303510189056,-0.11058637499809265,0.1250724345445633,0.4576011896133423,0.25887832045555115,-0.20240823924541473,0.21180126070976257,0.5335771441459656,0.22509421408176422,0.09964139014482498,0.04971693083643913,-0.10965229570865631,-0.44220057129859924,-0.37360450625419617,0.018723294138908386,-0.5010249018669128,0.2587985098361969,0.3447009027004242,-0.0854329988360405,-0.232881560921669,0.08486554771661758,0.009927313774824142,0.07797833532094955,-0.37920311093330383,-0.33868980407714844,0.11848529428243637,0.18476669490337372,-0.08937268704175949,-0.21411268413066864,-0.04216216504573822,-0.1158796101808548,0.2403903752565384,-0.17517225444316864,-0.13775023818016052,-0.056933365762233734,-0.20148412883281708,-0.0786404088139534,0.01901654154062271,-0.05751178041100502,-0.18508093059062958,0.11135019361972809,0.13960564136505127,0.06003788486123085,-0.32041698694229126,-0.20569878816604614,-0.3305244445800781,0.11013974994421005,-0.2204436957836151,-0.355423241853714,-0.2647513449192047,0.011089610867202282,0.14527806639671326,-0.43640443682670593,0.0023401316720992327
0.059695176780223846,0.07883980125188828,0.009138992987573147,0.0064003681764006615,0.09715437889099121,0.11388861387968063,-0.40652137994766235,0.022708361968398094,-0.1265517771244049,0.11755609512329102,0.11689995229244232,-0.17687749862670898,0.12209015339612961,-0.0997089073061943,0.0056738341227173805,-0.09394825994968414,-0.020034125074744225,-0.19881531596183777,-0.508163571357727,-0.2618155777454376,0.3480945825576782,-0.40426844358444214,-0.47175925970077515,-0.0694064125418663,-0.21649153530597687,0.07997968792915344,0.2124202698469162,-0.028863945975899696,0.17849452793598175,-0.3371853232383728,0.705375611782074,0.026724983006715775,-0.19229409098625183,-0.12445499002933502,0.5315966010093689,-0.10627762228250504,0.007213051430881023,-0.16562022268772125,0.06089921295642853,0.18714316189289093,-0.04796852916479111,-0.0605364628136158,0.06016743555665016,0.1013079509139061,0.06349018961191177,-0.18555964529514313,-0.043040018528699875,0.14042066037654877,-0.24377185106277466,0.06166045367717743,-0.6732732057571411,0.2599942982196808,0.10851183533668518,0.1238945722579956,0.03084430657327175,-0.4132094979286194,0.38453128933906555,0.1834670603275299,0.03525638207793236,0.38899868726730347,0.14564144611358643,-0.00037857130519114435,0.450923889875412,0.25391605496406555,0.14674344658851624,-0.3421436846256256,-0.057527489960193634,-0.18617555499076843,-0.22825691103935242,-0.07578185945749283,0.6538521647453308,-0.34694215655326843,-0.15848009288311005,0.413747638463974,-0.2946510314941406,-0.030041281133890152,0.2047957181930542,-0.10068702697753906,-0.1892061084508896,-0.0055965641513466835,0.18279555439949036,-0.26116588711738586,-0.1686539649963379,0.3598894476890564,0.1927846223115921,0.3050786256790161,-0.12738513946533203,0.20388413965702057,-0.002536207903176546,-0.02064274251461029,0.0016418775776401162,0.06272279471158981,0.46591997146606445,-0.246766597032547,0.05861259251832962,-0.32551586627960205,0.5551649332046509,-0.07641007751226425,0.12697097659111023,-0.018669098615646362,0.15738557279109955,0.11291874200105667,-0.14838166534900665,0.1544252336025238,-0.2287401407957077,0.30547070503234863,0.07421379536390305,-0.0021996202412992716,0.11150723695755005,-0.09413938224315643,0.10526977479457855,-0.006436601746827364,-0.09104645252227783,-0.25231966376304626,0.06907538324594498,0.07059498131275177,0.148533433675766,0.0426800437271595,0.41481292247772217,0.1524008959531784,-0.3211078345775604,-0.01945050247013569,0.172587588429451,-0.31535738706588745,0.4113883972167969,-0.21257765591144562,0.13765548169612885,-0.20756331086158752
-0.2278803586959839,0.503777027130127,-0.4726763963699341,0.18483957648277283,-0.2125077247619629,-0.8939967155456543,0.48579296469688416,-0.42128780484199524,0.1700005978345871,0.394610732793808,-0.47855278849601746,0.8523942828178406,-0.04561133310198784,0.1143745630979538,-0.6380577087402344,0.4677172005176544,0.5969287753105164,-0.17087775468826294,0.28987523913383484,0.21654093265533447,0.07193294912576675,0.3763427436351776,-0.15939673781394958,0.06154126673936844,-0.0013980339281260967,-0.2827274203300476,-0.2730005085468292,-0.7308063507080078,0.4323912262916565,0.24160757660865784,0.2554094195365906,-0.26568862795829773,0.5675263404846191,0.26983991265296936,0.3624444007873535,-0.4958721995353699,0.16154183447360992,-0.3004601001739502,0.6118389368057251,-0.07141771912574768,0.22686944901943207,0.003026641206815839,-0.04725933447480202,0.14076492190361023,0.14121007919311523,0.12064375728368759,-0.18935617804527283,-0.08849013596773148,-0.4583474397659302,0.047950539737939835,-0.2865409851074219,-0.03206757456064224,0.48186469078063965,-0.32388046383857727,-0.22440952062606812,0.0428510345518589,-0.028847889974713326,-0.13538067042827606,-0.001708160387352109,-0.24480149149894714,-0.1316796839237213,-0.631593644618988,0.4365841746330261,-0.2598748803138733,-0.3011065721511841,-0.3316701352596283,0.2352769672870636,-0.3192771077156067,-0.5386091470718384,-0.7061482667922974,-0.11233886331319809,0.03795496001839638,0.23028190433979034,0.10732974112033844,0.2629474401473999,-0.22456106543540955,-0.5232524871826172,-0.6165290474891663,0.009123480878770351,-0.6852267384529114,0.015045598149299622,-0.8018080592155457,-0.5110527873039246,0.3764224052429199,-0.606570839881897,-0.09305326640605927,1.0055873394012451,0.5256925225257874,-0.10801953822374344,0.7382960915565491,-0.0006403946899808943,-0.7666186094284058,0.5140714049339294,0.35970425605773926,0.4565369784832001,0.21188144385814667,-0.20215751230716705,-0.04835326969623566,0.34826427698135376,0.4319009482860565,-0.10925155133008957,-0.27229395508766174,-0.456100195646286,0.3158721327781677,-0.12476217746734619,-0.14346925914287567,0.9037849307060242,0.4643899202346802,-0.7272866368293762,-0.32435113191604614,0.013220991007983685,-0.2874455451965332,0.1670977920293808,0.4846154451370239,-0.18947170674800873,0.19698917865753174,-0.4382573664188385,0.2602727711200714,0.4039462208747864,0.03721420094370842,0.2057369202375412,0.22542408108711243,0.43479618430137634,-0.04377831891179085,-0.5319141149520874,0.13324178755283356,0.28377124667167664,0.3689664304256439
-0.05419502779841423,-0.2869274914264679,-0.1250343769788742,0.024896569550037384,0.15120135247707367,0.18067924678325653,-0.3498779237270355,0.08017165958881378,-0.1645631194114685,0.07876772433519363,0.23542359471321106,-0.041050899773836136,0.11614051461219788,0.20309682190418243,-0.001784822321496904,-0.03112492896616459,-0.028623664751648903,-0.15611514449119568,-0.7297132611274719,-0.047379374504089355,0.0954366996884346,-0.38584208488464355,-0.11855877935886383,-0.4102840721607208,-0.1699337214231491,0.15339311957359314,0.19834420084953308,0.18907108902931213,-0.2011130303144455,-0.24962005019187927,0.15463343262672424,0.33498454093933105,-0.38591787219047546,0.031110979616642,0.09831858426332474,-0.061048828065395355,0.08144364506006241,0.1943708211183548,-0.10203047096729279,-0.02722715027630329,0.20999015867710114,-0.019583018496632576,0.1429028958082199,-0.05688326060771942,0.0704634040594101,0.06508678197860718,0.1511390507221222,-0.009495330974459648,0.22179780900478363,-0.16038699448108673,-0.7076266407966614,0.25365811586380005,-0.016870910301804543,0.34216544032096863,-0.03043692372739315,-0.3995152413845062,-0.14744439721107483,-0.06060442700982094,-0.07721138000488281,0.3271111845970154,0.0671028196811676,0.08354756236076355,0.3795914053916931,0.22745110094547272,0.2447924017906189,-0.055957917124032974,0.19187158346176147,-0.016578534618020058,0.03520996868610382,-0.32803410291671753,0.4588755965232849,-0.11122328042984009,-0.18294376134872437,0.014582457020878792,-0.24467800557613373,0.12687578797340393,0.22612649202346802,0.2872979938983917,-0.10460841655731201,0.0716492235660553,-0.19809234142303467,0.03477197140455246,-0.03948041424155235,0.03686575964093208,0.13287405669689178,0.012857325375080109,-0.5811023116111755,-0.06502939015626907,-0.20493564009666443,-0.17387282848358154,0.08139883726835251,0.19627928733825684,-0.1373898833990097,-0.21552181243896484,-0.13325783610343933,-0.08943764120340347,-0.007603616453707218,0.1659296303987503,0.17504680156707764,-0.412151962518692,-0.15643638372421265,0.024515749886631966,0.08735030144453049,0.16536305844783783,-0.1327790766954422,-0.022944893687963486,-0.15765778720378876,-0.29074200987815857,0.19213978946208954,-0.2062838226556778,0.32106947898864746,-0.09782419353723526,-0.37430545687675476,-0.17962190508842468,-0.15187567472457886,-0.2282354235649109,0.07993555814027786,0.08394066989421844,0.09615807980298996,-0.1541748195886612,0.10832951962947845,0.11319873481988907,-0.10372389853000641,-0.3188202679157257,0.20410367846488953,-0.2343376874923706,0.07037770003080368,0.08892794698476791
-0.16714714467525482,0.10183228552341461,-0.4704780578613281,-0.11969207227230072,-0.3290265202522278,0.07076620310544968,0.47863391041755676,-0.15460197627544403,0.2603316605091095,0.42691367864608765,-0.29111263155937195,0.10170989483594894,-0.30646997690200806,0.21456198394298553,-0.632472813129425,-0.17812798917293549,0.31562015414237976,-0.016340693458914757,0.05048539489507675,0.15986140072345734,-0.6809903383255005,0.6954149007797241,-0.09058810770511627,0.2136748731136322,0.2839852273464203,-0.09911011904478073,-0.20303624868392944,-0.10257111489772797,0.1244417056441307,0.22395315766334534,-0.03473639488220215,0.3462417721748352,0.5187858939170837,0.08375620096921921,-0.5396736860275269,0.0986299216747284,0.3881041705608368,0.5368190407752991,0.14445574581623077,0.1384032666683197,0.34315669536590576,-0.024270525202155113,0.225729838013649,-0.029238183051347733,0.6789791584014893,0.16977405548095703,-0.4638800323009491,-0.3639020323753357,0.07382585108280182,0.20921632647514343,0.14747582376003265,-0.5631504654884338,0.5221655368804932,0.12916035950183868,-0.10423368215560913,-0.024081991985440254,-0.44815659523010254,-0.2128552794456482,-0.3344855010509491,-0.06377794593572617,-0.07728345692157745,-0.13795535266399384,0.19408829510211945,0.1441117823123932,-0.2949240803718567,-0.24841804802417755,-0.14616946876049042,0.178854838013649,-0.17132174968719482,0.20258624851703644,-0.36924755573272705,0.10655473917722702,0.3293412923812866,0.2996998131275177,0.3748680055141449,0.4285154640674591,-0.059819646179676056,-0.19829007983207703,0.19080179929733276,0.21126146614551544,-0.4016421139240265,-0.1713801473379135,-0.5167254209518433,0.1545340120792389,-0.6868629455566406,0.057909898459911346,0.5710932612419128,0.06316138058900833,-0.0696234405040741,0.37206605076789856,0.18162265419960022,-0.6992655992507935,-0.08507251739501953,0.3273042142391205,0.1337992250919342,0.37164968252182007,-0.31666818261146545,-0.03775220736861229,0.02204483188688755,-0.05352585017681122,0.010875396430492401,0.04512299969792366,-0.011921990662813187,0.3649282157421112,0.2664438486099243,-0.26194095611572266,0.2680559456348419,0.32368046045303345,0.13704906404018402,0.4257555305957794,-0.2502235770225525,-0.014427216723561287,0.023591743782162666,-0.08025985956192017,0.180496945977211,0.17552830278873444,-0.24618689715862274,0.3118877112865448,0.4334278404712677,0.10852306336164474,0.27692142128944397,0.10834397375583649,-0.0009529496310278773,0.1210114136338234,-0.20016582310199738,0.28218406438827515,0.03042488917708397,-0.11092519760131836
-0.19626927375793457,-0.04167250543832779,-0.137945294380188,-0.06967837363481522,-0.01590127684175968,-0.22076620161533356,0.1095743477344513,0.011035153642296791,-0.10056085884571075,0.11440044641494751,-0.127244770526886,0.08473444730043411,-0.05132943391799927,-0.06071948632597923,-0.01634414866566658,-0.14206098020076752,-0.24774596095085144,-0.06690729409456253,0.16531971096992493,-0.146748885512352,0.1986776888370514,-0.10689958184957504,0.03886880725622177,-0.05014743655920029,-0.0553404875099659,0.13711388409137726,0.12813130021095276,-0.0026507023721933365,-0.017588909715414047,-0.2072400599718094,0.14716768264770508,-0.10662929713726044,0.030404632911086082,0.4090167284011841,-0.05822531878948212,0.1726696938276291,-0.22232219576835632,0.16353777050971985,0.05111078545451164,-0.0777508020401001,-0.03649104759097099,0.013554482720792294,-0.0036054407246410847,0.07823242992162704,-0.04554525390267372,0.03937951847910881,0.04170069843530655,-0.21839362382888794,-0.031454794108867645,0.1921924203634262,0.14521366357803345,0.014382252469658852,-0.2276497483253479,-0.0052553815767169,-0.2818516492843628,-0.08169718831777573,-0.029943710193037987,-0.34665733575820923,0.07640713453292847,-0.0429660826921463,-0.1262429654598236,0.11843479424715042,-0.08205930888652802,0.05740945786237717,-0.11695267260074615,-0.2969982922077179,-0.09879066050052643,-0.22777383029460907,0.010704328306019306,-0.13435357809066772,-0.0872349664568901,0.1398727297782898,0.1989264339208603,0.28405433893203735,0.10643573105335236,-0.18236200511455536,-0.1162182167172432,0.05776575580239296,0.24687354266643524,-0.1913835108280182,-0.136739581823349,-0.19102518260478973,0.012280100025236607,-0.128983736038208,-0.26792559027671814,0.1812938153743744,-0.024181030690670013,-0.530042290687561,0.09488792717456818,0.10431118309497833,0.07292120903730392,0.037524789571762085,0.05857551842927933,0.016260551288723946,0.07257430255413055,0.04142267629504204,-0.01315231341868639,-0.08777768909931183,0.03724583238363266,0.19230972230434418,0.14786849915981293,0.2514597475528717,0.1568823605775833,0.06791385263204575,0.03826534003019333,-0.04240040108561516,-0.01697595603764057,-0.08588869124650955,-0.09182699024677277,0.04766439273953438,0.16753052175045013,-0.00979259330779314,0.09250981360673904,0.035291001200675964,-0.13279885053634644,-0.2642032504081726,-0.012248609215021133,0.04467861354351044,-0.04932907968759537,-0.11437319219112396,-0.02175896242260933,-0.07665000855922699,0.14267240464687347,-0.10268266499042511,-0.154985249042511,0.045727625489234924,0.24860750138759613,-0.08128789812326431
0.06154710054397583,0.0633573904633522,-0.03851168230175972,0.042034100741147995,-0.3189111649990082,0.3029404282569885,-0.4349156618118286,-0.18500928580760956,0.3773902952671051,0.3631836771965027,0.31532713770866394,0.11532244086265564,-0.43208983540534973,-0.04650241881608963,0.0573715940117836,0.20808319747447968,0.17776234447956085,-0.44197943806648254,0.013829553499817848,-0.32655155658721924,-0.20599964261054993,-0.03323265165090561,0.2191115915775299,0.41402679681777954,0.14605876803398132,-0.03978715464472771,-0.34356561303138733,-0.053337182849645615,0.0042420257814228535,-0.21240773797035217,0.13971294462680817,0.26209205389022827,-0.31695806980133057,0.10377387702465057,-0.004004929214715958,0.03198258951306343,-0.24440059065818787,0.7073405385017395,-0.29139915108680725,-0.02539670839905739,-0.09592550992965698,-0.1695636361837387,0.2923809885978699,0.4635714292526245,0.3895430564880371,-0.26384279131889343,-0.08294398337602615,0.09625852108001709,-0.5278668999671936,0.02434413507580757,0.056119684129953384,-0.015526672825217247,0.4837552309036255,-0.24446290731430054,-0.0559907928109169,0.1469714641571045,0.06650565564632416,0.17068395018577576,-0.11724298447370529,0.053117845207452774,-0.11225505918264389,0.1152394562959671,0.41562506556510925,0.5559608340263367,-0.1936264932155609,-0.19351741671562195,-0.3041590750217438,-0.09629727900028229,-0.2938222289085388,0.11484997719526291,0.06134505569934845,0.017614757642149925,-0.0305162463337183,-0.07987421751022339,-0.725372314453125,-0.035789549350738525,0.2929232120513916,-0.13624690473079681,-0.04359164088964462,0.03856935352087021,-0.12411699444055557,-0.19696442782878876,-0.04047978296875954,-0.0032870154827833176,-0.36083975434303284,0.4773452579975128,0.11699901521205902,-0.11047486215829849,-0.03582391515374184,0.45042386651039124,-0.21152202785015106,0.22251386940479279,-0.17161448299884796,0.011682900600135326,0.14575926959514618,-0.08859909325838089,-0.3204199969768524,0.4892272651195526,0.204406276345253,-0.006360762752592564,0.3764307498931885,-0.15665259957313538,-0.4186936616897583,0.3601103127002716,-0.2795579135417938,0.22894294559955597,0.167386993765831,-0.05660754814743996,0.05599033832550049,-0.01913830079138279,0.32624849677085876,-0.3043844401836395,-0.42050012946128845,-0.14602571725845337,-0.1268582046031952,-0.15628096461296082,-0.027493121102452278,-0.29406267404556274,0.025946373119950294,0.3499404788017273,0.11445851624011993,0.03629109635949135,0.38372889161109924,-0.06513583660125732,-0.007685870863497257,-0.129458487033844,0.16474086046218872,0.29620325565338135
-0.298470675945282,0.11219261586666107,0.26702284812927246,-0.08028209954500198,-0.18063458800315857,0.3922562003135681,-0.1125197783112526,-0.07521537691354752,0.2906361520290375,-0.3947645127773285,-0.008212429471313953,-0.4490710496902466,0.06425514817237854,-0.2468150407075882,-0.024853607639670372,-0.02704879455268383,-0.03545158728957176,0.17248915135860443,-0.18137912452220917,-0.2313268482685089,0.055789630860090256,-0.5310450196266174,0.1735927164554596,-0.33472034335136414,0.0945093110203743,0.19654130935668945,0.5315089225769043,-0.19481141865253448,-0.03167678415775299,-0.19579540193080902,0.17323224246501923,-0.07658068835735321,-0.16701312363147736,-0.3492911458015442,0.44358256459236145,-0.0632917508482933,0.13151058554649353,-0.584430456161499,0.12109768390655518,0.36517930030822754,-0.0026217347476631403,0.014405252411961555,-0.10436543077230453,-0.4309476912021637,-0.06120142713189125,-0.30707699060440063,0.09517697989940643,-0.023389112204313278,-0.06513150036334991,0.20528163015842438,-0.15119287371635437,0.16609525680541992,0.20632033050060272,0.02656535990536213,-0.04358163848519325,-0.0499001182615757,0.3212662637233734,0.10007854551076889,-0.18617485463619232,-0.04320953041315079,-0.001613684929907322,-0.17885582149028778,-0.295548677444458,-0.299528568983078,-0.3848639726638794,0.23604489862918854,-0.13655784726142883,0.288065642118454,-0.07250693440437317,0.19789151847362518,0.22036416828632355,-0.36794158816337585,-0.16396421194076538,-0.039875805377960205,0.09796778857707977,-0.05334825441241264,-0.03771717846393585,0.12292081862688065,0.0016115396283566952,-0.21940922737121582,0.2861119508743286,-0.32703718543052673,0.07285995036363602,-0.13173359632492065,-0.011827182024717331,0.009785110130906105,-0.05879294499754906,0.3503580093383789,-0.5091649889945984,-0.04551500082015991,-0.03435720503330231,0.18315377831459045,-0.06171007081866264,-0.12208802998065948,-0.0009182061185128987,-0.11523157358169556,-0.108213409781456,0.2215966433286667,-0.2985161542892456,0.5243805646896362,0.10061066597700119,-0.0055503095500171185,0.016701817512512207,-0.1886589527130127,-0.008737048134207726,-0.14392471313476562,0.13753744959831238,0.21674153208732605,-0.4609932601451874,0.13150745630264282,-0.23924051225185394,0.04393976926803589,-0.12610821425914764,0.15307752788066864,-0.15447010099887848,-0.021133268252015114,-0.11522211134433746,0.0748509094119072,0.13794340193271637,0.14048705995082855,-0.6449547410011292,-0.044886842370033264,0.28153088688850403,-0.36140573024749756,-0.40410497784614563,-0.030577074736356735,0.001066625933162868,-0.3052350580692291
0.14031971991062164,-0.40029242634773254,-0.20213951170444489,0.19645647704601288,-0.07219699025154114,0.1223301887512207,-0.10288826376199722,-0.17819912731647491,0.10335805267095566,0.4339035153388977,0.18549533188343048,0.11317367106676102,-0.27323824167251587,-0.32398030161857605,0.24987144768238068,0.17446424067020416,-0.06847929954528809,-0.45057931542396545,-0.2169618010520935,-0.12862727046012878,0.34433671832084656,0.20551742613315582,0.0677618756890297,0.017651895061135292,-0.04958729445934296,-0.18633398413658142,-0.24804553389549255,0.1724228858947754,-0.0836074948310852,0.23596101999282837,-0.03523160144686699,0.27576276659965515,-0.048649948090314865,0.09767099469900131,0.14504656195640564,-0.04409845918416977,-0.07565063238143921,0.019373979419469833,0.1622491031885147,-0.011005859822034836,-0.15047401189804077,-0.08620454370975494,0.34533193707466125,0.13460181653499603,0.07091131806373596,-0.3596525490283966,0.004473966080695391,0.20736977458000183,-0.16343483328819275,0.18055622279644012,0.047308363020420074,0.1788405030965805,0.5337704420089722,-0.24369493126869202,0.1879594922065735,-0.037492260336875916,-0.10848314315080643,0.31736624240875244,0.1440262794494629,-0.14352501928806305,0.00010188637679675594,0.06825009733438492,0.2692873179912567,0.3513031303882599,-0.4788014590740204,-0.040990594774484634,-0.1848607063293457,-0.06806444376707077,-0.18879741430282593,0.08225670456886292,0.2084764540195465,0.0296869445592165,-0.2539356052875519,-0.042016636580228806,-0.14957337081432343,0.1539219468832016,0.017974499613046646,-0.05553668364882469,-0.26569879055023193,-0.1629592925310135,-0.07625206559896469,-0.16700024902820587,-0.24694733321666718,-0.012730017304420471,0.07364639639854431,0.2134319245815277,0.018465444445610046,0.028904786333441734,0.028677932918071747,0.2018841654062271,-0.34172502160072327,-0.04160546511411667,-0.02854328043758869,0.1728583574295044,0.09803497791290283,-0.11479293555021286,-0.19110430777072906,0.31003043055534363,0.3135432004928589,0.17174896597862244,0.3081440329551697,-0.03911331295967102,-0.37943023443222046,-0.029664775356650352,0.2153157889842987,-0.13202741742134094,0.26338839530944824,-0.3526557385921478,0.17906184494495392,-0.285041868686676,0.2248203158378601,-0.2931597828865051,-0.39611947536468506,-0.02562042511999607,-0.07199059426784515,0.050581034272909164,-0.21304857730865479,0.012332512997090816,-0.00044555895146913826,0.3201722204685211,0.0747646689414978,0.08445487916469574,0.3489813208580017,0.09177875518798828,-0.09724611788988113,-0.0032222731970250607,-0.027817074209451675,0.3611636459827423
0.13822180032730103,0.00012251500447746366,0.15691134333610535,-0.2036600559949875,-0.18041321635246277,0.3177661895751953,-0.36693301796913147,-0.21249020099639893,0.22976869344711304,0.1365496963262558,-0.3038460314273834,0.10136455297470093,-0.11353104561567307,-0.21972034871578217,-0.06047973409295082,0.0241408571600914,-0.12085577100515366,-0.4503885507583618,-0.18911400437355042,0.17232994735240936,-0.020054848864674568,0.04987454041838646,-0.28058379888534546,0.11201120913028717,0.18255485594272614,-0.04938609153032303,0.28421422839164734,0.03269357979297638,-0.11249543726444244,-0.039439570158720016,-0.003009455744177103,0.191244974732399,-0.004338513594120741,-0.18124909698963165,0.026016047224402428,-0.4533422291278839,0.09912499785423279,-0.4005639851093292,-0.17277728021144867,-0.023085247725248337,0.11666369438171387,-0.18293647468090057,-0.09686189144849777,0.004599129781126976,0.01792164519429207,0.011111295782029629,-0.06985305994749069,-0.5807487368583679,0.024861223995685577,0.6627248525619507,0.04533809423446655,0.15683874487876892,0.14678511023521423,-0.4274812340736389,-0.17870540916919708,0.07427376508712769,0.08736027032136917,-0.02774711325764656,-0.6613724827766418,0.020561465993523598,0.026602590456604958,-0.34499117732048035,-0.2646480202674866,-0.22177822887897491,0.04101284593343735,-0.5951209664344788,-0.0794612392783165,0.11398380249738693,-0.23972314596176147,0.49980834126472473,0.09130548685789108,-0.07914365082979202,-0.06045501306653023,-0.11192858964204788,0.11570119112730026,0.0260525681078434,0.45965954661369324,-0.026286885142326355,-0.01580907590687275,0.5889104008674622,0.3680998682975769,0.07942138612270355,-0.10130862146615982,0.25430142879486084,-0.0951358899474144,0.11932776868343353,-0.26830142736434937,0.21282325685024261,-0.10311052203178406,-0.2149604856967926,-0.038630250841379166,-0.1375550627708435,0.1718710958957672,0.040889889001846313,0.18209974467754364,0.046088024973869324,0.14249522984027863,0.33046793937683105,-0.2832144796848297,0.10151414573192596,-0.5717677474021912,0.17865945398807526,0.4114111363887787,0.24678108096122742,0.29876184463500977,0.279401570558548,-0.07297755032777786,-0.12056098133325577,0.44521528482437134,0.1797374039888382,-0.20747025310993195,-0.10233791172504425,-0.30489397048950195,0.2912651300430298,-0.09523512423038483,-0.5063613057136536,-0.0856069028377533,0.005580519791692495,0.021516192704439163,0.3172803819179535,-0.07485858350992203,0.017493028193712234,-0.16378821432590485,0.4834218919277191,-0.24824658036231995,0.2163253277540207,-0.053035635501146317,0.052567023783922195
0.19354437291622162,0.07447170466184616,-0.22574393451213837,-0.515527606010437,0.1761021912097931,-0.10524221509695053,0.9212567806243896,0.25397324562072754,-0.5258549451828003,-0.7466751337051392,0.11456538736820221,-0.17893192172050476,0.49064090847969055,0.36719492077827454,-0.5609013438224792,0.0246932040899992,-0.2053530514240265,0.747053861618042,0.3242119550704956,-0.04541345313191414,-0.12911972403526306,-0.7336696982383728,-0.45840299129486084,-0.35723981261253357,0.31206443905830383,0.11019890755414963,0.17704029381275177,-0.48294371366500854,0.48543909192085266,-0.22882229089736938,-0.083594411611557,-0.4104110300540924,0.4555526673793793,0.2528308928012848,-0.4615160822868347,-0.011614919640123844,0.2767435312271118,-0.14027635753154755,0.3140918016433716,-0.042739465832710266,-0.190359964966774,0.6060087084770203,-0.11231424659490585,-0.4831838309764862,0.004386376589536667,0.8320620059967041,-0.05080067366361618,0.25243645906448364,0.3707154393196106,-0.39146560430526733,0.2636116147041321,0.03600754216313362,-0.3660655915737152,0.5957193374633789,-0.062167875468730927,-0.44452717900276184,-0.34274840354919434,-0.4715459942817688,-0.19642330706119537,-0.39724424481391907,0.3710974156856537,0.24652265012264252,-0.1368880271911621,-1.0664490461349487,0.40083959698677063,0.28898733854293823,0.38484710454940796,-0.08316095918416977,-0.14278224110603333,-0.4548773467540741,-0.7358983159065247,-0.08905491232872009,0.3672124445438385,0.4328263998031616,0.4722370207309723,0.41850510239601135,-0.562280535697937,0.03363461047410965,0.40269342064857483,-0.16802315413951874,-0.13434462249279022,0.06881536543369293,0.14605487883090973,0.013078146614134312,-0.09261541068553925,-0.10587113350629807,-0.16220612823963165,-0.14740343391895294,-0.011733622290194035,-0.3965816795825958,0.5977750420570374,0.023222479969263077,0.03701087832450867,-0.4902067482471466,-0.06376511603593826,0.21042165160179138,0.08280988037586212,-0.5589788556098938,-0.34969237446784973,0.1274341642856598,-0.29908832907676697,0.26619383692741394,0.7161490321159363,-0.00542393047362566,0.43660613894462585,0.013249842450022697,-0.04608704894781113,-0.2560015916824341,-0.45149821043014526,0.2250102013349533,-0.4121750295162201,0.3217543959617615,0.43845459818840027,0.3587496876716614,0.2373114675283432,0.09669537097215652,-0.029482321813702583,0.4457712173461914,0.07004136592149734,-0.17566080391407013,-0.08001326769590378,-0.18346820771694183,-0.23071302473545074,-0.5514401197433472,-0.06073189526796341,0.3088158071041107,-0.09462927281856537,-0.4562820494174957
-0.16297128796577454,-0.36035555601119995,0.10579030960798264,0.001095334067940712,-0.2166035920381546,0.37942028045654297,-0.0944870188832283,-0.14059603214263916,0.40561944246292114,-0.1691281944513321,0.22169576585292816,-0.45089828968048096,0.04619918391108513,-0.03693782538175583,0.1413225680589676,0.2098628282546997,-0.11301535367965698,-0.33411383628845215,-0.24583403766155243,-0.2246333509683609,0.18412983417510986,-0.18230436742305756,0.03939290717244148,-0.4026572108268738,0.042510971426963806,0.24756307899951935,0.09726578742265701,0.0724908709526062,-0.036887042224407196,0.16569919884204865,-0.2295614778995514,0.3567037880420685,-0.08784342557191849,-0.1905587762594223,0.006536555010825396,0.20408126711845398,-0.1628243327140808,-0.10934201627969742,-0.34919145703315735,0.07839884608983994,0.10757158696651459,0.10169149935245514,0.2740991413593292,-0.19332456588745117,0.14523600041866302,-0.2595985233783722,-0.3097095191478729,-0.3561623990535736,-0.5028315782546997,0.31823813915252686,0.14379873871803284,0.17048843204975128,-0.07749886810779572,-0.6360715627670288,0.013331306166946888,-0.01209610141813755,0.037795230746269226,0.1150631532073021,-0.32319167256355286,-0.009736493229866028,-0.2334514558315277,-0.2756105065345764,0.0029283477924764156,-0.08647879958152771,-0.39889493584632874,0.09279894828796387,-0.14829020202159882,0.16063463687896729,-0.1596301794052124,0.47069427371025085,-0.14278525114059448,-0.27483901381492615,-0.006206951569765806,0.03685120865702629,-0.08281449973583221,-0.1188308373093605,0.3077399432659149,0.31545010209083557,-0.06534096598625183,0.5954714417457581,0.17708201706409454,0.23345476388931274,-0.04255667328834534,0.06654460728168488,-0.1445399522781372,-0.11102170497179031,-0.15333668887615204,0.1295679360628128,-0.47353145480155945,-0.46147915720939636,-0.351942777633667,-0.1704576015472412,-0.3250907361507416,0.1870521903038025,-0.3250831961631775,-0.3117446303367615,-0.05587165802717209,0.3238261342048645,-0.3201140761375427,0.23182633519172668,-0.2049192488193512,-0.20400641858577728,-0.08836563676595688,-0.13825972378253937,0.0817558541893959,0.21993573009967804,-0.3493364155292511,0.21879853308200836,0.2392590343952179,-0.39108559489250183,-0.201284721493721,0.31488072872161865,-0.0762934759259224,-0.06269702315330505,-0.011559274978935719,-0.2647401988506317,-0.09973747283220291,-0.21188302338123322,-0.304488867521286,0.2089434713125229,-0.5958549380302429,0.17119218409061432,0.2428794503211975,0.12823885679244995,-0.19177447259426117,0.1422499567270279,0.08470418304204941,0.04407534375786781
0.06314821541309357,-0.22029443085193634,-0.345233291387558,-0.23359127342700958,-0.15959644317626953,-0.22476933896541595,0.737888514995575,0.10868258029222488,-0.19702677428722382,-0.042446911334991455,0.48256444931030273,-0.3876630663871765,-0.08672245591878891,0.16732223331928253,-0.10824337601661682,0.17919345200061798,0.11150465905666351,0.18199418485164642,-0.059963636100292206,-0.19936874508857727,0.25633543729782104,0.036007173359394073,0.2415134757757187,-0.6667882204055786,-0.12079522758722305,-0.48738205432891846,0.3225787580013275,-0.12312666326761246,-0.05882466956973076,0.2305394411087036,-0.14535018801689148,-0.352332204580307,-0.13672327995300293,-0.13217854499816895,-0.09173621237277985,0.343591570854187,0.37423020601272583,0.2694503366947174,0.21104033291339874,-0.1578322947025299,-0.07433021068572998,0.4491598308086395,0.3721938133239746,-0.2553561329841614,0.038587041199207306,0.12452144920825958,-0.2480175495147705,0.3604896068572998,-0.14190472662448883,-0.11547085642814636,0.20428307354450226,-0.23785218596458435,-0.2521936595439911,-0.0918998196721077,-0.19443446397781372,-0.27723604440689087,-0.18164820969104767,-0.18717549741268158,-0.23385336995124817,-0.2874826490879059,-0.06422942876815796,-0.05618957057595253,0.18783053755760193,-0.21613892912864685,-0.03363114967942238,-0.2173052430152893,0.27468690276145935,-0.14319828152656555,0.3978661000728607,-0.1115783303976059,-0.38151535391807556,0.31418588757514954,0.26520252227783203,0.2552253305912018,0.1413928121328354,-0.2500404417514801,0.09593307226896286,-0.026299351826310158,-0.09254482388496399,0.09621549397706985,-0.31928327679634094,0.15119168162345886,-0.2032778263092041,0.5512945055961609,-0.3280901312828064,0.023892084136605263,-0.25693148374557495,-0.2371750771999359,0.3862086832523346,-0.6576650142669678,0.024696780368685722,-0.11536779254674911,0.0685572400689125,-0.13636498153209686,-0.2581474483013153,-0.438657283782959,-0.1999642252922058,-0.12128791213035583,-0.03483030945062637,-0.37806519865989685,0.03916482627391815,-0.1472473442554474,-0.03959530219435692,0.046235743910074234,0.2552109956741333,0.03879249095916748,0.054458264261484146,-0.30994412302970886,-0.1753307580947876,0.23642560839653015,-0.047933440655469894,0.10864847153425217,0.1920296549797058,0.4938097596168518,-0.05687372013926506,0.017111506313085556,0.04888346046209335,-0.0777287632226944,-0.05493758246302605,0.1590723693370819,0.3453463315963745,-0.19362205266952515,-0.21939940750598907,-0.4262821078300476,0.08650925755500793,-0.13907983899116516,-0.15039317309856415,0.17495009303092957
-0.03675002232193947,0.02526705525815487,-0.05959290638566017,0.031233564019203186,-0.012277153320610523,-0.007230112794786692,0.15794441103935242,-0.029308555647730827,-0.05523953214287758,-0.12995006144046783,-0.21193741261959076,-0.03541379049420357,0.015242530032992363,0.10578269511461258,0.1630559116601944,-0.056771960109472275,0.021689310669898987,-0.17945145070552826,0.2919534146785736,0.06305809319019318,0.0412868931889534,-0.2690843939781189,-0.08164981752634048,0.3014809191226959,0.12256994843482971,0.07824830710887909,-0.1760631650686264,0.0093388007953763,-0.02095484919846058,0.11426211893558502,0.12277064472436905,0.02132556028664112,-0.006912457291036844,-0.016107730567455292,0.15220393240451813,-0.06680379062891006,-0.2723180055618286,0.10818556696176529,0.008640388026833534,0.16644439101219177,0.07196018099784851,0.09807965159416199,-0.04867445304989815,0.11503767967224121,-0.11218913644552231,0.19923429191112518,0.005635787732899189,-0.10884055495262146,0.048846058547496796,0.15530170500278473,0.21477799117565155,0.03378608450293541,-0.04362846538424492,0.11814611405134201,-0.41125258803367615,-0.01849367655813694,-0.10873598605394363,-0.4041181206703186,-0.1883905977010727,0.10372095555067062,-0.09929441660642624,0.09269985556602478,-0.06782641261816025,0.21600569784641266,-0.0022120701614767313,-0.15610302984714508,-0.00534055894240737,-0.05525275319814682,0.022718897089362144,-0.08617474138736725,-0.08451726287603378,0.0396297313272953,-0.035872504115104675,0.06536737084388733,0.2563738524913788,-0.15514686703681946,0.058550652116537094,-0.10979099571704865,0.09854414314031601,-0.3739623725414276,0.029006198048591614,-0.107248954474926,0.12048445641994476,0.08867192268371582,-0.30451351404190063,0.0289133433252573,0.08257652074098587,-0.17629288136959076,0.027947058901190758,0.0940517783164978,0.2825135290622711,0.20845909416675568,-0.19956034421920776,0.06467235833406448,-0.0003280174860265106,-0.10297282785177231,-0.10116532444953918,-0.06296931952238083,0.05182091146707535,-0.013710427097976208,0.021550830453634262,0.1617853343486786,-0.05300186946988106,-0.06369062513113022,0.16567964851856232,-0.05283598229289055,-0.13128475844860077,-0.055127400904893875,-0.1582140028476715,0.06791289895772934,0.10449240356683731,-0.09295237064361572,-0.001208168687298894,0.06782216578722,-0.10571923106908798,-0.08048698306083679,-0.08034762740135193,0.14541874825954437,-0.0014472701586782932,0.01936616562306881,-0.26306137442588806,-0.08604677021503448,0.14905475080013275,0.0411667563021183,-0.16084644198417664,-0.044977907091379166,0.15971602499485016,0.046158287674188614
-0.06235595420002937,-0.020124364644289017,0.8800185918807983,0.22997723519802094,0.36581164598464966,-0.09666315466165543,0.095709428191185,-0.059259068220853806,0.064207524061203,0.530573308467865,-0.06340287625789642,-0.2803729176521301,-0.2853443920612335,-0.09770049154758453,0.05699240788817406,0.08863221108913422,0.37044790387153625,-0.19961965084075928,0.2788996696472168,-0.02358359470963478,-0.2699282169342041,-0.2768189311027527,0.16493800282478333,-1.285300374031067,0.3768635094165802,-0.06524038314819336,0.24422207474708557,-0.020005716010928154,0.4503801763057709,0.08998799324035645,0.23215574026107788,0.09913952648639679,0.16242657601833344,-0.02736588567495346,-0.2538319230079651,-0.2569638192653656,-0.016513105481863022,0.056264884769916534,-1.604691505432129,0.3512655794620514,0.4213957190513611,-0.16324293613433838,-0.14515715837478638,0.6712839007377625,-0.0884096622467041,-0.12063229829072952,-0.45733842253685,0.2511197626590729,0.0014637522399425507,-0.2238113284111023,0.032165564596652985,-0.5318225622177124,0.4984772205352783,0.26051852107048035,-0.32137131690979004,-0.2817258834838867,-0.24755969643592834,0.008329600095748901,-0.030615150928497314,0.4498191475868225,0.1434081643819809,-0.17551203072071075,-0.24285799264907837,0.9420989155769348,-0.03888276591897011,-0.07802320271730423,0.1744997352361679,0.3090874254703522,-0.16814233362674713,-0.030999600887298584,-0.22871963679790497,-0.2022586464881897,-0.4695904850959778,-0.22844335436820984,0.09322409331798553,-0.14620308578014374,0.09321221709251404,-0.4383026957511902,-0.05953574180603027,-0.500777542591095,-0.12186218053102493,-0.16457946598529816,-0.19556961953639984,0.2764812707901001,-0.5105949640274048,-0.5936781167984009,0.28783145546913147,-0.26810261607170105,-0.5401323437690735,-0.40227049589157104,0.19333022832870483,0.22885669767856598,0.2471999228000641,-0.5040557980537415,0.7871083617210388,-0.08463414758443832,0.5637460947036743,-0.09995399415493011,0.3375166654586792,0.12330735474824905,-0.500522792339325,0.33253782987594604,0.005789830815047026,0.061235539615154266,0.4393447935581207,-0.10172566771507263,0.13548500835895538,-0.3835032880306244,-0.6712602972984314,0.28255751729011536,-0.5635888576507568,-0.0003571435809135437,-0.31487151980400085,-0.8643455505371094,0.5237904191017151,0.2901774048805237,-0.29596996307373047,0.2781391739845276,0.17875075340270996,-0.044744089245796204,-0.45700308680534363,-0.1602146029472351,0.17157506942749023,-0.1101212128996849,-0.07180850207805634,-0.06468209624290466,0.2238575518131256,-0.12407974153757095
0.18968547880649567,-0.32501861453056335,0.8117600679397583,0.09026788920164108,0.2863009572029114,-0.38331061601638794,0.007012616377323866,0.13413819670677185,-0.09040071815252304,0.713414192199707,0.041790809482336044,0.24022023379802704,-0.2496715635061264,0.42608675360679626,0.7957202792167664,0.21890081465244293,0.03182080760598183,0.40281006693840027,-0.17883630096912384,0.030869046226143837,0.19626393914222717,0.327868789434433,0.10872664302587509,-0.445512056350708,-0.12742780148983002,0.3879265785217285,-0.39056816697120667,0.2006465643644333,-0.1096484586596489,0.15163227915763855,0.16837216913700104,-0.0705924779176712,-0.1415465623140335,-0.1251114308834076,0.15445192158222198,0.43039077520370483,-0.33538195490837097,0.27756404876708984,-1.3675870895385742,-0.04450716823339462,-0.2425748109817505,-0.2287803292274475,-0.0045163133181631565,0.026512375101447105,0.36992472410202026,0.15344123542308807,0.3842467963695526,0.052178751677274704,-0.38677850365638733,-0.1890396624803543,0.15701211988925934,0.15319889783859253,-0.341283917427063,0.09514182060956955,0.618176281452179,-0.19607073068618774,-0.30015361309051514,0.045498769730329514,-0.22428485751152039,0.3926607072353363,0.19757455587387085,-0.33448365330696106,-0.16222555935382843,0.4327831268310547,0.40897658467292786,0.3386124074459076,-0.31778642535209656,0.16716843843460083,0.0778600201010704,-0.3147190809249878,0.1366775780916214,0.04748772829771042,-0.40249547362327576,-0.10734772682189941,0.061681266874074936,0.0042166984640061855,0.24384042620658875,0.3433381915092468,-0.30211353302001953,0.18995951116085052,-0.22493524849414825,0.4834844172000885,-0.004791188519448042,0.18007533252239227,0.23170669376850128,-0.18021519482135773,-0.2600833475589752,0.1285540759563446,0.22764639556407928,-0.3644912540912628,0.08817994594573975,0.5676311254501343,-0.2247985452413559,0.10588143020868301,-0.6485463976860046,-0.3236662745475769,-0.021492965519428253,0.4284343123435974,0.27015942335128784,-0.5640095472335815,0.2990044951438904,0.1254081130027771,0.22080451250076294,0.2504931390285492,0.1958710253238678,0.16559165716171265,-0.31470200419425964,0.18040040135383606,0.2039904147386551,-0.041750308126211166,0.004911770578473806,0.09485585242509842,-0.20405517518520355,-0.3490973711013794,0.12373929470777512,-0.03912757337093353,-0.12802624702453613,-0.41463732719421387,-0.13913942873477936,0.009104244410991669,-0.030166661366820335,0.1853448450565338,-0.24231623113155365,0.07553669810295105,0.1897054761648178,-0.42017966508865356,-0.20702874660491943,0.07724448293447495
-0.16167998313903809,-0.06728058308362961,0.4950145483016968,0.2581377625465393,0.15589827299118042,-0.23940962553024292,-0.1166054829955101,0.40469297766685486,-0.07699703425168991,0.05242173746228218,0.14949706196784973,-0.470821350812912,-0.00048385473201051354,0.08110523223876953,0.13865181803703308,0.3040420114994049,0.42312464118003845,-0.04408857226371765,-0.00017212252714671195,0.10655847936868668,-0.04079635813832283,-0.08949591964483261,-0.14099907875061035,-0.36916807293891907,0.30472296476364136,0.050541479140520096,-0.06262192875146866,-0.27552124857902527,0.15809614956378937,0.017937352880835533,0.2881752848625183,-0.09865517169237137,0.1994873434305191,-0.10672884434461594,-0.02700858749449253,-0.28906530141830444,0.020884528756141663,0.39524275064468384,-0.5738193988800049,0.2504873275756836,0.3217744529247284,0.1570306122303009,0.0014973924262449145,-0.002534184604883194,-0.1536480188369751,-0.07847703248262405,-0.13338136672973633,0.1706823706626892,0.033785510808229446,-0.06382840871810913,-0.2862788438796997,-0.29708996415138245,0.43060946464538574,0.2983173727989197,0.05567631870508194,-0.04838065803050995,-0.0641346275806427,0.12011208385229111,-0.01762530207633972,0.1294427067041397,-0.04114001244306564,0.05208095535635948,0.1890510767698288,0.2909207046031952,0.05903569981455803,-0.10748247057199478,0.09128733724355698,-0.2689167857170105,-0.20126253366470337,0.12499680370092392,0.13865751028060913,-0.4498184621334076,-0.06569109857082367,-0.21459253132343292,-0.00741623155772686,-0.1785115897655487,-0.0193198062479496,-0.09211108088493347,-0.34276318550109863,-0.21481941640377045,0.014083302579820156,-0.24446941912174225,-0.09516199678182602,0.1687377691268921,-0.16742466390132904,-0.40946629643440247,-0.028750423341989517,0.025269459933042526,-0.48386505246162415,0.0246986486017704,0.4724894165992737,0.14735309779644012,0.16080443561077118,-0.40142107009887695,0.6408887505531311,0.12472893297672272,0.20501726865768433,-0.19279338419437408,0.1882551908493042,0.9236429333686829,-0.26069557666778564,0.2442135214805603,-0.10382234305143356,0.19322149455547333,0.2387085258960724,-0.0687355324625969,0.3975166082382202,0.04335179924964905,-0.3020239472389221,0.17710481584072113,-0.4751650393009186,0.24715977907180786,0.037901028990745544,-0.16493232548236847,0.24068227410316467,0.467904657125473,-0.3510722517967224,0.2534938454627991,-0.16541346907615662,0.3200765550136566,-0.30269497632980347,-0.2691681385040283,0.509448230266571,-0.12215296924114227,0.17726439237594604,0.026851071044802666,-0.1572534143924713,-0.502971351146698
-0.05048030987381935,-0.2243156135082245,0.42814141511917114,-0.02037057653069496,0.15932466089725494,0.25012820959091187,0.039119165390729904,-0.036231301724910736,-0.03291606903076172,0.037153396755456924,0.07425476610660553,0.310555100440979,-0.42996057868003845,-0.17890198528766632,0.05283046141266823,0.12335246056318283,0.2773386240005493,0.31980812549591064,0.2480180412530899,-0.15821827948093414,-0.138291135430336,0.36036062240600586,0.013298025354743004,0.08118247240781784,0.059528108686208725,-0.0032409685663878918,0.18173836171627045,-0.029463863000273705,0.2612954080104828,0.02847866900265217,-0.3224950432777405,-0.042039018124341965,0.10767959803342819,-0.480523020029068,0.18393705785274506,0.14992879331111908,0.20750166475772858,0.10217875987291336,-0.12337085604667664,-0.02563099004328251,0.028658436611294746,0.05317521095275879,-0.19087839126586914,0.07914651185274124,0.07546306401491165,-0.43766817450523376,0.09271511435508728,-0.043081920593976974,0.2319982647895813,-0.028850212693214417,0.28768518567085266,0.05182165652513504,0.1326012909412384,-0.06799495220184326,0.19440202414989471,0.34283632040023804,-0.11565046012401581,0.10160043835639954,-0.15899814665317535,0.02912820689380169,-0.2762022018432617,0.06780724972486496,0.242441326379776,0.07328526675701141,-0.03435339033603668,-0.19063499569892883,0.09506464004516602,0.14197570085525513,-0.08446523547172546,-0.023782340809702873,-0.08604271709918976,-0.0006100354949012399,-0.12703101336956024,0.24216456711292267,-0.09404308348894119,-0.16585451364517212,0.03924866393208504,0.16871216893196106,-0.31938958168029785,0.09157047420740128,0.26499512791633606,0.3089294731616974,0.10699637979269028,-0.22994554042816162,0.26795053482055664,-0.15190619230270386,0.19540657103061676,0.12962427735328674,-0.4483119547367096,0.3126029968261719,0.10361314564943314,0.02571272850036621,-0.22033488750457764,0.23555687069892883,-0.048828646540641785,-0.2856416404247284,-0.06944368034601212,0.2099761664867401,-0.29584935307502747,-0.047689203172922134,-0.26436716318130493,0.08668216317892075,-0.39871856570243835,0.07863754779100418,-0.10413693636655807,0.38345858454704285,-0.024488095194101334,0.1174355298280716,0.027696624398231506,-0.3580295443534851,0.0243532694876194,0.32294735312461853,-0.2756976783275604,0.42396703362464905,-0.04978097975254059,0.2522841691970825,-0.24318647384643555,-0.2316715121269226,0.035168830305337906,0.2255052626132965,0.054571494460105896,-0.013378438539803028,0.33577898144721985,0.15590423345565796,-0.13740688562393188,0.000687874504365027,0.30007800459861755,-0.13564904034137726
0.38576632738113403,-0.2588387429714203,0.17037878930568695,-0.19940154254436493,0.06490869075059891,0.16479793190956116,-0.19220654666423798,-0.5171019434928894,0.12171030789613724,0.25535306334495544,-0.0030581264290958643,0.008367568254470825,0.12025108188390732,-0.1907743662595749,0.8490209579467773,-0.16068558394908905,-1.0686672925949097,-0.06077688932418823,-0.12919285893440247,0.5977223515510559,0.3941696882247925,0.15377837419509888,0.38177719712257385,-0.30410799384117126,-0.4552898108959198,0.18145716190338135,-0.07137531787157059,0.47376853227615356,-1.036510944366455,0.31490007042884827,-0.30089741945266724,0.35240548849105835,-0.5153794884681702,0.3247634768486023,0.20588257908821106,0.40138372778892517,-0.28724223375320435,0.1064978688955307,-0.11105017364025116,-0.9012133479118347,-0.0284400824457407,-0.0532512292265892,0.4407796859741211,-0.3061981499195099,0.45073264837265015,-0.16971616446971893,0.639887809753418,-0.4483727514743805,-0.34246933460235596,-0.014368132688105106,0.1003800556063652,0.41280561685562134,-0.5752314329147339,-0.7702425122261047,0.43686267733573914,0.34534820914268494,-0.15524166822433472,0.29917240142822266,0.07071206718683243,0.1477796882390976,-0.14225217700004578,0.03809641674160957,-0.17898309230804443,-0.016391554847359657,-0.1134953573346138,0.010620356537401676,-0.22256781160831451,0.41453441977500916,0.6336268782615662,-0.02979961968958378,-0.5985243320465088,0.8372620940208435,-0.266034871339798,-0.1711026430130005,-0.04695761203765869,0.23390164971351624,0.36601749062538147,0.30126237869262695,0.9736666083335876,0.5725125670433044,-0.19043909013271332,0.6552499532699585,-0.0017124470323324203,0.06999551504850388,-0.06525727361440659,1.205993890762329,-0.052759476006031036,-0.11265967786312103,1.131160020828247,-0.5314077138900757,-1.1244711875915527,0.013513883575797081,-0.4185235798358917,0.6657538414001465,-0.819072425365448,-0.5264519453048706,-1.1731574535369873,0.5917134881019592,0.22024424374103546,-0.702915608882904,0.46255218982696533,-0.05753086134791374,-0.07480774074792862,-0.288639634847641,-0.6374453902244568,0.4112573266029358,-0.4618481397628784,0.1289687603712082,0.5970501899719238,-0.6463631987571716,0.9747974276542664,-0.11318488419055939,0.02727087214589119,-0.01884729228913784,-0.6092684864997864,-0.5638578534126282,0.852381706237793,-0.8065048456192017,-0.5043763518333435,-0.06716153770685196,0.9536022543907166,0.5126246213912964,-0.38384783267974854,0.26353082060813904,-0.09382165223360062,-0.23505623638629913,-0.7475823760032654,0.8188255429267883
