Layer: default_policy/fc_1/kernel,"Shape: (18, 32)",,,,,,,,,,,,,,,,,,,,,,,,,,,,,,
0.3344133496284485,0.17894944548606873,0.2570502758026123,-0.21456322073936462,0.34357067942619324,-0.25866177678108215,-0.3787521421909332,0.36211732029914856,-0.3117849826812744,0.09128750115633011,0.27574214339256287,-0.3523193597793579,0.2693317234516144,0.32245567440986633,0.4496382772922516,0.27251875400543213,-0.261041522026062,-0.21943455934524536,0.12118097394704819,0.028512239456176758,-0.31546103954315186,-0.023662913590669632,-0.17181457579135895,-0.1853075623512268,0.0369894802570343,0.11594408005475998,-0.20063579082489014,-0.1459638625383377,-0.38294899463653564,-0.314762145280838,0.16324570775032043,-0.10437631607055664
0.09039422869682312,0.04382668435573578,0.46455633640289307,0.17237919569015503,0.09474380314350128,0.5464200377464294,0.46533042192459106,0.0914333388209343,0.4250587821006775,-0.5468727946281433,-0.06046034023165703,0.1947944611310959,-0.12813293933868408,-0.28358304500579834,0.176932692527771,-0.05856860801577568,-0.30069413781166077,0.06533914804458618,0.32637256383895874,-0.13063867390155792,0.0395633690059185,-0.2595737874507904,0.07022901624441147,-0.11927101016044617,-0.1666886955499649,-0.06010250002145767,-0.349534273147583,0.13828273117542267,-0.05270152539014816,0.012881121598184109,-0.5476686358451843,0.24404479563236237
0.18627256155014038,0.2646379768848419,0.06152833253145218,0.37997758388519287,0.1313295215368271,0.09981885552406311,-0.13792811334133148,0.1154455617070198,-0.463785856962204,-0.2908661961555481,0.4766824543476105,-0.12829777598381042,-0.03379715606570244,-0.09283635020256042,-0.22782522439956665,-0.22495336830615997,0.13713541626930237,-0.2749178409576416,0.0571582205593586,-0.14287863671779633,0.03328147158026695,0.09655944257974625,-0.19639559090137482,0.032977234572172165,-0.1182495653629303,0.07335992157459259,-0.20653709769248962,-0.5337757468223572,-0.05499585345387459,0.3780500292778015,-0.05823639780282974,-0.19223304092884064
-0.2259342223405838,0.05125967785716057,-0.3542080521583557,-0.07241912931203842,-0.023745886981487274,0.16412192583084106,0.09769981354475021,0.2684198021888733,0.0093415891751647,-0.05166620761156082,0.08647094666957855,0.2926100492477417,-0.1366952657699585,0.1609996259212494,-0.051905132830142975,-0.232243612408638,0.14490383863449097,0.08402520418167114,0.1436307430267334,-0.1499241292476654,-0.1392369419336319,0.1515129655599594,-0.06839819997549057,0.0980944111943245,-0.29605716466903687,0.2364770919084549,-0.029903516173362732,0.04147843271493912,-0.3256152868270874,-0.033757179975509644,-0.2159005105495453,-0.022003991529345512
-0.13885419070720673,0.5270610451698303,0.15856929123401642,-0.024502592161297798,-0.20622588694095612,0.06731856614351273,0.08499278873205185,-0.18633787333965302,0.18131256103515625,-0.18244636058807373,-0.01223559770733118,0.13235493004322052,-0.2035023272037506,0.10841802507638931,-0.2685936689376831,0.13935939967632294,0.3711632192134857,-0.4726274609565735,0.2541634440422058,0.2501956820487976,-0.3039962351322174,0.37507182359695435,-0.33137160539627075,-0.1068422943353653,0.065610870718956,-0.12087308615446091,0.3323186933994293,-0.4518205523490906,0.14558644592761993,-0.33046701550483704,0.12828564643859863,-0.20188990235328674
-0.18167023360729218,0.4757320284843445,0.37703028321266174,-0.16395282745361328,0.0717383474111557,0.1750495284795761,0.2858636677265167,-0.27018362283706665,-0.47271236777305603,0.27484673261642456,-0.08453837782144547,0.19929775595664978,0.13595718145370483,0.36284998059272766,0.17065444588661194,-0.18489010632038116,0.11575961112976074,-0.3040195107460022,-0.4483209550380707,0.25837957859039307,-0.16372057795524597,0.18179170787334442,0.07849912345409393,-0.22811734676361084,-0.4724995791912079,-0.02347230538725853,0.07463275641202927,0.237549290060997,-0.297395259141922,-0.10510517656803131,-0.18086007237434387,0.29540136456489563
-0.30252987146377563,-0.4400661587715149,0.06607773900032043,0.23479223251342773,-0.07904365658760071,0.08082973957061768,0.19185514748096466,-0.4330742359161377,-0.1279914230108261,0.22368043661117554,-0.3084464967250824,0.5325430035591125,0.005695070140063763,0.3814176619052887,-0.19380778074264526,0.17704840004444122,-0.08060808479785919,-0.22327521443367004,0.39513373374938965,0.29688262939453125,0.11135458201169968,-0.17348869144916534,0.18992172181606293,0.23512527346611023,0.30707836151123047,-0.5273816585540771,-0.38240671157836914,0.19961920380592346,-0.060223713517189026,0.3567291796207428,-0.12008433043956757,0.13844075798988342
0.48556286096572876,0.03314584493637085,-0.3825926184654236,0.24209366738796234,0.4236093759536743,-0.24427080154418945,0.20042645931243896,0.3089059889316559,-0.03876658156514168,0.22764994204044342,0.12471567839384079,0.24550163745880127,0.08644463121891022,0.0648009404540062,0.27765196561813354,-0.3108866512775421,-0.19512400031089783,-0.2582786977291107,-0.12164042145013809,0.19376511871814728,0.06011705845594406,-0.14934659004211426,-0.1703648418188095,-0.4762708246707916,0.2671128809452057,-0.19829879701137543,0.33875882625579834,0.03583258017897606,0.41122615337371826,0.06382717937231064,0.3135894238948822,0.17627914249897003
-0.09352512657642365,-0.057037096470594406,0.1043972596526146,0.43144720792770386,-0.18218092620372772,-0.49384963512420654,-0.22422857582569122,0.2195737510919571,-0.13229282200336456,0.484814316034317,0.3874114751815796,-0.13183476030826569,-0.1913541704416275,-0.4666669964790344,0.23263397812843323,-0.04167691245675087,0.2658126652240753,-0.09486623108386993,0.019799208268523216,-0.3193370997905731,-0.2765979766845703,0.1138458251953125,-0.13212521374225616,-0.2529779374599457,0.2477680742740631,-0.23304656147956848,-0.01744128204882145,-0.02072153054177761,0.2442552149295807,0.24708543717861176,-0.20490610599517822,-0.30224308371543884
0.1918347328901291,-0.09180044382810593,-0.2200791984796524,0.27324193716049194,-0.3420528173446655,0.009816191159188747,-0.1484435796737671,0.2590574324131012,-0.1756528615951538,-0.11898697167634964,0.4466419219970703,-0.08530359715223312,-0.7170372009277344,0.11137878894805908,0.040908683091402054,-0.12549003958702087,0.39145806431770325,-0.5516154766082764,-0.02970455214381218,0.41563937067985535,-0.43219423294067383,0.4037066102027893,-0.3914445638656616,-0.05593622848391533,0.049858275800943375,0.1543891578912735,-0.2293890118598938,-0.48744550347328186,-0.4338226914405823,-0.4065914452075958,0.26493871212005615,0.13034161925315857
0.34632882475852966,-0.14784739911556244,-0.2150070071220398,0.0690896138548851,0.14849728345870972,0.08890685439109802,0.009807094931602478,0.042466651648283005,-0.061067845672369,0.1723354160785675,-0.03317611292004585,-0.08686334639787674,-0.0005700872861780226,0.24703265726566315,0.195610910654068,0.2457071840763092,0.21975217759609222,0.15602822601795197,-0.3864935040473938,0.23082245886325836,0.1275736391544342,-0.06122489646077156,0.3938809633255005,0.48714208602905273,0.407320499420166,0.060019347816705704,0.36241447925567627,0.167652890086174,-0.33017697930336,-0.2716946303844452,0.0871662124991417,0.17767922580242157
-0.26367250084877014,-0.259696364402771,0.19709251821041107,-0.05872715264558792,-0.19705723226070404,0.007665931712836027,-0.07704135030508041,-0.0848320946097374,0.020609185099601746,-0.11433206498622894,-0.021748855710029602,-0.08175364136695862,-0.3085133135318756,0.07347775995731354,0.07321161031723022,-0.439943790435791,-0.20549432933330536,0.2897234261035919,-0.3164707124233246,0.5335199236869812,0.0750468373298645,-0.24921207129955292,0.1155763640999794,-0.13608363270759583,-0.01969671994447708,-0.02461637370288372,0.15911675989627838,0.1417774111032486,-0.26912495493888855,-0.000716164882760495,0.04379653558135033,0.20392125844955444
0.1518433839082718,0.07580108940601349,0.06826796382665634,-0.18058978021144867,0.060914311558008194,-0.056834008544683456,-0.2737964689731598,0.28051626682281494,-0.18328893184661865,-0.04911338537931442,0.30492693185806274,0.02583025023341179,-0.11403369903564453,0.1669979989528656,0.13666297495365143,-0.29387494921684265,0.21254540979862213,0.021247759461402893,-0.10236858576536179,0.07564516365528107,0.08586258441209793,-0.21395239233970642,-0.2748487889766693,0.24012088775634766,0.13440927863121033,0.25511375069618225,-0.03747543320059776,0.10847920924425125,-0.1337069422006607,-0.14035668969154358,-0.34499508142471313,-0.31377720832824707
-0.003910508006811142,0.20140205323696136,0.20141755044460297,-0.28340595960617065,-0.18132354319095612,0.3634461760520935,-0.3082476258277893,-0.12787114083766937,-0.10831482708454132,0.05826954171061516,-0.19542208313941956,-0.3893357217311859,-0.3249242305755615,0.03382422402501106,0.16219095885753632,0.1804841011762619,0.39385712146759033,0.06955628842115402,0.3541885018348694,-0.20300576090812683,-0.10781268775463104,0.5026102662086487,-0.4442387521266937,0.059338487684726715,0.15922193229198456,-0.41474878787994385,0.1680155247449875,0.00014735612785443664,0.021605970337986946,-0.2256990224123001,0.005226485431194305,-0.18644672632217407
-0.3770487308502197,-0.01830373704433441,0.05827568471431732,-0.3975212574005127,0.1711992472410202,0.31586095690727234,-0.04063120484352112,-0.17978060245513916,-0.08442468196153641,-0.1075906753540039,-0.011514129117131233,-0.3065894544124603,0.006816768553107977,0.22614005208015442,0.4224356710910797,0.4570840001106262,-0.15770256519317627,-0.1650288999080658,0.05582669749855995,0.23691712319850922,-0.3119562268257141,-0.09476721286773682,0.2044133096933365,0.24959643185138702,-0.05728759616613388,0.45434096455574036,0.2767881155014038,0.10765043646097183,-0.19538258016109467,-0.20430117845535278,-0.26472052931785583,0.06769804656505585
-0.07405873388051987,0.1199868693947792,0.19406114518642426,0.009546373039484024,0.40277355909347534,-0.05239204317331314,0.16067887842655182,-0.10892575979232788,-0.09419962018728256,0.2887832522392273,0.06727121770381927,0.1547631472349167,-0.02787897363305092,0.41495513916015625,-0.31749406456947327,-0.17978163063526154,0.20996199548244476,-0.2060975879430771,0.1618567556142807,0.12368489801883698,-0.230485200881958,0.04840780049562454,0.2653252184391022,-0.2237354815006256,0.21380281448364258,0.24306538701057434,0.26047515869140625,0.261130154132843,-0.01587992161512375,0.08733661472797394,0.027686698362231255,-0.1625400185585022
-0.08464179188013077,0.10781613737344742,0.11198832839727402,-0.28213563561439514,-0.2024238407611847,0.008803048171103,0.03608587011694908,0.37918543815612793,0.20596127212047577,-0.06789644062519073,0.17065398395061493,0.02496449463069439,-0.06901843100786209,0.08859438449144363,-0.11053460091352463,-0.043089888989925385,-0.1938757449388504,-0.04240298271179199,-0.0127389682456851,0.13637050986289978,-0.4933977723121643,0.3119603097438812,-0.21678173542022705,0.3379250764846802,0.39830538630485535,-0.029922544956207275,-0.15215279161930084,-0.028214404359459877,0.018348578363656998,0.2473779022693634,-0.21278075873851776,0.35586345195770264
-0.01138912420719862,0.2623765468597412,-0.23661693930625916,0.1450870931148529,0.37721604108810425,-0.08115425705909729,0.40482965111732483,-0.062313374131917953,0.3547827899456024,-0.059984296560287476,-0.32308098673820496,0.11459776759147644,-0.3485106825828552,0.07827659696340561,0.3160277307033539,0.013560395687818527,-0.11368849873542786,0.05516529828310013,-0.12060506641864777,0.029953625053167343,0.08036689460277557,0.19663700461387634,0.0034701661206781864,-0.03314649686217308,-0.20409521460533142,-0.03338806703686714,-0.11035063117742538,0.07572837173938751,0.07401421666145325,-0.08173719793558121,-0.38923901319503784,-0.502197265625
,,,,,,,,,,,,,,,,,,,,,,,,,,,,,,,
Layer: default_policy/fc_1/bias,"Shape: (32,)",,,,,,,,,,,,,,,,,,,,,,,,,,,,,,
0.012306575663387775,0.021094700321555138,0.020860707387328148,0.016008470207452774,-0.0032647140324115753,-0.003039733273908496,-0.022564051672816277,0.026234643533825874,-0.021381111815571785,0.005888436920940876,0.024739626795053482,-0.01902591809630394,-0.021995563060045242,0.02096186764538288,0.017453256994485855,0.022513121366500854,0.019565977156162262,-0.018981168046593666,0.019466185942292213,0.022675393149256706,0.007638408336788416,0.008983075618743896,-0.020975669845938683,0.012240337207913399,0.020216185599565506,-0.01962425746023655,0.020346829667687416,-0.02160460501909256,-0.011278927326202393,0.011915074661374092,-0.019982675090432167,-0.011309628374874592
,,,,,,,,,,,,,,,,,,,,,,,,,,,,,,,
Layer: default_policy/fc_value_1/kernel,"Shape: (18, 32)",,,,,,,,,,,,,,,,,,,,,,,,,,,,,,
0.4682406783103943,0.3694740831851959,-0.1375814825296402,0.333225280046463,-0.02977091819047928,0.07351084053516388,-0.16385391354560852,0.04442404583096504,0.15922771394252777,0.048285119235515594,0.09058379381895065,-0.16108345985412598,-0.2352953404188156,0.22687557339668274,-0.10735540091991425,0.28731250762939453,-0.05745433643460274,0.22064682841300964,-0.09871752560138702,0.5961322784423828,-0.08602286130189896,-0.17215846478939056,0.11465871334075928,0.02233140729367733,-0.17734532058238983,-0.26195698976516724,0.13096018135547638,0.06458739936351776,-0.358402281999588,0.06839500367641449,-0.2589341700077057,-0.4489830732345581
0.2817330062389374,0.011887919157743454,0.10146070271730423,-0.11893635243177414,-0.1166895180940628,-0.17673490941524506,0.1096312627196312,0.17303749918937683,0.3861609101295471,0.21408255398273468,0.07169251888990402,-0.04582447186112404,0.03565198555588722,0.18899008631706238,0.10818588733673096,-0.16607701778411865,-0.2874033749103546,-0.20783792436122894,-0.30094796419143677,0.06576302647590637,0.22463658452033997,0.04737991839647293,-0.2499443143606186,0.04413687065243721,-0.1871618926525116,0.05622238665819168,0.113918237388134,0.06316043436527252,0.15999265015125275,0.03343307599425316,0.21800857782363892,-0.5324873328208923
0.03611462190747261,0.2746228277683258,0.4451048970222473,0.22482164204120636,-0.08648843318223953,-0.22402769327163696,0.2933735251426697,-0.3375642001628876,-0.005282378289848566,0.01666542887687683,-0.32152077555656433,-0.11190687865018845,-0.17298123240470886,-0.01004291046410799,-0.11017462611198425,0.15967555344104767,0.3465125858783722,-0.06394404917955399,0.10364996641874313,-0.11829348653554916,-0.13281691074371338,-0.03339267522096634,0.4148447513580322,0.2450057864189148,0.41556647419929504,0.21077142655849457,-0.35944846272468567,-0.4032289385795593,0.06898100674152374,-0.03648918867111206,-0.39189982414245605,0.07001407444477081
0.4575801491737366,0.021358227357268333,-0.011568437330424786,-0.23826858401298523,-0.06145597994327545,0.1754503697156906,0.2719888389110565,-0.01834886521100998,-0.20759975910186768,-0.31396928429603577,-0.03459968417882919,-0.17641529440879822,0.06121594458818436,0.020877297967672348,-0.1814720630645752,0.09531689435243607,-0.36763057112693787,-0.04260443523526192,-0.1962696760892868,0.02376762591302395,0.23635783791542053,-0.21702958643436432,0.3615213632583618,0.02166094444692135,0.03428368270397186,0.35693737864494324,-0.14232680201530457,-0.0829705223441124,0.02735024504363537,-0.3899867832660675,-0.27132371068000793,-0.06946323066949844
0.1088247150182724,-0.14352993667125702,0.19628570973873138,0.15612903237342834,-0.023679492995142937,0.4771334230899811,0.2746453285217285,-0.06802289932966232,-0.10053396224975586,-0.059943318367004395,-0.6145633459091187,-0.5783544182777405,-0.3929445445537567,0.2650673985481262,0.0037501484621316195,0.14374743402004242,-0.23197969794273376,-0.43194451928138733,-0.3615894317626953,0.2542062997817993,0.1723848283290863,0.27436763048171997,-0.12503954768180847,0.5499017834663391,-0.14881861209869385,-0.13623645901679993,0.14897841215133667,-0.3789537847042084,0.13579978048801422,0.15675696730613708,0.2836034297943115,0.19419103860855103
0.03519682213664055,-0.14533460140228271,-0.022510087117552757,0.29591089487075806,0.036694735288619995,-0.07805778831243515,0.3171607553958893,-0.1814151257276535,-0.044889722019433975,-0.22733967006206512,-0.1341186761856079,-0.2577624022960663,0.34877488017082214,0.08461789041757584,0.14067436754703522,-0.046763621270656586,-0.03294948488473892,-0.02777441404759884,-0.46202540397644043,0.5653973817825317,0.16028928756713867,0.02155342511832714,-0.021892406046390533,-0.189115509390831,-0.21255823969841003,-0.0005687740631401539,-0.07000426203012466,-0.046938832849264145,-0.27720245718955994,-0.10471676290035248,0.34525761008262634,0.21970994770526886
-0.2598821818828583,0.09847797453403473,0.5154883861541748,-0.16759981215000153,-0.504408061504364,0.07975263893604279,0.016625631600618362,0.029430164024233818,0.05097127705812454,-0.15830157697200775,-0.10832897573709488,-0.051161229610443115,-0.035871390253305435,-0.21465595066547394,-0.03380678966641426,-0.2260141223669052,0.08121877908706665,0.0876159816980362,-0.2096337080001831,-0.1832084059715271,-0.5273998379707336,0.5160453915596008,-0.07860569655895233,0.29773324728012085,0.024133892729878426,0.3243369460105896,-0.028710853308439255,-0.4841649830341339,-0.0779837816953659,0.4824144244194031,0.11663621664047241,-0.048748865723609924
-0.2822487950325012,0.47362133860588074,-0.22467748820781708,-0.16399919986724854,0.009158204309642315,-0.086944080889225,-0.08751891553401947,-0.15732164680957794,0.4949153959751129,0.24777474999427795,0.36725595593452454,-0.10825195908546448,-0.5798153281211853,0.20167671144008636,-0.1417509913444519,0.40683308243751526,-0.14498482644557953,0.018920140340924263,-0.1481911838054657,0.14590668678283691,0.002291896613314748,0.0794735848903656,0.3939891457557678,0.1500859260559082,0.02600310929119587,0.1161927655339241,-0.03175310790538788,-0.09433276951313019,-0.5994502902030945,0.06026792526245117,-0.5353448390960693,-0.06525706499814987
-6.75079645588994e-05,0.3578367531299591,0.1548234075307846,0.17940616607666016,-0.19575007259845734,0.18920956552028656,0.2649407684803009,0.03888167440891266,-0.22551113367080688,-0.4204905331134796,-0.2947786748409271,0.044805124402046204,-0.26298758387565613,0.221543088555336,0.12362239509820938,0.06949058920145035,0.1639595478773117,-0.40120288729667664,0.07179930806159973,0.18344804644584656,-0.1271687000989914,-0.18230363726615906,0.07369077950716019,0.5830350518226624,0.21838054060935974,-0.21840886771678925,-0.23745881021022797,-0.24796554446220398,-0.49495890736579895,-0.22133450210094452,-0.2962227165699005,-0.3564649522304535
-0.1662338376045227,0.49030977487564087,0.358144611120224,0.3969515264034271,-0.3110271096229553,0.4887508749961853,-0.5512942671775818,0.4519651234149933,-0.034490570425987244,-0.2239367961883545,-0.29414233565330505,-0.43530282378196716,0.024936862289905548,0.09742546826601028,-0.048844192177057266,-0.32660970091819763,0.20038576424121857,-0.26528090238571167,-0.17321321368217468,-0.04993085190653801,0.24786268174648285,-0.27693119645118713,-0.12064340710639954,0.22970740497112274,-0.17444421350955963,0.20028997957706451,0.22994208335876465,0.07841240614652634,0.16557732224464417,-0.07888339459896088,0.023619569838047028,0.10712035745382309
0.29083842039108276,0.23576608300209045,0.2877728343009949,0.2472008466720581,0.2855302393436432,0.09417667984962463,0.24216939508914948,0.10722941905260086,0.041242994368076324,-0.00366974831558764,-0.18955712020397186,0.08784331381320953,0.05668741464614868,0.3266086280345917,0.1253034472465515,0.1359238475561142,0.21318796277046204,-0.04135208949446678,0.054189927875995636,-0.11175647377967834,0.06303104013204575,0.05899297073483467,0.35344818234443665,-0.11503367871046066,0.3165033459663391,0.23356731235980988,0.11891857534646988,0.1856381595134735,0.09904122352600098,-0.15598109364509583,-0.04743874818086624,0.25477486848831177
-0.16399183869361877,0.38920465111732483,-0.1559130996465683,0.15246990323066711,-0.21262498199939728,0.3201141059398651,0.26445725560188293,0.27968209981918335,0.19193151593208313,-0.2098425179719925,-0.39791733026504517,-0.5811192393302917,0.19506992399692535,-0.07084853947162628,-0.5818060040473938,-0.20393489301204681,-0.21566583216190338,0.21436546742916107,-0.4080638885498047,0.4839843213558197,-0.16450083255767822,0.016684887930750847,0.5680185556411743,0.0727669969201088,0.48203638195991516,-0.02368355169892311,-0.5098070502281189,0.33841273188591003,0.14184008538722992,0.13605253398418427,-0.1661103367805481,0.14639180898666382
0.07058082520961761,-0.045050427317619324,-0.3128712475299835,-0.16215789318084717,-0.0755682960152626,-0.13601163029670715,-0.06648971885442734,0.16956958174705505,0.36151090264320374,-0.43539878726005554,-0.003116125240921974,-0.19907383620738983,0.38475093245506287,0.17229962348937988,-0.10399363934993744,0.0891638919711113,-0.35704293847084045,0.34824901819229126,0.2919643223285675,0.14402605593204498,-0.4914111793041229,-0.5082547068595886,0.12943972647190094,-0.1690937578678131,-0.03501617908477783,-0.029716109856963158,-0.4051453173160553,-0.26935502886772156,-0.10344637185335159,0.05935712903738022,-0.251222163438797,-0.035727743059396744
-0.21068958938121796,0.41703808307647705,0.07182709127664566,-0.22606737911701202,-0.31972962617874146,-0.03304231911897659,0.08776245266199112,0.25699934363365173,0.5149088501930237,-0.13130700588226318,-0.1807369589805603,0.02961575612425804,-0.04070017859339714,0.060044098645448685,0.05636904761195183,0.05230792984366417,-0.02610486000776291,-0.19278711080551147,0.14173297584056854,0.05902978777885437,-0.3011150360107422,0.05660116672515869,0.04695595055818558,0.2813439667224884,-0.0011286198860034347,0.29388442635536194,-0.08110864460468292,0.21979355812072754,-0.17417161166667938,-0.023994015529751778,-0.17435291409492493,-0.02987625263631344
0.3893509805202484,0.003566163359209895,-0.15527382493019104,0.30528026819229126,-0.3766182065010071,-0.03594622015953064,-0.36399492621421814,0.46497973799705505,0.2582530975341797,-0.10904886573553085,-0.037314604967832565,-0.23321494460105896,-0.10317995399236679,-0.21524639427661896,-0.26271453499794006,0.1776939183473587,0.17710544168949127,-0.3887598514556885,-0.25746214389801025,0.12551762163639069,-0.0896170362830162,-0.31194356083869934,0.03005039691925049,0.3112839460372925,-0.3781582713127136,0.15675745904445648,0.02390396036207676,0.15274879336357117,0.12248013913631439,-0.2985444664955139,-0.05332454293966293,-0.18424157798290253
-0.0015823374269530177,0.056053031235933304,0.33606427907943726,0.40657275915145874,0.4104457199573517,-0.31384313106536865,0.039930034428834915,-0.016451627016067505,0.06239673122763634,-0.08649659901857376,0.13351482152938843,-0.1903582215309143,-0.25998005270957947,0.7325895428657532,0.3100517988204956,-0.5382877588272095,0.09106319397687912,-0.4385426640510559,-0.048054177314043045,0.36067092418670654,-0.20667719841003418,-0.1187698245048523,-0.25923219323158264,-0.09873692691326141,-0.16059577465057373,0.4880227744579315,0.00035582444979809225,0.11644672602415085,0.0662638321518898,-0.10717160999774933,-0.1305418312549591,0.35304024815559387
0.0727033019065857,0.22007818520069122,0.13782882690429688,0.14049139618873596,-0.22646108269691467,0.2292902022600174,0.11107997596263885,0.4195716977119446,0.05241793394088745,-0.5397468209266663,-0.3336326479911804,0.33455681800842285,-0.09428483247756958,0.41288334131240845,-0.45073390007019043,0.09331274777650833,0.3851470947265625,-0.14415094256401062,0.010948240756988525,0.07447756826877594,0.2174605131149292,-0.39287203550338745,0.10537172108888626,0.14958640933036804,0.25777214765548706,0.4130822718143463,-0.2719976305961609,-0.2460947185754776,-0.34878045320510864,0.5460216403007507,0.06206325814127922,-0.03527753800153732
-0.14248108863830566,-0.09595716744661331,-0.068497434258461,-0.2655240297317505,-0.4423995912075043,-0.2973818778991699,0.21527545154094696,0.4587657153606415,-0.1811322569847107,0.30638861656188965,0.038202982395887375,0.03608853742480278,-0.09729896485805511,-0.11396147310733795,0.38226526975631714,0.21062752604484558,0.16527581214904785,0.18655920028686523,-0.514823317527771,-0.0424572192132473,-0.1452447474002838,-0.017763301730155945,-0.08348668366670609,0.3227945566177368,-0.03768691420555115,-0.35725030303001404,-0.5860092639923096,0.08718158304691315,0.009240158833563328,0.0912107527256012,-0.27190810441970825,-0.0883852019906044
,,,,,,,,,,,,,,,,,,,,,,,,,,,,,,,
Layer: default_policy/fc_value_1/bias,"Shape: (32,)",,,,,,,,,,,,,,,,,,,,,,,,,,,,,,
0.06432414054870605,0.06048175320029259,0.06094754859805107,0.05935181677341461,-0.06301307678222656,0.05920763313770294,0.06491503864526749,0.06303425878286362,0.021819178014993668,-0.06085381656885147,-0.06438645720481873,-0.06173266842961311,-0.06806015968322754,0.057750482112169266,-0.06273771077394485,0.07382512837648392,0.0623813197016716,-0.06301381438970566,-0.0438615083694458,0.06627484411001205,-0.06564617902040482,-0.06676501035690308,0.06468901038169861,0.06854415684938431,0.054067421704530716,0.06675752252340317,-0.06623537838459015,-0.07228295505046844,-0.07150642573833466,0.062544085085392,-0.06308354437351227,-0.06860877573490143
,,,,,,,,,,,,,,,,,,,,,,,,,,,,,,,
Layer: default_policy/fc_2/kernel,"Shape: (32, 32)",,,,,,,,,,,,,,,,,,,,,,,,,,,,,,
0.1256392002105713,-0.09005807340145111,-0.09639742225408554,-0.15113914012908936,0.026079993695020676,-0.16628813743591309,0.02738007716834545,-0.13244591653347015,0.04008589684963226,-0.03146662563085556,0.22046133875846863,0.36621132493019104,-0.16416619718074799,-0.2967779040336609,-0.16634035110473633,0.09350088238716125,0.24779389798641205,0.026817316189408302,-0.23496586084365845,0.0002795774780679494,-0.002881973749026656,0.04208064824342728,0.22958865761756897,0.016923846676945686,-0.27940547466278076,0.0015914932591840625,0.10837321728467941,-0.10666556656360626,-0.06301284581422806,-0.05750791355967522,-0.05788174271583557,0.13683047890663147
0.1733183115720749,-0.19802726805210114,0.011739852838218212,0.02282414585351944,0.0419570729136467,-0.26352033019065857,0.21523620188236237,-0.08866508305072784,0.2938563823699951,0.03231697529554367,0.17227713763713837,0.1760394126176834,0.14574399590492249,0.0725310817360878,-0.026203269138932228,0.08888304233551025,0.15915076434612274,-0.44380462169647217,0.030269453302025795,-0.13083787262439728,-0.30904829502105713,0.17300531268119812,-0.2227187156677246,-0.32917749881744385,0.09240486472845078,-0.19855664670467377,0.1788605898618698,-0.23246459662914276,0.2384234070777893,-0.2188563197851181,-0.272593230009079,-0.03665636107325554
0.22663439810276031,0.28394410014152527,0.12625016272068024,0.11640896648168564,-0.42961838841438293,0.020437821745872498,-0.2505120038986206,-0.04752885177731514,-0.21355734765529633,0.16855056583881378,0.28207463026046753,-0.2802688479423523,-0.014443593099713326,0.05338364839553833,0.10745413601398468,-0.10516457259654999,0.1306830495595932,0.31648507714271545,-0.1183367669582367,-0.1425098180770874,-0.1623748540878296,0.3799518048763275,-0.025669628754258156,-0.05910539627075195,0.0524747259914875,0.1146366074681282,0.3692052960395813,0.058444686233997345,0.1628006547689438,0.12659205496311188,0.005643907468765974,0.025014258921146393
0.10598630458116531,-0.16023261845111847,-0.10125795006752014,-0.2171010822057724,-0.24398033320903778,0.03906359523534775,0.03867536783218384,-0.00592730613425374,0.0099504878744483,0.10441184043884277,0.009180428460240364,0.18552950024604797,0.02420199103653431,-0.08864481002092361,-0.15890458226203918,-0.20650100708007812,0.16155558824539185,0.06359422951936722,-0.18346618115901947,-0.1200486496090889,-0.13919781148433685,-0.02192150056362152,0.09477932006120682,0.20343798398971558,-0.022405344992876053,0.06639882177114487,0.011925972066819668,-0.012051641009747982,0.06469988077878952,-0.21596430242061615,0.17268601059913635,0.03512590378522873
0.1883021742105484,0.20578640699386597,0.12424596399068832,0.1806694120168686,0.012914566323161125,-0.1875481754541397,-0.2092798799276352,0.16312962770462036,0.38313814997673035,-0.3806535601615906,0.008112228475511074,-0.3241966664791107,-0.10982109606266022,-0.007760636042803526,0.05431807041168213,0.132229745388031,0.1994258016347885,-0.19668275117874146,0.09352695941925049,-0.08430476486682892,0.19150401651859283,0.0869184136390686,-0.21306931972503662,0.09030291438102722,0.20504358410835266,-0.14187562465667725,0.11856096237897873,-0.1490410417318344,-0.11575376242399216,-0.003762288950383663,-0.23374958336353302,-0.44849729537963867
0.06592009216547012,0.06678362935781479,0.33046308159828186,0.28274786472320557,0.07399120926856995,0.31803998351097107,-0.11977305263280869,-0.17436735332012177,0.04242723435163498,-0.03313848376274109,0.0016603672411292791,-0.1498212069272995,-0.17462855577468872,-0.07157940417528152,-0.058131225407123566,0.07201577723026276,0.026115255430340767,0.11511645466089249,0.005018624011427164,0.0028904967475682497,0.17237941920757294,-0.06440708041191101,0.0008574964012950659,0.08273891359567642,0.06350835412740707,-0.14825193583965302,-0.11951631307601929,0.010030888020992279,-0.1619417518377304,-0.09136869013309479,-0.11030157655477524,-0.08177778124809265
-0.09544270485639572,0.282997190952301,-0.026611413806676865,0.335965096950531,-0.13745465874671936,-0.060656994581222534,0.16529837250709534,0.22645203769207,-0.003920185379683971,-0.14967972040176392,0.0548672080039978,0.29895487427711487,0.2137361615896225,0.2503283619880676,0.29586294293403625,-0.06637336313724518,0.01096914429217577,-0.1192309632897377,-0.20774053037166595,0.019081372767686844,0.1037457063794136,0.3303664028644562,-0.178327739238739,0.12557236850261688,-0.011584259569644928,0.07704536616802216,-0.0007853835122659802,-0.08258401602506638,0.0048738885670900345,0.06231781467795372,-0.03296036645770073,-0.14694887399673462
-0.12069258093833923,0.3040858209133148,-0.0025161574594676495,0.23141148686408997,-0.09440501779317856,-0.15458472073078156,0.004960690159350634,-0.016341520473361015,-0.04435095936059952,0.2805076241493225,-0.14234796166419983,-0.06523173302412033,0.27015647292137146,-0.19702337682247162,-0.18566417694091797,0.1303206831216812,0.1382703334093094,0.13339179754257202,-0.2567724585533142,0.007001487538218498,-0.07609926909208298,0.10843001306056976,-0.058704983443021774,0.0776681900024414,-0.07110526412725449,-0.3352276086807251,-0.15617027878761292,-0.04449858516454697,0.028885291889309883,-0.3947935402393341,-0.4219657778739929,-0.10346003621816635
-0.0656898096203804,0.14380712807178497,-0.04049798473715782,0.32645362615585327,0.24396993219852448,-0.06565909087657928,0.08271299302577972,0.21533836424350739,-0.014211947098374367,-0.02446272037923336,0.11743007600307465,0.06457293778657913,0.05439412221312523,0.0387832447886467,-0.17093221843242645,-0.48792943358421326,0.10662398487329483,-0.1807589828968048,-0.10531024634838104,-0.22503416240215302,0.19626708328723907,-0.012902949005365372,-0.10759135335683823,0.30086302757263184,0.1828404664993286,-0.3226313591003418,0.020617421716451645,-0.17878283560276031,0.2682555913925171,0.4825790822505951,0.15485385060310364,0.14493171870708466
-0.14906075596809387,0.15012605488300323,-0.17650815844535828,-0.07009796798229218,0.33215007185935974,-0.07537760585546494,0.014733259566128254,-0.21486079692840576,-0.15658651292324066,-0.09630482643842697,-0.31341609358787537,-0.1384841501712799,0.09651338309049606,0.1412646472454071,0.1902478188276291,0.09349605441093445,-0.20955251157283783,-0.015276812948286533,0.24643029272556305,0.03027396835386753,-0.09877025336027145,0.07400622218847275,-0.22218365967273712,-0.13568657636642456,0.15249675512313843,-0.00506749888882041,-0.057627104222774506,0.07054750621318817,0.2466493844985962,-0.06977001577615738,-0.018301425501704216,0.19351491332054138
0.11344672739505768,0.28550347685813904,-0.07386480271816254,-0.09962468594312668,-0.19479645788669586,-0.21935778856277466,0.2681894898414612,-0.23747463524341583,0.3504142761230469,0.01864810660481453,-0.020111190155148506,0.021762140095233917,0.009801101870834827,-0.14465278387069702,-0.048211634159088135,-0.012597138062119484,0.09885840117931366,-0.16481812298297882,-0.2216625213623047,-0.17635595798492432,-0.049422405660152435,0.05758398771286011,-0.10189664363861084,0.08561225235462189,0.0841967910528183,-0.026955753564834595,0.36925995349884033,0.09392354637384415,-0.17540018260478973,-0.12437659502029419,-0.38119056820869446,0.05688416212797165
0.08192024379968643,-0.0538456104695797,0.04729258641600609,0.06412346661090851,0.3057037889957428,0.4177038371562958,0.04633698984980583,0.20109117031097412,-0.008413861505687237,0.17599831521511078,-0.38113099336624146,0.044107139110565186,0.015121997334063053,0.02037941850721836,-0.03945353254675865,0.12052205204963684,0.022184062749147415,-0.4012482762336731,0.007948070764541626,0.4257371723651886,0.025893012061715126,-0.21625825762748718,0.0927857756614685,0.21939638257026672,0.11239634454250336,-0.22539880871772766,0.16638001799583435,-0.2546318769454956,-0.018365513533353806,0.03168642893433571,0.004799926653504372,0.0717906504869461
-0.2624189555644989,-0.11415257304906845,-0.05712641775608063,0.057892363518476486,0.10807467997074127,-0.29041576385498047,-0.02654767595231533,-0.18294619023799896,-0.10593495517969131,-0.05290023609995842,0.02111910656094551,-0.16032597422599792,-0.30612269043922424,0.2248837798833847,0.04111028462648392,-0.06487224251031876,0.04993746057152748,-0.008670090697705746,0.002893611788749695,-0.13211871683597565,0.019130785018205643,0.05785535275936127,-0.3184822201728821,0.17857961356639862,0.13287675380706787,-0.17501884698867798,-0.11616761237382889,0.07345839589834213,-0.1772811859846115,-0.24236924946308136,-0.07519306242465973,-0.21065248548984528
-0.05893036723136902,0.1599551886320114,-0.23271214962005615,0.10328280180692673,0.09328395128250122,-0.034472156316041946,0.18558083474636078,-0.2006208896636963,-0.025075387209653854,0.04192246124148369,-0.19751481711864471,-0.24995532631874084,0.23323234915733337,0.19964726269245148,-0.34653353691101074,0.04021576792001724,0.19796353578567505,-0.1053549125790596,-0.08760225027799606,-0.1908070147037506,-0.40932852029800415,-0.015370475128293037,0.16262468695640564,-0.17032045125961304,-0.1616208851337433,-0.2099403738975525,-0.015179181471467018,-0.2660517990589142,-0.18382395803928375,0.19079191982746124,0.2052101045846939,-0.2048904448747635
-0.34299135208129883,-0.25797271728515625,-0.3947281539440155,-0.22048190236091614,-0.28196004033088684,0.10920637845993042,-0.09737339615821838,-0.01780773140490055,-0.2336767017841339,0.20908434689044952,-0.14053328335285187,0.11494261026382446,0.027026331052184105,0.01062601339071989,-0.4276641309261322,-0.062471337616443634,-0.20470985770225525,-0.14236345887184143,0.3219244182109833,-0.059739019721746445,-0.013887740671634674,0.08225534111261368,-0.2200682908296585,-0.05684828758239746,-0.0015725558623671532,-0.4765237867832184,-0.3475278317928314,-0.030376380309462547,0.13088132441043854,-0.22964750230312347,0.2851994037628174,0.2849668264389038
0.07549945265054703,0.1976003795862198,0.12778431177139282,-0.18106834590435028,0.06830226629972458,0.05756272003054619,0.03542173653841019,-0.11147060245275497,0.2193448841571808,0.2534236013889313,-0.20132985711097717,0.12089583277702332,-0.15973833203315735,-0.20561149716377258,-0.1069660484790802,0.2840788662433624,0.14974339306354523,-0.23564064502716064,-0.18018242716789246,-0.18274345993995667,-0.15866871178150177,0.030107639729976654,0.11524759978055954,0.29255759716033936,-0.05520673468708992,0.26378384232521057,0.12672865390777588,0.11391286551952362,0.22595033049583435,-0.07355798780918121,-0.12415295839309692,0.3047746419906616
-0.16591903567314148,0.20627617835998535,-0.19464148581027985,-0.272227019071579,-0.32218679785728455,0.009737871587276459,-0.05936417728662491,-0.23424981534481049,0.02682938612997532,-0.14226169884204865,0.20729218423366547,-0.17085127532482147,0.1719932109117508,-0.2928506135940552,0.29871827363967896,0.05453256517648697,-0.1495959311723709,0.07745712250471115,-0.13719287514686584,0.11348193883895874,0.02080390602350235,0.08040399849414825,0.09430308640003204,-0.30321142077445984,0.03022683411836624,-0.04381333664059639,0.07655412703752518,0.2710860073566437,-0.037066712975502014,0.0046461052261292934,-0.051120102405548096,-0.2639792859554291
0.13646858930587769,0.019135750830173492,-0.1831047236919403,-0.022413425147533417,0.33077409863471985,-0.2039942890405655,-0.30455365777015686,0.3499000072479248,0.122797891497612,0.0215059332549572,-0.02549995295703411,0.2691822350025177,0.09987940639257431,0.21809937059879303,-0.18772098422050476,-0.0944158062338829,-0.3604704439640045,-0.12520065903663635,-0.19415651261806488,0.2735873758792877,-0.1776190549135208,-0.17409303784370422,0.10407768934965134,0.4324863851070404,-0.2103302776813507,0.010723446495831013,0.09480150789022446,0.08526688069105148,-0.14018137753009796,0.013419299386441708,0.19380448758602142,-0.03745952993631363
-0.1269935518503189,0.08608723431825638,-0.02698156051337719,-0.20940053462982178,-0.14945904910564423,0.14141997694969177,-0.09001018851995468,0.3449755907058716,-0.17040784657001495,0.18002529442310333,-0.38965508341789246,0.19099204242229462,0.24235600233078003,0.24144268035888672,-0.22992296516895294,-0.3808557093143463,0.08749520778656006,-0.08664003014564514,0.17614394426345825,-0.24114954471588135,0.10936404019594193,0.04572560265660286,0.17458681762218475,0.307452529668808,-0.38101592659950256,0.23895291984081268,-0.08219971507787704,0.24532555043697357,0.33084988594055176,-0.21907034516334534,-0.11096055805683136,0.3879150152206421
0.2188662737607956,0.33942416310310364,0.10390439629554749,0.007941091433167458,-0.18886058032512665,0.07725005596876144,0.14621968567371368,0.15513163805007935,-0.11233799159526825,0.17538708448410034,0.2966795265674591,0.03160952404141426,0.3791322410106659,-0.06238085776567459,0.22016683220863342,-0.16288478672504425,-0.17652194201946259,0.20009523630142212,0.07649854570627213,0.05536160245537758,-0.24329052865505219,0.4328441023826599,-0.24622976779937744,-0.08295463025569916,0.10598724335432053,0.036687470972537994,0.016212115064263344,0.01422292459756136,0.03776059299707413,-0.18443676829338074,-0.39813870191574097,-0.03609760105609894
-0.056025922298431396,0.01911906711757183,0.22315765917301178,-0.17661498486995697,-0.1364632099866867,-0.36433959007263184,0.3051246702671051,0.02453223615884781,-0.028360871598124504,0.13207751512527466,0.1096157431602478,-0.2759353518486023,-0.35505539178848267,-0.22285015881061554,0.08521148562431335,0.04224815592169762,0.10235018283128738,0.09775569289922714,-0.13704068958759308,0.29789355397224426,-0.2027852088212967,-0.039609599858522415,-0.040496427565813065,-0.011809362098574638,0.04691114276647568,0.264180988073349,-0.25165748596191406,0.12206573784351349,-0.018629414960741997,-0.23311437666416168,-0.14696525037288666,-0.2219417244195938
0.07090512663125992,0.28297343850135803,0.2029399275779724,0.10161053389310837,-0.04361816123127937,0.19427062571048737,-0.11404334008693695,-0.14336667954921722,0.051618095487356186,0.282144695520401,0.11111413687467575,-0.1613350510597229,0.13945449888706207,0.1830269694328308,-0.017252756282687187,0.10477841645479202,-0.032328538596630096,-0.08530089259147644,-0.35442596673965454,0.19059635698795319,0.27192601561546326,-0.22164209187030792,0.019150923937559128,0.10726499557495117,-0.40126311779022217,0.03141329810023308,0.2659591734409332,0.0014166568871587515,-0.1373644322156906,0.19986209273338318,-0.02350001595914364,-0.12603609263896942
0.03626827895641327,-0.07171668857336044,-0.01837962493300438,0.07694539427757263,-0.14764559268951416,0.1055864691734314,-0.12401554733514786,-0.1638883650302887,-0.406450480222702,-0.14435680210590363,-0.050146378576755524,0.24690532684326172,0.10374907404184341,0.1775134950876236,-0.011194883845746517,-0.20065931975841522,-0.06550170481204987,-0.3030366003513336,-0.23182155191898346,0.4296237528324127,0.16576151549816132,-0.1562083512544632,0.17677365243434906,0.09773223102092743,-0.3996860682964325,0.09320317953824997,0.05159727856516838,0.22981221973896027,0.3417581021785736,0.09940033406019211,0.052257172763347626,0.14106310904026031
-0.03230211138725281,0.22703967988491058,0.17192590236663818,0.10605356097221375,-0.06607688218355179,0.071467824280262,0.01816588081419468,-0.07701218128204346,-0.09563136100769043,-0.09308843314647675,0.06875954568386078,-0.08284555375576019,0.3223893344402313,-0.3492181897163391,-0.11265948414802551,-0.18302534520626068,-0.18308031558990479,0.20186270773410797,-0.0680137425661087,-0.2227165848016739,0.29046258330345154,-0.12542924284934998,0.17201143503189087,-0.09462060779333115,0.19657939672470093,0.06822499632835388,0.0467110350728035,0.09195370227098465,-0.17807655036449432,0.04773974046111107,-0.1050470769405365,-0.09031269699335098
0.001116218394599855,-0.042611896991729736,-0.05288110673427582,-0.0976305902004242,0.11678481101989746,0.2874533534049988,-0.23655176162719727,0.3194408118724823,-0.0035665431059896946,0.10197190940380096,-0.16355988383293152,0.012152399867773056,0.3622255027294159,0.01585228741168976,-0.3973359167575836,0.14039771258831024,0.2885296642780304,0.10628301650285721,0.2865394651889801,-0.05601955205202103,-0.013140300288796425,0.06964653730392456,0.005413675680756569,-0.11380556970834732,-0.05637162923812866,0.03633871674537659,0.11352407932281494,-0.3751913607120514,0.19191429018974304,0.11705203354358673,-0.04089080169796944,-0.04049504175782204
0.2306157946586609,-0.05703062191605568,-0.062327057123184204,0.23433631658554077,-0.05834547430276871,0.11663112789392471,0.17667512595653534,0.08208486437797546,-0.05464494228363037,-0.08101716637611389,0.08417937904596329,0.07169006764888763,-0.17356812953948975,0.26653939485549927,-0.12433326244354248,-0.2815149426460266,0.0038103233091533184,-0.03628731518983841,0.01948913000524044,0.20059901475906372,-0.05514412373304367,0.06446563452482224,-0.08575587719678879,0.0690188929438591,0.20392906665802002,0.07633663713932037,-0.022206615656614304,-0.14004036784172058,0.06959167867898941,-0.14193221926689148,-0.20954962074756622,0.1753760576248169
0.05701150745153427,0.13893595337867737,0.23939462006092072,-0.09344249218702316,-0.1480734497308731,-0.02528870292007923,0.019662536680698395,0.2369229793548584,-0.09785502403974533,0.14070002734661102,-0.07943688333034515,-0.001303319470025599,-0.17166239023208618,-0.0749073252081871,-0.009875377640128136,-0.07948801666498184,-0.01288935448974371,0.13970182836055756,0.039716653525829315,0.09965892881155014,-0.3851751387119293,-0.04100819677114487,-0.018880153074860573,-0.14203308522701263,-0.04620475322008133,0.22459053993225098,0.18222543597221375,0.14070123434066772,-0.05546925216913223,-0.02135450951755047,-0.028539927676320076,-0.06973708420991898
-0.06620881706476212,-0.23846963047981262,0.0655558779835701,-0.110701784491539,0.07094374299049377,-0.10731498152017593,0.5995063781738281,0.14486125111579895,-0.41533032059669495,-0.1544606238603592,0.09029115736484528,0.20945565402507782,-0.013392276130616665,-0.003123138565570116,0.029023857787251472,0.18714845180511475,0.3313466012477875,-0.07338418811559677,-0.037448592483997345,0.14357702434062958,-0.13964304327964783,-0.5808942914009094,-0.2772372364997864,-0.14665411412715912,0.02053075283765793,0.17128847539424896,0.2586013078689575,0.17573443055152893,-0.3461184501647949,-0.013991612009704113,0.18222986161708832,-0.03648782894015312
-0.4356410801410675,-0.1675802618265152,0.29670020937919617,-0.2321198284626007,0.11220026016235352,0.04342427849769592,0.015272339805960655,-0.03766674920916557,-0.11298752576112747,0.2018953114748001,0.14797012507915497,0.12151073664426804,0.013052280060946941,-0.15361033380031586,-0.15252934396266937,0.003933503292500973,-0.10329696536064148,0.08627975732088089,-0.21519359946250916,0.05732724815607071,-0.09588535130023956,-0.0664762407541275,-0.031057527288794518,-0.012274906039237976,0.2890753149986267,0.06678268313407898,-0.015264433808624744,-0.1015729010105133,-0.1492827832698822,-0.10449022054672241,0.0540478378534317,0.1500309705734253
0.23101675510406494,0.13181091845035553,0.08028464019298553,-0.3339024782180786,-0.12464793771505356,-0.19830061495304108,0.04276737570762634,-0.1287054568529129,0.15762652456760406,-0.41390353441238403,-0.2738129794597626,-0.057779230177402496,0.06099998578429222,0.2893783152103424,0.022678319364786148,0.23718583583831787,-0.035470835864543915,-0.07848663628101349,0.20098018646240234,-0.2182561159133911,0.1618979126214981,-0.1358107626438141,-0.20597417652606964,0.05948927253484726,-0.18625345826148987,0.15876547992229462,-0.18877080082893372,0.4645515978336334,-0.005557965021580458,0.2092888206243515,0.014910250902175903,-0.022645849734544754
0.012981552630662918,0.04422429949045181,0.3392574191093445,-0.07809488475322723,0.03199068084359169,-0.09816870838403702,0.04320237785577774,-0.1842750757932663,0.07560259103775024,0.2098657786846161,0.08065534383058548,-0.0558265820145607,0.01723945513367653,0.12586307525634766,-0.04146583750844002,-0.19886858761310577,-0.42270123958587646,-0.104576475918293,0.19546279311180115,0.18317344784736633,0.009590091183781624,-0.02070496790111065,0.1440960168838501,0.12107914686203003,0.07468466460704803,0.09206611663103104,0.33358871936798096,0.10148337483406067,-0.26178377866744995,0.20967429876327515,0.2872990667819977,-0.19469086825847626
0.4093427062034607,-0.07682576775550842,0.37295013666152954,0.1169918030500412,-0.03884221985936165,0.10981908440589905,0.09621841460466385,0.043123211711645126,0.18067970871925354,0.22253425419330597,-0.11858885735273361,-0.16646011173725128,-0.05204075947403908,-0.04354175180196762,-0.012679417617619038,-0.24115970730781555,0.14782993495464325,-0.2196270376443863,-0.11042454838752747,0.13628192245960236,0.12925457954406738,0.10249033570289612,-0.4864528477191925,-0.22459961473941803,-0.07922575622797012,-0.08275411278009415,-0.20296284556388855,-0.15849395096302032,-0.2660364508628845,0.18610495328903198,0.08635136485099792,-0.03846331685781479
,,,,,,,,,,,,,,,,,,,,,,,,,,,,,,,
Layer: default_policy/fc_2/bias,"Shape: (32,)",,,,,,,,,,,,,,,,,,,,,,,,,,,,,,
0.01889907382428646,0.022363364696502686,-0.01827874779701233,-0.01928670145571232,-0.022703152149915695,0.013965588994324207,-0.015537075698375702,-0.013239131309092045,0.021284284070134163,0.023583009839057922,-0.01909608021378517,-0.02253612130880356,0.02369130216538906,-0.013112970627844334,-0.02389099821448326,0.023157553747296333,0.007327516097575426,0.017302826046943665,1.2437263649189845e-05,-0.020583871752023697,-0.020562294870615005,0.017692269757390022,0.011465981602668762,-0.019880928099155426,-0.00549900671467185,-0.01386136282235384,0.00994929950684309,0.005078651010990143,0.01880999282002449,-0.018191177397966385,-0.022171402350068092,0.016620978713035583
,,,,,,,,,,,,,,,,,,,,,,,,,,,,,,,
Layer: default_policy/fc_value_2/kernel,"Shape: (32, 32)",,,,,,,,,,,,,,,,,,,,,,,,,,,,,,
-0.19179154932498932,-0.018880169838666916,0.029397573322057724,0.22225342690944672,0.16938835382461548,0.03559088706970215,-0.11311699450016022,-0.1693236231803894,0.0731523260474205,-0.19734932482242584,-0.2106158584356308,0.16041199862957,-0.02014915645122528,-0.16678564250469208,-0.058650143444538116,-0.22764892876148224,-0.10220015048980713,0.05953165516257286,0.10319526493549347,0.3821447789669037,0.20986229181289673,0.00024198225582949817,0.24787358939647675,0.30634453892707825,0.12815187871456146,0.11777722835540771,0.4395314157009125,-0.1024312824010849,0.17789794504642487,-0.01973452977836132,0.17274270951747894,-0.2008277177810669
-0.19919469952583313,-0.3720366060733795,-0.3301977813243866,-0.16603536903858185,-0.11639988422393799,0.3107348382472992,0.2562091052532196,-0.06705428659915924,0.32697737216949463,-0.09950075298547745,-0.0962577760219574,-0.12622374296188354,0.09811843186616898,-0.017403798177838326,-0.15384748578071594,-0.23214751482009888,-0.40447044372558594,0.037415169179439545,0.19505681097507477,0.16046929359436035,0.19156937301158905,-0.012754080817103386,0.12291647493839264,0.17047491669654846,0.028438061475753784,-0.3627478778362274,0.08760448545217514,0.11036904901266098,0.09976080060005188,-0.056427255272865295,-0.028178013861179352,0.1423039436340332
0.003503906074911356,-0.3231148421764374,-0.09695018827915192,-0.18365421891212463,0.15357078611850739,0.0912376120686531,0.08510959148406982,0.033141396939754486,-0.052556801587343216,0.0035879865754395723,-0.09226164221763611,-0.10979121923446655,0.1424652487039566,-0.16742368042469025,-0.336649090051651,-0.032023075968027115,-0.18898800015449524,-0.2096954882144928,-0.4791080355644226,0.2403552085161209,-0.23521576821804047,0.09065017849206924,0.4664968252182007,0.06737373024225235,-0.007267831824719906,0.17617899179458618,0.2555529475212097,0.10917313396930695,-0.131572425365448,-0.19759881496429443,-0.23274999856948853,-0.4168836176395416
-0.11160656064748764,0.07373565435409546,0.0656810849905014,0.028743188828229904,0.17745694518089294,0.3052613139152527,-0.2751133441925049,-0.17042556405067444,0.0818946585059166,-0.32372602820396423,-0.07833325117826462,0.2517275810241699,0.3719671964645386,0.2754981219768524,-0.16641990840435028,0.23799565434455872,-0.17508625984191895,-0.3480748236179352,0.01850264146924019,-0.07717182487249374,-0.15242883563041687,0.019732240587472916,-0.17923589050769806,-0.008028523996472359,0.05759359523653984,0.0731930062174797,0.049733176827430725,0.015873750671744347,-0.11581067740917206,0.027062617242336273,-0.0377022884786129,0.12125823646783829
0.01720697246491909,0.06835346668958664,-0.3488011658191681,-0.01864165998995304,0.1110031008720398,-0.29520726203918457,-0.25988829135894775,0.18566398322582245,-0.16180478036403656,0.07783982902765274,-0.23512648046016693,-0.1662495732307434,-0.08625482022762299,0.39668506383895874,0.12660156190395355,0.26100677251815796,-0.09859350323677063,0.22738328576087952,0.01317193079739809,0.055396661162376404,0.1365623027086258,-0.005767405033111572,-0.25312232971191406,-0.2556609511375427,-0.2982150614261627,0.2661154866218567,-0.3692374527454376,0.043886516243219376,-0.08921544998884201,0.06654088199138641,0.1008705124258995,0.2843260169029236
0.08065509051084518,-0.20459678769111633,-0.2622890770435333,0.049177564680576324,-0.028963670134544373,-0.025385554879903793,0.20062418282032013,-0.13241985440254211,0.03224963694810867,-0.022792572155594826,-0.4455498456954956,0.30069708824157715,0.11913974583148956,-0.4354390799999237,-0.10259610414505005,0.11316090077161789,0.15106815099716187,-0.470135360956192,0.015925806015729904,0.27555370330810547,0.18080399930477142,-0.1706392765045166,0.10959596931934357,0.16647961735725403,0.09308133274316788,-0.07893285900354385,-0.1726251095533371,0.39546120166778564,-0.22553442418575287,0.12403931468725204,-0.21426236629486084,0.16662737727165222
-0.11789149791002274,0.034452371299266815,0.062244731932878494,0.011989235877990723,-0.38212233781814575,-0.3753540515899658,0.1079988181591034,0.07550042867660522,-0.11498421430587769,0.03666363283991814,-0.012766619212925434,0.061899084597826004,0.24705009162425995,-0.21250689029693604,-0.19178879261016846,-0.1795000582933426,-0.22479122877120972,0.1860070824623108,0.43447190523147583,0.13017478585243225,-0.11302591115236282,-0.05877259373664856,-0.03995005413889885,-0.06787485629320145,0.11740485578775406,-0.04200228676199913,0.12688082456588745,0.36553671956062317,0.0067740147933363914,-0.04899846017360687,0.275059312582016,-0.35340768098831177
-0.019422272220253944,-0.07166367024183273,-0.1853082776069641,-0.10075319558382034,-0.16827286779880524,0.029343534260988235,0.2720000147819519,-0.34929147362709045,-0.08213530480861664,-0.09809369593858719,-0.2119068056344986,0.21006901562213898,0.3069572150707245,-0.16261377930641174,-0.03437858819961548,0.08951378613710403,-0.2879994213581085,-0.29540032148361206,0.07294304668903351,0.09999151527881622,-0.0878329947590828,0.1253475844860077,0.16115140914916992,-0.019461113959550858,0.18008461594581604,-0.06681007146835327,-0.04612494260072708,-0.02290193736553192,0.11637164652347565,-0.22444483637809753,0.12608104944229126,-0.18342657387256622
-0.18603664636611938,0.10451345890760422,0.017864707857370377,0.11092453449964523,0.06263852119445801,-0.0412803553044796,0.4642649292945862,-0.1317947804927826,-0.0895039439201355,-0.005821132566779852,-0.3134169578552246,0.07588241249322891,-0.25527632236480713,-0.16105395555496216,-0.254871666431427,-0.19965627789497375,0.2752932012081146,-0.27169474959373474,0.1741591989994049,0.15863117575645447,-0.10929639637470245,0.23281332850456238,-0.0813412219285965,-0.015558348968625069,-0.1268126368522644,-0.2814483344554901,-0.052292533218860626,-0.13373872637748718,-0.27541622519493103,0.04250309243798256,0.1024586483836174,-0.03895115852355957
0.11650844663381577,0.34735989570617676,0.4772759675979614,-0.4687918722629547,-0.11326716840267181,-0.36667561531066895,0.09810686856508255,0.12090732902288437,-0.16600799560546875,0.1924838423728943,-0.018410922959446907,-0.1638229787349701,-0.14200009405612946,0.24863101541996002,0.09500488638877869,0.22620107233524323,0.14067861437797546,0.1679762750864029,-0.13419486582279205,0.023843999952077866,0.10306155681610107,-0.3184962570667267,-0.04875634238123894,-0.387175053358078,-0.08338610827922821,0.37997785210609436,-0.38630399107933044,-0.12380394339561462,-0.04071888327598572,0.1763584017753601,0.06318244338035583,-0.12792594730854034
0.18182703852653503,-0.005345500539988279,0.16237741708755493,-0.04525253549218178,-0.03776909410953522,0.061485596001148224,-0.1848481446504593,-0.09184827655553818,-0.10198935866355896,-0.2147362381219864,0.31460344791412354,-0.18084415793418884,-0.1636379510164261,0.0864693820476532,0.12065356224775314,0.19183483719825745,0.28603434562683105,0.142399400472641,-0.11350604891777039,0.041219841688871384,0.21286097168922424,-0.29011526703834534,-0.2972726821899414,0.05794154107570648,-0.22374600172042847,0.08899544924497604,-0.30554065108299255,-0.08495355397462845,-0.047644324600696564,-0.08104751259088516,-0.21041688323020935,0.18962237238883972
0.20345212519168854,-0.04149264097213745,-0.09135527163743973,0.017576001584529877,-0.2510829567909241,-0.3390178084373474,-0.1625170260667801,0.33612698316574097,-0.4987316131591797,0.2104424685239792,-0.005082616116851568,-0.04038849472999573,-0.04665832594037056,-0.08274825662374496,-0.06175140291452408,0.04907286539673805,-0.22170598804950714,0.1361311674118042,-0.09322705119848251,-0.224747896194458,0.2090810090303421,0.14700768887996674,-0.0006882223533466458,-0.18371440470218658,0.08938083797693253,-0.11528453230857849,-0.13113100826740265,-0.32999446988105774,-0.3659530580043793,0.23140819370746613,-0.1520407795906067,0.0438755601644516
-0.015053831040859222,0.1703900396823883,0.23546329140663147,-0.26574230194091797,-0.27750852704048157,0.191004678606987,-0.3583334684371948,-0.04597849398851395,0.2746574282646179,0.38839200139045715,0.04627101868391037,-0.13011883199214935,-0.11073856800794601,0.0547376424074173,0.3170267641544342,0.1179121658205986,0.3302481770515442,0.09270759671926498,-0.4514707326889038,0.16971789300441742,-0.08106681704521179,-0.4298042058944702,-0.14320425689220428,-0.034965287894010544,0.2693571150302887,-0.09928035736083984,-0.21828456223011017,0.1596960574388504,-0.2842367887496948,0.38429200649261475,-0.032786816358566284,-0.022028885781764984
-0.20966319739818573,-0.015885358676314354,-0.2790040373802185,0.4313189685344696,-0.0818399041891098,0.13974952697753906,0.04979875311255455,-0.44278115034103394,-0.017511453479528427,-0.41725072264671326,0.07058986276388168,0.14986439049243927,0.3182804584503174,-0.0053590633906424046,-0.29694071412086487,-0.4478149116039276,-0.018845252692699432,-0.16197796165943146,0.4254712164402008,0.19083282351493835,-0.03353811055421829,-0.014742712490260601,-0.03802075609564781,0.10655497014522552,0.13187411427497864,-0.23475192487239838,0.3450029194355011,0.20447705686092377,0.09215148538351059,-0.19063273072242737,0.14655031263828278,0.1267891228199005
0.06780847162008286,0.03501095622777939,0.0158313550055027,-0.05066962540149689,-0.10872364044189453,-0.06308730691671371,-0.04074778035283089,-0.05427873879671097,-0.1509920358657837,-0.23904378712177277,0.25431135296821594,-0.34090375900268555,0.23342274129390717,0.19991254806518555,0.04308677837252617,0.25473451614379883,0.2229740470647812,0.24223431944847107,0.17184849083423615,-0.15341037511825562,0.16084153950214386,-0.17785662412643433,0.19609606266021729,0.17059539258480072,-0.11433323472738266,0.1262902319431305,0.09181569516658783,-0.2901344299316406,-0.16985808312892914,0.11662688106298447,0.3560861349105835,-0.06116768717765808
0.31175661087036133,-0.06746004521846771,-0.32605841755867004,-0.03858451917767525,-0.05119979754090309,0.2377384901046753,0.1677817702293396,-0.069910928606987,0.2747463285923004,0.1983066350221634,-0.22619281709194183,-0.04097490757703781,0.01801641844213009,-0.04400766268372536,0.0020108590833842754,0.02213931828737259,-0.27980026602745056,0.025766799226403236,0.1962980031967163,-0.1075914055109024,-0.3847269117832184,-0.09700262546539307,-0.09540684521198273,0.10213489085435867,-0.2504815459251404,-0.01984027400612831,0.1299012005329132,0.19709980487823486,-0.13769328594207764,-0.11109961569309235,0.16866301000118256,-0.008491935208439827
-0.2315116673707962,-0.1289232075214386,-0.13822895288467407,-0.19003905355930328,0.047348491847515106,0.18017901480197906,-0.02244850993156433,0.162805438041687,0.20480793714523315,0.08593031764030457,-0.08025269210338593,0.3464215397834778,0.09014524519443512,0.1715574860572815,-0.5986957550048828,-0.13995011150836945,-0.21240371465682983,0.03364153578877449,0.03366430103778839,0.06624361127614975,-0.27212876081466675,0.011825901456177235,0.021774332970380783,-0.16886571049690247,-0.21531648933887482,-0.35095587372779846,-0.12212590128183365,0.22373050451278687,0.02767772413790226,0.13762544095516205,0.16915608942508698,-0.12637534737586975
0.024952135980129242,-0.12217281013727188,0.017008328810334206,-0.23499983549118042,-0.2219233363866806,-0.03083725832402706,-0.5628980398178101,0.026272453367710114,-0.31317999958992004,-0.04187075421214104,0.05822952091693878,0.1775493621826172,-0.3344600200653076,-0.022187096998095512,0.3620196282863617,0.4600018262863159,-0.050407201051712036,-0.23961180448532104,-0.0853717029094696,0.18465222418308258,0.2459205538034439,-0.0616309680044651,0.08616973459720612,-0.20848743617534637,-0.37152546644210815,0.14090602099895477,-0.03405989706516266,0.08142334967851639,-0.08485402911901474,0.29659518599510193,0.24552147090435028,0.2896808683872223
0.07539911568164825,-0.1704801619052887,-0.05095194652676582,-0.08075965195894241,-0.30405399203300476,-0.02228540927171707,-0.0922330766916275,0.10846789926290512,-0.23050929605960846,0.23967495560646057,0.3072257339954376,-0.17068251967430115,-0.3513970375061035,0.2408120334148407,0.3140064775943756,0.2732745110988617,-0.004798752721399069,-0.0733298510313034,-0.010711859911680222,0.24058112502098083,0.1677394062280655,-0.07972532510757446,0.06637505441904068,0.05908055976033211,0.28105029463768005,0.05644043907523155,-0.016298921778798103,-0.059141967445611954,0.07496854662895203,0.008473647758364677,-0.026408003643155098,0.3089599907398224
0.0031002836767584085,-0.04536065459251404,-0.22899571061134338,0.005554748233407736,0.2695518434047699,-0.09418945014476776,0.09721171110868454,-0.2733907103538513,0.14216455817222595,-0.09779024124145508,0.30943700671195984,0.3541935980319977,0.17995525896549225,-0.4376683235168457,-0.04934993386268616,-0.237941712141037,-0.11361358314752579,-0.12886367738246918,-0.09381571412086487,0.05009918659925461,-0.36032313108444214,0.22329595685005188,0.368539422750473,0.1347358673810959,0.03910531476140022,-0.07983384281396866,0.17568369209766388,-0.05630223825573921,-0.17483890056610107,0.16030339896678925,0.11038514226675034,-0.00993992481380701
-0.07590048760175705,-0.020559782162308693,0.011187934316694736,-0.28518497943878174,-0.0008852268802002072,0.05138101428747177,-0.12273548543453217,-0.11781718581914902,-0.25371912121772766,0.19427287578582764,0.20600450038909912,-0.2750735580921173,-0.1148567721247673,0.007817463018000126,0.05557766556739807,-0.17312636971473694,0.25805434584617615,0.22044938802719116,0.02429128810763359,-0.1877155303955078,-0.10804719477891922,-0.3249216675758362,-0.07861723750829697,-0.1958310455083847,-0.3156135678291321,-0.06971347332000732,-0.13330471515655518,0.35110729932785034,-0.034389473497867584,-0.1195499375462532,-0.2968847155570984,0.18066191673278809
-0.39537954330444336,0.0005494773504324257,0.004556763917207718,-0.0100240558385849,-0.16127817332744598,0.25952568650245667,-0.18575121462345123,0.017072878777980804,0.1361139863729477,0.13603489100933075,0.06832714378833771,0.0774267241358757,-0.28788048028945923,0.16488312184810638,0.23951421678066254,-0.07780705392360687,0.1013197973370552,0.16785621643066406,-0.13046316802501678,-0.241165891289711,0.2969566285610199,-0.11381468921899796,-0.2861870229244232,0.016075072810053825,-0.27217966318130493,0.34901630878448486,-0.07246929407119751,-0.31847915053367615,0.09686215966939926,-0.2090412974357605,0.15310810506343842,0.08855113387107849
-0.022502396255731583,-0.20663174986839294,0.07567320019006729,-0.003351896535605192,0.16210204362869263,0.05740940570831299,-0.17295077443122864,-0.3354548215866089,0.25418776273727417,0.02353045716881752,0.14111971855163574,0.32727840542793274,-0.04280179366469383,0.08377455174922943,0.2308572232723236,0.03602544218301773,-0.17175795137882233,0.062368243932724,-0.037146784365177155,0.21268445253372192,-0.25447168946266174,-0.0652192085981369,-0.1145220473408699,-0.23756125569343567,-0.10376576334238052,0.11097665131092072,0.29186081886291504,0.34092968702316284,0.34080350399017334,-0.2295272797346115,-0.00960631761699915,-0.010044627822935581
-0.35310372710227966,-0.14915572106838226,-0.1445038765668869,-0.03911207243800163,0.03866410255432129,0.12959107756614685,0.12081632763147354,-0.17132870852947235,0.017413942143321037,0.18314863741397858,-0.05874806270003319,0.1854599416255951,-0.019344208762049675,0.1092168465256691,-0.12086733430624008,-0.05673527717590332,0.05316034331917763,-0.08976490050554276,0.09233540296554565,0.1636328101158142,-0.04182690382003784,0.16621948778629303,0.337354838848114,-0.20554883778095245,0.17012307047843933,0.046452585607767105,-0.09738249331712723,-0.01887066848576069,0.3663845658302307,0.006409866735339165,0.15137170255184174,-0.23778900504112244
0.20717588067054749,-0.22070060670375824,-0.15934140980243683,0.051980532705783844,-0.2979079484939575,0.006334532983601093,-0.012838045135140419,-0.09138377755880356,0.12371303886175156,-0.10765469074249268,0.15008772909641266,0.21584510803222656,0.2709396183490753,-0.37057045102119446,-0.006390310358256102,-0.11938177794218063,-0.30773335695266724,-0.43900999426841736,0.1667296439409256,0.2026788890361786,0.26964348554611206,-0.288299024105072,-0.1616097390651703,0.26146891713142395,0.13021288812160492,0.3542940616607666,-0.02019147388637066,0.10718458890914917,0.12411721050739288,-0.29658928513526917,0.03397883102297783,-0.11912716180086136
-0.03638836741447449,-0.565963625907898,0.10517101734876633,0.31844037771224976,-0.18666231632232666,0.1439061462879181,0.00988771952688694,-0.14708465337753296,-0.2044462263584137,-0.3170607089996338,-0.2568894922733307,-0.29413679242134094,0.30954378843307495,0.051721349358558655,0.04254159331321716,-0.2319399118423462,-0.2148737758398056,-0.02458636462688446,0.02997630275785923,-0.06482837349176407,-0.038471437990665436,0.16638733446598053,0.009347961284220219,0.2412670999765396,0.32175540924072266,-0.010073291137814522,-0.11595497280359268,0.08067867904901505,0.3484888970851898,-0.5198834538459778,0.34060001373291016,0.1587781310081482
0.207399383187294,-0.01564148999750614,0.15783874690532684,-0.48267850279808044,0.0715806856751442,0.17381609976291656,-0.15384505689144135,0.35761478543281555,-0.049324046820402145,-0.05948568135499954,0.17211002111434937,-0.28271758556365967,0.1521173119544983,-0.18154601752758026,0.14162467420101166,-0.11920566111803055,-0.014696717262268066,-0.05710240826010704,-0.11696917563676834,0.03333020955324173,-0.18559660017490387,0.1990814357995987,0.15850262343883514,-0.18511168658733368,-0.13663116097450256,0.3162763714790344,-0.08496647328138351,0.0055452692322432995,-0.1952235847711563,-0.01744881644845009,-0.15328717231750488,0.1888750195503235
0.08057669550180435,0.12412220239639282,-0.17475934326648712,-0.0008364598033949733,-0.35369449853897095,0.02771303802728653,-0.24761804938316345,0.3178333044052124,-0.07998237758874893,0.1508314162492752,0.10805443674325943,-0.10551820695400238,0.14879243075847626,0.11366089433431625,0.33110228180885315,-0.10800397396087646,-0.014774778857827187,0.0944310873746872,-0.08745396137237549,-0.16506695747375488,0.07119902223348618,-0.13594160974025726,-0.01760590448975563,-0.3112715780735016,-0.20017261803150177,0.22974804043769836,0.004497576039284468,-0.0018529845401644707,-0.10553944855928421,0.1403992623090744,-0.169868603348732,0.1226828396320343
0.49253082275390625,0.3770325481891632,0.31919774413108826,-0.0806078240275383,-0.06268703192472458,-0.1558179259300232,-0.025142813101410866,-0.032662879675626755,0.1331675499677658,0.18342310190200806,0.22015972435474396,-0.0751105323433876,-0.05877275392413139,0.016483072191476822,0.15008564293384552,0.22804567217826843,-0.03230499103665352,0.2512305676937103,0.22215571999549866,-0.19272276759147644,0.2598988711833954,0.1140061616897583,-0.2674481272697449,-0.38222169876098633,0.06657176464796066,0.0269498098641634,0.19498006999492645,0.00791062694042921,-0.19466957449913025,-0.2484525442123413,0.041141584515571594,0.45762646198272705
-0.047997500747442245,0.23266810178756714,-0.2295195311307907,-0.08133695274591446,0.08868087828159332,-0.07802119851112366,-0.02351292409002781,-0.32545703649520874,-0.23105281591415405,-0.016298532485961914,-0.19237831234931946,0.24080213904380798,0.32519036531448364,-0.18075129389762878,-0.05105851590633392,-0.041086986660957336,0.2007763683795929,0.003354723798111081,-0.051867417991161346,0.5149523615837097,-0.26688438653945923,0.09533073008060455,-0.03283211588859558,-0.18075238168239594,-0.09411894530057907,-0.09055493026971817,-0.13463518023490906,0.28862157464027405,-0.04241675138473511,-0.03583873435854912,0.27141380310058594,0.18662825226783752
0.3172919750213623,-0.03423113003373146,0.04463272914290428,-0.09049055725336075,-0.27821803092956543,0.12151748687028885,-0.0733867734670639,0.017269136384129524,-0.15732313692569733,-0.2887491285800934,0.23155653476715088,0.05272330343723297,-0.008692269213497639,-0.04569094628095627,0.34651851654052734,0.27144724130630493,-0.09980960190296173,0.09252996742725372,-0.03553342446684837,-0.25350311398506165,-0.06877793371677399,-0.08873900771141052,-0.20566916465759277,-0.09534784406423569,-0.15295635163784027,0.14471091330051422,-0.22376422584056854,-0.2606458067893982,-0.20228610932826996,0.18143808841705322,0.1569800078868866,0.21117520332336426
0.08434251695871353,0.23971079289913177,0.18226876854896545,0.10946766287088394,0.10160713642835617,-0.1161460280418396,0.005924329627305269,-0.21336713433265686,-0.09597188979387283,0.15514203906059265,-0.2036501169204712,0.022558219730854034,-0.014559028670191765,0.11614742875099182,-0.006815862376242876,0.0293887946754694,0.004010909702628851,0.27757421135902405,-0.07857612520456314,0.11732543259859085,0.05601958557963371,-0.48599526286125183,-0.19125385582447052,-0.26834070682525635,-0.1976761519908905,0.15536589920520782,-0.13072432577610016,-0.17802651226520538,-0.3634089231491089,0.28233861923217773,-0.2513204514980316,0.15941688418388367
,,,,,,,,,,,,,,,,,,,,,,,,,,,,,,,
Layer: default_policy/fc_value_2/bias,"Shape: (32,)",,,,,,,,,,,,,,,,,,,,,,,,,,,,,,
-0.0581657700240612,-0.05761536955833435,-0.0561177022755146,0.05474931001663208,0.04545970261096954,0.0607466921210289,0.05586463585495949,-0.050040923058986664,0.05398796498775482,-0.05815233662724495,-0.05796855688095093,0.05455968528985977,0.048461392521858215,-0.05971210077404976,-0.07249245792627335,-0.05408471077680588,-0.06302590668201447,-0.05384114757180214,0.06001659482717514,0.056070778518915176,-0.04764852672815323,0.061626143753528595,0.06073412671685219,0.047323793172836304,0.058227624744176865,-0.05645151063799858,0.051830511540174484,0.052059710025787354,0.054238319396972656,-0.06260095536708832,0.031269319355487823,-0.06281733512878418
,,,,,,,,,,,,,,,,,,,,,,,,,,,,,,,
Layer: default_policy/fc_3/kernel,"Shape: (32, 32)",,,,,,,,,,,,,,,,,,,,,,,,,,,,,,
-0.3641124963760376,-0.13271553814411163,0.00013553017925005406,-0.24681468307971954,-0.14101092517375946,-0.1368105262517929,-0.02231093868613243,-0.012252522632479668,0.2482234239578247,0.31437963247299194,0.07929772138595581,-0.040069833397865295,-0.170729398727417,-0.3478831648826599,-0.009341848082840443,0.0012866430915892124,-0.14966030418872833,-0.1657092571258545,0.2508797347545624,-0.05131858214735985,-0.13831882178783417,0.2980494201183319,-0.1635059416294098,0.21934841573238373,-0.07898173481225967,0.1484387367963791,-0.1310490518808365,0.14401595294475555,-0.056290581822395325,-0.14115238189697266,0.21858809888362885,0.227209210395813
-0.1619909256696701,0.03556261211633682,0.12478292733430862,-0.1381572186946869,0.14069901406764984,0.15461480617523193,0.02169422060251236,-0.04460238292813301,-0.4633471369743347,0.33113881945610046,0.25969642400741577,-0.03687693923711777,0.17421658337116241,-0.3901676833629608,-0.0005049275932833552,-0.0982348769903183,0.07274207472801208,-0.060507673770189285,0.3463691771030426,-0.005200043320655823,-0.3075878918170929,0.04335290938615799,-0.07629036158323288,0.017255457118153572,0.01733299158513546,0.357171893119812,-0.17688694596290588,0.11350106447935104,0.16089043021202087,-0.03704262524843216,-0.12761390209197998,0.22433966398239136
0.28313392400741577,-0.13678628206253052,-0.24880234897136688,0.0031863774638623,-0.1019492819905281,-0.26067882776260376,-0.02351107820868492,0.06297877430915833,0.22467967867851257,-0.02938973344862461,0.18629227578639984,-0.09213259816169739,0.17516744136810303,-0.03241550922393799,-0.0583188459277153,0.06283392012119293,-0.22798725962638855,0.10409558564424515,-0.19931994378566742,-0.23698021471500397,-0.12541382014751434,-0.25301817059516907,0.2234671264886856,0.021266546100378036,-0.09511328488588333,-0.03365796431899071,-0.33492013812065125,-0.07523944228887558,0.09396009892225266,-0.1644577533006668,0.18283480405807495,0.04062700644135475
0.14741633832454681,-0.08728368580341339,-0.05113004148006439,-0.10032938420772552,-0.07413212209939957,-0.15995167195796967,-0.06533128023147583,0.16170117259025574,0.4531612694263458,-0.02916576713323593,-0.015122201293706894,-0.2041126787662506,-0.031633272767066956,0.2604266107082367,0.04236966744065285,-0.2403046041727066,-0.18338192999362946,0.31853899359703064,0.03923868015408516,-0.09440761059522629,-0.039193082600831985,-0.23868204653263092,0.13547644019126892,-0.08027099072933197,-0.04514625295996666,-0.30963435769081116,0.008473951369524002,-0.3147425055503845,0.36454424262046814,-0.033072635531425476,0.18996785581111908,0.2433333545923233
0.25064611434936523,-0.12200072407722473,0.10244487226009369,0.27676481008529663,0.007539268117398024,-0.07247282564640045,-0.12029074132442474,-0.08526964485645294,0.18323062360286713,0.1350921243429184,-0.25547072291374207,0.02679360657930374,-0.03470918908715248,-0.14842182397842407,-0.16894352436065674,0.0674399584531784,0.29137226939201355,0.28684040904045105,0.044103752821683884,-0.2255256175994873,0.09512071311473846,-0.3780076503753662,0.22969256341457367,-0.15129408240318298,-0.22837109863758087,-0.01570882648229599,-0.35607990622520447,0.26005789637565613,0.0769519954919815,0.015244431793689728,-0.17846991121768951,0.06754874438047409
0.09994269907474518,-0.022121751680970192,0.09542392194271088,-0.08836982399225235,0.37495407462120056,0.021399958059191704,-0.03847051039338112,0.2661658227443695,-0.03241231292486191,-0.07166428118944168,-0.1338752806186676,0.07366617769002914,-0.3089277744293213,-0.20372416079044342,-0.04218574985861778,-0.30947649478912354,0.03827003017067909,0.3600956201553345,0.22099058330059052,0.026445798575878143,0.06092669814825058,-0.08655130863189697,-0.1619952768087387,-0.08788307011127472,0.08039017766714096,-0.1662159115076065,0.15735238790512085,0.2131768763065338,0.18676607310771942,-0.2145746499300003,0.18381407856941223,-0.08906981348991394
-0.21527111530303955,-0.006009532138705254,0.23318809270858765,-0.10852321237325668,0.09887854009866714,-0.08507848531007767,-0.06108879670500755,0.20749381184577942,-0.03057759813964367,-0.14943324029445648,-0.03660145029425621,-0.06406959891319275,-0.012728800997138023,-0.13461928069591522,-0.07407382875680923,0.053009647876024246,0.16937139630317688,-0.03150428459048271,0.12041018903255463,0.19204212725162506,0.31425219774246216,-0.26433610916137695,0.07104577124118805,-0.6069145202636719,-0.18119670450687408,-0.2858405113220215,0.049453310668468475,0.03496098145842552,0.02301003783941269,-0.36614152789115906,0.12131881713867188,-0.19078297913074493
-0.008336436003446579,0.13846394419670105,-0.10342603176832199,0.19338664412498474,0.12241429835557938,-0.32722529768943787,0.35908621549606323,0.1108236312866211,-0.011813424527645111,-0.3291265368461609,0.08775736391544342,0.06073068082332611,0.20596447587013245,0.1663668304681778,0.09442321956157684,0.09556715190410614,0.17687849700450897,-0.0768570750951767,-0.17263080179691315,-0.01581472158432007,-0.024700777605175972,-0.14716945588588715,0.05938766524195671,0.21360474824905396,0.0022370442748069763,0.011506365612149239,0.1280311644077301,-0.1479562371969223,0.05050273984670639,0.304453581571579,-0.35178884863853455,-0.14545761048793793
-0.14534908533096313,0.4171699583530426,-0.02537180297076702,-0.007328356150537729,-0.004169163294136524,0.08222178369760513,0.16742581129074097,0.14882566034793854,0.13016436994075775,0.029873333871364594,0.0031735491938889027,-0.2550095021724701,0.09305738657712936,0.2511487603187561,-0.3569656312465668,-0.30766624212265015,-0.07036015391349792,-0.011950423009693623,0.0009782921988517046,-0.0884401798248291,0.2691843509674072,0.0035905290860682726,0.2840729057788849,0.2932204008102417,0.0726400837302208,0.12047161161899567,0.09405972808599472,-0.13234876096248627,0.145549938082695,0.07339444756507874,0.028102248907089233,-0.020564381033182144
-0.08240930736064911,0.022019123658537865,0.1056595891714096,0.09248699247837067,-0.09572228789329529,-0.1974356323480606,-0.2555524706840515,-0.008593653328716755,-0.319522887468338,0.17709891498088837,0.22656211256980896,-0.29343730211257935,0.021418442949652672,-0.24130678176879883,-0.24072952568531036,-0.35031139850616455,-0.31269335746765137,-0.20761694014072418,-0.0024310932494699955,0.3068085014820099,0.05251291021704674,0.18003061413764954,-0.08553269505500793,0.07766817510128021,0.16293011605739594,-0.1677316129207611,0.21570339798927307,-0.1097290888428688,-0.12564587593078613,-0.19987307488918304,0.053269799798727036,-0.07693029940128326
-0.0014047781005501747,-0.35004204511642456,0.06122220307588577,0.08920098096132278,0.07796362787485123,-0.16806744039058685,-0.03795915096998215,0.14376738667488098,-0.011321191675961018,-0.18245381116867065,-0.07134321331977844,-0.10563893616199493,-0.029338102787733078,0.29960548877716064,-0.11720781028270721,0.1735406070947647,0.13059572875499725,-0.08271942287683487,-0.06418034434318542,0.22008688747882843,0.22751811146736145,0.18078690767288208,-0.037543077021837234,0.033809844404459,0.01889137364923954,-0.13239741325378418,0.2521800100803375,-0.0211039949208498,0.1624632477760315,0.05258171632885933,-0.3148573935031891,-0.15651969611644745
0.2807130217552185,0.009415376000106335,0.331454873085022,0.20353643596172333,-0.0585462711751461,-0.16968904435634613,-0.21325573325157166,0.3581474721431732,-0.10875281691551208,0.04546785354614258,-0.01815308816730976,-0.11550775915384293,-0.3079736828804016,0.016428286209702492,0.1050066351890564,0.01851038634777069,-0.05757956951856613,0.06475716829299927,0.07899018377065659,-0.1259789764881134,0.09524154663085938,0.046767473220825195,0.3249801695346832,0.0531918965280056,-0.08736064285039902,-0.47421252727508545,0.23220106959342957,-0.10842018574476242,-0.17460350692272186,-0.20035405457019806,-0.13262920081615448,0.03229078650474548
-0.03728120028972626,0.1312040537595749,-0.013794892467558384,0.29268530011177063,0.035280827432870865,-0.12383469194173813,-0.05139559507369995,0.052477333694696426,-0.11144430935382843,0.374219685792923,0.21748241782188416,0.35904884338378906,-0.13226431608200073,-0.02225499600172043,-0.1224493458867073,-0.184164896607399,0.012480727396905422,-0.21015502512454987,0.054424554109573364,-0.01566336117684841,-0.05683296546339989,0.28164684772491455,-0.14886905252933502,0.04658772796392441,0.059079524129629135,0.1215134933590889,0.2944882810115814,0.3078400492668152,0.03680526837706566,0.10087088495492935,0.09104658663272858,-0.07276199758052826
-0.21749387681484222,-0.11628614366054535,0.005939458962529898,0.06646373867988586,-0.19024106860160828,-0.08546153455972672,-0.2786330282688141,-0.48577484488487244,-0.15354175865650177,-0.06439593434333801,0.28339987993240356,-0.3507453203201294,0.03771446645259857,0.05931148678064346,-0.06447481364011765,-0.27121639251708984,-0.23502883315086365,0.19205857813358307,0.08667921274900436,-0.2207544445991516,0.33654916286468506,-0.15230365097522736,0.0796382874250412,0.2028084099292755,-0.13718795776367188,-0.1587826907634735,-0.143258735537529,0.09463685750961304,-0.19733108580112457,-0.11027257889509201,-0.23379838466644287,-0.010658951476216316
-0.09131242334842682,0.20107634365558624,0.14885641634464264,0.009553399868309498,-0.11447715014219284,0.053528767079114914,0.19166019558906555,0.1361706703901291,0.29253488779067993,-0.18720640242099762,0.301692396402359,-0.04126400500535965,0.05268710479140282,-0.05089864134788513,0.37706175446510315,0.21989378333091736,-0.1557101160287857,0.28578200936317444,-0.06600751727819443,-0.0809139832854271,0.37979504466056824,-0.012927794829010963,0.11793403327465057,0.04561895132064819,-0.030734285712242126,-0.015059025026857853,-0.03972160816192627,0.25086894631385803,0.036183763295412064,-0.16943132877349854,-0.0933203399181366,0.40231209993362427
-0.11722108721733093,0.11771143972873688,0.010594874620437622,0.15316841006278992,0.172664612531662,0.11824632436037064,-0.2104211300611496,0.0843266025185585,-0.0951937586069107,0.01631910167634487,-0.02705577202141285,0.00893684383481741,0.3312990665435791,0.013824153691530228,-0.02037663385272026,-0.040034372359514236,-0.05992836877703667,-0.11906127631664276,0.43596357107162476,0.10757357627153397,0.02429787814617157,0.33687880635261536,-0.038759995251894,0.08796411752700806,0.11785340309143066,0.030310388654470444,-0.20443587005138397,0.0052758860401809216,0.24310022592544556,-0.044657062739133835,0.11475556343793869,-0.2585127055644989
-0.2206023633480072,-0.15099534392356873,-0.2585282027721405,0.23074227571487427,-0.03169794753193855,-0.07603193819522858,0.1316394954919815,0.1265980452299118,0.3157520592212677,0.11245764046907425,0.5181673169136047,-0.12237795442342758,0.2284289449453354,-0.027810312807559967,-0.03783797100186348,0.0061271907761693,-0.08804688602685928,0.09361950308084488,-0.14434084296226501,0.21692828834056854,0.01707478053867817,0.1417023092508316,-0.09322643280029297,-0.07798963785171509,0.11619660258293152,0.11874812841415405,-0.06394954025745392,0.06736666709184647,-0.062385592609643936,-0.23916766047477722,0.1492028385400772,0.016611628234386444
-0.16380199790000916,0.13658569753170013,-0.2713293135166168,-0.24080012738704681,0.35481876134872437,-0.03667634353041649,0.08797484636306763,0.13034550845623016,0.11636176705360413,-0.08237040787935257,-0.0583190955221653,-0.0066446964628994465,0.05601527914404869,0.29279929399490356,-0.23367534577846527,0.23631024360656738,0.09004539251327515,0.10373859852552414,-0.2374592274427414,-0.20844626426696777,-0.07341079413890839,-0.17258085310459137,-0.10709097981452942,0.06735975295305252,0.4454294443130493,-0.026909584179520607,0.033698003739118576,0.14094731211662292,0.13532519340515137,0.12794435024261475,0.17550362646579742,-0.5166180729866028
-0.13213354349136353,-0.09136367589235306,0.1748998761177063,0.2510841488838196,0.1168462336063385,-0.30452945828437805,-0.14747503399848938,0.006868255790323019,0.03680167719721794,-0.2677015960216522,-0.010036841966211796,-0.07018887251615524,0.22175012528896332,-0.09200853854417801,-0.0904352068901062,0.27279773354530334,-0.27698424458503723,-0.18365032970905304,-0.03683760389685631,0.013802128843963146,-0.1326468139886856,0.00531914783641696,0.1023067906498909,0.06279604136943817,0.15077239274978638,-0.12157311290502548,-0.061956293880939484,0.40661829710006714,0.33153319358825684,0.05155874416232109,0.02881757728755474,-0.03930230811238289
-0.04904381185770035,-0.05490473657846451,0.2093079686164856,0.27273866534233093,-0.23545481264591217,-0.05250459536910057,0.05893690884113312,-0.10027417540550232,0.04906592145562172,-0.1364036500453949,-0.17291437089443207,-0.21953049302101135,-0.08928973972797394,0.20715349912643433,-0.03394457697868347,0.09279920160770416,0.14047092199325562,0.27726027369499207,-0.11064966022968292,-0.22118432819843292,0.48387959599494934,0.24933190643787384,-0.08857116103172302,-0.07716996222734451,-0.12694042921066284,0.21727311611175537,-0.08509544283151627,-0.23558799922466278,0.061349399387836456,0.014004381373524666,-0.1302333027124405,0.09488005936145782
0.14453811943531036,0.28408825397491455,-0.004205042030662298,0.3974914252758026,-0.2165675163269043,-0.004783362150192261,-0.04312233254313469,0.10307899117469788,0.15951453149318695,-0.18242190778255463,-0.06402015686035156,-0.20360268652439117,0.12317754328250885,-0.11828271299600601,-0.2523929476737976,0.023850776255130768,0.03890831023454666,0.15508922934532166,-0.23559719324111938,-0.47703105211257935,0.07770358771085739,0.024437569081783295,-0.08268963545560837,-0.22623257339000702,-0.21024364233016968,-0.1722828596830368,0.10854392498731613,-0.21906976401805878,-0.34326329827308655,0.06663819402456284,-0.1170971542596817,-0.2009895145893097
0.013245671056210995,-0.17918989062309265,-0.20657576620578766,-0.015399412252008915,-0.26126161217689514,0.21199363470077515,-0.2967205345630646,-0.3275187015533447,-0.059365127235651016,0.23722435534000397,0.0708962082862854,-0.12059960514307022,0.11160332709550858,-0.1880468875169754,-0.13390307128429413,0.1587594896554947,0.005899608600884676,0.05635792016983032,0.06192998215556145,0.3029288649559021,0.041003670543432236,0.10404455661773682,-0.1801634281873703,0.11552895605564117,0.47538378834724426,0.1224442571401596,-0.10177101194858551,0.1266118437051773,0.007746994029730558,0.03425491228699684,0.0852457657456398,0.15402494370937347
-0.17472797632217407,-0.10186414420604706,0.1325356811285019,-0.11400623619556427,0.16088128089904785,-0.028315097093582153,-0.051778752356767654,-0.2076866328716278,-0.11928651481866837,-0.059735964983701706,-0.19436147809028625,-0.15012478828430176,0.1206081211566925,0.17832642793655396,0.06492684036493301,-0.25346288084983826,-0.28195810317993164,0.20711462199687958,0.04779805615544319,0.19163523614406586,-0.030054861679673195,-0.19846603274345398,-0.4094962179660797,0.023027464747428894,-0.2158406376838684,-0.02324720472097397,-0.1349211037158966,0.29387202858924866,-0.10068707168102264,0.027837755158543587,0.19394105672836304,0.07686608284711838
-0.1250302791595459,-0.06287151575088501,-0.028700977563858032,0.10742713510990143,-0.25641727447509766,-0.30082759261131287,0.18617737293243408,0.13823743164539337,0.03234493359923363,-0.047306522727012634,-0.18708284199237823,0.05824851244688034,-0.2100115418434143,0.09648135304450989,-0.10111323744058609,0.2507537007331848,-0.12246430665254593,-0.016894541680812836,-0.3026253581047058,0.16919152438640594,0.017091374844312668,-0.1952688992023468,0.14619264006614685,-0.025675110518932343,-0.052549246698617935,-0.07102202624082565,-0.15090729296207428,-0.017554504796862602,-0.2237442284822464,0.1310681849718094,0.35242733359336853,0.12119264900684357
-0.31859537959098816,-0.2634967267513275,-0.1931881457567215,-0.008296998217701912,0.04275165870785713,0.28793075680732727,-0.05361131206154823,0.12552955746650696,-0.028147686272859573,-0.12283115833997726,0.24283641576766968,0.07818365842103958,-0.28148767352104187,-0.0009949255036190152,0.13100241124629974,-0.14161263406276703,-0.08029843121767044,-0.11941315233707428,0.058934152126312256,-0.1745414435863495,0.18537485599517822,0.1695106327533722,0.062429770827293396,-0.016533512622117996,-0.21288174390792847,-0.27643251419067383,-0.11902881413698196,0.2155572474002838,0.1509990245103836,-0.31048721075057983,-0.16273777186870575,-0.0044754366390407085
0.41101840138435364,-0.2653798758983612,-0.0371113196015358,-0.05049816146492958,-0.06586142629384995,-0.04839525744318962,-0.11653444170951843,-0.12852290272712708,-0.05177321285009384,0.10530787706375122,-0.03807632252573967,0.38210970163345337,-0.37373265624046326,-0.12486869096755981,-0.3937259316444397,-0.03287913650274277,0.07981322705745697,-0.057749878615140915,0.06633288413286209,0.12648625671863556,-0.1986931562423706,-0.14196991920471191,0.3175443708896637,0.08308274298906326,0.13034722208976746,-0.04903290793299675,-0.25175172090530396,-0.08143161237239838,-0.00944314431399107,-0.38130512833595276,-0.14683932065963745,0.15481138229370117
-0.06860432028770447,0.053714197129011154,-0.09016551077365875,0.04430261626839638,-0.3965015411376953,-0.19891785085201263,-0.26212993264198303,0.05295281857252121,0.017882922664284706,0.32045361399650574,0.2575172781944275,0.40553611516952515,-0.03500480204820633,0.07668871432542801,0.18164008855819702,-0.23715455830097198,-0.3114072382450104,0.1394224911928177,0.11976590752601624,-0.06850697100162506,-0.15110941231250763,0.07920954376459122,-0.22920480370521545,0.12054698914289474,0.09522596746683121,-0.26126912236213684,-0.2617783844470978,-0.14624102413654327,-0.10540296882390976,0.1251629889011383,-0.2216995805501938,-0.17073121666908264
-0.0938098207116127,-0.06029203534126282,0.3702095150947571,0.18146471679210663,0.22799693048000336,-0.03929362818598747,0.04385123401880264,-0.1950252503156662,-0.13072824478149414,0.20498201251029968,-0.21106204390525818,0.17876607179641724,-0.2092200368642807,-0.18506887555122375,-0.002251744270324707,-0.117691770195961,-0.10310789942741394,0.294776052236557,0.4395759403705597,-0.12035209685564041,0.010306453332304955,-0.03035849705338478,-0.1601373702287674,-0.33608317375183105,-0.06292686611413956,0.05331682786345482,0.19644393026828766,0.16336363554000854,0.005429808981716633,-0.18324682116508484,0.10160386562347412,0.2956845462322235
-0.20421890914440155,-0.10655724257230759,-0.14432282745838165,0.3506711721420288,-0.07302925735712051,-0.1524028331041336,0.14502717554569244,0.24487726390361786,0.06911788880825043,-0.05105360224843025,0.026555659249424934,-0.10990197956562042,0.2181950807571411,-0.058928169310092926,-0.0054819234646856785,-0.2633877694606781,-0.39116087555885315,0.17003998160362244,-0.10660918802022934,-0.017700454220175743,0.21351243555545807,0.2716023027896881,0.375803679227829,0.15292759239673615,0.24248729646205902,0.06209234520792961,0.2258169949054718,-0.04981669783592224,0.08825790137052536,0.2241344302892685,0.29765990376472473,-0.033784326165914536
0.1433342844247818,-0.20179039239883423,-0.04678286612033844,0.1314762532711029,0.24005746841430664,-0.30769214034080505,0.4481986463069916,0.19923719763755798,0.023924747481942177,-0.045264486223459244,-0.05385063588619232,-0.09724076092243195,-0.07313483208417892,0.22375094890594482,0.14976690709590912,0.0009340702672488987,-0.2703949809074402,0.21477819979190826,-0.19017164409160614,0.047083381563425064,-0.07884934544563293,-0.006297168787568808,0.21444717049598694,-0.07333479821681976,0.1275048702955246,-0.24151915311813354,-0.09154649078845978,-0.009474460035562515,0.43932849168777466,0.08975904434919357,0.11639770865440369,0.025214986875653267
-0.09363467246294022,-0.44887691736221313,0.5065934658050537,0.19814270734786987,-0.15921515226364136,0.2091560959815979,0.31762659549713135,-0.08228446543216705,-0.07145646214485168,-0.10671546310186386,-0.03235606849193573,0.06322095543146133,-0.24116334319114685,-0.14616644382476807,0.4255945086479187,-0.00025383077445439994,0.0255905594676733,0.028781263157725334,-0.0953044518828392,0.05352921783924103,0.04141269996762276,-0.16359208524227142,0.03343266621232033,-0.35864534974098206,0.34457480907440186,-0.2122058868408203,-0.10290645807981491,-0.048173122107982635,-0.18335886299610138,-0.3001464009284973,-0.10268153250217438,-0.16987960040569305
0.03465241566300392,0.1141308844089508,-0.017291506752371788,-0.08554895967245102,-0.054373811930418015,-0.32940739393234253,-0.027807073667645454,0.08854835480451584,-0.07405780255794525,-0.27237609028816223,-0.04070764780044556,0.019855165854096413,-0.1607452929019928,-0.12849649786949158,-0.22861981391906738,0.10572277754545212,0.15647540986537933,-0.24080365896224976,0.0809817910194397,0.2720588445663452,0.11523567885160446,0.020586948841810226,-0.1491960883140564,0.2318904995918274,0.25318360328674316,0.16074438393115997,-0.16353365778923035,-0.24472211301326752,0.19625559449195862,0.19562430679798126,0.2645197808742523,0.05395852401852608
,,,,,,,,,,,,,,,,,,,,,,,,,,,,,,,
Layer: default_policy/fc_3/bias,"Shape: (32,)",,,,,,,,,,,,,,,,,,,,,,,,,,,,,,
-0.019644727930426598,0.022641193121671677,-0.016413185745477676,-0.01881071925163269,0.014034927822649479,0.01723020151257515,-0.016258008778095245,0.010795989073812962,-0.019032016396522522,0.01789272390305996,0.01796126179397106,0.014697159640491009,0.017946796491742134,-0.016707422211766243,-0.02294040098786354,-0.023898789659142494,-0.01891149766743183,-0.016944298520684242,0.01992909051477909,0.019465046003460884,-0.019101157784461975,0.0195027943700552,-0.020439116284251213,0.01579604484140873,0.015009760856628418,0.017727043479681015,0.023028306663036346,0.01485415082424879,0.018611732870340347,0.019140683114528656,0.02150268480181694,-0.021305544301867485
,,,,,,,,,,,,,,,,,,,,,,,,,,,,,,,
Layer: default_policy/fc_value_3/kernel,"Shape: (32, 32)",,,,,,,,,,,,,,,,,,,,,,,,,,,,,,
0.045855846256017685,-0.13921956717967987,-0.11998376995325089,-0.1323024034500122,-0.21246850490570068,0.11643645167350769,-0.16229355335235596,0.05215208977460861,-0.5112884640693665,0.08545684814453125,-0.01575336791574955,-0.02742784284055233,-0.09091988950967789,-0.40175870060920715,0.008153754286468029,-0.025926455855369568,0.12975862622261047,0.00868239440023899,-0.025165190920233727,-0.08277793973684311,0.07073245942592621,0.21255116164684296,-0.15941821038722992,0.0039869025349617004,0.0026906325947493315,-0.3383091986179352,-0.049350813031196594,0.1088312566280365,0.03938528150320053,-0.1590767204761505,-0.3452543020248413,0.0005750497221015394
0.047755081206560135,-0.001285223988816142,0.19986391067504883,-0.27365925908088684,-0.004989925771951675,-0.2212682068347931,-0.237606942653656,-0.2965877950191498,-0.18595443665981293,0.0445338636636734,0.3115919232368469,0.045161426067352295,0.19304758310317993,-0.2802402079105377,-0.053022246807813644,-0.20060355961322784,-0.1580960601568222,0.12286418676376343,-0.14737316966056824,0.18258386850357056,0.15068475902080536,0.2393093705177307,0.251556396484375,-0.07719379663467407,-0.15129323303699493,-0.21157103776931763,-0.24413935840129852,0.3122585117816925,0.06674372404813766,0.17814317345619202,-0.2654121220111847,-0.15797385573387146
-0.18751731514930725,0.06309112906455994,0.2690071761608124,-0.07049490511417389,0.11088943481445312,0.3331514596939087,0.016176173463463783,0.17840200662612915,0.04477526620030403,0.26040953397750854,0.015371138229966164,-0.27264106273651123,0.29879048466682434,-0.30454641580581665,-0.23886989057064056,-0.12622906267642975,-0.20439107716083527,0.38843852281570435,-0.08874424546957016,-0.19286122918128967,-0.08506310731172562,0.18085817992687225,0.4270336329936981,-0.04223069176077843,0.3605891764163971,-0.2918071746826172,-0.22531025111675262,-0.5361581444740295,0.10258029401302338,-0.25726184248924255,-0.3073333203792572,-0.09047356992959976
-0.09287676960229874,0.5467528104782104,-0.1195124015212059,0.023407472297549248,0.054425906389951706,-0.010553643107414246,0.2881171405315399,-0.38772106170654297,0.11275345832109451,-0.3560083508491516,-0.07994773238897324,-0.128406822681427,0.03587193414568901,-0.03566346317529678,-0.042177245020866394,-0.10235971212387085,0.17686223983764648,0.01792261376976967,0.1694936752319336,0.06332483142614365,0.08851543068885803,0.056238364428281784,-0.3089757561683655,0.14557582139968872,-0.05446198955178261,0.13128629326820374,0.251756876707077,-0.12277393043041229,-0.16729465126991272,0.02419363334774971,0.1598384827375412,-0.19154420495033264
0.11328072100877762,0.1262499988079071,0.10262981057167053,-0.019737979397177696,-0.07170253247022629,-0.09684467315673828,0.116553395986557,-0.2863529622554779,-0.04534139856696129,-0.3642565906047821,-0.008986962027847767,0.03880598396062851,-0.27417662739753723,-0.09968913346529007,0.022651590406894684,0.25433164834976196,0.0996980369091034,0.12842920422554016,-0.197657510638237,0.13882972300052643,-0.12330799549818039,0.26510709524154663,-0.0024808302987366915,-0.031811054795980453,-0.003998704254627228,0.13300922513008118,0.33079424500465393,-0.05584508180618286,-0.4363567531108856,-0.03466850519180298,0.011563412845134735,-0.03469441831111908
0.1422789990901947,0.1136462390422821,-0.10879241675138474,0.1616114228963852,0.031070584431290627,0.17374707758426666,0.034914493560791016,0.2513059973716736,-0.13290387392044067,-0.07092168182134628,0.2230648249387741,-0.17266425490379333,-0.049273427575826645,0.018285425379872322,-0.26594865322113037,0.022839151322841644,0.33051037788391113,0.09722164273262024,-0.014828677289187908,-0.056203387677669525,0.08046728372573853,0.3005448579788208,-0.40131789445877075,0.2791217863559723,-0.38025179505348206,0.0584292933344841,0.20599356293678284,-0.17457215487957,-0.25358909368515015,0.1374494433403015,0.21203561127185822,-0.25369542837142944
-0.21920885145664215,0.1243562400341034,-0.01604098081588745,0.08395564556121826,-0.19194580614566803,-0.09837950766086578,0.07398858666419983,-0.02907382696866989,0.05263255909085274,-0.05245942994952202,-0.302943617105484,-0.44220346212387085,-0.36829206347465515,-0.1288112848997116,-0.05770542472600937,-0.14032647013664246,-0.08730350434780121,-0.13344720005989075,-0.11935818195343018,0.11659114807844162,0.003106675809249282,-0.07343757152557373,0.04888344928622246,0.1057051420211792,-0.22196300327777863,0.11975438892841339,0.1405273675918579,0.019830528646707535,0.04801376536488533,0.25358960032463074,0.09185675531625748,-0.19255506992340088
0.3014008700847626,-0.041249778121709824,0.017039524391293526,0.02577207237482071,-0.1743178814649582,0.2375141829252243,-0.11400532722473145,0.19393675029277802,-0.18097831308841705,0.227324977517128,0.17472507059574127,-0.1081758365035057,-0.14792245626449585,0.22824767231941223,-0.07727036625146866,-0.36367058753967285,-0.1563897728919983,0.15478108823299408,0.11624681204557419,-0.0396687388420105,-0.07757411152124405,0.0883985236287117,0.2735917568206787,-0.18760843575000763,-0.1025431677699089,0.010961971245706081,-0.03680899366736412,0.030047833919525146,0.1008429080247879,-0.22090387344360352,-0.2689615488052368,0.06814348697662354
-0.3630967140197754,0.13568614423274994,-0.25550997257232666,-0.17093448340892792,0.21752743422985077,-0.47758904099464417,0.15319547057151794,-0.20245401561260223,-0.08969426900148392,-0.2474690079689026,-0.11019384860992432,-0.2627403140068054,-0.15257813036441803,0.20859721302986145,-0.14207640290260315,0.28584742546081543,0.2678285241127014,-0.5333753228187561,-0.20489120483398438,0.41092488169670105,0.19828906655311584,-0.1460934281349182,-0.18436290323734283,0.07306044548749924,0.03653707355260849,0.02305840700864792,0.18432949483394623,-0.21316945552825928,-0.13071909546852112,0.06175648048520088,0.010800722986459732,-0.04991753771901131
0.23274433612823486,-0.30302679538726807,0.013688098639249802,-0.3172977864742279,-0.06083596497774124,-0.011481873691082,-0.14229893684387207,0.1384590119123459,-0.14232146739959717,-0.07778170704841614,-0.08135801553726196,-0.10420872271060944,-0.02406337857246399,-0.04282192513346672,-0.31825172901153564,0.17930975556373596,-0.26872581243515015,0.1621914654970169,0.16066904366016388,-0.22140006721019745,0.10145051777362823,0.167273610830307,-0.05405392497777939,0.10465198755264282,-0.06453921645879745,0.40582218766212463,-0.42385706305503845,0.3942800760269165,0.3826185166835785,0.0036207586526870728,-0.33025315403938293,0.1335442066192627
0.11515989154577255,-0.030991069972515106,0.21606434881687164,-0.1571163833141327,-0.20320391654968262,0.02571273408830166,0.10250258445739746,0.05829321965575218,-0.3182647228240967,0.37657326459884644,0.05007202923297882,-0.01741028018295765,-0.06820385903120041,-0.37430518865585327,-0.3273211121559143,-0.15023203194141388,-0.27050262689590454,-0.10900229960680008,0.30066171288490295,-0.27784115076065063,0.03586181625723839,-0.10552116483449936,0.22884632647037506,0.12740236520767212,0.12197238206863403,0.1254710853099823,0.38033631443977356,0.04185568541288376,0.08130104094743729,-0.11395863443613052,0.0024709482677280903,0.03849520906805992
0.026136990636587143,-0.09790915250778198,-0.14286692440509796,0.19237983226776123,0.23788011074066162,-0.030175872147083282,0.044735122472047806,-0.05396059900522232,0.1989552527666092,-0.17068840563297272,-0.061029355973005295,-0.35663527250289917,-0.1604144275188446,0.0876280814409256,0.29993119835853577,0.24287351965904236,0.12043441832065582,0.0434320792555809,0.015108214691281319,0.24113211035728455,0.2338634580373764,-0.03498847782611847,-0.2900969982147217,0.14672718942165375,-0.18742719292640686,0.11312355846166611,0.2327849417924881,-0.3792279064655304,0.0539252907037735,-0.1811109483242035,-0.3341846764087677,0.08972679823637009
-0.1519291251897812,0.17097224295139313,-0.17652754485607147,0.01394132524728775,0.14051784574985504,-0.18584813177585602,-0.04807720333337784,-0.0585031658411026,0.031900178641080856,-0.20465633273124695,-0.03024248033761978,-0.2512155771255493,0.02619870752096176,0.3822396397590637,-0.21508273482322693,-0.2678929567337036,-0.06093967333436012,-0.32647764682769775,-0.15415354073047638,0.054927997291088104,0.519741415977478,0.15991173684597015,-0.020185520872473717,0.4630780518054962,-0.4627580940723419,0.35904112458229065,0.05979948490858078,-0.0370982326567173,0.07465771585702896,0.0890505239367485,0.25976285338401794,-0.35325589776039124
0.657348096370697,-0.20014232397079468,0.30039337277412415,-0.22403740882873535,-0.13901817798614502,0.07149148732423782,0.22587090730667114,0.18839921057224274,-0.07395363599061966,0.1048019602894783,0.08008986711502075,-0.022900797426700592,0.0261031873524189,0.02555418387055397,-0.062328215688467026,0.17042532563209534,-0.14679332077503204,0.062370169907808304,0.11543681472539902,-0.21658849716186523,0.1103353276848793,0.2129247635602951,0.13724659383296967,0.11838778108358383,-0.11009321361780167,-0.052043408155441284,0.024145541712641716,0.41359034180641174,-0.2869510054588318,-0.3493972718715668,-0.08475112169981003,0.16989447176456451
