Layer: default_policy/fc_1/kernel,"Shape: (18, 32)",,,,,,,,,,,,,,,,,,,,,,,,,,,,,,
0.35841864347457886,0.21142347157001495,0.29206037521362305,-0.17754778265953064,0.35270383954048157,-0.28659382462501526,-0.4206007719039917,0.3945920169353485,-0.35283687710762024,0.13962824642658234,0.30791160464286804,-0.39149975776672363,0.23951511085033417,0.3614959716796875,0.48749276995658875,0.3079507052898407,-0.22347572445869446,-0.251048743724823,0.15700961649417877,0.05809586122632027,-0.3405287265777588,-0.00418191310018301,-0.20658749341964722,-0.15972988307476044,0.06965506821870804,0.0774095207452774,-0.16229942440986633,-0.1831074357032776,-0.4201975166797638,-0.3086044490337372,0.13702446222305298,-0.14756761491298676
0.07955162227153778,0.029416795819997787,0.4515933394432068,0.15976181626319885,0.07358638197183609,0.561140239238739,0.48043474555015564,0.07770613580942154,0.4422221779823303,-0.5657980442047119,-0.07477090507745743,0.21023361384868622,-0.11997587233781815,-0.30145591497421265,0.16337566077709198,-0.07238856703042984,-0.31687256693840027,0.07813116908073425,0.3131670355796814,-0.144907146692276,0.043718304485082626,-0.27459827065467834,0.0837150439620018,-0.13163259625434875,-0.179084911942482,-0.047134704887866974,-0.3638414144515991,0.15419313311576843,-0.03595581650733948,-0.002892754739150405,-0.5376068949699402,0.2587403953075409
0.21106404066085815,0.298995703458786,0.09851547330617905,0.41729018092155457,0.142642542719841,0.07383835315704346,-0.17944656312465668,0.14952731132507324,-0.5029171109199524,-0.24380400776863098,0.5097329616546631,-0.16645759344100952,-0.06674783676862717,-0.0532400868833065,-0.19200652837753296,-0.18800923228263855,0.1743592470884323,-0.3081197142601013,0.09529121220111847,-0.11069098114967346,0.0029639587737619877,0.12337645143270493,-0.23247191309928894,0.06310896575450897,-0.08289406448602676,0.034820254892110825,-0.16588056087493896,-0.572584867477417,-0.09458471834659576,0.376784086227417,-0.08663128316402435,-0.23423027992248535
-0.2285611629486084,0.04404526576399803,-0.3605833053588867,-0.07728857547044754,-0.037515245378017426,0.17228426039218903,0.10471057146787643,0.26169854402542114,0.018842635676264763,-0.062445737421512604,0.07937639951705933,0.30075544118881226,-0.13503845036029816,0.15005755424499512,-0.0579986609518528,-0.2387877106666565,0.13653464615345,0.08998217433691025,0.13776138424873352,-0.15794256329536438,-0.13978852331638336,0.14437909424304962,-0.06176147237420082,0.09193653613328934,-0.3018525242805481,0.24177682399749756,-0.03721880540251732,0.05005272850394249,-0.3163086473941803,-0.04680849239230156,-0.21219339966773987,-0.01518450677394867
-0.11110135912895203,0.5558735132217407,0.19275644421577454,0.013713228516280651,-0.19586655497550964,0.03897750750184059,0.044881630688905716,-0.15606248378753662,0.1459626853466034,-0.13961350917816162,0.017305923625826836,0.09689588844776154,-0.23862671852111816,0.14480476081371307,-0.23341037333011627,0.17513975501060486,0.4075455665588379,-0.5039278268814087,0.293836385011673,0.28055253624916077,-0.33857446908950806,0.3974630832672119,-0.36435040831565857,-0.07263676077127457,0.10132643580436707,-0.15934701263904572,0.37393754720687866,-0.4870170056819916,0.11105147749185562,-0.3247215747833252,0.10113334655761719,-0.2451719343662262
-0.1868814378976822,0.4673668146133423,0.36927106976509094,-0.17049595713615417,0.05378972738981247,0.18538609147071838,0.2942660450935364,-0.2777794599533081,-0.4604036211967468,0.2625991702079773,-0.09352125227451324,0.21013608574867249,0.1378924399614334,0.3498540222644806,0.16388379037380219,-0.19335472583770752,0.10521618276834488,-0.2962847948074341,-0.45646238327026367,0.2486613541841507,-0.16400250792503357,0.17272241413593292,0.08617434650659561,-0.23648491501808167,-0.4794011116027832,-0.016632230952382088,0.06571423262357712,0.24806982278823853,-0.2852414846420288,-0.12202305346727371,-0.17735348641872406,0.30367955565452576
-0.2912788987159729,-0.42532724142074585,0.08300797641277313,0.25481006503105164,-0.08182699978351593,0.06932352483272552,0.17039740085601807,-0.41863536834716797,-0.14276064932346344,0.24611927568912506,-0.29693591594696045,0.5190799236297607,-0.01580486074090004,0.39657285809516907,-0.17433087527751923,0.192581444978714,-0.06314094364643097,-0.23703907430171967,0.41018030047416687,0.3095659017562866,0.09706097096204758,-0.16900178790092468,0.1726706326007843,0.24567455053329468,0.3224126100540161,-0.5480542182922363,-0.3609423339366913,0.18424856662750244,-0.07358401268720627,0.34672820568084717,-0.13614612817764282,0.11651747673749924
0.493435800075531,0.035373296588659286,-0.3798855245113373,0.2508794069290161,0.41866812109947205,-0.24229884147644043,0.19312240183353424,0.3123011887073517,-0.041632361710071564,0.23303134739398956,0.1270502358675003,0.24379049241542816,0.07880528271198273,0.06613946706056595,0.2859373688697815,-0.3059001863002777,-0.19181223213672638,-0.2606082260608673,-0.11597798764705658,0.19533081352710724,0.05073201283812523,-0.14546431601047516,-0.17347058653831482,-0.4731738567352295,0.2710675001144409,-0.20433999598026276,0.34268060326576233,0.032303519546985626,0.40783920884132385,0.06152329966425896,0.3074866533279419,0.17031657695770264
-0.0837097018957138,-0.046559710055589676,0.11771149933338165,0.4496232867240906,-0.18878813087940216,-0.5114589333534241,-0.24258844554424286,0.23270311951637268,-0.14415289461612701,0.5048747062683105,0.39624741673469543,-0.14249102771282196,-0.21073143184185028,-0.45437490940093994,0.25427085161209106,-0.029656613245606422,0.2811727523803711,-0.10488557070493698,0.03390466421842575,-0.3093748986721039,-0.2923310101032257,0.11526582390069962,-0.14652509987354279,-0.2415991574525833,0.2627067267894745,-0.2535121440887451,-0.0004903202643617988,-0.03253798559308052,0.2359032779932022,0.24364452064037323,-0.22118233144283295,-0.3227100968360901
0.19217918813228607,-0.09554882347583771,-0.22348345816135406,0.2748982012271881,-0.35211867094039917,0.019665516912937164,-0.15002372860908508,0.2566688656806946,-0.17356568574905396,-0.11931505799293518,0.44308534264564514,-0.08102449774742126,-0.7180458307266235,0.10736364871263504,0.0428183376789093,-0.12741421163082123,0.3901461064815521,-0.5486480593681335,-0.03146602213382721,0.41229671239852905,-0.42935311794281006,0.3965282142162323,-0.38858145475387573,-0.059511199593544006,0.04666982591152191,0.1544140726327896,-0.23197458684444427,-0.485061377286911,-0.4336835443973541,-0.41225093603134155,0.26263678073883057,0.13157743215560913
0.36596712470054626,-0.1259315460920334,-0.19176487624645233,0.09508375078439713,0.15217900276184082,0.07167444378137589,-0.018008917570114136,0.065117746591568,-0.08163276314735413,0.19907647371292114,-0.013917336240410805,-0.10675796866416931,-0.02993801049888134,0.26950064301490784,0.2228698581457138,0.2688506245613098,0.2437535524368286,0.1345418244600296,-0.3645721673965454,0.25195273756980896,0.09987714886665344,-0.04865285009145737,0.3700210750102997,0.5101336240768433,0.432205468416214,0.03359590470790863,0.39108431339263916,0.14566846191883087,-0.3517675995826721,-0.2805303931236267,0.06288015097379684,0.15005594491958618
-0.2604077160358429,-0.25912827253341675,0.19820445775985718,-0.05349360406398773,-0.20443513989448547,0.008726275525987148,-0.08231277763843536,-0.08392337709665298,0.019217463210225105,-0.11068443208932877,-0.022292576730251312,-0.08090836554765701,-0.313787579536438,0.07298991084098816,0.07936804741621017,-0.4375612139701843,-0.20414020121097565,0.28956615924835205,-0.3139704465866089,0.5330387353897095,0.07296574860811234,-0.25097373127937317,0.11417730897665024,-0.13788509368896484,-0.018466535955667496,-0.027607416734099388,0.160511314868927,0.1403372883796692,-0.2702695429325104,-0.0023670243099331856,0.040431272238492966,0.20144303143024445
0.1619647741317749,0.08807606995105743,0.08313952386379242,-0.16314566135406494,0.05968034267425537,-0.07020414620637894,-0.2930876314640045,0.29443269968032837,-0.19756989181041718,-0.02717047557234764,0.3157481551170349,0.013566425070166588,-0.134070485830307,0.18173576891422272,0.1576675921678543,-0.2798398435115814,0.2294941395521164,0.008968204259872437,-0.08741665631532669,0.08775552362203598,0.06897537410259247,-0.20407669246196747,-0.29012227058410645,0.2543473243713379,0.1506226360797882,0.2354106605052948,-0.018032601103186607,0.09462687373161316,-0.1467639058828354,-0.13948285579681396,-0.36252081394195557,-0.33355578780174255
0.0059181880205869675,0.20432110130786896,0.20447757840156555,-0.2719366252422333,-0.19050391018390656,0.36358246207237244,-0.318825900554657,-0.12438547611236572,-0.11183803528547287,0.06544146686792374,-0.19411791861057281,-0.3902280926704407,-0.3354346752166748,0.03581457957625389,0.17333048582077026,0.18546690046787262,0.3987773358821869,0.06740298122167587,0.3588548004627228,-0.20155535638332367,-0.11574675887823105,0.502352774143219,-0.4484216272830963,0.06137118116021156,0.16238415241241455,-0.42259183526039124,0.17308317124843597,-0.0034166574478149414,0.01922059990465641,-0.23282256722450256,-0.002281039487570524,-0.19384609162807465
-0.36119315028190613,-0.0018399455584585667,0.07603874057531357,-0.37625277042388916,0.16921600699424744,0.3021017909049988,-0.06261105835437775,-0.16276104748249054,-0.09912017732858658,-0.0868939459323883,0.0019627935253083706,-0.3194725215435028,-0.017969153821468353,0.24231089651584625,0.44405460357666016,0.47451767325401306,-0.14015662670135498,-0.18085233867168427,0.07208951562643051,0.2527509033679962,-0.3344283998012543,-0.08294820040464401,0.18571551144123077,0.26721662282943726,-0.03846031799912453,0.4331735372543335,0.29899862408638,0.09134749323129654,-0.20874248445034027,-0.21816125512123108,-0.28508469462394714,0.046363428235054016
-0.06316006928682327,0.12302348762750626,0.1973123699426651,0.01980712078511715,0.3975333869457245,-0.048552364110946655,0.15070170164108276,-0.1051567941904068,-0.09778407216072083,0.29391467571258545,0.0698026642203331,0.15293453633785248,-0.03931384161114693,0.41673171520233154,-0.3082347810268402,-0.17392055690288544,0.21515333652496338,-0.20989073812961578,0.16654430329799652,0.1265048384666443,-0.23797708749771118,0.04861697554588318,0.26107344031333923,-0.21863844990730286,0.21826252341270447,0.23613785207271576,0.26538169384002686,0.2572449743747711,-0.020252779126167297,0.08148720860481262,0.018944356590509415,-0.16894839704036713
-0.07539552450180054,0.11774200946092606,0.12322799116373062,-0.2688058018684387,-0.20690518617630005,0.0037794706877321005,0.0217281524091959,0.3899788558483124,0.1975100189447403,-0.05449921637773514,0.17823010683059692,0.017833255231380463,-0.08702557533979416,0.09750035405158997,-0.09701142460107803,-0.03229488059878349,-0.18260718882083893,-0.052363187074661255,-0.004115569405257702,0.144962340593338,-0.5115548968315125,0.3171176612377167,-0.22874988615512848,0.35187646746635437,0.4104160964488983,-0.04511687532067299,-0.13686814904212952,-0.037554770708084106,0.010958284139633179,0.2376008778810501,-0.2263091802597046,0.341541051864624
-0.004049984738230705,0.2659817934036255,-0.23230576515197754,0.154189333319664,0.37369102239608765,-0.08147991448640823,0.39554595947265625,-0.05759064108133316,0.35075387358665466,-0.052571412175893784,-0.3202584385871887,0.11240020394325256,-0.35945889353752136,0.08086472004652023,0.3259713053703308,0.01961318776011467,-0.10864045470952988,0.051221348345279694,-0.11467543989419937,0.03318512812256813,0.07132834941148758,0.19852466881275177,-0.0018596705049276352,-0.029093695804476738,-0.19839361310005188,-0.040915992110967636,-0.10508843511343002,0.07119761407375336,0.06916524469852448,-0.08514641970396042,-0.3978232443332672,-0.5090552568435669
,,,,,,,,,,,,,,,,,,,,,,,,,,,,,,,
Layer: default_policy/fc_1/bias,"Shape: (32,)",,,,,,,,,,,,,,,,,,,,,,,,,,,,,,
0.01981772482395172,0.029356930404901505,0.031171457841992378,0.030439192429184914,-0.01367416325956583,-0.0095290532335639,-0.03791649267077446,0.035593871027231216,-0.02892153523862362,0.02006344310939312,0.030260803177952766,-0.024731768295168877,-0.04009583592414856,0.02872488833963871,0.03285054489970207,0.032614756375551224,0.030070951208472252,-0.02662358060479164,0.029577413573861122,0.029812797904014587,-0.007272541057318449,0.012189382687211037,-0.03202291578054428,0.019914371892809868,0.03098057582974434,-0.03462577611207962,0.034263983368873596,-0.0305768009275198,-0.017481809481978416,0.00250221136957407,-0.03294483199715614,-0.02587500959634781
,,,,,,,,,,,,,,,,,,,,,,,,,,,,,,,
Layer: default_policy/fc_value_1/kernel,"Shape: (18, 32)",,,,,,,,,,,,,,,,,,,,,,,,,,,,,,
0.4920289218425751,0.3889782726764679,-0.1094469353556633,0.3697912096977234,-0.0519561804831028,0.09372388571500778,-0.1302032172679901,0.0659174919128418,0.20576836168766022,0.029699789360165596,0.07093308866024017,-0.1831313818693161,-0.26508286595344543,0.24532495439052582,-0.13082194328308105,0.31986185908317566,-0.027466779574751854,0.19757358729839325,-0.1470654308795929,0.6199368834495544,-0.11010848730802536,-0.20444849133491516,0.13743150234222412,0.04531180486083031,-0.1554350107908249,-0.2323412448167801,0.09752394258975983,0.039741259068250656,-0.38259270787239075,0.10307113826274872,-0.27978891134262085,-0.4775247275829315
0.3172202408313751,0.04978778585791588,0.1368073672056198,-0.07955769449472427,-0.1513288915157318,-0.1440674364566803,0.15758106112480164,0.20823058485984802,0.4330722987651825,0.18341249227523804,0.03947035223245621,-0.08402561396360397,-0.005689720157533884,0.22504600882530212,0.07223357260227203,-0.12272711098194122,-0.24757391214370728,-0.2505035400390625,-0.34805232286453247,0.10086578875780106,0.18949951231479645,0.007445378229022026,-0.21120160818099976,0.07943996787071228,-0.1494077891111374,0.09935024380683899,0.07291021198034286,0.027249526232481003,0.12483981251716614,0.07503420114517212,0.17979352176189423,-0.5728416442871094
0.060009632259607315,0.2940686345100403,0.4723720848560333,0.2605438530445099,-0.10865773260593414,-0.2039397805929184,0.3276306390762329,-0.3160129487514496,0.04085849970579147,-0.0019244281575083733,-0.3408821225166321,-0.13396646082401276,-0.20234039425849915,0.008407773450016975,-0.13353461027145386,0.1919553577899933,0.37606075406074524,-0.08698823302984238,0.055855896323919296,-0.09447145462036133,-0.15671715140342712,-0.06535211950540543,0.4375750720500946,0.2676444351673126,0.43705159425735474,0.24024370312690735,-0.39294755458831787,-0.42778339982032776,0.044870030134916306,-0.0026010358706116676,-0.41271457076072693,0.04134795442223549
0.48915737867355347,0.05668216571211815,0.01991918869316578,-0.2033989578485489,-0.09204654395580292,0.2043152153491974,0.31677407026290894,0.012944178655743599,-0.1637062132358551,-0.34131374955177307,-0.06320615857839584,-0.21089376509189606,0.023111773654818535,0.053770724684000015,-0.21356140077114105,0.13476447761058807,-0.33200034499168396,-0.0821726843714714,-0.23913481831550598,0.05512303486466408,0.20529703795909882,-0.25265344977378845,0.39658480882644653,0.05345062538981438,0.06825116276741028,0.398281067609787,-0.17994378507137299,-0.11499971151351929,-0.004401758778840303,-0.3529060184955597,-0.3063209354877472,-0.10603021085262299
0.1277237981557846,-0.12799504399299622,0.21796055138111115,0.1852775514125824,-0.041240982711315155,0.49277156591415405,0.3012716472148895,-0.05110061913728714,-0.0637914389371872,-0.07477475702762604,-0.6297690272331238,-0.5955697298049927,-0.4159516990184784,0.279585063457489,-0.014619909226894379,0.16969454288482666,-0.2082437127828598,-0.4499906599521637,-0.40045154094696045,0.27328354120254517,0.1533897966146469,0.24862681329250336,-0.10701244324445724,0.5673807263374329,-0.13185207545757294,-0.11269573122262955,0.12268856912851334,-0.39833831787109375,0.11651208996772766,0.1838979870080948,0.26709842681884766,0.171587273478508
0.08699460327625275,-0.09077177941799164,0.027942704036831856,0.35126346349716187,-0.014741180464625359,-0.030635368078947067,0.3853498101234436,-0.13005824387073517,0.02196165919303894,-0.27235257625579834,-0.1808648407459259,-0.3155522346496582,0.28912368416786194,0.13806024193763733,0.08892884850502014,0.013865511864423752,0.02300255000591278,-0.09101920574903488,-0.5319024324417114,0.617837131023407,0.1091589406132698,-0.03568350151181221,0.03369514271616936,-0.1384730339050293,-0.15812362730503082,0.06286031007766724,-0.12954162061214447,-0.09902411699295044,-0.3276173770427704,-0.04613272845745087,0.2894028425216675,0.16134092211723328
-0.22767658531665802,0.1271395981311798,0.5560001730918884,-0.11675963550806046,-0.5332500338554382,0.10792398452758789,0.06010797619819641,0.05796729400753975,0.11013582348823547,-0.1831965148448944,-0.13741248846054077,-0.08039283752441406,-0.07714608311653137,-0.18960027396678925,-0.06609337776899338,-0.18132445216178894,0.12307364493608475,0.05787176638841629,-0.26705682277679443,-0.15125426650047302,-0.5605079531669617,0.47409722208976746,-0.046454574912786484,0.3329779803752899,0.05449888855218887,0.36128416657447815,-0.07248373329639435,-0.5189967155456543,-0.1119883805513382,0.5283887982368469,0.08754600584506989,-0.08643079549074173
-0.2651262879371643,0.490768700838089,-0.20892523229122162,-0.14621372520923615,-0.008210555650293827,-0.07215448468923569,-0.061864595860242844,-0.1407194435596466,0.5191832780838013,0.23309573531150818,0.3529190719127655,-0.12713463604450226,-0.5985594391822815,0.2181759476661682,-0.1585286408662796,0.4271305501461029,-0.1268342137336731,-0.0026997693348675966,-0.17446982860565186,0.16280187666416168,-0.013960384763777256,0.060029953718185425,0.4122668504714966,0.16541777551174164,0.04352150857448578,0.13991814851760864,-0.05254169926047325,-0.11124248057603836,-0.6153512001037598,0.07954645156860352,-0.5531527400016785,-0.0852263867855072
0.028303300961852074,0.38247281312942505,0.18965715169906616,0.2220878005027771,-0.2217988222837448,0.21385115385055542,0.3045729100704193,0.06407398730516434,-0.1728525310754776,-0.4422800838947296,-0.3194652199745178,0.018481403589248657,-0.2991313338279724,0.24355749785900116,0.09532885998487473,0.10835731774568558,0.19984722137451172,-0.4278394877910614,0.019413894042372704,0.21171921491622925,-0.15621666610240936,-0.21930579841136932,0.10150623321533203,0.6123664975166321,0.2450544238090515,-0.18463611602783203,-0.2764831483364105,-0.27797290682792664,-0.5239856839179993,-0.18151439726352692,-0.3217456638813019,-0.3900483548641205
-0.13712839782238007,0.5203277468681335,0.3865930438041687,0.4284418523311615,-0.33941125869750977,0.5152096152305603,-0.5120272040367126,0.4806750416755676,0.004176594782620668,-0.24936078488826752,-0.32024702429771423,-0.46506306529045105,-0.007689598016440868,0.12570010125637054,-0.07820270210504532,-0.2916572690010071,0.23259390890598297,-0.2986499071121216,-0.2109101414680481,-0.022191058844327927,0.21917609870433807,-0.30938032269477844,-0.08924097567796707,0.2582538425922394,-0.1440224051475525,0.2355981022119522,0.19602082669734955,0.048935625702142715,0.1368686854839325,-0.0451258160173893,-0.006796626374125481,0.07427431643009186
0.32185032963752747,0.26308614015579224,0.3252975642681122,0.2942431569099426,0.2567681670188904,0.12119770795106888,0.2857566773891449,0.13481441140174866,0.09767255932092667,-0.02774091251194477,-0.217036634683609,0.05858470872044563,0.01718030869960785,0.3508036434650421,0.09418698400259018,0.17866356670856476,0.2523188889026642,-0.07086127251386642,-0.0018947150092571974,-0.08057306706905365,0.03097977116703987,0.018660588189959526,0.38428547978401184,-0.08206471800804138,0.3456357717514038,0.2698964774608612,0.07639946788549423,0.1522894948720932,0.06685855984687805,-0.11139735579490662,-0.07588557153940201,0.21800021827220917
-0.139499694108963,0.41535383462905884,-0.1321307122707367,0.1790727972984314,-0.23642653226852417,0.3418690860271454,0.2991045117378235,0.3038392961025238,0.2267158329486847,-0.2309977263212204,-0.4194074273109436,-0.607067883014679,0.16650675237178802,-0.04645293951034546,-0.6062459349632263,-0.17373023927211761,-0.1881900429725647,0.18470382690429688,-0.4427749812602997,0.5077622532844543,-0.18829329311847687,-0.01095090713351965,0.5947504043579102,0.09655268490314484,0.5075778961181641,0.008510059677064419,-0.5392241477966309,0.3134755790233612,0.11761420220136642,0.16453205049037933,-0.19238385558128357,0.11816945672035217
0.10002733767032623,-0.018267277628183365,-0.2751161456108093,-0.11527905613183975,-0.10211291909217834,-0.10984046012163162,-0.026026399806141853,0.1956794559955597,0.41588979959487915,-0.45814403891563416,-0.030263077467679977,-0.22581717371940613,0.3467012941837311,0.19529497623443604,-0.13360284268856049,0.1306317001581192,-0.318381130695343,0.32115235924720764,0.23931126296520233,0.1733061671257019,-0.522099494934082,-0.5463672876358032,0.15902328491210938,-0.13612180948257446,-0.006889184471219778,0.004048741888254881,-0.4460466504096985,-0.30179762840270996,-0.13477912545204163,0.1026926338672638,-0.27797380089759827,-0.07009008526802063
-0.18458235263824463,0.44467371702194214,0.0960664227604866,-0.19874152541160583,-0.3455398678779602,-0.010033748112618923,0.12603597342967987,0.28241828083992004,0.5529427528381348,-0.15396498143672943,-0.20288115739822388,0.001017609378322959,-0.07054610550403595,0.08587075024843216,0.030317198485136032,0.08376739174127579,0.002005490008741617,-0.22530001401901245,0.10365187376737595,0.084687739610672,-0.3261529207229614,0.026945218443870544,0.07544983923435211,0.3056807219982147,0.02594379335641861,0.3303737938404083,-0.11347800493240356,0.1936318576335907,-0.19950027763843536,0.005692997947335243,-0.20248687267303467,-0.060258086770772934
0.4206683039665222,0.03208019956946373,-0.1152978464961052,0.3546746075153351,-0.40560632944107056,-0.008133343420922756,-0.32096126675605774,0.4929552674293518,0.3165348470211029,-0.13355466723442078,-0.06613526493310928,-0.26256686449050903,-0.14400364458560944,-0.1902114897966385,-0.2945081293582916,0.22203990817070007,0.21800634264945984,-0.41863274574279785,-0.31500986218452454,0.15732234716415405,-0.1227007731795311,-0.3525640368461609,0.06181645393371582,0.34603530168533325,-0.3477590084075928,0.19336245954036713,-0.019188381731510162,0.11822251975536346,0.08939961344003677,-0.2536667585372925,-0.08230916410684586,-0.22160032391548157
0.023148637264966965,0.08188458532094955,0.3598024547100067,0.433112770318985,0.38603079319000244,-0.2915053367614746,0.07413266599178314,0.007779149804264307,0.09670916944742203,-0.1081807017326355,0.11177083849906921,-0.21638618409633636,-0.2875918745994568,0.7564463019371033,0.2849675118923187,-0.5083217620849609,0.1183454766869545,-0.4677041471004486,-0.08166923373937607,0.3844532370567322,-0.23068659007549286,-0.14660346508026123,-0.23217684030532837,-0.07494805008172989,-0.13483895361423492,0.5198217034339905,-0.029132599011063576,0.09133876115083694,0.04199257120490074,-0.07867289334535599,-0.1566666215658188,0.3247399628162384
0.10405902564525604,0.2481362372636795,0.17629095911979675,0.187659353017807,-0.25512194633483887,0.25703713297843933,0.15530790388584137,0.44732406735420227,0.1088327169418335,-0.5638297200202942,-0.3616231381893158,0.3051147162914276,-0.1344134360551834,0.4373616576194763,-0.48227208852767944,0.13658744096755981,0.4249744713306427,-0.17363543808460236,-0.044876229017972946,0.10588283836841583,0.18516382575035095,-0.4337969720363617,0.1368238776922226,0.18321627378463745,0.287663072347641,0.4492857754230499,-0.3144940435886383,-0.2796245813369751,-0.38143840432167053,0.5919692516326904,0.033144328743219376,-0.07208499312400818
-0.11441413313150406,-0.06699541956186295,-0.04145312309265137,-0.23503130674362183,-0.4704064726829529,-0.27224650979042053,0.2540096938610077,0.4865848124027252,-0.14233960211277008,0.28206682205200195,0.013498898595571518,0.005945358891040087,-0.1290532350540161,-0.08648677170276642,0.35414984822273254,0.24446725845336914,0.19648265838623047,0.15326225757598877,-0.5555000305175781,-0.014641023240983486,-0.17256462574005127,-0.04955127835273743,-0.05318444222211838,0.3496743440628052,-0.008665163069963455,-0.32207465171813965,-0.6192906498908997,0.05859333276748657,-0.0180387981235981,0.12379411607980728,-0.30138319730758667,-0.120509572327137
,,,,,,,,,,,,,,,,,,,,,,,,,,,,,,,
Layer: default_policy/fc_value_1/bias,"Shape: (32,)",,,,,,,,,,,,,,,,,,,,,,,,,,,,,,
0.10183890163898468,0.0963209867477417,0.10285422950983047,0.10795848071575165,-0.09791093319654465,0.09341628104448318,0.1153206005692482,0.09779887646436691,0.08115101605653763,-0.09181475639343262,-0.09889332205057144,-0.09658586233854294,-0.1135227307677269,0.08888912200927734,-0.10083857923746109,0.12257636338472366,0.10735958069562912,-0.09881069511175156,-0.10175745189189911,0.10291656106710434,-0.1038622111082077,-0.11246287822723389,0.10341702401638031,0.10789245367050171,0.09146780520677567,0.10995219647884369,-0.11397802084684372,-0.11184743046760559,-0.11023782938718796,0.1113327369093895,-0.09874983876943588,-0.11164842545986176
,,,,,,,,,,,,,,,,,,,,,,,,,,,,,,,
Layer: default_policy/fc_2/kernel,"Shape: (32, 32)",,,,,,,,,,,,,,,,,,,,,,,,,,,,,,
0.14325405657291412,-0.0722360759973526,-0.11527489125728607,-0.17192062735557556,0.012722950428724289,-0.15525878965854645,0.006063053384423256,-0.15614619851112366,0.053417809307575226,-0.016223067417740822,0.19543807208538055,0.34413954615592957,-0.14975611865520477,-0.29967284202575684,-0.1838897317647934,0.10834033787250519,0.24649375677108765,0.03947693854570389,-0.21600119769573212,-0.012662747874855995,-0.020843196660280228,0.063262939453125,0.2559832036495209,-0.00406681839376688,-0.2960665225982666,-0.010776291601359844,0.1172075867652893,-0.100222647190094,-0.05363135784864426,-0.08022743463516235,-0.07104858756065369,0.14886578917503357
0.18628671765327454,-0.1846756935119629,-0.007325353566557169,0.001877552131190896,0.027225680649280548,-0.23896698653697968,0.1940741389989853,-0.10608936846256256,0.31255239248275757,0.05174010992050171,0.14736182987689972,0.15613128244876862,0.16267429292201996,0.05576784536242485,-0.0465693436563015,0.10813266038894653,0.15304900705814362,-0.4219648241996765,0.05353189632296562,-0.14292678236961365,-0.3285518288612366,0.1836942583322525,-0.2032342404127121,-0.34952616691589355,0.08037073910236359,-0.21342870593070984,0.2026069015264511,-0.23341114819049835,0.25962722301483154,-0.23587866127490997,-0.28501054644584656,-0.01830633170902729
0.23281146585941315,0.2899216413497925,0.11323238164186478,0.10300438851118088,-0.43922337889671326,0.04127957299351692,-0.2624475061893463,-0.05607737600803375,-0.20000562071800232,0.18192097544670105,0.26603350043296814,-0.2925296425819397,-0.004177791997790337,0.039743613451719284,0.09424205124378204,-0.09204971790313721,0.12515541911125183,0.333822637796402,-0.09924450516700745,-0.1481870710849762,-0.17631939053535461,0.38263747096061707,-0.012666131369769573,-0.07247453182935715,0.05187470093369484,0.1018139123916626,0.38745713233947754,0.05408034846186638,0.1795736849308014,0.11771978437900543,-0.0009308225126005709,0.037351347506046295
0.11678629368543625,-0.14873121678829193,-0.12018044292926788,-0.23734839260578156,-0.25562089681625366,0.053648341447114944,0.01969502680003643,-0.019540105015039444,0.024050571024417877,0.11976801604032516,-0.012543665245175362,0.16626133024692535,0.037299979478120804,-0.0959625169634819,-0.1771417111158371,-0.191749706864357,0.1559537649154663,0.08092684298753738,-0.1635342389345169,-0.12828940153121948,-0.1571580171585083,-0.00973763968795538,0.11467413604259491,0.18511757254600525,-0.027968879789114,0.05119013413786888,0.028028108179569244,-0.011157172732055187,0.07903911173343658,-0.23296940326690674,0.1620372235774994,0.048498451709747314
0.21261757612228394,0.22938880324363708,0.09555436670780182,0.15109330415725708,-0.01225451659411192,-0.16040870547294617,-0.2410760223865509,0.13238230347633362,0.41307583451271057,-0.3510372042655945,-0.021948879584670067,-0.3541732728481293,-0.08699727803468704,-0.027482638135552406,0.023624714463949203,0.15970295667648315,0.20398080348968506,-0.16613714396953583,0.12549802660942078,-0.1055237278342247,0.16186480224132538,0.11140197515487671,-0.18092389404773712,0.05957106128334999,0.18318766355514526,-0.16755709052085876,0.14602620899677277,-0.16181834042072296,-0.08798569440841675,-0.03368265554308891,-0.2577487528324127,-0.42275577783584595
0.05272078886628151,0.052434779703617096,0.34603774547576904,0.3008846342563629,0.08481328934431076,0.3131512999534607,-0.10328046977519989,-0.15620367228984833,0.03329547122120857,-0.04340742900967598,0.021219778805971146,-0.13076838850975037,-0.18543662130832672,-0.06839869916439056,-0.04432285949587822,0.059148624539375305,0.0305388942360878,0.1045873761177063,-0.006611271761357784,0.011730801314115524,0.18779565393924713,-0.08086228370666504,-0.019751565530896187,0.10181764513254166,0.0708143338561058,-0.13753706216812134,-0.12809103727340698,0.00558830052614212,-0.16534292697906494,-0.07248757034540176,-0.09963800758123398,-0.08970820158720016
-0.13094283640384674,0.2466675341129303,0.015284989960491657,0.3813600242137909,-0.10267560929059982,-0.08961281925439835,0.21320101618766785,0.27504590153694153,-0.04180119186639786,-0.18891985714435577,0.10499276965856552,0.3459847569465637,0.18084652721881866,0.27353453636169434,0.33774206042289734,-0.10605952143669128,0.010718265548348427,-0.15854960680007935,-0.25256842374801636,0.0491412915289402,0.14750325679779053,0.2892589271068573,-0.23045313358306885,0.17149801552295685,0.019654029980301857,0.10990190505981445,-0.04035898298025131,-0.07179218530654907,-0.026174061000347137,0.10914521664381027,0.0009131304104812443,-0.18070049583911896
-0.10626571625471115,0.31933754682540894,-0.02501431666314602,0.20895956456661224,-0.11137622594833374,-0.1331830769777298,-0.017607050016522408,-0.03544814512133598,-0.024628086015582085,0.3007880449295044,-0.1688845455646515,-0.0877116322517395,0.289186030626297,-0.21384672820568085,-0.20826521515846252,0.15155331790447235,0.13508376479148865,0.15700970590114594,-0.2305515855550766,-0.006534764543175697,-0.09751242399215698,0.12247870862483978,-0.03605010360479355,0.053815338760614395,-0.08506432175636292,-0.3548337519168854,-0.13283751904964447,-0.047797441482543945,0.048786357045173645,-0.4148769974708557,-0.4366428554058075,-0.08442104607820511
-0.08808784186840057,0.12161268293857574,-0.012179520912468433,0.355822890996933,0.2675493061542511,-0.09202831238508224,0.11403012275695801,0.24582535028457642,-0.040396202355623245,-0.05277596786618233,0.15248289704322815,0.09525195509195328,0.03114384599030018,0.0581335574388504,-0.14268900454044342,-0.5159003734588623,0.10720901936292648,-0.20979684591293335,-0.13892027735710144,-0.20394453406333923,0.22712117433547974,-0.0363139770925045,-0.14103391766548157,0.3315136730670929,0.19779890775680542,-0.29985952377319336,-0.009828517213463783,-0.17016002535820007,0.24234981834888458,0.5109035968780518,0.17617973685264587,0.12089763581752777
-0.13477542996406555,0.16519929468631744,-0.201290100812912,-0.09209943562746048,0.31349852681159973,-0.05231062322854996,-0.004087397828698158,-0.23135893046855927,-0.1373516321182251,-0.07596145570278168,-0.33698707818984985,-0.15935979783535004,0.11639094352722168,0.11846821010112762,0.16950590908527374,0.11632859706878662,-0.20502522587776184,0.009200794622302055,0.272940456867218,0.01435624249279499,-0.12177807837724686,0.08612740784883499,-0.20119118690490723,-0.15854112803936005,0.14449863135814667,-0.027152925729751587,-0.03393113613128662,0.06278947740793228,0.2683645188808441,-0.08818567544221878,-0.03365446999669075,0.21432405710220337
0.13412784039974213,0.30719974637031555,-0.10280357301235199,-0.12920863926410675,-0.2177349328994751,-0.19357246160507202,0.23708537220954895,-0.26502448320388794,0.3755528926849365,0.04587762802839279,-0.054821014404296875,-0.008155022747814655,0.03457067161798477,-0.1645422875881195,-0.07707922160625458,0.014997728168964386,0.09721887856721878,-0.13558252155780792,-0.18785667419433594,-0.19663119316101074,-0.07882214337587357,0.07944010198116302,-0.07043910771608353,0.05505405366420746,0.06521392613649368,-0.04939880967140198,0.3999462425708771,0.08683723211288452,-0.150303915143013,-0.15211376547813416,-0.40185415744781494,0.08124464005231857
0.04968612641096115,-0.08701562881469727,0.08400427550077438,0.10479170083999634,0.3357810080051422,0.38856321573257446,0.08612269163131714,0.24292363226413727,-0.04361662641167641,0.1410302221775055,-0.33619338274002075,0.08633305132389069,-0.01611465774476528,0.04383489862084389,-0.0017521686386317015,0.08517880737781525,0.01844710484147072,-0.43715202808380127,-0.030228430405259132,0.45131632685661316,0.06358429789543152,-0.2500670254230499,0.04882393032312393,0.26086556911468506,0.13929228484630585,-0.19204199314117432,0.13252364099025726,-0.242408886551857,-0.047340914607048035,0.07273275405168533,0.03426315262913704,0.04097360372543335
-0.2666389048099518,-0.11713329702615738,-0.04633856937289238,0.06799005717039108,0.11537250876426697,-0.31173500418663025,-0.01897367462515831,-0.1792019158601761,-0.11739040166139603,-0.06310329586267471,0.03217914327979088,-0.15221424400806427,-0.3138276934623718,0.24061319231987,0.05140822008252144,-0.07482221722602844,0.050230711698532104,-0.024031639099121094,-0.013375241309404373,-0.1285010725259781,0.028889864683151245,0.05810382962226868,-0.3252979516983032,0.18751464784145355,0.13554751873016357,-0.16168437898159027,-0.13192138075828552,0.07795514911413193,-0.19349053502082825,-0.23697902262210846,-0.07045106589794159,-0.22221854329109192
-0.04268815368413925,0.17473523318767548,-0.2521808445453644,0.08324457705020905,0.07561323046684265,-0.006158568896353245,0.1651666909456253,-0.22071188688278198,-0.00305731687694788,0.06372442841529846,-0.22184200584888458,-0.27037590742111206,0.24971453845500946,0.17984792590141296,-0.3671765923500061,0.06066495552659035,0.20110324025154114,-0.08088574558496475,-0.061245907098054886,-0.2050745040178299,-0.4318290054798126,-0.0031714660581201315,0.1858605444431305,-0.19228315353393555,-0.17094659805297852,-0.2298770397901535,0.010142045095562935,-0.2764032781124115,-0.1603039652109146,0.1735513061285019,0.18946580588817596,-0.18608775734901428
-0.3345702588558197,-0.24991025030612946,-0.41005536913871765,-0.23555177450180054,-0.2943167984485626,0.1313730925321579,-0.11004477739334106,-0.02720617689192295,-0.21723902225494385,0.22464804351329803,-0.15607091784477234,0.10171873867511749,0.039297763258218765,-0.006960744969546795,-0.44301939010620117,-0.04732196405529976,-0.20371213555335999,-0.12247002124786377,0.3427489399909973,-0.06795895099639893,-0.02874203771352768,0.08695956319570541,-0.2066684365272522,-0.071742944419384,-0.006023830268532038,-0.4946935176849365,-0.32838305830955505,-0.04014541953802109,0.15059413015842438,-0.23998716473579407,0.27550989389419556,0.30032965540885925
0.1065448746085167,0.22781462967395782,0.09450196474790573,-0.21540528535842896,0.035987596958875656,0.09306995570659637,-0.0011577883269637823,-0.1483214944601059,0.2533394396305084,0.29033946990966797,-0.2408888190984726,0.08488824963569641,-0.1295660138130188,-0.2353019118309021,-0.14314208924770355,0.31906241178512573,0.15994052588939667,-0.19731485843658447,-0.13752582669258118,-0.21178078651428223,-0.19727925956249237,0.058608606457710266,0.1550779938697815,0.25456976890563965,-0.07767952233552933,0.23294703662395477,0.1689203679561615,0.09454148262739182,0.26102837920188904,-0.10572344809770584,-0.15459395945072174,0.33741000294685364
-0.14684535562992096,0.2257569432258606,-0.22360150516033173,-0.3012911379337311,-0.34407564997673035,0.03859584778547287,-0.08697962760925293,-0.256863534450531,0.050388384610414505,-0.11598837375640869,0.1765582263469696,-0.19807715713977814,0.19596277177333832,-0.3151954114437103,0.27130547165870667,0.08080074936151505,-0.14705437421798706,0.106505386531353,-0.10393662005662918,0.09478842467069626,-0.007385576143860817,0.09874452650547028,0.12224385887384415,-0.33090275526046753,0.011766716837882996,-0.0662824735045433,0.10743890702724457,0.26558053493499756,-0.01027724239975214,-0.019913984462618828,-0.06972160935401917,-0.23949481546878815
0.11970383673906326,0.0028604394756257534,-0.16068926453590393,0.0013260293053463101,0.3492969870567322,-0.23101988434791565,-0.2801719903945923,0.3722669780254364,0.10088030248880386,-0.0018028054619207978,0.0033226150553673506,0.2928239405155182,0.08098575472831726,0.23698964715003967,-0.16471919417381287,-0.11692452430725098,-0.3581964075565338,-0.1507035195827484,-0.22298279404640198,0.28919991850852966,-0.1525830328464508,-0.18885529041290283,0.07782230526208878,0.45692911744117737,-0.19979462027549744,0.029734108597040176,0.06712380796670914,0.09212552756071091,-0.16385380923748016,0.03383556753396988,0.2097669392824173,-0.057435669004917145
-0.11204035580158234,0.10113251209259033,-0.04959410801529884,-0.2350337952375412,-0.165787935256958,0.16767750680446625,-0.11558983474969864,0.3213913142681122,-0.15020370483398438,0.200819730758667,-0.4200686812400818,0.16615451872348785,0.25833413004875183,0.22637879848480225,-0.25284627079963684,-0.35969120264053345,0.07341351360082626,-0.061742112040519714,0.2033345252275467,-0.25155386328697205,0.08383999019861221,0.060110148042440414,0.20424945652484894,0.28197920322418213,-0.39027103781700134,0.22248221933841705,-0.05505412071943283,0.24257443845272064,0.3492344617843628,-0.24071690440177917,-0.12423915416002274,0.40320849418640137
0.23367705941200256,0.3526630699634552,0.0859796553850174,-0.010390670038759708,-0.2054884433746338,0.10603496432304382,0.1279747039079666,0.13768978416919708,-0.0915154293179512,0.19585737586021423,0.27446305751800537,0.013344102539122105,0.39468082785606384,-0.08270509541034698,0.20090709626674652,-0.1438174843788147,-0.17182143032550812,0.22376377880573273,0.10200939327478409,0.04215152934193611,-0.26414841413497925,0.44292551279067993,-0.22548213601112366,-0.10287442803382874,0.09786619991064072,0.01730707474052906,0.04106347635388374,0.0026663157623261213,0.0610542967915535,-0.19936597347259521,-0.41269606351852417,-0.01786726899445057
-0.06704455614089966,0.008582931011915207,0.2401185780763626,-0.1592196673154831,-0.12243128567934036,-0.38901710510253906,0.3215019404888153,0.03810187801718712,-0.046229492872953415,0.11429077386856079,0.13050216436386108,-0.25943446159362793,-0.36974725127220154,-0.20397478342056274,0.1028691828250885,0.024707386270165443,0.10259941965341568,0.07607027888298035,-0.16038720309734344,0.30856961011886597,-0.18456155061721802,-0.04664604738354683,-0.05768311023712158,0.006331956945359707,0.05304821953177452,0.28138211369514465,-0.2748855650424957,0.12969297170639038,-0.03953364118933678,-0.21998481452465057,-0.13533459603786469,-0.23877303302288055
0.08392161130905151,0.2951284945011139,0.18425102531909943,0.0821862518787384,-0.057942625135183334,0.21948711574077606,-0.13271397352218628,-0.15912877023220062,0.07017088681459427,0.30034980177879333,0.08738446980714798,-0.18034525215625763,0.15545853972434998,0.16303814947605133,-0.036103930324316025,0.12377601116895676,-0.03389498591423035,-0.06344359368085861,-0.3322408199310303,0.17922590672969818,0.2526065409183502,-0.2132996767759323,0.03671691194176674,0.08697985112667084,-0.4104948043823242,0.013601813465356827,0.2905079126358032,-0.0009887786582112312,-0.1171378642320633,0.18411366641521454,-0.036237869411706924,-0.10831611603498459
0.019254354760050774,-0.09048575907945633,0.007965758442878723,0.10564883053302765,-0.13035498559474945,0.08470437675714493,-0.09357060492038727,-0.13601809740066528,-0.42594462633132935,-0.16575093567371368,-0.014669911935925484,0.2762376070022583,0.08352530747652054,0.18994084000587463,0.013878267258405685,-0.22457067668437958,-0.04801290109753609,-0.3265322148799896,-0.2590518593788147,0.44315874576568604,0.19198523461818695,-0.17664797604084015,0.14529050886631012,0.12713542580604553,-0.38156259059906006,0.10861434787511826,0.02667880989611149,0.22400733828544617,0.3256647288799286,0.1268983781337738,0.06686358153820038,0.12378067523241043
-0.013545265421271324,0.24479344487190247,0.15053492784500122,0.08536313474178314,-0.08677299320697784,0.10237033665180206,-0.0032348153181374073,-0.09752914309501648,-0.07179373502731323,-0.06861439347267151,0.04332000017166138,-0.10469687730073929,0.34318020939826965,-0.3736095130443573,-0.13601508736610413,-0.15990158915519714,-0.1716475486755371,0.22964254021644592,-0.036917950958013535,-0.24073533713817596,0.26550906896591187,-0.11118406802415848,0.19640766084194183,-0.11928185075521469,0.18510128557682037,0.04404185339808464,0.07678022235631943,0.07533371448516846,-0.15175549685955048,0.02982696332037449,-0.12395825982093811,-0.0682581216096878
0.023608723655343056,-0.01969476044178009,-0.08093924075365067,-0.12545403838157654,0.09228367358446121,0.31725209951400757,-0.2652853727340698,0.29227250814437866,0.022514015436172485,0.13030186295509338,-0.1970420926809311,-0.016303230077028275,0.3879625201225281,-0.008952857926487923,-0.42623722553253174,0.16876085102558136,0.2944130599498749,0.1373526155948639,0.3228387236595154,-0.07905534654855728,-0.043727364391088486,0.09033285081386566,0.036668360233306885,-0.1439003348350525,-0.0747309997677803,0.011579727753996849,0.14643441140651703,-0.38741257786750793,0.2198811024427414,0.09195265173912048,-0.06314214318990707,-0.014410941861569881
0.22913479804992676,-0.057020414620637894,-0.05449715629220009,0.24092070758342743,-0.054866332560777664,0.10788483172655106,0.18202216923236847,0.08526204526424408,-0.06042518839240074,-0.0852312296628952,0.09209209680557251,0.07872559130191803,-0.17330999672412872,0.2719343602657318,-0.11883601546287537,-0.2867964208126068,0.012643175199627876,-0.04518947750329971,0.011019963771104813,0.20013217628002167,-0.046581558883190155,0.06437273323535919,-0.09391705691814423,0.07646531611680984,0.19845984876155853,0.08435095846652985,-0.030256588011980057,-0.1425676941871643,0.06480340659618378,-0.13672034442424774,-0.2079109102487564,0.17251744866371155
0.07947976142168045,0.16083142161369324,0.213983416557312,-0.11882146447896957,-0.17137356102466583,0.0031478400342166424,-0.0038332263939082623,0.21580669283866882,-0.07202170044183731,0.1662863790988922,-0.10321269184350967,-0.024021141231060028,-0.14659665524959564,-0.10651707649230957,-0.03593230992555618,-0.053660258650779724,0.010646462440490723,0.16793207824230194,0.07070145756006241,0.07569956034421921,-0.40875738859176636,-0.02171011082828045,0.0009283918188884854,-0.16484831273555756,-0.07762531191110611,0.1975640058517456,0.21163330972194672,0.12167418003082275,-0.024816785007715225,-0.04293517395853996,-0.052127961069345474,-0.04083767905831337
-0.09846775233745575,-0.2719266414642334,0.10139524191617966,-0.07104849815368652,0.09973679482936859,-0.13678091764450073,0.6424713134765625,0.18892642855644226,-0.4474997818470001,-0.18764285743236542,0.13825979828834534,0.2522609531879425,-0.04362048581242561,0.016636641696095467,0.06620962172746658,0.15321499109268188,0.33521267771720886,-0.10719169676303864,-0.07599609345197678,0.16858987510204315,-0.10103679448366165,-0.61663818359375,-0.32493409514427185,-0.10408797860145569,0.04770549759268761,0.1979237049818039,0.22368814051151276,0.18225444853305817,-0.37115412950515747,0.02703757956624031,0.2113039195537567,-0.06389806419610977
-0.44729164242744446,-0.17799298465251923,0.3129306435585022,-0.21572141349315643,0.1262858808040619,0.018878929316997528,0.030955776572227478,-0.023362819105386734,-0.13174881041049957,0.1838967651128769,0.1669418066740036,0.13758055865764618,0.00015387573512271047,-0.1368248164653778,-0.1356290578842163,-0.01259230263531208,-0.10499942302703857,0.06532511860132217,-0.23768939077854156,0.06710363179445267,-0.07809557765722275,-0.07427111268043518,-0.04898443445563316,0.005433136131614447,0.2946631908416748,0.0851677730679512,-0.036193497478961945,-0.09230328351259232,-0.16983018815517426,-0.09134352207183838,0.06584280729293823,0.13430652022361755
0.22909414768218994,0.12962335348129272,0.08256959170103073,-0.3282105326652527,-0.12260182201862335,-0.20044147968292236,0.04566299170255661,-0.12658913433551788,0.15574760735034943,-0.4146575331687927,-0.2727375328540802,-0.05673394724726677,0.058112770318984985,0.29146578907966614,0.02493138611316681,0.23541270196437836,-0.036694906651973724,-0.08030000329017639,0.20019063353538513,-0.2150842696428299,0.1604769080877304,-0.1383603811264038,-0.20613768696784973,0.05836843326687813,-0.1716899275779724,0.15734267234802246,-0.18686778843402863,0.4608956277370453,-0.00772487185895443,0.21172282099723816,0.016860036179423332,-0.024530598893761635
0.01128963753581047,0.04330702871084213,0.34606698155403137,-0.0721772238612175,0.037372440099716187,-0.1168207973241806,0.04737992212176323,-0.18329229950904846,0.06611309945583344,0.20163950324058533,0.0876554325222969,-0.05122651532292366,0.011609802953898907,0.1388808935880661,-0.03426198288798332,-0.20632880926132202,-0.4233274459838867,-0.11722274869680405,0.18216049671173096,0.1853107213973999,0.016670987010002136,-0.018202275037765503,0.1397620588541031,0.12710414826869965,0.07233234494924545,0.10346424579620361,0.32050642371177673,0.1093759536743164,-0.27570804953575134,0.21131284534931183,0.2902396619319916,-0.20340290665626526
0.37878310680389404,-0.11065808683633804,0.4114478826522827,0.1605851799249649,-0.010263360105454922,0.08239468187093735,0.13989613950252533,0.08416970819234848,0.14970088005065918,0.19010095298290253,-0.07038094103336334,-0.1236620619893074,-0.08482704311609268,-0.02506205253303051,0.02591557614505291,-0.27562519907951355,0.15381187200546265,-0.2538529932498932,-0.14827688038349152,0.1614353060722351,0.1669454574584961,0.06732676178216934,-0.5331094861030579,-0.1823222041130066,-0.0490487776696682,-0.0564759336411953,-0.23564760386943817,-0.15587610006332397,-0.2908933162689209,0.2278817594051361,0.11502943933010101,-0.0665978491306305
,,,,,,,,,,,,,,,,,,,,,,,,,,,,,,,
Layer: default_policy/fc_2/bias,"Shape: (32,)",,,,,,,,,,,,,,,,,,,,,,,,,,,,,,
0.02551991678774357,0.02812274917960167,-0.030444566160440445,-0.03151380270719528,-0.032282982021570206,0.03652409836649895,-0.026259180158376694,-0.020877346396446228,0.03560054302215576,0.036979421973228455,-0.03343241661787033,-0.033283431082963943,0.03353486210107803,-0.028498519212007523,-0.03657439351081848,0.035618022084236145,0.007006966974586248,0.03449595719575882,0.018585573881864548,-0.02682228572666645,-0.03334376588463783,0.020083434879779816,0.022605307400226593,-0.031695153564214706,-0.008140488527715206,-0.027639813721179962,0.027444850653409958,-0.0015020152786746621,0.0369705855846405,-0.025938674807548523,-0.02931034378707409,0.02969578467309475
,,,,,,,,,,,,,,,,,,,,,,,,,,,,,,,
Layer: default_policy/fc_value_2/kernel,"Shape: (32, 32)",,,,,,,,,,,,,,,,,,,,,,,,,,,,,,
-0.22694885730743408,-0.053896673023700714,-0.004051257856190205,0.25624769926071167,0.220862478017807,0.09253520518541336,-0.08217761665582657,-0.19355137646198273,0.10220632702112198,-0.24013274908065796,-0.24173596501350403,0.186220183968544,0.0013224650174379349,-0.20760783553123474,-0.10146832466125488,-0.2521078586578369,-0.14626143872737885,0.03427565470337868,0.14074143767356873,0.4114728271961212,0.18269072473049164,0.0372069887816906,0.2859850227832794,0.34673017263412476,0.16185316443443298,0.0864751860499382,0.4705413281917572,-0.07026346772909164,0.21143904328346252,-0.05394841730594635,0.2538825571537018,-0.23140621185302734
-0.22868500649929047,-0.40095457434654236,-0.3569084405899048,-0.1371839940547943,-0.07239187508821487,0.3595506250858307,0.28164222836494446,-0.08704576641321182,0.3511052131652832,-0.13586139678955078,-0.12189561873674393,-0.1059543564915657,0.11569351702928543,-0.05215885490179062,-0.1817762553691864,-0.25251856446266174,-0.43919312953948975,0.01715211197733879,0.2267361432313919,0.18452531099319458,0.16870270669460297,0.0182358268648386,0.15415452420711517,0.2038935422897339,0.057247601449489594,-0.38949528336524963,0.11282175034284592,0.13724006712436676,0.12769272923469543,-0.08531823009252548,0.0410989411175251,0.11619321256875992
-0.031641341745853424,-0.357959121465683,-0.12931029498577118,-0.1492704451084137,0.2034822553396225,0.14678719639778137,0.11546044796705246,0.008825108408927917,-0.02334805205464363,-0.0387946292757988,-0.12299720197916031,-0.08406201750040054,0.16425162553787231,-0.20840179920196533,-0.3771689832210541,-0.056442394852638245,-0.23222030699253082,-0.2345525324344635,-0.44175633788108826,0.2695675194263458,-0.2621479332447052,0.1270119547843933,0.5038214325904846,0.10796359181404114,0.026848724111914635,0.14471489191055298,0.28643175959587097,0.14172424376010895,-0.09795527160167694,-0.23166972398757935,-0.15082699060440063,-0.4477123022079468
-0.14703693985939026,0.038924992084503174,0.03282130882143974,0.06367361545562744,0.22885829210281372,0.362499862909317,-0.24421750009059906,-0.19492532312870026,0.11147371679544449,-0.36740991473197937,-0.1093650832772255,0.27738556265830994,0.3937999904155731,0.23331503570079803,-0.2115202099084854,0.21331922709941864,-0.21893054246902466,-0.37289702892303467,0.056390468031167984,-0.04790349677205086,-0.17976748943328857,0.057015445083379745,-0.14076004922389984,0.03302806243300438,0.09239822626113892,0.04126635566353798,0.08115915954113007,0.048443760722875595,-0.08194617927074432,-0.007391311693936586,0.047681767493486404,0.09024759382009506
0.0505385659635067,0.10189193487167358,-0.317433625459671,-0.05073968693614006,0.06180013343691826,-0.3495434820652008,-0.2892521619796753,0.20843371748924255,-0.18916106224060059,0.1182921975851059,-0.20571736991405487,-0.19060327112674713,-0.10638604313135147,0.43559733033180237,0.16422055661678314,0.28403303027153015,-0.05739240348339081,0.25133147835731506,-0.022317377850413322,0.0276754442602396,0.16233201324939728,-0.04095825180411339,-0.28892287611961365,-0.29359206557273865,-0.3302048444747925,0.29600614309310913,-0.3982607126235962,0.0134885897859931,-0.12105412036180496,0.09905596077442169,0.02237057127058506,0.31378763914108276
0.048396505415439606,-0.23531733453273773,-0.2917482554912567,0.08144200593233109,0.01845872960984707,0.027639061212539673,0.2287844717502594,-0.15483786165714264,0.059100985527038574,-0.06344279646873474,-0.47313442826271057,0.3226718306541443,0.13914352655410767,-0.4750206470489502,-0.14329692721366882,0.09071037173271179,0.11236345767974854,-0.49161097407341003,0.05070851370692253,0.30145373940467834,0.1560787707567215,-0.1368597000837326,0.14464595913887024,0.2055812031030655,0.12479192763566971,-0.10762940347194672,-0.14420421421527863,0.4250793159008026,-0.1950719952583313,0.09299476444721222,-0.13356448709964752,0.13880573213100433
-0.16275347769260406,-0.008468621410429478,0.02075129561126232,0.055902544409036636,-0.3246317505836487,-0.3137093484401703,0.14836184680461884,0.04270730912685394,-0.07678180187940598,-0.014615565538406372,-0.05156533420085907,0.09383563697338104,0.2777267098426819,-0.26109954714775085,-0.22848084568977356,-0.21294671297073364,-0.2739295959472656,0.15335921943187714,0.48225557804107666,0.16820017993450165,-0.14792579412460327,-0.014514757320284843,0.005075979512184858,-0.01830185018479824,0.1601998209953308,-0.08144339919090271,0.16684359312057495,0.4083501398563385,0.0504189096391201,-0.09320100396871567,0.3548628091812134,-0.39246028661727905
-0.05891969054937363,-0.11001036316156387,-0.2225186824798584,-0.06183008477091789,-0.11472512036561966,0.08717401325702667,0.30799850821495056,-0.378118097782135,-0.04832275211811066,-0.14500556886196136,-0.24671515822410583,0.23863856494426727,0.33317163586616516,-0.20720210671424866,-0.06910216808319092,0.06033170968294144,-0.3325975835323334,-0.32458117604255676,0.11532194912433624,0.13366468250751495,-0.11921321600675583,0.16587072610855103,0.20229314267635345,0.024774054065346718,0.2184438854455948,-0.10227801650762558,-0.010907657444477081,0.01422044076025486,0.1550065577030182,-0.26357683539390564,0.20173271000385284,-0.2178770750761032
-0.23813553154468536,0.057803623378276825,-0.027315977960824966,0.1641332507133484,0.12798763811588287,0.02655445598065853,0.5129762291908264,-0.17169947922229767,-0.043618954718112946,-0.06756128370761871,-0.3577864468097687,0.10918792337179184,-0.218954399228096,-0.21554447710514069,-0.2892720103263855,-0.24226854741573334,0.2247258722782135,-0.3078260123729706,0.2309359759092331,0.2018054723739624,-0.15368668735027313,0.2839721143245697,-0.03098245896399021,0.03569697588682175,-0.07523851096630096,-0.32898733019828796,-0.007825546897947788,-0.08618669956922531,-0.224723681807518,-0.011647159233689308,0.18334417045116425,-0.08502832055091858
0.1477813571691513,0.37870538234710693,0.5066500902175903,-0.4985564649105072,-0.16050706803798676,-0.4193408489227295,0.07085375487804413,0.1417541354894638,-0.19120533764362335,0.23056071996688843,0.009064465761184692,-0.18621036410331726,-0.16028842329978943,0.28544142842292786,0.13374613225460052,0.2473771870136261,0.1802903413772583,0.18987517058849335,-0.1675276756286621,-0.0018374583451077342,0.12685930728912354,-0.3515065312385559,-0.08257075399160385,-0.4227929413318634,-0.11302690953016281,0.4077552258968353,-0.4131397008895874,-0.1519780457019806,-0.0702657550573349,0.2066667526960373,-0.012775142677128315,-0.10049165785312653
0.2089579999446869,0.021541042253375053,0.1871570497751236,-0.07147661596536636,-0.08069656789302826,0.013089402578771114,-0.20814990997314453,-0.07392750680446625,-0.12376945465803146,-0.18081845343112946,0.3383311331272125,-0.19959776103496552,-0.17923368513584137,0.1192004457116127,0.15644203126430511,0.21008972823619843,0.3204706013202667,0.1606772094964981,-0.14267319440841675,0.019359413534402847,0.23369188606739044,-0.319148451089859,-0.32679179310798645,0.02691214717924595,-0.24999669194221497,0.11344964802265167,-0.3284837603569031,-0.1092340499162674,-0.0729677602648735,-0.054637882858514786,-0.28426769375801086,0.213640958070755
0.23775191605091095,-0.007634174078702927,-0.058930449187755585,-0.01592324487864971,-0.2994322180747986,-0.3913488984107971,-0.19375188648700714,0.36080583930015564,-0.5276006460189819,0.2514117360115051,0.025509946048259735,-0.06567753106355667,-0.06855582445859909,-0.0438564196228981,-0.030831024050712585,0.07380519807338715,-0.18171648681163788,0.16164492070674896,-0.12996496260166168,-0.2540350556373596,0.23649436235427856,0.11142246425151825,-0.0363822877407074,-0.22189278900623322,0.05615361034870148,-0.08446745574474335,-0.161492720246315,-0.36211079359054565,-0.39913493394851685,0.26534774899482727,-0.2246054708957672,0.07432851195335388
0.013485909439623356,0.19675779342651367,0.2597603499889374,-0.2961827516555786,-0.3193349540233612,0.14392732083797455,-0.38274267315864563,-0.02533569745719433,0.2499111443758011,0.42600566148757935,0.070343516767025,-0.14840757846832275,-0.12922488152980804,0.0911761149764061,0.3420444428920746,0.13849280774593353,0.36098867654800415,0.11094934493303299,-0.48290565609931946,0.1470295637845993,-0.058373697102069855,-0.45988166332244873,-0.17384843528270721,-0.07022445648908615,0.23902259767055511,-0.07245348393917084,-0.24373839795589447,0.13264524936676025,-0.3113546073436737,0.41242849826812744,-0.10546961426734924,0.0032895253971219063
-0.24124568700790405,-0.0468742661178112,-0.3082961142063141,0.46196866035461426,-0.03622177615761757,0.19005393981933594,0.07748985290527344,-0.464609295129776,0.008527275174856186,-0.4553684890270233,0.042765356600284576,0.17237019538879395,0.3375290036201477,-0.04214496910572052,-0.3264616131782532,-0.46986326575279236,-0.056099601089954376,-0.1844806671142578,0.45922526717185974,0.21721820533275604,-0.0581061914563179,0.01806078478693962,-0.004762081429362297,0.14237910509109497,0.16233836114406586,-0.2630757987499237,0.3723583519458771,0.2337290197610855,0.1223083958029747,-0.2214651107788086,0.2154228240251541,0.09916193783283234
0.10650625824928284,0.07222606241703033,0.05184411630034447,-0.08962862938642502,-0.1624024659395218,-0.12209779024124146,-0.07502681761980057,-0.026131417602300644,-0.1840389519929886,-0.19143518805503845,0.28783392906188965,-0.36870548129081726,0.2080659419298172,0.24558356404304504,0.08885134011507034,0.28260180354118347,0.26902416348457336,0.2694086730480194,0.1303369700908661,-0.185688316822052,0.1909077912569046,-0.21782077848911285,0.15447522699832916,0.12468231469392776,-0.1524200290441513,0.16105492413043976,0.05689437314867973,-0.3263188898563385,-0.20737214386463165,0.15438903868198395,0.26936864852905273,-0.028059890493750572
0.2763996124267578,-0.09948546439409256,-0.3568142354488373,-0.0018646937096491456,-0.0008020379464142025,0.29335108399391174,0.19841770827770233,-0.0954497680068016,0.30526331067085266,0.15285244584083557,-0.255392462015152,-0.01886693388223648,0.04116315767168999,-0.08696480095386505,-0.03245276212692261,-0.003288245527073741,-0.3186544179916382,0.003488717833533883,0.2349439412355423,-0.07964804023504257,-0.4119276702404022,-0.06062483787536621,-0.05740513652563095,0.14507441222667694,-0.21444034576416016,-0.05164720490574837,0.16191112995147705,0.23004885017871857,-0.10400828719139099,-0.14569495618343353,0.25596198439598083,-0.038937974721193314
-0.27528563141822815,-0.16441071033477783,-0.17169927060604095,-0.14355985820293427,0.10397541522979736,0.24189065396785736,0.014900900423526764,0.13052305579185486,0.24381451308727264,0.031704191118478775,-0.11350294202566147,0.36751246452331543,0.12160410732030869,0.12120465189218521,-0.6151410341262817,-0.17323316633701324,-0.24893735349178314,0.00988276768475771,0.0812603235244751,0.09879909455776215,-0.30518829822540283,0.05454070121049881,0.06548193097114563,-0.1185135766863823,-0.17023004591464996,-0.3902645707130432,-0.08352857083082199,0.26464515924453735,0.0701378807425499,0.0941271185874939,0.256792277097702,-0.16393938660621643
0.0623539499938488,-0.08546645194292068,0.052289195358753204,-0.2718936502933502,-0.2727791965007782,-0.08642839640378952,-0.5969424247741699,0.0532228946685791,-0.3453023135662079,0.0021375466603785753,0.09113489836454391,0.15010181069374084,-0.3593616187572479,0.02061080001294613,0.3958311378955841,0.48734843730926514,-0.007255180273205042,-0.21215872466564178,-0.1253889948129654,0.15305480360984802,0.2752586901187897,-0.10010446608066559,0.04707283154129982,-0.2515750229358673,-0.40816253423690796,0.17442697286605835,-0.0677931159734726,0.04584771394729614,-0.12143015116453171,0.33349111676216125,0.17164213955402374,0.3225739598274231
0.13005734980106354,-0.12447241693735123,-0.005179162137210369,-0.1379844844341278,-0.36836209893226624,-0.08735243231058121,-0.14549019932746887,0.15317793190479279,-0.2809518277645111,0.3023831844329834,0.35171979665756226,-0.2042027711868286,-0.3971366584300995,0.2949519455432892,0.34647583961486816,0.324972540140152,0.043535586446523666,-0.03624778613448143,-0.07155444473028183,0.19616161286830902,0.21512912213802338,-0.13116315007209778,0.016541389748454094,0.007434412837028503,0.22705808281898499,0.10530439019203186,-0.06293977797031403,-0.11034140735864639,0.021133657544851303,0.06731182336807251,-0.10170497000217438,0.3578586280345917
-0.033799830824136734,-0.08130640536546707,-0.2636977732181549,0.041531600058078766,0.3204995095729828,-0.039213504642248154,0.13063067197799683,-0.2998194992542267,0.17322319746017456,-0.14168907701969147,0.27695634961128235,0.3807368874549866,0.20361831784248352,-0.47930458188056946,-0.08115167170763016,-0.26470357179641724,-0.1554178148508072,-0.15598651766777039,-0.054395634680986404,0.08134914189577103,-0.38948163390159607,0.26124224066734314,0.406761109828949,0.17566874623298645,0.07454131543636322,-0.11279772967100143,0.20828010141849518,-0.02179902046918869,-0.13908161222934723,0.1240001916885376,0.18384164571762085,-0.042196303606033325
-0.04477488994598389,0.009790233336389065,0.03901153430342674,-0.3166428506374359,-0.048427365720272064,-0.0016809713561087847,-0.14934590458869934,-0.09635007381439209,-0.279538631439209,0.23454467952251434,0.23250693082809448,-0.29546859860420227,-0.13373950123786926,0.04586963728070259,0.09335403144359589,-0.1515348106622696,0.2953868508338928,0.24086976051330566,-0.009757013991475105,-0.2125380039215088,-0.0840245932340622,-0.35782694816589355,-0.11240149289369583,-0.23304283618927002,-0.34692344069480896,-0.04128316044807434,-0.16042429208755493,0.32259640097618103,-0.06380679458379745,-0.08897539973258972,-0.3817332983016968,0.20829392969608307
-0.34397223591804504,0.05008137971162796,0.05460537597537041,-0.06304984539747238,-0.22441944479942322,0.19209493696689606,-0.23398642241954803,0.05816233903169632,0.08948234468698502,0.19634467363357544,0.11409758776426315,0.0385151170194149,-0.32666513323783875,0.2222679853439331,0.28425803780555725,-0.03705378249287605,0.15787149965763092,0.20803247392177582,-0.18606892228126526,-0.28701233863830566,0.3387484848499298,-0.1654469221830368,-0.3397024869918823,-0.043240003287792206,-0.3240124583244324,0.3966525197029114,-0.12171420454978943,-0.36946579813957214,0.044778842478990555,-0.15811516344547272,0.06862237304449081,0.1330435425043106
-0.05627824738621712,-0.2394362837076187,0.04501844197511673,0.02991316094994545,0.210611492395401,0.1108555719256401,-0.143751323223114,-0.3587978482246399,0.28215017914772034,-0.017656056210398674,0.11206323653459549,0.3504631817340851,-0.021957306191325188,0.044812045991420746,0.19749192893505096,0.012355287559330463,-0.21156002581119537,0.0392426997423172,-0.0008703161147423089,0.2402767390012741,-0.280385285615921,-0.030379172414541245,-0.07890688627958298,-0.19875852763652802,-0.07084633409976959,0.08071037381887436,0.3212902843952179,0.371962308883667,0.37296783924102783,-0.262590616941452,0.06746654957532883,-0.03956921398639679
-0.37912121415138245,-0.17481566965579987,-0.1680436134338379,-0.013619408942759037,0.07996691018342972,0.17615555226802826,0.14311833679676056,-0.18864797055721283,0.038453951478004456,0.15017618238925934,-0.08141009509563446,0.2031499445438385,-0.004230308346450329,0.07744081318378448,-0.15222948789596558,-0.07439877837896347,0.02093687281012535,-0.10714542865753174,0.12050238996744156,0.18454653024673462,-0.061981894075870514,0.19412949681282043,0.3655945658683777,-0.17573529481887817,0.19570128619670868,0.022756997495889664,-0.07532879710197449,0.004596416838467121,0.3906651735305786,-0.019083697348833084,0.2222256362438202,-0.2609545886516571
0.1688230037689209,-0.2554306089878082,-0.19114916026592255,0.09138203412294388,-0.24651755392551422,0.06345099955797195,0.01860041357576847,-0.11822080612182617,0.15589763224124908,-0.15465889871120453,0.11930719017982483,0.23874133825302124,0.29585695266723633,-0.41547951102256775,-0.040175650268793106,-0.14636220037937164,-0.34910210967063904,-0.46199527382850647,0.20806275308132172,0.23248721659183502,0.24146009981632233,-0.2504819929599762,-0.12207479029893875,0.3089855909347534,0.1686609834432602,0.3199020028114319,0.01361213717609644,0.14344795048236847,0.16049018502235413,-0.33347654342651367,0.12073295563459396,-0.15209674835205078
-0.08264563977718353,-0.6089392900466919,0.06372194737195969,0.3650178611278534,-0.12892456352710724,0.2053966224193573,0.052054513245821,-0.18219055235385895,-0.16410429775714874,-0.3700270652770996,-0.29645025730133057,-0.2632647454738617,0.3431108593940735,0.002984062535688281,0.009970187209546566,-0.2689162790775299,-0.2620033919811249,-0.05743134394288063,0.07986950874328613,-0.0258927159011364,-0.07565820962190628,0.21140038967132568,0.05436403676867485,0.28997698426246643,0.36658695340156555,-0.05128096416592598,-0.07580453157424927,0.12468601018190384,0.39406564831733704,-0.5671759843826294,0.4152945876121521,0.11899268627166748
0.24800699949264526,0.023881956934928894,0.19556063413619995,-0.5225175023078918,0.016942515969276428,0.11495630443096161,-0.19024863839149475,0.3868216872215271,-0.08359650522470474,-0.011683890596032143,0.20745764672756195,-0.31188225746154785,0.12581880390644073,-0.13609439134597778,0.17769703269004822,-0.0898774266242981,0.031467463821172714,-0.027593465521931648,-0.16024187207221985,-0.0010183227714151144,-0.15399432182312012,0.15785789489746094,0.11660967767238617,-0.23077858984470367,-0.1759335994720459,0.3527509570121765,-0.12113303691148758,-0.032556675374507904,-0.23474270105361938,0.02244485169649124,-0.23371531069278717,0.2246679961681366
0.10748381167650223,0.14969198405742645,-0.15119172632694244,-0.027332240715622902,-0.3965418338775635,-0.020652731880545616,-0.2705013155937195,0.33558741211891174,-0.10164109617471695,0.18532146513462067,0.13060453534126282,-0.12224537134170532,0.13317807018756866,0.1464596837759018,0.3653453290462494,-0.08975877612829208,0.017781008034944534,0.11109698563814163,-0.11677412688732147,-0.18574534356594086,0.0915641114115715,-0.1643659919500351,-0.0466766282916069,-0.34227800369262695,-0.22640345990657806,0.25385719537734985,-0.018077343702316284,-0.02572615258395672,-0.13039913773536682,0.16660970449447632,-0.2483486533164978,0.1463358998298645
0.5305280685424805,0.4144705533981323,0.35489708185195923,-0.11789970844984055,-0.11504945904016495,-0.21349185705184937,-0.05844063311815262,-0.006038019433617592,0.10141614824533463,0.22934556007385254,0.25291967391967773,-0.1023624986410141,-0.0828184261918068,0.060999080538749695,0.18899774551391602,0.25479790568351746,0.012456326745450497,0.2783810496330261,0.18183647096157074,-0.2242821753025055,0.28880783915519714,0.07488889247179031,-0.30790355801582336,-0.4271774888038635,0.029778702184557915,0.06086800992488861,0.16097162663936615,-0.027577074244618416,-0.23132775723934174,-0.21191996335983276,-0.0397089347243309,0.49052292108535767
-0.09686768054962158,0.18838302791118622,-0.2727801203727722,-0.030382832512259483,0.1501629799604416,-0.010575217194855213,0.019233480095863342,-0.3638516664505005,-0.1885107457637787,-0.07687823474407196,-0.23377743363380432,0.2728860676288605,0.36026468873023987,-0.2392929643392563,-0.08801072835922241,-0.07749689370393753,0.14898662269115448,-0.029666977003216743,-0.00040311840712092817,0.5562542676925659,-0.30538588762283325,0.1434796303510666,0.017831934615969658,-0.1228049024939537,-0.04566879943013191,-0.13412252068519592,-0.09049736708402634,0.3356418311595917,0.004982366692274809,-0.08275844156742096,0.3725984990596771,0.14644110202789307
0.34916770458221436,-0.0037828737404197454,0.07287029922008514,-0.12290589511394501,-0.32325392961502075,0.07199306041002274,-0.10099157691001892,0.039874058216810226,-0.18426929414272308,-0.2490517497062683,0.2586389482021332,0.03162264823913574,-0.02896340936422348,-0.008219363167881966,0.3723708689212799,0.2942749559879303,-0.06472331285476685,0.11405399441719055,-0.07005871087312698,-0.2793543338775635,-0.043983835726976395,-0.1215936690568924,-0.23886089026927948,-0.1325192004442215,-0.18512746691703796,0.17393730580806732,-0.2518438696861267,-0.29044535756111145,-0.23287636041641235,0.21287019550800323,0.08523421734571457,0.23939473927021027
0.13441255688667297,0.2893172800540924,0.23140205442905426,0.059604812413454056,0.038426924496889114,-0.18413299322128296,-0.0401691272854805,-0.17562805116176605,-0.14051716029644012,0.21430785953998566,-0.15976576507091522,-0.01690204255282879,-0.05006660148501396,0.17268972098827362,0.04476722329854965,0.06696919351816177,0.0613001212477684,0.31706005334854126,-0.13105016946792603,0.074013352394104,0.09555315971374512,-0.5374664664268494,-0.24491138756275177,-0.32760465145111084,-0.24685746431350708,0.2008206993341446,-0.17878226935863495,-0.22575639188289642,-0.41346853971481323,0.33042213320732117,-0.3420713543891907,0.20337390899658203
,,,,,,,,,,,,,,,,,,,,,,,,,,,,,,,
Layer: default_policy/fc_value_2/bias,"Shape: (32,)",,,,,,,,,,,,,,,,,,,,,,,,,,,,,,
-0.08670906722545624,-0.08627643436193466,-0.08280690759420395,0.08153225481510162,0.08889639377593994,0.10870695859193802,0.08091339468955994,-0.06899534165859222,0.07681121677160263,-0.09236562997102737,-0.08342809975147247,0.07504790276288986,0.06502869725227356,-0.09238429367542267,-0.10119704157114029,-0.07360740005970001,-0.09795746952295303,-0.07427243143320084,0.09037557989358902,0.07978957146406174,-0.06993168592453003,0.09177950024604797,0.09094809740781784,0.07816141098737717,0.08513331413269043,-0.08203256875276566,0.0758139044046402,0.07771007716655731,0.08116555213928223,-0.09067291766405106,0.09625425189733505,-0.08821948617696762
,,,,,,,,,,,,,,,,,,,,,,,,,,,,,,,
Layer: default_policy/fc_3/kernel,"Shape: (32, 32)",,,,,,,,,,,,,,,,,,,,,,,,,,,,,,
-0.3791052997112274,-0.11131475865840912,-0.022239986807107925,-0.2694588899612427,-0.1169135794043541,-0.11211154609918594,-0.04206313192844391,-0.01250950526446104,0.2293981909751892,0.32496461272239685,0.10968304425477982,-0.012231418862938881,-0.15468864142894745,-0.37159237265586853,-0.030384434387087822,-0.01983967237174511,-0.17674382030963898,-0.18064546585083008,0.26622188091278076,-0.0368213877081871,-0.15352052450180054,0.30882498621940613,-0.17374847829341888,0.23156781494617462,-0.06782621145248413,0.15573269128799438,-0.10113029927015305,0.16128896176815033,-0.022203542292118073,-0.11868713051080704,0.2363167256116867,0.20038731396198273
-0.18268293142318726,0.06273443251848221,0.09701044857501984,-0.16534705460071564,0.17220498621463776,0.1849195659160614,-0.004565396811813116,-0.05120660737156868,-0.48991474509239197,0.34706443548202515,0.29435548186302185,-0.0012955786660313606,0.19572749733924866,-0.42062199115753174,-0.026545986533164978,-0.12420932948589325,0.040517743676900864,-0.0820121318101883,0.36758965253829956,0.015658695250749588,-0.3293943405151367,0.06083569675683975,-0.09232775866985321,0.03496318310499191,0.03468700870871544,0.3697192668914795,-0.14290936291217804,0.13796401023864746,0.19921673834323883,-0.008226273581385612,-0.10415512323379517,0.19077971577644348
0.3064289689064026,-0.16553974151611328,-0.2211589813232422,0.030148280784487724,-0.13395248353481293,-0.29435986280441284,0.0034072150010615587,0.0759086087346077,0.2541355788707733,-0.0445895679295063,0.15314647555351257,-0.12928476929664612,0.15258382260799408,-0.0011065165745094419,-0.03097216598689556,0.08805449306964874,-0.1963859349489212,0.12836353480815887,-0.22217026352882385,-0.25911009311676025,-0.10422363877296448,-0.2728118598461151,0.2404855340719223,0.001867567072622478,-0.11335454881191254,-0.04926078021526337,-0.36994287371635437,-0.10157504677772522,0.05640414357185364,-0.19540424644947052,0.15896737575531006,0.07682149857282639
0.18085044622421265,-0.12363412976264954,-0.01640917733311653,-0.06300905346870422,-0.11166176944971085,-0.2067343145608902,-0.027497339993715286,0.19215163588523865,0.4899555444717407,-0.05138891562819481,-0.05480820685625076,-0.24749456346035004,-0.06452967971563339,0.2986748218536377,0.07847966998815536,-0.20689274370670319,-0.14368951320648193,0.3526014983654022,0.008067534305155277,-0.1233089417219162,-0.010122045874595642,-0.2647800147533417,0.1614103615283966,-0.1079811155796051,-0.06554210931062698,-0.33905792236328125,-0.03101542964577675,-0.34911802411079407,0.31863221526145935,-0.07296088337898254,0.15834523737430573,0.2859669029712677
0.27098333835601807,-0.14828218519687653,0.129251629114151,0.3024519979953766,-0.022393539547920227,-0.10293249785900116,-0.09533289074897766,-0.07650203257799149,0.20975588262081146,0.12101024389266968,-0.2884073555469513,-0.008527233265340328,-0.05529988184571266,-0.11872924119234085,-0.14322224259376526,0.09185808151960373,0.32264524698257446,0.3078441917896271,0.02382884919643402,-0.24546018242835999,0.11478922516107559,-0.3947209417819977,0.24446162581443787,-0.16876067221164703,-0.24451985955238342,-0.02816374972462654,-0.3894484043121338,0.23631207644939423,0.04038159176707268,-0.013034330680966377,-0.20062297582626343,0.10091119259595871
0.08786294609308243,-0.002876353682950139,0.07653702795505524,-0.10662531852722168,0.39840567111968994,0.041033364832401276,-0.054534051567316055,0.269528865814209,-0.04959966242313385,-0.0639784038066864,-0.10677887499332428,0.10198520123958588,-0.2963087856769562,-0.22484469413757324,-0.05945504456758499,-0.32731837034225464,0.015124203637242317,0.3480289876461029,0.2334858924150467,0.039152637124061584,0.04782360419631004,-0.07778976857662201,-0.16986115276813507,-0.07886701077222824,0.09026911854743958,-0.1625942885875702,0.18534967303276062,0.22845278680324554,0.2177780419588089,-0.19380848109722137,0.19871243834495544,-0.11511846631765366
-0.1771867871284485,-0.049385569989681244,0.27670925855636597,-0.0650557354092598,0.05460082367062569,-0.1345963478088379,-0.014829282648861408,0.23037025332450867,0.012844434008002281,-0.18123696744441986,-0.08420506119728088,-0.11289205402135849,-0.052104223519563675,-0.08920634537935257,-0.031360775232315063,0.09349226951599121,0.2172553539276123,0.009971394203603268,0.08341020345687866,0.1553197205066681,0.35240909457206726,-0.2991061508655548,0.10444987565279007,-0.6420633792877197,-0.21241015195846558,-0.31967151165008545,0.004772154614329338,-0.006163537502288818,-0.028756799176335335,-0.41110938787460327,0.08218163996934891,-0.14270682632923126
0.02617478370666504,0.10019752383232117,-0.06506915390491486,0.23243515193462372,0.08338244259357452,-0.37310197949409485,0.3999621868133545,0.13147175312042236,0.02638441137969494,-0.35717087984085083,0.044675517827272415,0.017487790435552597,0.17053231596946716,0.20668916404247284,0.13242775201797485,0.13126075267791748,0.21936319768428802,-0.04053144156932831,-0.206091970205307,-0.04823867976665497,0.007941518910229206,-0.17788131535053253,0.08824747800827026,0.1825249344110489,-0.025155669078230858,-0.018075166270136833,0.08772040903568268,-0.18460077047348022,0.004392580129206181,0.265238881111145,-0.38604995608329773,-0.10308825224637985
-0.1812419444322586,0.4575047791004181,-0.06714878976345062,-0.04926015064120293,0.036121755838394165,0.1330021619796753,0.12372976541519165,0.1201009452342987,0.09000375121831894,0.05970582738518715,0.046711862087249756,-0.21033990383148193,0.13180868327617645,0.20778688788414001,-0.39837032556533813,-0.34587833285331726,-0.11580787599086761,-0.04963622987270355,0.037319011986255646,-0.055824123322963715,0.23385262489318848,0.03499317541718483,0.25228387117385864,0.3260197937488556,0.09920990467071533,0.15560606122016907,0.1351013332605362,-0.09343639761209488,0.1936381757259369,0.11467837542295456,0.0640375092625618,-0.06426683813333511
-0.11255035549402237,0.05953184887766838,0.06753991544246674,0.05561647564172745,-0.05508818104863167,-0.15599647164344788,-0.29367396235466003,-0.022917890921235085,-0.3567396402359009,0.20360708236694336,0.2700845003128052,-0.248942568898201,0.053225353360176086,-0.2814587652683258,-0.2767106890678406,-0.3859899640083313,-0.35462355613708496,-0.24001963436603546,0.029336854815483093,0.33740586042404175,0.019692042842507362,0.20836105942726135,-0.11187587678432465,0.10511300712823868,0.19006061553955078,-0.1444425731897354,0.25692030787467957,-0.07490662485361099,-0.07840355485677719,-0.16082149744033813,0.08655327558517456,-0.1199347972869873
0.018398752436041832,-0.375842809677124,0.08583828806877136,0.115306057035923,0.04751021787524223,-0.196772962808609,-0.01348224189132452,0.1506698578596115,0.0133893471211195,-0.19548183679580688,-0.10497342050075531,-0.14029979705810547,-0.04942573606967926,0.32750698924064636,-0.0933528020977974,0.19784477353096008,0.16071820259094238,-0.06238909438252449,-0.08326874673366547,0.20050333440303802,0.2471974790096283,0.16542568802833557,-0.023539910092949867,0.018522923812270164,0.0032679217401891947,-0.14256711304187775,0.21943578124046326,-0.04432891309261322,0.12482601404190063,0.024958083406090736,-0.33637648820877075,-0.12373070418834686
0.30664733052253723,-0.021374931558966637,0.36388087272644043,0.2364073544740677,-0.09327876567840576,-0.2069319784641266,-0.18093793094158173,0.3711627125740051,-0.07769494503736496,0.02494417130947113,-0.05715534836053848,-0.15432138741016388,-0.3354804813861847,0.051381636410951614,0.13616470992565155,0.04894108697772026,-0.02026558108627796,0.09148087352514267,0.05285065993666649,-0.15121616423130035,0.12086717039346695,0.02480071224272251,0.34528371691703796,0.030206292867660522,-0.10828299075365067,-0.49274012446403503,0.19575025141239166,-0.1382945328950882,-0.21666646003723145,-0.2328699678182602,-0.15994037687778473,0.06931488960981369
-0.05341937392950058,0.1538459211587906,-0.035963885486125946,0.2708609402179718,0.062057193368673325,-0.0989091768860817,-0.07186053693294525,0.04874580726027489,-0.13327805697917938,0.3851065933704376,0.24685873091220856,0.39034757018089294,-0.11579789966344833,-0.0474553182721138,-0.14362937211990356,-0.20504230260849,-0.014212430454790592,-0.22669731080532074,0.07092449814081192,0.0006049181101843715,-0.07344034314155579,0.29443687200546265,-0.16014474630355835,0.0597066730260849,0.07217907160520554,0.12950879335403442,0.3243647813796997,0.3273829221725464,0.06995004415512085,0.12517081201076508,0.1097627729177475,-0.10190115123987198
-0.18471811711788177,-0.15358170866966248,0.04370727017521858,0.10336644947528839,-0.23120300471782684,-0.1277090162038803,-0.24025028944015503,-0.46883004903793335,-0.1155499666929245,-0.09143031388521194,0.24082061648368835,-0.39461013674736023,0.004475763998925686,0.09950478374958038,-0.028629709035158157,-0.23637612164020538,-0.19394458830356598,0.22726401686668396,0.054307110607624054,-0.2533164620399475,0.3696267306804657,-0.18159529566764832,0.10753645747900009,0.17441175878047943,-0.16540542244911194,-0.18489253520965576,-0.18505339324474335,0.058387838304042816,-0.24410979449748993,-0.1499798595905304,-0.26763421297073364,0.032891325652599335
-0.06152031198143959,0.16510988771915436,0.185479074716568,0.04582962393760681,-0.1536933332681656,0.013812381774187088,0.2289511114358902,0.1501983255147934,0.32796430587768555,-0.21265318989753723,0.2602093517780304,-0.08251746743917465,0.021856101229786873,-0.012369753792881966,0.4110930860042572,0.2534768283367157,-0.11562340706586838,0.31878921389579773,-0.095468670129776,-0.11051767319440842,0.411679208278656,-0.04003698751330376,0.14341773092746735,0.019110355526208878,-0.05687345564365387,-0.037659019231796265,-0.0800979882478714,0.2177811861038208,-0.010229556821286678,-0.20741374790668488,-0.12571565806865692,0.4444096088409424
-0.14218968152999878,0.14781609177589417,-0.01862580142915249,0.12396030873060226,0.2060374766588211,0.15331435203552246,-0.23975729942321777,0.07216776907444,-0.12560439109802246,0.03434832766652107,0.008883890695869923,0.04702730104327202,0.3563741445541382,-0.01921265386044979,-0.049158304929733276,-0.06766664236783981,-0.09372225403785706,-0.14497235417366028,0.46094584465026855,0.1317201852798462,0.000460491341073066,0.358346551656723,-0.057646363973617554,0.1091231033205986,0.13823017477989197,0.04763120040297508,-0.16930408775806427,0.033603426069021225,0.2821921408176422,-0.013066106475889683,0.1410011351108551,-0.29465118050575256
-0.23395413160324097,-0.13158193230628967,-0.27809134125709534,0.21148420870304108,-0.00805733259767294,-0.05366971716284752,0.11422630399465561,0.1232462152838707,0.29671749472618103,0.12084577232599258,0.5444390177726746,-0.09468316286802292,0.24209682643413544,-0.05028408393263817,-0.05651957914233208,-0.012140205129981041,-0.11230622977018356,0.07999078929424286,-0.13058140873908997,0.23026694357395172,0.00351381441578269,0.15176653861999512,-0.10162026435136795,-0.06704134494066238,0.12681464850902557,0.12431757152080536,-0.036526456475257874,0.08391588926315308,-0.032135359942913055,-0.21757657825946808,0.16512717306613922,-0.009789187461137772
-0.1978672742843628,0.17572103440761566,-0.3105546534061432,-0.2792912721633911,0.39646729826927185,0.007934829220175743,0.047665074467659,0.11022792011499405,0.07643824070692062,-0.05522407963871956,-0.014208984561264515,0.03933969512581825,0.09093334525823593,0.25125303864479065,-0.2715774476528168,0.2003021240234375,0.04684830084443092,0.06689231842756271,-0.2039911150932312,-0.1750270426273346,-0.10718022286891937,-0.14219869673252106,-0.13575497269630432,0.097592793405056,0.4745258688926697,0.0012402187567204237,0.07577937096357346,0.1789717972278595,0.18327751755714417,0.1686450093984604,0.21043036878108978,-0.5616068243980408
-0.15948320925235748,-0.05901210382580757,0.14247001707553864,0.217065691947937,0.15363240242004395,-0.26610812544822693,-0.18150363862514496,-0.008193026296794415,0.0029567780438810587,-0.2474047988653183,0.02862519398331642,-0.029172824695706367,0.25002509355545044,-0.12879133224487305,-0.12271033972501755,0.2418222427368164,-0.31509459018707275,-0.2129298448562622,-0.009657406248152256,0.040797047317028046,-0.15956728160381317,0.028651680797338486,0.08091668784618378,0.08705325424671173,0.17330211400985718,-0.10154648125171661,-0.02428462728857994,0.43818625807762146,0.3747642934322357,0.08638576418161392,0.05778219923377037,-0.07906673848628998
-0.027614707127213478,-0.08251214027404785,0.23722054064273834,0.3005674481391907,-0.26697325706481934,-0.08434969186782837,0.08662428706884384,-0.08920902758836746,0.0769677385687828,-0.1522478312253952,-0.20689977705478668,-0.2554304301738739,-0.11167304962873459,0.238362118601799,-0.007189988158643246,0.11861290782690048,0.17336347699165344,0.3002888560295105,-0.13227680325508118,-0.24248740077018738,0.5058987140655518,0.2310674786567688,-0.07212404906749725,-0.09605013579130173,-0.1446714997291565,0.2032477706670761,-0.11829765141010284,-0.2610667645931244,0.023491159081459045,-0.015260323882102966,-0.15412507951259613,0.1288120299577713
0.1793002486228943,0.24513974785804749,0.03582179173827171,0.43583858013153076,-0.258931040763855,-0.049497220665216446,-0.0034430879168212414,0.12074299901723862,0.19963397085666656,-0.21066804230213165,-0.1084049642086029,-0.24896042048931122,0.0887749120593071,-0.07647824287414551,-0.21419398486614227,0.060472603887319565,0.08120566606521606,0.19095632433891296,-0.27048519253730774,-0.5107759833335876,0.1112997829914093,-0.007460830267518759,-0.053593676537275314,-0.25736507773399353,-0.2399650514125824,-0.20018020272254944,0.06513171643018723,-0.25694724917411804,-0.3911958336830139,0.025017647072672844,-0.15205194056034088,-0.1548348218202591
-0.009451137855648994,-0.15063108503818512,-0.2364010214805603,-0.0447591133415699,-0.22888077795505524,0.246172696352005,-0.32574912905693054,-0.3398091197013855,-0.08860626071691513,0.2545151114463806,0.10619888454675674,-0.0836104229092598,0.1353587806224823,-0.2206754833459854,-0.16262656450271606,0.13145361840724945,-0.028711343184113503,0.03250599279999733,0.0851476863026619,0.3253058195114136,0.018163900822401047,0.12355031073093414,-0.19768905639648438,0.13606300950050354,0.49378615617752075,0.13805964589118958,-0.06702190637588501,0.15323129296302795,0.046803656965494156,0.06481355428695679,0.11006525158882141,0.11887925863265991
-0.21247562766075134,-0.06208833307027817,0.09008276462554932,-0.1587100476026535,0.20432211458683014,0.02615254931151867,-0.09599307924509048,-0.2501237094402313,-0.1597214937210083,-0.03204413875937462,-0.14918644726276398,-0.10154331475496292,0.16034090518951416,0.1334562748670578,0.021913880482316017,-0.2931978404521942,-0.3287219703197479,0.16854174435138702,0.08358847349882126,0.22405311465263367,-0.06425628811120987,-0.16968445479869843,-0.4397924244403839,0.054534316062927246,-0.19319476187229156,0.01192342210561037,-0.08978904783725739,0.33389997482299805,-0.046912673860788345,0.07422730326652527,0.22864358127117157,0.028378106653690338
-0.1062227338552475,-0.08783320337533951,-0.003976665437221527,0.13143450021743774,-0.2850162982940674,-0.3288154602050781,0.20920880138874054,0.14311859011650085,0.05667301267385483,-0.060806360095739365,-0.2185973823070526,0.0250457301735878,-0.22907806932926178,0.1242208182811737,-0.0774654969573021,0.2738198935985565,-0.09358250349760056,0.0022988987620919943,-0.3219987452030182,0.1504913568496704,0.03588027134537697,-0.21084943413734436,0.1600719392299652,-0.04133978113532066,-0.06792864948511124,-0.08199553191661835,-0.18294042348861694,-0.03946780040860176,-0.25881242752075195,0.10454225540161133,0.3313765227794647,0.15260230004787445
-0.2924024164676666,-0.2965076267719269,-0.16232696175575256,0.023657415062189102,0.007266229018568993,0.25037309527397156,-0.022279370576143265,0.1340809017419815,0.0018000733107328415,-0.14162380993366241,0.20180629193782806,0.036241210997104645,-0.30754178762435913,0.03302010893821716,0.1624927967786789,-0.11055713891983032,-0.04313851147890091,-0.09256920218467712,0.033405039459466934,-0.19989535212516785,0.2102586179971695,0.14836235344409943,0.08152046799659729,-0.03765658661723137,-0.23160415887832642,-0.29276424646377563,-0.1591874212026596,0.18731577694416046,0.1067533791065216,-0.34568357467651367,-0.19079172611236572,0.034456491470336914
0.42080989480018616,-0.28277090191841125,-0.02107587270438671,-0.03576786443591118,-0.0851433277130127,-0.06725534051656723,-0.10368435829877853,-0.1272406429052353,-0.036927610635757446,0.09958971291780472,-0.05974947288632393,0.35872235894203186,-0.38338303565979004,-0.10666537284851074,-0.37847328186035156,-0.01872009038925171,0.09882599115371704,-0.04769216850399971,0.055332668125629425,0.11720246821641922,-0.18857412040233612,-0.14944051206111908,0.3232884109020233,0.07570508867502213,0.12274479866027832,-0.052309539169073105,-0.27712106704711914,-0.09354002773761749,-0.036217499524354935,-0.39994803071022034,-0.15939314663410187,0.17852452397346497
-0.09957250207662582,0.09117826074361801,-0.12774109840393066,0.008231683634221554,-0.3559924364089966,-0.15744628012180328,-0.2996829152107239,0.038718659430742264,-0.019685236737132072,0.34640663862228394,0.300489604473114,0.4501814842224121,-0.003175753401592374,0.036638353019952774,0.14567746222019196,-0.27209413051605225,-0.35267120599746704,0.10690154880285263,0.15199385583400726,-0.0374283529818058,-0.18332317471504211,0.10787591338157654,-0.25609713792800903,0.1486622393131256,0.12247351557016373,-0.23707500100135803,-0.22034606337547302,-0.11103900521993637,-0.05915568768978119,0.16400451958179474,-0.18839509785175323,-0.2134254276752472
-0.08443638682365417,-0.07703521847724915,0.3864561915397644,0.19749771058559418,0.2079610973596573,-0.05785734951496124,0.05776892602443695,-0.1959177702665329,-0.1158093586564064,0.19724130630493164,-0.23252204060554504,0.1560836285352707,-0.21951605379581451,-0.16664104163646698,0.013529806397855282,-0.1024743840098381,-0.08332370966672897,0.3047446012496948,0.4277557134628296,-0.13015949726104736,0.022336140275001526,-0.03799162432551384,-0.153503879904747,-0.3439600467681885,-0.07145525515079498,0.049135711044073105,0.17216141521930695,0.15056777000427246,-0.021118197590112686,-0.20121343433856964,0.08808320760726929,0.3175842761993408
-0.228890523314476,-0.07503665238618851,-0.17540304362773895,0.32067781686782837,-0.037323761731386185,-0.11751606315374374,0.11485359817743301,0.2334122508764267,0.03686671704053879,-0.0334320142865181,0.0638270378112793,-0.06865210086107254,0.24273324012756348,-0.09388657659292221,-0.03535299375653267,-0.29219549894332886,-0.4267898201942444,0.1439054161310196,-0.08187106996774673,0.00698845274746418,0.18852797150611877,0.29333317279815674,0.3565281629562378,0.17444847524166107,0.26351067423820496,0.07839899510145187,0.2632553279399872,-0.020771032199263573,0.12956109642982483,0.2576900124549866,0.32474249601364136,-0.0728161558508873
0.17581568658351898,-0.23800623416900635,-0.009262017905712128,0.16742023825645447,0.2016036957502365,-0.3519115149974823,0.48604586720466614,0.22111988067626953,0.0626482293009758,-0.06997032463550568,-0.09401354938745499,-0.1402057260274887,-0.10574071854352951,0.263467013835907,0.18628491461277008,0.034069083631038666,-0.22977417707443237,0.24973005056381226,-0.2216339260339737,0.016530267894268036,-0.04905305057764053,-0.03586549684405327,0.24025733768939972,-0.10302344709634781,0.10094096511602402,-0.26829686760902405,-0.1316053867340088,-0.04490942880511284,0.3949951231479645,0.050971418619155884,0.08444514125585556,0.06853923946619034
-0.07114112377166748,-0.47742247581481934,0.5363866090774536,0.22684651613235474,-0.1914851814508438,0.17615236341953278,0.3461197316646576,-0.07151786983013153,-0.042690739035606384,-0.12444672733545303,-0.06727799773216248,0.026777105405926704,-0.2647321820259094,-0.11407928913831711,0.45355144143104553,0.026658911257982254,0.05928930640220642,0.05271770805120468,-0.11822392791509628,0.03119102492928505,0.06460486352443695,-0.1832447350025177,0.05122527852654457,-0.3786354959011078,0.32558539509773254,-0.22754055261611938,-0.13745248317718506,-0.0744171068072319,-0.2221900075674057,-0.3303773105144501,-0.12748031318187714,-0.13498185575008392
0.014132248237729073,0.14352746307849884,-0.04422946274280548,-0.11123231053352356,-0.022553835064172745,-0.29943931102752686,-0.0535433255136013,0.08024686574935913,-0.10097187757492065,-0.2590581774711609,-0.007400073576718569,0.05785504728555679,-0.1408827155828476,-0.15817303955554962,-0.25323036313056946,0.08161361515522003,0.12675058841705322,-0.26327550411224365,0.10060253739356995,0.2920975387096405,0.0941469594836235,0.0381651408970356,-0.16488294303417206,0.24778114259243011,0.2692283093929291,0.17249710857868195,-0.12825638055801392,-0.2209864854812622,0.23525415360927582,0.22640332579612732,0.28716444969177246,0.01630496233701706
,,,,,,,,,,,,,,,,,,,,,,,,,,,,,,,
Layer: default_policy/fc_3/bias,"Shape: (32,)",,,,,,,,,,,,,,,,,,,,,,,,,,,,,,
-0.03114338032901287,0.040452711284160614,-0.03349339962005615,-0.035351820290088654,0.03522704169154167,0.03704417124390602,-0.030997976660728455,0.011028613895177841,-0.03608430176973343,0.024505771696567535,0.04146555811166763,0.040830086916685104,0.029552236199378967,-0.03656310215592384,-0.0399818941950798,-0.04000386595726013,-0.04052169993519783,-0.02852735109627247,0.03182153031229973,0.03101416677236557,-0.03055850975215435,0.027859047055244446,-0.02719760499894619,0.025135362520813942,0.023893799632787704,0.02191239781677723,0.048714280128479004,0.0290820375084877,0.046055711805820465,0.038845255970954895,0.0355573408305645,-0.045571766793727875
,,,,,,,,,,,,,,,,,,,,,,,,,,,,,,,
Layer: default_policy/fc_value_3/kernel,"Shape: (32, 32)",,,,,,,,,,,,,,,,,,,,,,,,,,,,,,
0.10188393294811249,-0.18169206380844116,-0.052764032036066055,-0.18264026939868927,-0.2683700621128082,0.1714707463979721,-0.21193671226501465,0.11256839334964752,-0.575866162776947,0.14379212260246277,0.04363593831658363,0.03207053616642952,-0.028271308168768883,-0.4641452431678772,-0.04878944903612137,-0.08938906341791153,0.06879542768001556,0.07284905761480331,0.03282661363482475,-0.1406821459531784,0.009628310799598694,0.2752193212509155,-0.11348603665828705,-0.06373711675405502,0.05439198017120361,-0.40370407700538635,-0.09727870672941208,0.16269132494926453,0.09446170926094055,-0.21578675508499146,-0.39570152759552,0.057239752262830734
0.10461821407079697,-0.045203112065792084,0.26764506101608276,-0.3270855247974396,-0.06140929087996483,-0.16603736579418182,-0.28745007514953613,-0.236018568277359,-0.2506260275840759,0.10334239155054092,0.3713446259498596,0.10514836013317108,0.2554839551448822,-0.34305861592292786,-0.11077169328927994,-0.2640008330345154,-0.21943536400794983,0.18734100461006165,-0.08951783925294876,0.12453219294548035,0.08892638981342316,0.3023900091648102,0.2991580069065094,-0.14492066204547882,-0.09842477738857269,-0.2771180272102356,-0.2925374209880829,0.3663803040981293,0.121680848300457,0.12086261063814163,-0.31666237115859985,-0.10156146436929703
-0.12873989343643188,0.017057206481695175,0.3383774757385254,-0.12691929936408997,0.05302566662430763,0.38992762565612793,-0.03491627797484398,0.2407044619321823,-0.02117343619465828,0.32082071900367737,0.07646636664867401,-0.2111002504825592,0.36248162388801575,-0.36869919300079346,-0.2983401417732239,-0.19074159860610962,-0.2672588527202606,0.4545702040195465,-0.02964361198246479,-0.25254714488983154,-0.14833085238933563,0.24550797045230865,0.4766470789909363,-0.11112816631793976,0.4153927266597748,-0.3586256206035614,-0.2754170000553131,-0.48063361644744873,0.15880437195301056,-0.3163565993309021,-0.36043381690979004,-0.03283904865384102
-0.15771915018558502,0.5989607572555542,-0.19277752935886383,0.08406467735767365,0.11723034083843231,-0.0729142501950264,0.3450104296207428,-0.454935759305954,0.18323518335819244,-0.42119982838630676,-0.14638718962669373,-0.19546017050743103,-0.032229337841272354,0.03310328722000122,0.02154715545475483,-0.03356778249144554,0.24431827664375305,-0.05295730382204056,0.10468020290136337,0.1280546933412552,0.15681931376457214,-0.013279947452247143,-0.3641740083694458,0.2190425544977188,-0.11395947635173798,0.2028091847896576,0.3078312873840332,-0.18379956483840942,-0.22884713113307953,0.08904058486223221,0.21883471310138702,-0.2545540928840637
0.019982408732175827,0.21669860184192657,0.008858639746904373,0.07565829157829285,0.01797817461192608,-0.18672512471675873,0.200789675116539,-0.37759435176849365,0.04534477740526199,-0.4548753499984741,-0.09976273030042648,-0.0540543869137764,-0.3630419075489044,-0.00884599145501852,0.11079797893762589,0.3426734209060669,0.1901683509349823,0.03590799495577812,-0.286758691072464,0.2290867269039154,-0.03225937485694885,0.17320516705513,-0.09102528542280197,0.06048402190208435,-0.09361480921506882,0.2250034362077713,0.4210275411605835,-0.14417676627635956,-0.5237800478935242,0.05717004835605621,0.10103128105401993,-0.12132212519645691
0.05688564479351044,0.19113844633102417,-0.19827984273433685,0.24641849100589752,0.11451687663793564,0.09085352718830109,0.11191888153553009,0.166046604514122,-0.04659814015030861,-0.15551526844501495,0.13804695010185242,-0.2592611312866211,-0.13333946466445923,0.10448701679706573,-0.18342112004756927,0.10691758245229721,0.41585850715637207,0.009751238860189915,-0.09800536185503006,0.027826547622680664,0.16621233522891998,0.21377991139888763,-0.47977161407470703,0.3674579858779907,-0.4622308313846588,0.1459970772266388,0.28641384840011597,-0.2561132311820984,-0.3344966769218445,0.22215422987937927,0.2929517924785614,-0.3347072899341583
-0.27500098943710327,0.1671660989522934,-0.081925168633461,0.13497686386108398,-0.13713766634464264,-0.15244844555854797,0.12269776314496994,-0.08828239887952805,0.1156536266207695,-0.10978209227323532,-0.3611719608306885,-0.5008473992347717,-0.4294256269931793,-0.06778688728809357,-0.0019688496831804514,-0.07843555510044098,-0.027614641934633255,-0.1964801400899887,-0.17618781328201294,0.17340032756328583,0.06312394887208939,-0.13492214679718018,0.0029424908570945263,0.17193050682544708,-0.2730947434902191,0.18373899161815643,0.18802277743816376,-0.032986126840114594,-0.00580174382776022,0.30964937806129456,0.14185431599617004,-0.24783559143543243
0.3520450294017792,-0.07875987887382507,0.07953385263681412,-0.018923118710517883,-0.22530384361743927,0.28766000270843506,-0.15895438194274902,0.24959073960781097,-0.24103188514709473,0.2808142900466919,0.2291325032711029,-0.05376572161912918,-0.08973920345306396,0.1706959754228592,-0.1295071393251419,-0.42286568880081177,-0.21264144778251648,0.21412691473960876,0.16946813464164734,-0.09285348653793335,-0.13378237187862396,0.14611771702766418,0.31453725695610046,-0.25082242488861084,-0.05580984055995941,-0.049734167754650116,-0.07959090918302536,0.07899884134531021,0.15122175216674805,-0.2725169360637665,-0.31424954533576965,0.1203344538807869
-0.4224046766757965,0.18174214661121368,-0.32530486583709717,-0.11632762104272842,0.2762329876422882,-0.5352955460548401,0.20537123084068298,-0.2655271291732788,-0.02297174371778965,-0.30869874358177185,-0.1721695214509964,-0.325143039226532,-0.217537522315979,0.2733607888221741,-0.08244213461875916,0.35148167610168457,0.3312995731830597,-0.6001161336898804,-0.2652808427810669,0.4714645743370056,0.2620707154273987,-0.2112707793712616,-0.2337394803762436,0.1429288536310196,-0.01841537095606327,0.09065216034650803,0.23537041246891022,-0.26962557435035706,-0.18823517858982086,0.12136504054069519,0.064275823533535,-0.10860005021095276
0.312065988779068,-0.37375617027282715,0.09610907733440399,-0.39540398120880127,-0.13533757627010345,0.06322451680898666,-0.21163664758205414,0.2163599282503128,-0.2219609022140503,-0.0015732771717011929,-0.0037759810220450163,-0.025097768753767014,0.052842020988464355,-0.12166900187730789,-0.3924715518951416,0.10214657336473465,-0.3464333415031433,0.2433752566576004,0.23665373027324677,-0.29740211367607117,0.022312132641673088,0.24723055958747864,0.01715163141489029,0.02249971218407154,0.008313027210533619,0.32478874921798706,-0.4955913722515106,0.4677022397518158,0.45541438460350037,-0.07442263513803482,-0.4043997824192047,0.20714689791202545
0.18283092975616455,-0.08771307021379471,0.2910104990005493,-0.2245730459690094,-0.26872995495796204,0.09012797474861145,0.043908149003982544,0.12702929973602295,-0.38970881700515747,0.4441088140010834,0.1181596964597702,0.051793914288282394,0.0006980749312788248,-0.4446006119251251,-0.3934333324432373,-0.21987484395503998,-0.3397005498409271,-0.036835670471191406,0.36654865741729736,-0.34457892179489136,-0.03404933959245682,-0.034614045172929764,0.288404256105423,0.05329485237598419,0.18544337153434753,0.05296943709254265,0.3211551010608673,0.10499434173107147,0.1443316787481308,-0.1809941679239273,-0.05927394703030586,0.10248489677906036
-0.025509901344776154,-0.0594453439116478,-0.20692674815654755,0.2393764704465866,0.2901017665863037,-0.0810643881559372,0.09019005298614502,-0.11059749871492386,0.2599260210990906,-0.22544512152671814,-0.11632480472326279,-0.4119657576084137,-0.21960945427417755,0.1462506651878357,0.3536826968193054,0.3030708134174347,0.17781880497932434,-0.0169132761657238,-0.038550034165382385,0.29525527358055115,0.29105135798454285,-0.09378253668546677,-0.3322490155696869,0.21082137525081635,-0.23562803864479065,0.1747012734413147,0.2763183116912842,-0.42895275354385376,0.002889410825446248,-0.12869997322559357,-0.2881297469139099,0.037130728363990784
-0.20950818061828613,0.2163095474243164,-0.2434232532978058,0.06859809160232544,0.19656211137771606,-0.24113497138023376,0.001815882045775652,-0.11877506971359253,0.0958370640873909,-0.2630908191204071,-0.08966568857431412,-0.3113071024417877,-0.035367973148822784,0.4444563388824463,-0.15806351602077484,-0.20542070269584656,-0.00016392342513427138,-0.3906872868537903,-0.21188433468341827,0.1127958670258522,0.5812926888465881,0.09729528427124023,-0.06863731890916824,0.5300194025039673,-0.5158646702766418,0.42398199439048767,0.10895829647779465,-0.0911286473274231,0.020043237134814262,0.14677786827087402,0.31177234649658203,-0.4092928469181061
0.7283662557601929,-0.2599712610244751,0.37768128514289856,-0.2936924397945404,-0.20692363381385803,0.13880020380020142,0.1642560064792633,0.2599574029445648,-0.148041769862175,0.1747470647096634,0.15093781054019928,0.04895046353340149,0.09768923372030258,-0.04731447249650955,-0.13087433576583862,0.09832804650068283,-0.21856474876403809,0.1374143660068512,0.184335857629776,-0.28604868054389954,0.03776087239384651,0.2867147624492645,0.1995391696691513,0.041643254458904266,-0.04437486454844475,-0.12729614973068237,-0.03816193714737892,0.47961798310279846,-0.22101008892059326,-0.4196245074272156,-0.1498919576406479,0.23694084584712982
